{"learner":{"attributes":{"best_iteration":"197","best_score":"0.5006803481937336"},"feature_names":["MA50_XOM","EMA20_XOM","RSI_XOM","upper_bb_XOM","lower_bb_XOM","ATR_XOM","MACD_XOM","MACD_signal_XOM","ADX_XOM","StochK_XOM","StochD_XOM","CCI_XOM","WilliamsR_XOM","close_XOM_lag1","close_XOM_lag2","close_XOM_lag3","close_XOM_lag4","close_XOM_lag5"],"feature_types":["float","float","float","float","float","float","float","float","float","float","float","float","float","float","float","float","float","float"],"gradient_booster":{"model":{"gbtree_model_param":{"num_parallel_tree":"1","num_trees":"208"},"iteration_indptr":[0,1,2,3,4,5,6,7,8,9,10,11,12,13,14,15,16,17,18,19,20,21,22,23,24,25,26,27,28,29,30,31,32,33,34,35,36,37,38,39,40,41,42,43,44,45,46,47,48,49,50,51,52,53,54,55,56,57,58,59,60,61,62,63,64,65,66,67,68,69,70,71,72,73,74,75,76,77,78,79,80,81,82,83,84,85,86,87,88,89,90,91,92,93,94,95,96,97,98,99,100,101,102,103,104,105,106,107,108,109,110,111,112,113,114,115,116,117,118,119,120,121,122,123,124,125,126,127,128,129,130,131,132,133,134,135,136,137,138,139,140,141,142,143,144,145,146,147,148,149,150,151,152,153,154,155,156,157,158,159,160,161,162,163,164,165,166,167,168,169,170,171,172,173,174,175,176,177,178,179,180,181,182,183,184,185,186,187,188,189,190,191,192,193,194,195,196,197,198,199,200,201,202,203,204,205,206,207,208],"tree_info":[0,0,0,0,0,0,0,0,0,0,0,0,0,0,0,0,0,0,0,0,0,0,0,0,0,0,0,0,0,0,0,0,0,0,0,0,0,0,0,0,0,0,0,0,0,0,0,0,0,0,0,0,0,0,0,0,0,0,0,0,0,0,0,0,0,0,0,0,0,0,0,0,0,0,0,0,0,0,0,0,0,0,0,0,0,0,0,0,0,0,0,0,0,0,0,0,0,0,0,0,0,0,0,0,0,0,0,0,0,0,0,0,0,0,0,0,0,0,0,0,0,0,0,0,0,0,0,0,0,0,0,0,0,0,0,0,0,0,0,0,0,0,0,0,0,0,0,0,0,0,0,0,0,0,0,0,0,0,0,0,0,0,0,0,0,0,0,0,0,0,0,0,0,0,0,0,0,0,0,0,0,0,0,0,0,0,0,0,0,0,0,0,0,0,0,0,0,0,0,0,0,0,0,0,0,0,0,0],"trees":[{"base_weights":[-3.7609454E-2,-1.9686553E0,1.9494643E0,-2.409945E0,-3.8595694E-1,6.481606E-1,3.036218E0,-9.993952E-2,-7.0914365E-2,-7.5255704E-1,-1.5961236E-1,2.6231357E-1,9.740681E-1,8.0476515E-2,1.4717865E-1,-1.2664832E-2,-8.6690617E-1,-2.5820884E-1,2.396288E-2,1.3335297E-1,5.6673026E-1,2.3308594E-3,1.0920504E0,-3.940613E-2,-1.8025706E-2,-4.0326995E-1,2.3962838E-4,5.764491E-3,-3.3605408E-3,4.073342E-2,1.6845448E-2,7.871701E-3,2.967372E-2,1.8773431E-2,1.1441265E0,-1.8446581E-2,-9.723564E-3,7.689821E-3,-6.5223694E-2,2.4795355E-2,4.334228E-2,3.0580627E-2,-6.47133E-3,3.9576944E-3,-1.968588E-3],"categories":[],"categories_nodes":[],"categories_segments":[],"categories_sizes":[],"default_left":[0,0,0,0,0,0,0,0,0,0,0,0,0,0,0,0,0,0,0,0,0,0,0,0,0,0,0,0,0,0,0,0,0,0,0,0,0,0,0,0,0,0,0,0,0],"id":0,"left_children":[1,3,5,7,9,11,13,-1,-1,15,17,19,21,-1,-1,-1,23,25,27,29,31,-1,33,-1,-1,35,-1,-1,-1,37,-1,-1,-1,-1,39,-1,-1,-1,41,-1,-1,43,-1,-1,-1],"loss_changes":[1.3468335E3,1.23390076E2,2.4268799E2,1.6699158E1,3.1990008E0,9.804523E0,6.9782715E1,0E0,0E0,3.8583088E-1,4.76784E-1,1.4162202E0,4.5440025E0,0E0,0E0,0E0,3.6130905E-1,6.557802E-1,1.7338577E-1,8.4411895E-1,7.976165E-1,0E0,5.385704E-1,0E0,0E0,2.0883799E-2,0E0,0E0,0E0,4.3321487E-1,0E0,0E0,0E0,0E0,3.79982E-2,0E0,0E0,0E0,1.6909972E-1,0E0,0E0,6.639814E-2,0E0,0E0,0E0],"parents":[2147483647,0,0,1,1,2,2,3,3,4,4,5,5,6,6,9,9,10,10,11,11,12,12,16,16,17,17,18,18,19,19,20,20,22,22,25,25,29,29,34,34,38,38,41,41],"right_children":[2,4,6,8,10,12,14,-1,-1,16,18,20,22,-1,-1,-1,24,26,28,30,32,-1,34,-1,-1,36,-1,-1,-1,38,-1,-1,-1,-1,40,-1,-1,-1,42,-1,-1,44,-1,-1,-1],"split_conditions":[4.4874415E-1,9.22E0,1.226E1,8.14E0,9.94E0,1.123E1,1.378E1,-9.993952E-2,-7.0914365E-2,9.56E0,4.3435963E1,5.0677147E1,1.0732493E1,8.0476515E-2,1.4717865E-1,-1.2664832E-2,1.08204E1,-2.2053024E-1,3.516661E1,1.1417681E1,9.448192E0,2.3308594E-3,4.9760157E-1,-3.940613E-2,-1.8025706E-2,3.7942715E1,2.3962838E-4,5.764491E-3,-3.3605408E-3,1.053E1,1.6845448E-2,7.871701E-3,2.967372E-2,1.8773431E-2,1.9437067E1,-1.8446581E-2,-9.723564E-3,7.689821E-3,2.308395E1,2.4795355E-2,4.334228E-2,1.10578E1,-6.47133E-3,3.9576944E-3,-1.968588E-3],"split_indices":[5,13,13,13,13,13,13,0,0,13,2,9,1,0,0,0,0,7,9,1,4,0,5,0,0,2,0,0,0,17,0,0,0,0,9,0,0,0,8,0,0,0,0,0,0],"split_type":[0,0,0,0,0,0,0,0,0,0,0,0,0,0,0,0,0,0,0,0,0,0,0,0,0,0,0,0,0,0,0,0,0,0,0,0,0,0,0,0,0,0,0,0,0],"sum_hessian":[3.49E2,1.77E2,1.72E2,1.38E2,3.9E1,7.9E1,9.3E1,7.4E1,6.4E1,1.4E1,2.5E1,3.7E1,4.2E1,5.4E1,3.9E1,4E0,1E1,1.6E1,9E0,2.7E1,1E1,5E0,3.7E1,5E0,5E0,1E1,6E0,4E0,5E0,2.2E1,5E0,5E0,5E0,4E0,3.3E1,4E0,6E0,8E0,1.4E1,5E0,2.8E1,8E0,6E0,4E0,4E0],"tree_param":{"num_deleted":"0","num_feature":"18","num_nodes":"45","size_leaf_vector":"1"}},{"base_weights":[1.4491537E-2,-1.8584797E0,1.8979627E0,-2.3097594E0,-3.421991E-1,6.422351E-1,2.9036794E0,-2.6215925E0,-7.063805E-2,-5.9995484E-1,-1.4292702E-1,2.756685E-1,9.212165E-1,2.1487622E0,1.4095864E-1,-9.816624E-2,-6.056104E-2,-3.3712897E-2,-3.5571322E-1,-2.9702115E-1,-6.372588E-4,-1.0710659E-1,4.072271E-1,-2.1430764E-3,1.0452645E0,4.1050214E-2,7.9598226E-2,-1.781125E-2,-6.7686867E-3,-1.4834313E-2,-4.159569E-3,4.3082237E-2,-3.178111E-3,-1.2358796E-3,-5.42076E-3,1.7628352E-1,5.549831E-1,5.0657123E-1,4.2066097E-2,3.4616236E-3,-1.0403153E-3,7.909631E-3,2.6329926E-3,9.849327E-3,2.9029159E-2,8.378205E-3,2.457155E-2],"categories":[],"categories_nodes":[],"categories_segments":[],"categories_sizes":[],"default_left":[0,0,0,0,0,0,0,0,0,0,0,0,0,0,0,0,0,0,0,0,0,0,0,0,0,0,0,0,0,0,0,0,0,0,0,0,0,0,0,0,0,0,0,0,0,0,0],"id":1,"left_children":[1,3,5,7,9,11,13,15,-1,17,19,21,23,25,-1,-1,-1,-1,27,29,31,33,35,-1,37,-1,-1,-1,-1,-1,-1,39,-1,-1,-1,41,43,45,-1,-1,-1,-1,-1,-1,-1,-1,-1],"loss_changes":[1.2523287E3,1.2100903E2,2.216695E2,1.0040222E1,2.0715184E0,7.927273E0,6.538617E1,1.7352905E0,0E0,1.1320887E0,5.4796124E-1,1.8564816E0,5.5354233E0,6.687012E-1,0E0,0E0,0E0,0E0,1.8489575E-1,2.004956E-1,5.7230063E-2,2.6148781E-2,8.234949E-1,0E0,1.9710922E0,0E0,0E0,0E0,0E0,0E0,0E0,4.064276E-2,0E0,0E0,0E0,3.6921978E-2,9.032612E-1,2.7108312E-1,0E0,0E0,0E0,0E0,0E0,0E0,0E0,0E0,0E0],"parents":[2147483647,0,0,1,1,2,2,3,3,4,4,5,5,6,6,7,7,9,9,10,10,11,11,12,12,13,13,18,18,19,19,20,20,21,21,22,22,24,24,31,31,35,35,36,36,37,37],"right_children":[2,4,6,8,10,12,14,16,-1,18,20,22,24,26,-1,-1,-1,-1,28,30,32,34,36,-1,38,-1,-1,-1,-1,-1,-1,40,-1,-1,-1,42,44,46,-1,-1,-1,-1,-1,-1,-1,-1,-1],"split_conditions":[4.4874415E-1,9.22E0,1.227E1,8.14E0,1.01E1,1.108E1,1.384E1,5.22379E1,-7.063805E-2,9.448192E0,-2.0221214E-1,1.6379908E1,9.790325E0,1.226E1,1.4095864E-1,-9.816624E-2,-6.056104E-2,-3.3712897E-2,3.8810745E1,1.047E1,1.049E1,1.09E1,9.448192E0,-2.1430764E-3,5.0110096E-1,4.1050214E-2,7.9598226E-2,-1.781125E-2,-6.7686867E-3,-1.4834313E-2,-4.159569E-3,4.5829956E1,-3.178111E-3,-1.2358796E-3,-5.42076E-3,5.9098786E-1,-3.9355657E-1,-8.083022E1,4.2066097E-2,3.4616236E-3,-1.0403153E-3,7.909631E-3,2.6329926E-3,9.849327E-3,2.9029159E-2,8.378205E-3,2.457155E-2],"split_indices":[5,14,14,14,14,14,14,2,0,4,7,9,4,15,0,0,0,0,2,14,16,17,4,0,5,0,0,0,0,0,0,2,0,0,0,5,7,12,0,0,0,0,0,0,0,0,0],"split_type":[0,0,0,0,0,0,0,0,0,0,0,0,0,0,0,0,0,0,0,0,0,0,0,0,0,0,0,0,0,0,0,0,0,0,0,0,0,0,0,0,0,0,0,0,0,0,0],"sum_hessian":[3.53E2,1.77E2,1.76E2,1.36E2,4.1E1,7.9E1,9.7E1,6.9E1,6.7E1,1.7E1,2.4E1,3.5E1,4.4E1,5.7E1,4E1,6.1E1,8E0,6E0,1.1E1,1.1E1,1.3E1,9E0,2.6E1,5E0,3.9E1,4E0,5.3E1,5E0,6E0,6E0,5E0,9E0,4E0,4E0,5E0,1.1E1,1.5E1,8E0,3.1E1,5E0,4E0,7E0,4E0,8E0,7E0,4E0,4E0],"tree_param":{"num_deleted":"0","num_feature":"18","num_nodes":"47","size_leaf_vector":"1"}},{"base_weights":[-1.1870615E-2,-1.9547999E0,1.6844003E0,-2.2410843E0,-5.3494585E-1,5.029367E-1,2.7997787E0,-2.537275E0,-6.8080485E-2,-9.6896386E-1,-3.2346454E-1,1.707212E-1,8.69024E-1,2.159355E0,1.4175892E-1,-9.490479E-2,-5.8615763E-2,-4.2628843E-2,-2.0397082E-2,1.3689743E-4,-4.5461828E-1,7.2231404E-2,2.7658843E-2,-6.1744493E-3,9.772848E-1,7.064374E-2,9.4296396E-2,-1.9818708E-2,-1.0983887E-2,-2.8616302E-3,1.3828555E-1,5.567183E-1,3.9710354E-2,4.7590908E-2,1.1707504E-2,8.136007E-3,2.5801828E-2,-5.673928E-3,1.1700574E-1,7.5478586E-3,3.1810474E-2,-1.7298496E-3,3.3573762E-3],"categories":[],"categories_nodes":[],"categories_segments":[],"categories_sizes":[],"default_left":[0,0,0,0,0,0,0,0,0,0,0,0,0,0,0,0,0,0,0,0,0,0,0,0,0,0,0,0,0,0,0,0,0,0,0,0,0,0,0,0,0,0,0],"id":2,"left_children":[1,3,5,7,9,11,13,15,-1,17,19,21,23,25,-1,-1,-1,-1,-1,-1,27,29,-1,-1,31,-1,-1,-1,-1,-1,33,35,-1,37,-1,-1,-1,-1,39,-1,41,-1,-1],"loss_changes":[1.166687E3,6.587067E1,2.4765222E2,9.709106E0,2.3483887E0,1.1162287E1,6.130078E1,1.6078186E0,0E0,1.0125637E-1,9.0305185E-1,2.873259E0,5.1204834E0,7.8738403E-1,0E0,0E0,0E0,0E0,0E0,0E0,4.5338154E-2,4.5104155E-1,0E0,0E0,1.4343796E0,0E0,0E0,0E0,0E0,0E0,5.066821E-1,4.1296244E-1,0E0,3.3083287E-1,0E0,0E0,0E0,0E0,1.2641034E-1,0E0,5.313215E-2,0E0,0E0],"parents":[2147483647,0,0,1,1,2,2,3,3,4,4,5,5,6,6,7,7,9,9,10,10,11,11,12,12,13,13,20,20,21,21,24,24,30,30,31,31,33,33,38,38,40,40],"right_children":[2,4,6,8,10,12,14,16,-1,18,20,22,24,26,-1,-1,-1,-1,-1,-1,28,30,-1,-1,32,-1,-1,-1,-1,-1,34,36,-1,38,-1,-1,-1,-1,40,-1,42,-1,-1],"split_conditions":[1.1167585E1,9.22E0,1.227E1,8.14E0,1.0783687E1,1.108E1,1.4437346E1,5.22379E1,-6.8080485E-2,4.045911E1,9.496477E0,4.741802E1,1.0706726E1,5.3325954E1,1.4175892E-1,-9.490479E-2,-5.8615763E-2,-4.2628843E-2,-2.0397082E-2,1.3689743E-4,3.7942715E1,1.6379908E1,2.7658843E-2,-6.1744493E-3,-8.083022E1,7.064374E-2,9.4296396E-2,-1.9818708E-2,-1.0983887E-2,-2.8616302E-3,1.18578E1,1.166E1,3.9710354E-2,1.1625815E1,1.1707504E-2,8.136007E-3,2.5801828E-2,-5.673928E-3,1.06794E1,7.5478586E-3,1.0748621E1,-1.7298496E-3,3.3573762E-3],"split_indices":[3,14,14,14,3,14,1,2,0,2,4,11,1,2,0,0,0,0,0,0,2,9,0,0,12,0,0,0,0,0,0,15,0,3,0,0,0,0,0,0,1,0,0],"split_type":[0,0,0,0,0,0,0,0,0,0,0,0,0,0,0,0,0,0,0,0,0,0,0,0,0,0,0,0,0,0,0,0,0,0,0,0,0,0,0,0,0,0,0],"sum_hessian":[3.52E2,1.64E2,1.88E2,1.36E2,2.8E1,9.2E1,9.6E1,7.1E1,6.5E1,8E0,2E1,4.9E1,4.3E1,6.3E1,3.3E1,6.3E1,8E0,4E0,4E0,6E0,1.4E1,4.3E1,6E0,4E0,3.9E1,4.7E1,1.6E1,7E0,7E0,1.3E1,3E1,1E1,2.9E1,2.1E1,9E0,4E0,6E0,5E0,1.6E1,7E0,9E0,4E0,5E0],"tree_param":{"num_deleted":"0","num_feature":"18","num_nodes":"43","size_leaf_vector":"1"}},{"base_weights":[-1.648672E-2,-1.7305329E0,1.76661E0,-2.1511486E0,-3.306228E-1,6.01085E-1,2.7073379E0,-8.933052E-2,-6.315695E-2,-6.8860084E-1,-1.3406092E-1,2.4679032E-1,8.919645E-1,2.0055718E0,1.3152286E-1,-1.1180178E-2,-7.983683E-1,-2.8111276E-1,-2.8578546E-2,1.26316E-1,5.2006453E-1,1.843281E-3,1.0012741E0,4.21932E-2,7.4573316E-2,-1.6589196E-2,-3.630206E-2,-1.5834112E-2,-3.8420786E-3,-7.251485E-3,5.304777E-2,4.1065086E-2,1.5099396E-2,7.169167E-3,2.7284687E-2,1.706288E-2,3.7929416E-2,5.9915935E-3,-3.835443E-3,8.242016E-3,-6.1415862E-2,-1.18107446E-1,2.731471E-3,-6.2759146E-3,-1.5486086E-3],"categories":[],"categories_nodes":[],"categories_segments":[],"categories_sizes":[],"default_left":[0,0,0,0,0,0,0,0,0,0,0,0,0,0,0,0,0,0,0,0,0,0,0,0,0,0,0,0,0,0,0,0,0,0,0,0,0,0,0,0,0,0,0,0,0],"id":3,"left_children":[1,3,5,7,9,11,13,-1,-1,15,17,19,21,23,-1,-1,25,27,29,31,33,-1,35,-1,-1,-1,-1,-1,-1,-1,37,39,-1,-1,-1,-1,-1,-1,-1,-1,41,43,-1,-1,-1],"loss_changes":[1.084991E3,1.0586597E2,1.8915356E2,1.3673706E1,2.933374E0,7.921379E0,5.551123E1,0E0,0E0,3.7736225E-1,4.4179618E-1,1.152441E0,3.90168E0,3.662567E-1,0E0,0E0,3.084998E-1,2.8286046E-1,2.634983E-1,6.538867E-1,6.816921E-1,0E0,4.7663116E-1,0E0,0E0,0E0,0E0,0E0,0E0,0E0,2.5094655E-1,4.3565664E-1,0E0,0E0,0E0,0E0,0E0,0E0,0E0,0E0,1.2543277E-1,3.8554803E-2,0E0,0E0,0E0],"parents":[2147483647,0,0,1,1,2,2,3,3,4,4,5,5,6,6,9,9,10,10,11,11,12,12,13,13,16,16,17,17,18,18,19,19,20,20,22,22,30,30,31,31,40,40,41,41],"right_children":[2,4,6,8,10,12,14,-1,-1,16,18,20,22,24,-1,-1,26,28,30,32,34,-1,36,-1,-1,-1,-1,-1,-1,-1,38,40,-1,-1,-1,-1,-1,-1,-1,-1,42,44,-1,-1,-1],"split_conditions":[4.4874415E-1,9.22E0,1.226E1,8.14E0,9.94E0,1.123E1,1.378E1,-8.933052E-2,-6.315695E-2,9.56E0,-7.707911E1,5.0677147E1,1.0732493E1,1.22E1,1.3152286E-1,-1.1180178E-2,2.2829132E1,-2.7401498E-1,4.037151E-1,1.1417681E1,9.448192E0,1.843281E-3,4.9760157E-1,4.21932E-2,7.4573316E-2,-1.6589196E-2,-3.630206E-2,-1.5834112E-2,-3.8420786E-3,-7.251485E-3,4.1922754E-1,1.053E1,1.5099396E-2,7.169167E-3,2.7284687E-2,1.706288E-2,3.7929416E-2,5.9915935E-3,-3.835443E-3,8.242016E-3,1.1249908E1,-8.571429E1,2.731471E-3,-6.2759146E-3,-1.5486086E-3],"split_indices":[5,13,13,13,13,13,13,0,0,13,12,9,1,14,0,0,10,6,5,1,4,0,5,0,0,0,0,0,0,0,5,17,0,0,0,0,0,0,0,0,1,12,0,0,0],"split_type":[0,0,0,0,0,0,0,0,0,0,0,0,0,0,0,0,0,0,0,0,0,0,0,0,0,0,0,0,0,0,0,0,0,0,0,0,0,0,0,0,0,0,0,0,0],"sum_hessian":[3.53E2,1.8E2,1.73E2,1.38E2,4.2E1,7.8E1,9.5E1,7.4E1,6.4E1,1.4E1,2.8E1,3.6E1,4.2E1,5.6E1,3.9E1,4E0,1E1,1.1E1,1.7E1,2.6E1,1E1,5E0,3.7E1,5E0,5.1E1,5E0,5E0,5E0,6E0,5E0,1.2E1,2.1E1,5E0,5E0,5E0,4E0,3.3E1,7E0,5E0,7E0,1.4E1,1E1,4E0,5E0,5E0],"tree_param":{"num_deleted":"0","num_feature":"18","num_nodes":"45","size_leaf_vector":"1"}},{"base_weights":[3.646852E-3,-1.8261491E0,1.5556012E0,-2.0988488E0,-5.031176E-1,4.8062503E-1,2.592376E0,-8.6102866E-2,-6.362883E-2,-9.1128266E-1,-3.0423173E-1,4.0791776E-2,7.3651457E-1,2.0170765E0,1.3178715E-1,-4.0152963E-2,-1.912111E-2,-1.6625645E-2,-1.2071974E-1,2.2776166E-1,-2.9967131E-2,3.8849025E-3,9.1959107E-1,4.123832E-2,7.483916E-2,-1.0453742E-3,-6.108377E-3,-1.9107333E-3,1.5309574E-2,-6.5604923E-3,2.1987643E-2,-7.5654606E-3,7.826175E-3,5.7659405E-1,3.723864E-2,-4.4813324E-3,8.865554E-2,1.0747357E-2,2.3796385E-2,4.1239824E-2,6.332423E-3,2.9343471E-3,-8.2956004E-4],"categories":[],"categories_nodes":[],"categories_segments":[],"categories_sizes":[],"default_left":[0,0,0,0,0,0,0,0,0,0,0,0,0,0,0,0,0,0,0,0,0,0,0,0,0,0,0,0,0,0,0,0,0,0,0,0,0,0,0,0,0,0,0],"id":4,"left_children":[1,3,5,7,9,11,13,-1,-1,15,17,19,21,23,-1,-1,-1,-1,25,27,29,31,33,-1,-1,-1,-1,-1,-1,-1,35,-1,-1,37,-1,-1,39,-1,-1,41,-1,-1,-1],"loss_changes":[1.0024362E3,5.739209E1,2.1162515E2,8.66394E0,2.0769286E0,1.06620865E1,5.149518E1,0E0,0E0,9.947777E-2,5.450834E-1,4.8309764E-1,8.044067E0,7.0913696E-1,0E0,0E0,0E0,0E0,4.3897703E-2,5.7218474E-1,2.1662973E-1,6.349648E-1,1.2320595E0,0E0,0E0,0E0,0E0,0E0,0E0,0E0,2.1539944E-1,0E0,0E0,1.24370575E-1,0E0,0E0,5.435442E-2,0E0,0E0,3.0084638E-2,0E0,0E0,0E0],"parents":[2147483647,0,0,1,1,2,2,3,3,4,4,5,5,6,6,9,9,10,10,11,11,12,12,13,13,18,18,19,19,20,20,21,21,22,22,30,30,33,33,36,36,39,39],"right_children":[2,4,6,8,10,12,14,-1,-1,16,18,20,22,24,-1,-1,-1,-1,26,28,30,32,34,-1,-1,-1,-1,-1,-1,-1,36,-1,-1,38,-1,-1,40,-1,-1,42,-1,-1,-1],"split_conditions":[1.1167585E1,9.22E0,1.227E1,8.14E0,1.0783687E1,4.8429275E-1,1.4437346E1,-8.6102866E-2,-6.362883E-2,-2.5698167E-1,2.6373487E1,1.035E1,1.0551624E1,1.226E1,1.3178715E-1,-4.0152963E-2,-1.912111E-2,-1.6625645E-2,8.5132E0,4.257539E-1,1.0748621E1,-1.3026464E-1,5.065229E-1,4.123832E-2,7.483916E-2,-1.0453742E-3,-6.108377E-3,-1.9107333E-3,1.5309574E-2,-6.5604923E-3,1.3203189E1,-7.5654606E-3,7.826175E-3,2.566537E1,3.723864E-2,-4.4813324E-3,1.096E1,1.0747357E-2,2.3796385E-2,2.8935917E1,6.332423E-3,2.9343471E-3,-8.2956004E-4],"split_indices":[3,14,14,14,3,5,1,0,0,6,9,14,1,15,0,0,0,0,0,5,1,7,5,0,0,0,0,0,0,0,10,0,0,10,0,0,14,0,0,10,0,0,0],"split_type":[0,0,0,0,0,0,0,0,0,0,0,0,0,0,0,0,0,0,0,0,0,0,0,0,0,0,0,0,0,0,0,0,0,0,0,0,0,0,0,0,0,0,0],"sum_hessian":[3.51E2,1.61E2,1.9E2,1.33E2,2.8E1,9.4E1,9.6E1,6.9E1,6.4E1,8E0,2E1,3.5E1,5.9E1,6.4E1,3.2E1,4E0,4E0,1E1,1E1,9E0,2.6E1,1.2E1,4.7E1,5E0,5.9E1,4E0,6E0,4E0,5E0,6E0,2E1,6E0,6E0,1.3E1,3.4E1,6E0,1.4E1,4E0,9E0,1E1,4E0,6E0,4E0],"tree_param":{"num_deleted":"0","num_feature":"18","num_nodes":"43","size_leaf_vector":"1"}},{"base_weights":[-5.6379866E-2,-1.8851389E0,1.3499342E0,-2.1501005E0,-1.222074E0,3.5513178E-1,2.4573717E0,-8.483241E-2,-5.890576E-2,-9.030199E-3,-1.3901601E0,4.363991E-2,7.930603E-1,6.690357E-2,1.2072261E-1,-5.351659E-2,-1.7214686E-2,-1.681181E-1,2.412417E-1,-1.1324153E-2,9.115384E-1,-3.3505052E-1,9.32169E-3,1.4337642E-1,2.3768019E-2,5.424119E-1,3.617954E-2,-4.0782556E-1,-5.26818E-3,-7.734223E-2,4.7625564E-3,1.2452276E-2,4.5659017E-2,2.503122E-2,9.163647E-3,-1.7229892E-2,-8.299887E-3,-4.1418383E-3,-6.1945955E-4,-7.072409E-3,1.3916543E-1,6.8750237E-3,-3.8438808E-5],"categories":[],"categories_nodes":[],"categories_segments":[],"categories_sizes":[],"default_left":[0,0,0,0,0,0,0,0,0,0,0,0,0,0,0,0,0,0,0,0,0,0,0,0,0,0,0,0,0,0,0,0,0,0,0,0,0,0,0,0,0,0,0],"id":5,"left_children":[1,3,5,7,9,11,13,-1,-1,-1,15,17,19,-1,-1,-1,-1,21,23,-1,25,27,29,31,-1,33,-1,35,-1,37,-1,-1,39,-1,-1,-1,-1,-1,-1,-1,41,-1,-1],"loss_changes":[9.0525E2,2.4252502E1,2.1836197E2,7.2639465E0,7.169449E0,1.4424975E1,4.413202E1,0E0,0E0,0E0,2.5310516E0,2.676714E0,6.0535545E0,0E0,0E0,0E0,0E0,9.2135733E-1,1.2507972E0,0E0,7.8089523E-1,1.6092157E-1,1.8001847E-1,5.3481907E-1,0E0,2.583971E-1,0E0,2.565825E-2,0E0,2.0475257E-2,0E0,0E0,4.7864088E-1,0E0,0E0,0E0,0E0,0E0,0E0,0E0,1.0766515E-1,0E0,0E0],"parents":[2147483647,0,0,1,1,2,2,3,3,4,4,5,5,6,6,10,10,11,11,12,12,17,17,18,18,20,20,21,21,22,22,23,23,25,25,27,27,29,29,32,32,40,40],"right_children":[2,4,6,8,10,12,14,-1,-1,-1,16,18,20,-1,-1,-1,-1,22,24,-1,26,28,30,32,-1,34,-1,36,-1,38,-1,-1,40,-1,-1,-1,-1,-1,-1,-1,42,-1,-1],"split_conditions":[1.0140576E1,8.463901E0,1.227E1,5.22379E1,8.5132E0,1.108E1,1.384E1,-8.483241E-2,-5.890576E-2,-9.030199E-3,1.07498E1,-7.157895E1,9.790325E0,6.690357E-2,1.2072261E-1,-5.351659E-2,-1.7214686E-2,1.0706726E1,5.311173E1,-1.1324153E-2,-1.09969086E2,-2.7401498E-1,-1.4179684E2,-3.2681236E-1,2.3768019E-2,-4.3104768E-1,3.617954E-2,-8.2608696E1,-5.26818E-3,3.63576E1,4.7625564E-3,1.2452276E-2,-4.9847248E1,2.503122E-2,9.163647E-3,-1.7229892E-2,-8.299887E-3,-4.1418383E-3,-6.1945955E-4,-7.072409E-3,1.943186E1,6.8750237E-3,-3.8438808E-5],"split_indices":[1,1,14,2,0,14,14,0,0,0,0,12,4,0,0,0,0,1,2,0,11,6,11,6,0,6,0,12,0,2,0,0,11,0,0,0,0,0,0,0,8,0,0],"split_type":[0,0,0,0,0,0,0,0,0,0,0,0,0,0,0,0,0,0,0,0,0,0,0,0,0,0,0,0,0,0,0,0,0,0,0,0,0,0,0,0,0,0,0],"sum_hessian":[3.5E2,1.52E2,1.98E2,1.07E2,4.5E1,1.05E2,9.3E1,7.5E1,3.2E1,7E0,3.8E1,6.2E1,4.3E1,5.7E1,3.6E1,3.4E1,4E0,3E1,3.2E1,4E0,3.9E1,1.5E1,1.5E1,2.7E1,5E0,9E0,3E1,1E1,5E0,9E0,6E0,8E0,1.9E1,5E0,4E0,6E0,4E0,5E0,4E0,5E0,1.4E1,1E1,4E0],"tree_param":{"num_deleted":"0","num_feature":"18","num_nodes":"43","size_leaf_vector":"1"}},{"base_weights":[2.8457132E-3,-1.6958209E0,1.4702653E0,-1.929816E0,-4.8199418E-1,4.3190724E-1,2.4308414E0,-2.2265527E0,-1.6584446E0,-8.6026436E-1,-2.876729E-1,3.740488E-2,6.693241E-1,1.8598211E0,1.236519E-1,-8.275758E-2,-5.0243653E-2,-1.7703568E0,-4.782908E-2,-3.7707467E-2,-1.8248135E-2,-1.5735E-2,-4.189404E-4,2.1456423E-1,-2.9595057E-2,3.2889294E-3,8.430009E-1,6.117702E-2,8.184762E-2,-6.686719E-2,-4.2075243E-2,1.6536627E-2,-8.580612E-4,-6.278919E-3,1.9868668E-2,-1.0399471E-2,5.9491545E-3,5.134952E-1,3.411933E-2,-7.713106E-2,8.549397E-2,1.18447915E-2,2.2615653E-2,-4.415424E-3,-6.015394E-4,5.9017446E-3,5.939724E-4],"categories":[],"categories_nodes":[],"categories_segments":[],"categories_sizes":[],"default_left":[0,0,0,0,0,0,0,0,0,0,0,0,0,0,0,0,0,0,0,0,0,0,0,0,0,0,0,0,0,0,0,0,0,0,0,0,0,0,0,0,0,0,0,0,0,0,0],"id":6,"left_children":[1,3,5,7,9,11,13,15,17,19,21,23,25,27,-1,-1,-1,29,-1,-1,-1,-1,-1,31,33,35,37,-1,-1,-1,-1,-1,-1,-1,39,-1,-1,41,-1,43,45,-1,-1,-1,-1,-1,-1],"loss_changes":[8.873865E2,4.5934753E1,1.8945764E2,7.419922E0,1.8106918E0,8.685486E0,4.9658936E1,1.6714478E-1,5.0483704E-1,5.8917046E-2,8.108568E-1,4.3365797E-1,6.7063713E0,5.5966187E-1,0E0,0E0,0E0,4.658966E-1,0E0,0E0,0E0,0E0,0E0,5.9009874E-1,1.9598542E-1,6.579033E-1,1.0489731E0,0E0,0E0,0E0,0E0,0E0,0E0,0E0,1.4027262E-1,0E0,0E0,6.6107035E-2,0E0,2.2493903E-2,6.718352E-2,0E0,0E0,0E0,0E0,0E0,0E0],"parents":[2147483647,0,0,1,1,2,2,3,3,4,4,5,5,6,6,7,7,8,8,9,9,10,10,11,11,12,12,13,13,17,17,23,23,24,24,25,25,26,26,34,34,37,37,39,39,40,40],"right_children":[2,4,6,8,10,12,14,16,18,20,22,24,26,28,-1,-1,-1,30,-1,-1,-1,-1,-1,32,34,36,38,-1,-1,-1,-1,-1,-1,-1,40,-1,-1,42,-1,44,46,-1,-1,-1,-1,-1,-1],"split_conditions":[1.1167585E1,9.22E0,1.227E1,7.98E0,1.0783687E1,4.8429275E-1,1.4437346E1,5.22379E1,9.2778E0,4.045911E1,2.3540375E1,1.035E1,1.0551624E1,5.3325954E1,1.236519E-1,-8.275758E-2,-5.0243653E-2,8.2225746E1,-4.782908E-2,-3.7707467E-2,-1.8248135E-2,-1.5735E-2,-4.189404E-4,1.054E1,1.0748621E1,4.657359E1,5.065229E-1,6.117702E-2,8.184762E-2,-6.686719E-2,-4.2075243E-2,1.6536627E-2,-8.580612E-4,-6.278919E-3,1.265552E1,-1.0399471E-2,5.9491545E-3,2.6373487E1,3.411933E-2,3.63576E1,4.153246E1,1.18447915E-2,2.2615653E-2,-4.415424E-3,-6.015394E-4,5.9017446E-3,5.939724E-4],"split_indices":[3,14,14,14,3,5,1,2,0,2,8,14,1,2,0,0,0,9,0,0,0,0,0,17,1,2,5,0,0,0,0,0,0,0,9,0,0,9,0,2,2,0,0,0,0,0,0],"split_type":[0,0,0,0,0,0,0,0,0,0,0,0,0,0,0,0,0,0,0,0,0,0,0,0,0,0,0,0,0,0,0,0,0,0,0,0,0,0,0,0,0,0,0,0,0,0,0],"sum_hessian":[3.54E2,1.64E2,1.9E2,1.37E2,2.7E1,9.2E1,9.8E1,6.2E1,7.5E1,8E0,1.9E1,3.5E1,5.7E1,6.4E1,3.4E1,5.6E1,6E0,5.3E1,2.2E1,4E0,4E0,1.2E1,7E0,9E0,2.6E1,1.2E1,4.5E1,4.9E1,1.5E1,4.5E1,8E0,4E0,5E0,6E0,2E1,4E0,8E0,1.2E1,3.3E1,8E0,1.2E1,6E0,6E0,4E0,4E0,5E0,7E0],"tree_param":{"num_deleted":"0","num_feature":"18","num_nodes":"47","size_leaf_vector":"1"}},{"base_weights":[-6.9637904E-3,-1.5049747E0,1.5338873E0,-1.8631749E0,-2.8366977E-1,5.749799E-1,2.3927386E0,-2.111897E0,-5.6820944E-2,-6.005214E-1,-1.3691173E-1,3.894193E-1,1.0226556E0,1.8400508E0,1.1857787E-1,-7.913736E-2,-4.7768198E-2,-2.7495882E-2,-1.2804852E-2,-1.2636408E-2,-5.694887E-2,4.376003E-2,6.12448E-1,2.449464E-2,4.2797606E-2,6.156043E-2,8.450025E-2,-8.096552E-3,3.0165136E-2,-1.0098825E-2,1.1863522E-1,3.378497E-2,7.7091414E-1,4.8139384E-3,-4.385523E-3,-3.2907382E-3,1.8985832E-1,-5.189576E-3,7.3871086E-3,6.489244E-1,4.0847592E-2,1.0247496E-1,9.555506E-3,1.3640302E-2,2.5312934E-2,6.736902E-3,-7.14533E-5],"categories":[],"categories_nodes":[],"categories_segments":[],"categories_sizes":[],"default_left":[0,0,0,0,0,0,0,0,0,0,0,0,0,0,0,0,0,0,0,0,0,0,0,0,0,0,0,0,0,0,0,0,0,0,0,0,0,0,0,0,0,0,0,0,0,0,0],"id":7,"left_children":[1,3,5,7,9,11,13,15,-1,17,19,21,23,25,-1,-1,-1,-1,-1,-1,27,29,31,-1,-1,-1,-1,-1,33,-1,35,37,39,-1,-1,-1,41,-1,-1,43,-1,45,-1,-1,-1,-1,-1],"loss_changes":[8.1941534E2,7.821634E1,1.4274707E2,6.7312317E0,1.8708031E0,6.5797234E0,3.9150024E1,1.5470581E0,0E0,2.4362087E-1,4.9051875E-1,4.675807E0,5.3528214E-1,2.8945923E-2,0E0,0E0,0E0,0E0,0E0,0E0,3.4158283E-1,6.381983E-1,3.3667994E0,0E0,0E0,0E0,0E0,0E0,2.6601106E-1,0E0,3.3093587E-1,3.0179936E-1,5.381756E-1,0E0,0E0,0E0,7.7166736E-2,0E0,0E0,7.153988E-2,0E0,7.929446E-2,0E0,0E0,0E0,0E0,0E0],"parents":[2147483647,0,0,1,1,2,2,3,3,4,4,5,5,6,6,7,7,9,9,10,10,11,11,12,12,13,13,20,20,21,21,22,22,28,28,30,30,31,31,32,32,36,36,39,39,41,41],"right_children":[2,4,6,8,10,12,14,16,-1,18,20,22,24,26,-1,-1,-1,-1,-1,-1,28,30,32,-1,-1,-1,-1,-1,34,-1,36,38,40,-1,-1,-1,42,-1,-1,44,-1,46,-1,-1,-1,-1,-1],"split_conditions":[4.4874415E-1,9.22E0,1.24E1,8.14E0,9.85E0,1.193924E1,1.4437346E1,5.22379E1,-5.6820944E-2,1.0089906E1,3.7942715E1,4.745059E1,3.936464E1,-3.1011236E1,1.1857787E-1,-7.913736E-2,-4.7768198E-2,-2.7495882E-2,-1.2804852E-2,-1.2636408E-2,4.037151E-1,1.0551624E1,9.29052E0,2.449464E-2,4.2797606E-2,6.156043E-2,8.450025E-2,-8.096552E-3,4.257539E-1,-1.0098825E-2,1.3203189E1,9.95E0,5.9354107E1,4.8139384E-3,-4.385523E-3,-3.2907382E-3,1.132E1,-5.189576E-3,7.3871086E-3,1.069E1,4.0847592E-2,9.901203E0,9.555506E-3,1.3640302E-2,2.5312934E-2,6.736902E-3,-7.14533E-5],"split_indices":[5,14,14,14,14,1,1,2,0,1,2,2,2,12,0,0,0,0,0,0,5,1,4,0,0,0,0,0,5,0,10,17,2,0,0,0,17,0,0,16,0,4,0,0,0,0,0],"split_type":[0,0,0,0,0,0,0,0,0,0,0,0,0,0,0,0,0,0,0,0,0,0,0,0,0,0,0,0,0,0,0,0,0,0,0,0,0,0,0,0,0,0,0,0,0,0,0],"sum_hessian":[3.53E2,1.79E2,1.74E2,1.38E2,4.1E1,8.3E1,9.1E1,7.1E1,6.7E1,1.2E1,2.9E1,6E1,2.3E1,5.8E1,3.3E1,6.3E1,8E0,6E0,6E0,7E0,2.2E1,2.4E1,3.6E1,9E0,1.4E1,4.9E1,9E0,7E0,1.5E1,4E0,2E1,8E0,2.8E1,9E0,6E0,5E0,1.5E1,4E0,4E0,2.3E1,5E0,8E0,7E0,5E0,1.8E1,4E0,4E0],"tree_param":{"num_deleted":"0","num_feature":"18","num_nodes":"47","size_leaf_vector":"1"}},{"base_weights":[1.944531E-2,-1.2617855E0,1.7220057E0,-1.7957664E0,-1.3425292E-1,1.1573552E0,2.997997E0,-7.4610546E-2,-1.4567306E0,-5.8928984E-1,-4.1048342E-4,5.333608E-1,1.5846947E0,8.823689E-2,1.21688664E-1,-1.4888189E0,-2.8197762E-2,-9.052074E-3,-7.3363435E-1,-2.1110222E-1,1.07957E-1,-2.5816E-3,6.282391E-1,3.929983E-2,6.1149202E-2,-5.809241E-2,-4.3744843E-2,-3.4058884E-2,-1.5801856E-2,-1.46727115E-2,-7.979536E-2,5.637155E-2,9.937791E-3,3.5232374E-1,7.526459E-1,1.6459486E-3,-5.3539365E-3,-8.0592476E-2,1.1518679E-1,4.814766E-3,1.8067282E-2,1.5124047E-2,2.870528E-2,-6.3429545E-3,1.1008441E-3,1.6057175E-1,9.770379E-4,2.3483373E-3,7.076625E-3],"categories":[],"categories_nodes":[],"categories_segments":[],"categories_sizes":[],"default_left":[0,0,0,0,0,0,0,0,0,0,0,0,0,0,0,0,0,0,0,0,0,0,0,0,0,0,0,0,0,0,0,0,0,0,0,0,0,0,0,0,0,0,0,0,0,0,0,0,0],"id":8,"left_children":[1,3,5,7,9,11,13,-1,15,17,19,21,23,-1,-1,25,-1,-1,27,29,31,-1,33,-1,-1,-1,-1,-1,-1,-1,35,37,-1,39,41,-1,-1,43,45,-1,-1,-1,-1,-1,-1,47,-1,-1,-1],"loss_changes":[7.7219745E2,1.2137924E2,1.06044556E2,9.484528E0,4.0193734E0,2.768715E1,1.2315063E0,0E0,2.2735596E-1,5.497594E-1,1.210061E0,2.6271E0,1.5266724E0,0E0,0E0,3.7124634E-2,0E0,0E0,2.0687199E-1,4.2834508E-1,2.8611237E-1,0E0,1.0735292E0,0E0,0E0,0E0,0E0,0E0,0E0,0E0,1.0957946E-1,2.3483922E-1,0E0,3.862723E-1,2.998352E-2,0E0,0E0,1.0023862E-1,7.5671256E-2,0E0,0E0,0E0,0E0,0E0,0E0,3.109023E-2,0E0,0E0,0E0],"parents":[2147483647,0,0,1,1,2,2,3,3,4,4,5,5,6,6,8,8,9,9,10,10,11,11,12,12,15,15,18,18,19,19,20,20,22,22,30,30,31,31,33,33,34,34,37,37,38,38,45,45],"right_children":[2,4,6,8,10,12,14,-1,16,18,20,22,24,-1,-1,26,-1,-1,28,30,32,-1,34,-1,-1,-1,-1,-1,-1,-1,36,38,-1,40,42,-1,-1,44,46,-1,-1,-1,-1,-1,-1,48,-1,-1,-1],"split_conditions":[1.078E1,9.22E0,1.357E1,8.14E0,9.85E0,1.177E1,1.447E1,-7.4610546E-2,1.5963087E2,9.56E0,-7.707911E1,9.790325E0,1.0750775E1,8.823689E-2,1.21688664E-1,9.2778E0,-2.8197762E-2,-9.052074E-3,1.0776552E1,1.1152195E1,-2.1305841E1,-2.5816E-3,-8.083022E1,3.929983E-2,6.1149202E-2,-5.809241E-2,-4.3744843E-2,-3.4058884E-2,-1.5801856E-2,-1.46727115E-2,1.029E1,1.1468086E1,9.937791E-3,1.0774152E1,1.123E1,1.6459486E-3,-5.3539365E-3,1.1028E1,1.058E1,4.814766E-3,1.8067282E-2,1.5124047E-2,2.870528E-2,-6.3429545E-3,1.1008441E-3,2.4912281E1,9.770379E-4,2.3483373E-3,7.076625E-3],"split_indices":[13,13,13,13,13,13,13,0,11,13,12,4,4,0,0,0,0,0,3,3,12,0,12,0,0,0,0,0,0,0,13,3,0,4,13,0,0,0,13,0,0,0,0,0,0,9,0,0,0],"split_type":[0,0,0,0,0,0,0,0,0,0,0,0,0,0,0,0,0,0,0,0,0,0,0,0,0,0,0,0,0,0,0,0,0,0,0,0,0,0,0,0,0,0,0,0,0,0,0,0,0],"sum_hessian":[3.52E2,2.01E2,1.51E2,1.36E2,6.5E1,1.06E2,4.5E1,7.3E1,6.3E1,1.4E1,5.1E1,4.4E1,6.2E1,2.1E1,2.4E1,5.9E1,4E0,5E0,9E0,1.7E1,3.4E1,6E0,3.8E1,1.3E1,4.9E1,3.8E1,2.1E1,4E0,5E0,6E0,1.1E1,2.7E1,7E0,1.3E1,2.5E1,4E0,7E0,8E0,1.9E1,6E0,7E0,4E0,2.1E1,4E0,4E0,1.2E1,7E0,4E0,8E0],"tree_param":{"num_deleted":"0","num_feature":"18","num_nodes":"49","size_leaf_vector":"1"}},{"base_weights":[3.3632983E-3,-1.5172149E0,1.3238477E0,-1.75431E0,-5.1567334E-1,4.098005E-1,2.177751E0,-1.988601E0,-5.3431004E-2,-8.8727325E-1,-2.6107937E-1,1.3709971E-1,6.976347E-1,1.6864843E0,1.1031886E-1,-7.4286565E-2,-4.407105E-2,-3.928933E-2,-1.7082846E-2,-1.4455652E-2,-1.1330843E-3,-1.5548583E-3,3.5610983E-1,-5.9391987E-3,7.8574014E-1,3.322276E-2,1.7350864E0,4.1552756E-2,-8.45671E-3,2.3173925E-1,2.1210205E-2,1.714E-2,8.4686255E-1,5.6644723E-2,7.580779E-2,-3.8603466E-2,7.73345E-2,3.1483057E-1,2.474554E-3,1.6919559E-2,3.301609E-2,-3.99359E-3,1.4826406E-3,-1.4018363E-3,1.3391612E-1,5.963315E-3,1.4514733E-2,2.7001982E-3,6.2868553E-3],"categories":[],"categories_nodes":[],"categories_segments":[],"categories_sizes":[],"default_left":[0,0,0,0,0,0,0,0,0,0,0,0,0,0,0,0,0,0,0,0,0,0,0,0,0,0,0,0,0,0,0,0,0,0,0,0,0,0,0,0,0,0,0,0,0,0,0,0,0],"id":9,"left_children":[1,3,5,7,9,11,13,15,-1,17,19,21,23,25,-1,-1,-1,-1,-1,-1,-1,27,29,-1,31,-1,33,35,-1,37,-1,-1,39,-1,-1,41,43,45,-1,-1,-1,-1,-1,-1,47,-1,-1,-1,-1],"loss_changes":[7.1280505E2,3.8276367E1,1.4740408E2,5.6505737E0,2.8903866E0,7.2041683E0,3.698398E1,1.0560608E0,0E0,5.637541E-1,6.578069E-1,1.4885244E0,3.5467205E0,8.281708E-1,0E0,0E0,0E0,0E0,0E0,0E0,0E0,3.203826E-1,4.0947866E-1,0E0,3.787403E-1,0E0,3.581848E-1,8.042488E-2,0E0,1.6835785E-1,0E0,0E0,4.069004E-1,0E0,0E0,5.6073766E-2,1.300385E-1,5.0796747E-2,0E0,0E0,0E0,0E0,0E0,0E0,1.7827615E-2,0E0,0E0,0E0,0E0],"parents":[2147483647,0,0,1,1,2,2,3,3,4,4,5,5,6,6,7,7,9,9,10,10,11,11,12,12,13,13,21,21,22,22,24,24,26,26,27,27,29,29,32,32,35,35,36,36,37,37,44,44],"right_children":[2,4,6,8,10,12,14,16,-1,18,20,22,24,26,-1,-1,-1,-1,-1,-1,-1,28,30,-1,32,-1,34,36,-1,38,-1,-1,40,-1,-1,42,44,46,-1,-1,-1,-1,-1,-1,48,-1,-1,-1,-1],"split_conditions":[1.1167585E1,8.79E0,1.227E1,8.14E0,1.0783687E1,1.108E1,1.4437346E1,5.22379E1,-5.3431004E-2,4.0001865E1,2.3540375E1,4.4391785E1,1.0706726E1,1.226E1,1.1031886E-1,-7.4286565E-2,-4.407105E-2,-3.928933E-2,-1.7082846E-2,-1.4455652E-2,-1.1330843E-3,3.203169E1,5.311173E1,-5.9391987E-3,3.6265553E1,3.322276E-2,5.3325954E1,1.265552E1,-8.45671E-3,5.4618626E1,2.1210205E-2,1.714E-2,1.2618257E1,5.6644723E-2,7.580779E-2,3.63576E1,9.865987E0,9.055353E0,2.474554E-3,1.6919559E-2,3.301609E-2,-3.99359E-3,1.4826406E-3,-1.4018363E-3,2.2138096E1,5.963315E-3,1.4514733E-2,2.7001982E-3,6.2868553E-3],"split_indices":[3,16,14,14,3,14,1,2,0,2,8,9,1,15,0,0,0,0,0,0,0,10,2,0,2,0,2,9,0,9,0,0,8,0,0,2,4,4,0,0,0,0,0,0,8,0,0,0,0],"split_type":[0,0,0,0,0,0,0,0,0,0,0,0,0,0,0,0,0,0,0,0,0,0,0,0,0,0,0,0,0,0,0,0,0,0,0,0,0,0,0,0,0,0,0,0,0,0,0,0,0],"sum_hessian":[3.53E2,1.64E2,1.89E2,1.32E2,3.2E1,9.2E1,9.7E1,6.8E1,6.4E1,1.2E1,2E1,4.8E1,4.4E1,6.4E1,3.3E1,6.1E1,7E0,7E0,5E0,1.2E1,8E0,3E1,1.8E1,4E0,4E1,5E0,5.9E1,2.6E1,4E0,1.3E1,5E0,8E0,3.2E1,4.4E1,1.5E1,8E0,1.8E1,8E0,5E0,6E0,2.6E1,4E0,4E0,6E0,1.2E1,4E0,4E0,6E0,6E0],"tree_param":{"num_deleted":"0","num_feature":"18","num_nodes":"49","size_leaf_vector":"1"}},{"base_weights":[-4.4413484E-3,-1.4760075E0,1.2647105E0,-1.6827383E0,-4.1917142E-1,3.6342734E-1,2.134043E0,-6.987272E-2,-4.9193837E-2,-2.6627772E-2,-2.5524482E-1,1.0251522E-1,6.221583E-1,1.5571758E0,1.0370682E-1,5.037198E-4,-1.3428299E-2,-2.6182413E-2,3.3873928E-1,5.790174E-4,6.9393575E-1,3.6632407E-2,5.832775E-2,1.4443057E-2,-8.977918E-3,6.5758172E-3,4.5786634E-1,1.6550599E-2,2.8327033E-2,-2.0185232E-3,5.0684076E-2,2.4905052E-2,4.876711E-3,-1.6367249E-3,1.104455E-1,5.592182E-3,1.4578877E-3],"categories":[],"categories_nodes":[],"categories_segments":[],"categories_sizes":[],"default_left":[0,0,0,0,0,0,0,0,0,0,0,0,0,0,0,0,0,0,0,0,0,0,0,0,0,0,0,0,0,0,0,0,0,0,0,0,0],"id":10,"left_children":[1,3,5,7,9,11,13,-1,-1,-1,15,17,19,21,-1,-1,-1,23,25,-1,27,-1,-1,29,-1,-1,31,-1,-1,-1,33,-1,-1,-1,35,-1,-1],"loss_changes":[6.5740875E2,3.4906982E1,1.4730872E2,8.332733E0,1.2701721E0,6.281787E0,3.6282776E1,0E0,0E0,0E0,6.316284E-1,1.4681399E0,2.033701E0,9.669495E-2,0E0,0E0,0E0,2.9253772E-1,2.3415375E-1,0E0,5.3243446E-1,0E0,0E0,7.417027E-2,0E0,0E0,5.7930565E-1,0E0,0E0,0E0,1.1398193E-1,0E0,0E0,0E0,3.1029418E-2,0E0,0E0],"parents":[2147483647,0,0,1,1,2,2,3,3,4,4,5,5,6,6,10,10,11,11,12,12,13,13,17,17,18,18,20,20,23,23,26,26,30,30,34,34],"right_children":[2,4,6,8,10,12,14,-1,-1,-1,16,18,20,22,-1,-1,-1,24,26,-1,28,-1,-1,30,-1,-1,32,-1,-1,-1,34,-1,-1,-1,36,-1,-1],"split_conditions":[1.1167585E1,9.07E0,1.226E1,8.14E0,1.0776552E1,1.103E1,1.378E1,-6.987272E-2,-4.9193837E-2,-2.6627772E-2,9.496477E0,4.4391785E1,9.790325E0,1.0448098E1,1.0370682E-1,5.037198E-4,-1.3428299E-2,3.231388E1,9.448192E0,5.790174E-4,2.3057644E1,3.6632407E-2,5.832775E-2,1.265552E1,-8.977918E-3,6.5758172E-3,1.10214E1,1.6550599E-2,2.8327033E-2,-2.0185232E-3,9.865987E0,2.4905052E-2,4.876711E-3,-1.6367249E-3,9.955593E0,5.592182E-3,1.4578877E-3],"split_indices":[3,13,13,13,3,13,13,0,0,0,4,9,4,4,0,0,0,10,4,0,9,0,0,9,0,0,0,0,0,0,4,0,0,0,4,0,0],"split_type":[0,0,0,0,0,0,0,0,0,0,0,0,0,0,0,0,0,0,0,0,0,0,0,0,0,0,0,0,0,0,0,0,0,0,0,0,0],"sum_hessian":[3.5E2,1.62E2,1.88E2,1.35E2,2.7E1,9.3E1,9.5E1,7.3E1,6.2E1,8E0,1.9E1,4.7E1,4.6E1,5.5E1,4E1,6E0,1.3E1,3.1E1,1.6E1,5E0,4.1E1,7E0,4.8E1,2.7E1,4E0,8E0,8E0,1.3E1,2.8E1,9E0,1.8E1,4E0,4E0,7E0,1.1E1,6E0,5E0],"tree_param":{"num_deleted":"0","num_feature":"18","num_nodes":"37","size_leaf_vector":"1"}},{"base_weights":[7.001941E-3,-1.4161689E0,1.2408841E0,-1.6244556E0,-3.977254E-1,3.6611742E-1,2.0753884E0,-6.7793556E-2,-1.3160062E0,-2.5772475E-2,-2.4357873E-1,1.2131996E-1,6.479442E-1,1.5219511E0,1.00482576E-1,-2.5971398E-2,-4.8561152E-2,-1.3564257E-2,-9.4504876E-4,1.52551E-2,7.944271E-2,-2.1616435E-3,7.2206926E-1,3.5474125E-2,5.706214E-2,4.2077646E-2,1.161879E-2,6.187372E-1,3.3564758E-2,9.301009E-3,-9.821556E-3,2.3666512E-2,1.1347553E-2,5.2817804E-3,-4.1755807E-2,-6.8256794E-3,1.3645172E-2,6.3345456E-3,-4.421133E-2,-8.051161E-2,2.1324405E-3,-2.7132547E-4,-4.051674E-3],"categories":[],"categories_nodes":[],"categories_segments":[],"categories_sizes":[],"default_left":[0,0,0,0,0,0,0,0,0,0,0,0,0,0,0,0,0,0,0,0,0,0,0,0,0,0,0,0,0,0,0,0,0,0,0,0,0,0,0,0,0,0,0],"id":11,"left_children":[1,3,5,7,9,11,13,-1,15,-1,17,19,21,23,-1,-1,-1,-1,-1,-1,25,-1,27,-1,-1,29,-1,31,-1,-1,33,-1,-1,-1,35,-1,37,-1,39,41,-1,-1,-1],"loss_changes":[6.163661E2,3.3930786E1,1.3647952E2,8.008514E0,1.2365704E0,6.3375072E0,3.3240265E1,0E0,9.843445E-2,0E0,5.9192467E-1,6.0897624E-1,2.2991047E0,1.7877197E-1,0E0,0E0,0E0,0E0,0E0,0E0,4.0256903E-1,0E0,2.585926E-1,0E0,0E0,4.606831E-1,0E0,1.14162445E-1,0E0,0E0,1.7546707E-1,0E0,0E0,0E0,2.3896585E-1,0E0,2.135085E-1,0E0,6.845051E-2,2.9158793E-2,0E0,0E0,0E0],"parents":[2147483647,0,0,1,1,2,2,3,3,4,4,5,5,6,6,8,8,10,10,11,11,12,12,13,13,20,20,22,22,25,25,27,27,30,30,34,34,36,36,38,38,39,39],"right_children":[2,4,6,8,10,12,14,-1,16,-1,18,20,22,24,-1,-1,-1,-1,-1,-1,26,-1,28,-1,-1,30,-1,32,-1,-1,34,-1,-1,-1,36,-1,38,-1,40,42,-1,-1,-1],"split_conditions":[1.1167585E1,9.07E0,1.226E1,8.14E0,1.0776552E1,1.123E1,1.378E1,-6.7793556E-2,-4.50343E-1,-2.5772475E-2,2.3540375E1,1.05614E1,1.0722277E1,1.0448098E1,1.00482576E-1,-2.5971398E-2,-4.8561152E-2,-1.3564257E-2,-9.4504876E-4,1.52551E-2,1.1417681E1,-2.1616435E-3,1.173E1,3.5474125E-2,5.706214E-2,1.029E1,1.161879E-2,1.242E1,3.3564758E-2,9.301009E-3,1.07372E1,2.3666512E-2,1.1347553E-2,5.2817804E-3,1.0748621E1,-6.8256794E-3,1.035E1,6.3345456E-3,1.096E1,1.0863965E1,2.1324405E-3,-2.7132547E-4,-4.051674E-3],"split_indices":[3,13,13,13,3,13,13,0,7,0,8,0,1,4,0,0,0,0,0,0,1,0,13,0,0,17,0,17,0,0,0,0,0,0,1,0,14,0,14,1,0,0,0],"split_type":[0,0,0,0,0,0,0,0,0,0,0,0,0,0,0,0,0,0,0,0,0,0,0,0,0,0,0,0,0,0,0,0,0,0,0,0,0,0,0,0,0,0,0],"sum_hessian":[3.49E2,1.62E2,1.87E2,1.34E2,2.8E1,9.2E1,9.5E1,7.1E1,6.3E1,8E0,2E1,5E1,4.2E1,5.5E1,4E1,4E0,5.9E1,1.2E1,8E0,5E0,4.5E1,4E0,3.8E1,7E0,4.8E1,4E1,5E0,2.8E1,1E1,7E0,3.3E1,2.4E1,4E0,5E0,2.8E1,7E0,2.1E1,5E0,1.6E1,1.2E1,4E0,4E0,8E0],"tree_param":{"num_deleted":"0","num_feature":"18","num_nodes":"43","size_leaf_vector":"1"}},{"base_weights":[-4.1843895E-4,-1.3699706E0,1.2071458E0,-1.5699826E0,-3.847424E-1,3.5677603E-1,2.0006511E0,-6.684434E-2,-1.3105413E0,-6.903007E-1,-2.3546778E-1,1.3842943E-1,6.082178E-1,1.4533955E0,2.669661E0,-1.4033471E0,-3.825794E-2,-3.0466264E-2,-1.4434112E-2,-3.366546E-1,5.420168E-4,7.891597E-2,2.37871E-2,4.699238E-1,3.3056866E-2,3.137897E-2,5.400629E-2,6.755742E-2,1.023089E-1,-5.319749E-2,-3.069799E-2,-1.49223525E-2,-7.887632E-3,4.2903576E-2,1.1268916E-2,5.772312E-1,-7.3544253E-3,-2.7381707E-2,1.4374053E-1,1.2602436E-2,2.2617623E-2,-4.9312054E-3,2.2619937E-2,2.2735149E-3,6.221689E-3,-2.4296944E-3,1.01229765E-1,5.5590607E-3,6.4518885E-4],"categories":[],"categories_nodes":[],"categories_segments":[],"categories_sizes":[],"default_left":[0,0,0,0,0,0,0,0,0,0,0,0,0,0,0,0,0,0,0,0,0,0,0,0,0,0,0,0,0,0,0,0,0,0,0,0,0,0,0,0,0,0,0,0,0,0,0,0,0],"id":12,"left_children":[1,3,5,7,9,11,13,-1,15,17,19,21,23,25,27,29,-1,-1,-1,31,-1,33,-1,35,-1,-1,-1,-1,-1,-1,-1,-1,-1,37,-1,39,-1,41,43,-1,-1,-1,45,-1,-1,-1,47,-1,-1],"loss_changes":[5.788377E2,3.171344E1,1.2479401E2,7.448944E0,1.1602077E0,4.9118376E0,3.1267395E1,0E0,2.4363708E-1,6.322718E-2,5.3727317E-1,1.4949203E0,1.35081E0,2.5856018E-2,1.362915E-1,6.92749E-1,0E0,0E0,0E0,4.533899E-2,0E0,3.7248886E-1,0E0,2.3577147E0,0E0,0E0,0E0,0E0,0E0,0E0,0E0,0E0,0E0,2.945174E-1,0E0,8.1977844E-2,0E0,1.3944247E-1,2.8236628E-2,0E0,0E0,0E0,1.3395286E-1,0E0,0E0,0E0,4.1115172E-2,0E0,0E0],"parents":[2147483647,0,0,1,1,2,2,3,3,4,4,5,5,6,6,8,8,9,9,10,10,11,11,12,12,13,13,14,14,15,15,19,19,21,21,23,23,33,33,35,35,37,37,38,38,42,42,46,46],"right_children":[2,4,6,8,10,12,14,-1,16,18,20,22,24,26,28,30,-1,-1,-1,32,-1,34,-1,36,-1,-1,-1,-1,-1,-1,-1,-1,-1,38,-1,40,-1,42,44,-1,-1,-1,46,-1,-1,-1,48,-1,-1],"split_conditions":[1.1167585E1,9.07E0,1.226E1,7.98E0,1.0776552E1,1.123E1,1.378E1,-6.684434E-2,9.036E0,4.4059353E1,4.3435963E1,4.741802E1,1.173E1,1.22E1,4.71875E1,1.4333957E2,-3.825794E-2,-3.0466264E-2,-1.4434112E-2,3.7942715E1,5.420168E-4,1.1417681E1,2.37871E-2,6.956792E1,3.3056866E-2,3.137897E-2,5.400629E-2,6.755742E-2,1.023089E-1,-5.319749E-2,-3.069799E-2,-1.49223525E-2,-7.887632E-3,-4.9847248E1,1.1268916E-2,3.6265553E1,-7.3544253E-3,1.0748621E1,1.163181E1,1.2602436E-2,2.2617623E-2,-4.9312054E-3,3.855342E1,2.2735149E-3,6.221689E-3,-2.4296944E-3,4.153246E1,5.5590607E-3,6.4518885E-4],"split_indices":[3,13,13,13,3,13,13,0,0,2,2,11,13,14,2,11,0,0,0,2,0,1,0,10,0,0,0,0,0,0,0,0,0,11,0,2,0,1,3,0,0,0,2,0,0,0,2,0,0],"split_type":[0,0,0,0,0,0,0,0,0,0,0,0,0,0,0,0,0,0,0,0,0,0,0,0,0,0,0,0,0,0,0,0,0,0,0,0,0,0,0,0,0,0,0,0,0,0,0,0,0],"sum_hessian":[3.48E2,1.63E2,1.85E2,1.35E2,2.8E1,9E1,9.5E1,6.2E1,7.3E1,8E0,2E1,4.9E1,4.1E1,5.4E1,4.1E1,5E1,2.3E1,4E0,4E0,1.4E1,6E0,4.5E1,4E0,3E1,1.1E1,5E0,4.9E1,9E0,3.2E1,4.3E1,7E0,7E0,7E0,4E1,5E0,2.6E1,4E0,2.4E1,1.6E1,6E0,2E1,7E0,1.7E1,5E0,1.1E1,8E0,9E0,5E0,4E0],"tree_param":{"num_deleted":"0","num_feature":"18","num_nodes":"49","size_leaf_vector":"1"}},{"base_weights":[6.0892263E-3,-1.2119249E0,1.2584761E0,-1.5003679E0,-2.4462424E-1,4.184752E-1,1.9313496E0,-6.446721E-2,-1.2520288E0,-5.171169E-1,-9.524444E-2,-9.509204E-2,5.105031E-1,5.3791292E-2,2.6858E0,-3.7250105E-2,-1.34892E0,-7.4586584E-3,-2.2091288E-2,-9.137129E-3,-3.3602413E-2,4.1822693E-3,-1.6462306E-2,1.2446046E-1,6.5765315E-1,7.277738E-2,1.06555626E-1,-5.1094297E-2,-2.9727358E-2,-6.058806E-3,2.7151048E-2,1.2879618E-2,-4.1007996E-4,4.2640755E-1,7.2931385E-1,1.183856E-1,-3.8688113E-3,-2.323877E-3,3.4512389E-3,4.8781857E-3,1.9132989E-2,1.3056753E-2,2.7608614E-2,6.389574E-3,1.8053098E-3],"categories":[],"categories_nodes":[],"categories_segments":[],"categories_sizes":[],"default_left":[0,0,0,0,0,0,0,0,0,0,0,0,0,0,0,0,0,0,0,0,0,0,0,0,0,0,0,0,0,0,0,0,0,0,0,0,0,0,0,0,0,0,0,0,0],"id":13,"left_children":[1,3,5,7,9,11,13,-1,15,17,19,21,23,-1,25,-1,27,-1,-1,-1,29,-1,-1,31,33,-1,-1,-1,-1,-1,35,-1,37,39,41,43,-1,-1,-1,-1,-1,-1,-1,-1,-1],"loss_changes":[5.476274E2,5.0412933E1,9.923468E1,7.6282043E0,1.7010584E0,3.829548E0,2.8738464E1,0E0,2.8118134E-1,3.1295252E-1,2.732502E-1,1.0407064E0,3.7809696E0,0E0,2.4398804E-1,0E0,5.821228E-1,0E0,0E0,0E0,1.8374003E-1,0E0,0E0,5.794481E-1,5.010071E-1,0E0,0E0,0E0,0E0,0E0,2.0859367E-1,0E0,9.1948554E-2,3.4900618E-1,1.8373299E-1,3.1151384E-2,0E0,0E0,0E0,0E0,0E0,0E0,0E0,0E0,0E0],"parents":[2147483647,0,0,1,1,2,2,3,3,4,4,5,5,6,6,8,8,9,9,10,10,11,11,12,12,14,14,16,16,20,20,23,23,24,24,30,30,32,32,33,33,34,34,35,35],"right_children":[2,4,6,8,10,12,14,-1,16,18,20,22,24,-1,26,-1,28,-1,-1,-1,30,-1,-1,32,34,-1,-1,-1,-1,-1,36,-1,38,40,42,44,-1,-1,-1,-1,-1,-1,-1,-1,-1],"split_conditions":[4.4874415E-1,9.22E0,1.226E1,7.98E0,9.94E0,9.29052E0,1.4437346E1,-6.446721E-2,-1.6674092E-1,9.56E0,3.7942715E1,1.078E1,4.8429275E-1,5.3791292E-2,-4.292465E1,-3.7250105E-2,1.4333957E2,-7.4586584E-3,-2.2091288E-2,-9.137129E-3,4.037151E-1,4.1822693E-3,-1.6462306E-2,1.0909419E1,5.065229E-1,7.277738E-2,1.06555626E-1,-5.1094297E-2,-2.9727358E-2,-6.058806E-3,4.257539E-1,1.2879618E-2,1.1249908E1,-8.4535805E1,-1.5928061E2,-1.5071616E-1,-3.8688113E-3,-2.323877E-3,3.4512389E-3,4.8781857E-3,1.9132989E-2,1.3056753E-2,2.7608614E-2,6.389574E-3,1.8053098E-3],"split_indices":[5,13,13,13,13,4,1,0,7,13,2,15,5,0,11,0,11,0,0,0,5,0,0,1,5,0,0,0,0,0,5,0,1,11,11,7,0,0,0,0,0,0,0,0,0],"split_type":[0,0,0,0,0,0,0,0,0,0,0,0,0,0,0,0,0,0,0,0,0,0,0,0,0,0,0,0,0,0,0,0,0,0,0,0,0,0,0,0,0,0,0,0,0],"sum_hessian":[3.57E2,1.81E2,1.76E2,1.39E2,4.2E1,7.9E1,9.7E1,6.2E1,7.7E1,1.4E1,2.8E1,1.2E1,6.7E1,6.3E1,3.4E1,2.7E1,5E1,4E0,1E1,7E0,2.1E1,8E0,4E0,1.9E1,4.8E1,1.2E1,2.2E1,4.3E1,7E0,6E0,1.5E1,6E0,1.3E1,1.3E1,3.5E1,9E0,6E0,8E0,5E0,4E0,9E0,4E0,3.1E1,4E0,5E0],"tree_param":{"num_deleted":"0","num_feature":"18","num_nodes":"45","size_leaf_vector":"1"}},{"base_weights":[-4.7935136E-3,-1.0177621E0,1.3905857E0,-1.4500405E0,-1.0645294E-1,9.253558E-1,2.432407E0,-1.6583592E0,-1.1496494E0,-4.9644712E-1,3.8501245E-3,4.3604442E-1,1.2791749E0,7.045059E-2,9.9734455E-2,-1.7602725E0,-4.637525E-2,-4.258768E-2,-2.1332882E-2,-7.0474013E-3,-6.276558E-1,-1.3977498E-1,1.2340937E-1,-8.796986E-3,5.065536E-1,3.1428132E-2,4.850911E-2,-6.585471E-2,-3.68777E-2,-2.9457035E-2,-1.3254007E-2,-2.4052921E-1,-2.8268814E-2,-3.197628E-3,1.6932857E-1,2.7838713E-1,5.992356E-1,-1.0206795E-2,-4.226304E-3,-3.4458542E-3,2.3811795E-3,1.4943082E-2,8.760343E-2,3.3633437E-3,1.4661683E-2,9.9570425E-3,2.312715E-2,2.914691E-2,9.292121E-3,-1.9243717E-3,4.2714193E-3],"categories":[],"categories_nodes":[],"categories_segments":[],"categories_sizes":[],"default_left":[0,0,0,0,0,0,0,0,0,0,0,0,0,0,0,0,0,0,0,0,0,0,0,0,0,0,0,0,0,0,0,0,0,0,0,0,0,0,0,0,0,0,0,0,0,0,0,0,0,0,0],"id":14,"left_children":[1,3,5,7,9,11,13,15,17,19,21,23,25,-1,-1,27,-1,-1,-1,-1,29,31,33,-1,35,-1,-1,-1,-1,-1,-1,37,39,-1,41,43,45,-1,-1,-1,-1,-1,47,-1,-1,-1,-1,49,-1,-1,-1],"loss_changes":[5.074394E2,8.178502E1,7.09368E1,6.916809E0,2.9271052E0,1.779377E1,1.8942261E0,8.365936E-1,2.8995514E-1,4.7082996E-1,9.445217E-1,2.327177E0,4.1181183E-1,0E0,0E0,9.443817E-1,0E0,0E0,0E0,0E0,1.901927E-1,2.7406844E-1,3.0688962E-1,0E0,7.213497E-1,0E0,0E0,0E0,0E0,0E0,0E0,3.431809E-2,8.840973E-2,0E0,4.6269715E-1,2.9262924E-1,2.0634937E-1,0E0,0E0,0E0,0E0,0E0,1.9071963E-1,0E0,0E0,0E0,0E0,1.23708874E-1,0E0,0E0,0E0],"parents":[2147483647,0,0,1,1,2,2,3,3,4,4,5,5,6,6,7,7,8,8,9,9,10,10,11,11,12,12,15,15,20,20,21,21,22,22,24,24,31,31,32,32,34,34,35,35,36,36,42,42,47,47],"right_children":[2,4,6,8,10,12,14,16,18,20,22,24,26,-1,-1,28,-1,-1,-1,-1,30,32,34,-1,36,-1,-1,-1,-1,-1,-1,38,40,-1,42,44,46,-1,-1,-1,-1,-1,48,-1,-1,-1,-1,50,-1,-1,-1],"split_conditions":[1.078E1,9.22E0,1.357E1,8.17E0,9.85E0,1.177E1,1.447E1,8.1881E0,1.5963087E2,9.56E0,-7.157895E1,1.0706726E1,1.226E1,7.045059E-2,9.9734455E-2,6.9651E1,-4.637525E-2,-4.258768E-2,-2.1332882E-2,-7.0474013E-3,9.95E0,1.0706726E1,1.0140522E1,-8.796986E-3,-8.083022E1,3.1428132E-2,4.850911E-2,-6.585471E-2,-3.68777E-2,-2.9457035E-2,-1.3254007E-2,-8.2608696E1,-1.4179684E2,-3.197628E-3,1.01E1,1.0774152E1,1.080897E1,-1.0206795E-2,-4.226304E-3,-3.4458542E-3,2.3811795E-3,1.4943082E-2,2.9672455E1,3.3633437E-3,1.4661683E-2,9.9570425E-3,2.312715E-2,1.0772547E1,9.292121E-3,-1.9243717E-3,4.2714193E-3],"split_indices":[13,13,13,13,13,13,13,0,11,13,12,1,13,0,0,11,0,0,0,0,15,1,1,0,12,0,0,0,0,0,0,12,11,0,15,4,1,0,0,0,0,0,11,0,0,0,0,1,0,0,0],"split_type":[0,0,0,0,0,0,0,0,0,0,0,0,0,0,0,0,0,0,0,0,0,0,0,0,0,0,0,0,0,0,0,0,0,0,0,0,0,0,0,0,0,0,0,0,0,0,0,0,0,0,0],"sum_hessian":[3.57E2,2.07E2,1.5E2,1.4E2,6.7E1,1.05E2,4.5E1,8E1,6E1,1.4E1,5.3E1,4.5E1,6E1,2.1E1,2.4E1,6E1,2E1,5.6E1,4E0,5E0,9E0,2.4E1,2.9E1,4E0,4.1E1,1E1,5E1,5.4E1,6E0,4E0,5E0,1.2E1,1.2E1,5E0,2.4E1,1.3E1,2.8E1,8E0,4E0,7E0,5E0,5E0,1.9E1,6E0,7E0,4E0,2.4E1,1.5E1,4E0,8E0,7E0],"tree_param":{"num_deleted":"0","num_feature":"18","num_nodes":"51","size_leaf_vector":"1"}},{"base_weights":[-1.1269443E-3,-1.2156973E0,1.0390165E0,-1.3912158E0,-3.688128E-1,3.1657964E-1,1.7135028E0,-1.492564E0,-3.5901103E-2,-6.829187E-1,-1.9331917E-1,1.12137504E-1,5.6815064E-1,1.2960995E0,2.3847666E0,-6.0669463E-2,-4.2549573E-2,-3.3192854E-2,-1.3469119E-2,-1.1156266E-2,-6.489061E-4,3.4522548E-1,4.1181564E-2,3.4584984E-1,2.6900204E-2,1.1399269E0,5.9351195E-2,6.4775094E-2,9.545545E-2,1.7964564E-2,5.987588E-3,1.1046154E-2,-4.0460164E-3,-6.6178283E-3,5.3438795E-1,2.159544E-2,4.2544503E-2,-1.4097786E-1,4.011229E-2,1.0836092E-2,2.246425E-2,-1.3063818E-3,-7.863475E-3,-3.2663795E-3,9.683337E-2,1.5000026E-2,7.0531988E-3,2.02387E-3,-1.9372966E-3],"categories":[],"categories_nodes":[],"categories_segments":[],"categories_sizes":[],"default_left":[0,0,0,0,0,0,0,0,0,0,0,0,0,0,0,0,0,0,0,0,0,0,0,0,0,0,0,0,0,0,0,0,0,0,0,0,0,0,0,0,0,0,0,0,0,0,0,0,0],"id":15,"left_children":[1,3,5,7,9,11,13,15,-1,17,19,21,23,25,27,-1,-1,-1,-1,-1,-1,29,31,33,-1,35,-1,-1,-1,-1,-1,-1,37,-1,39,-1,-1,41,43,-1,-1,-1,-1,-1,45,47,-1,-1,-1],"loss_changes":[4.4090106E2,2.341858E1,9.106505E1,3.8780212E0,1.466563E0,4.668007E0,2.408731E1,4.1297607E0,0E0,3.8852978E-1,3.9923108E-1,8.458098E-1,1.3490973E0,1.4812851E0,7.3991394E-1,0E0,0E0,0E0,0E0,0E0,0E0,2.4490023E-1,4.917108E-1,2.0925508E0,0E0,2.2987747E-1,0E0,0E0,0E0,0E0,0E0,0E0,2.2333537E-1,0E0,1.2058449E-1,0E0,0E0,6.442876E-2,2.1601771E-1,0E0,0E0,0E0,0E0,0E0,1.5804145E-1,3.6765292E-2,0E0,0E0,0E0],"parents":[2147483647,0,0,1,1,2,2,3,3,4,4,5,5,6,6,7,7,9,9,10,10,11,11,12,12,13,13,14,14,21,21,22,22,23,23,25,25,32,32,34,34,37,37,38,38,44,44,45,45],"right_children":[2,4,6,8,10,12,14,16,-1,18,20,22,24,26,28,-1,-1,-1,-1,-1,-1,30,32,34,-1,36,-1,-1,-1,-1,-1,-1,38,-1,40,-1,-1,42,44,-1,-1,-1,-1,-1,46,48,-1,-1,-1],"split_conditions":[1.1167585E1,9.18E0,1.227E1,8.788E0,1.0783687E1,1.123E1,1.2549633E1,4.929993E1,-3.5901103E-2,4.0001865E1,2.3540375E1,1.06272E1,-4.9847248E1,5.3325954E1,4.71875E1,-6.0669463E-2,-4.2549573E-2,-3.3192854E-2,-1.3469119E-2,-1.1156266E-2,-6.489061E-4,1.1637451E1,1.01E1,1.0556797E1,2.6900204E-2,3.741385E1,5.9351195E-2,6.4775094E-2,9.545545E-2,1.7964564E-2,5.987588E-3,1.1046154E-2,9.839213E0,-6.6178283E-3,1.10578E1,2.159544E-2,4.2544503E-2,1.7216795E1,-1.4179684E2,1.0836092E-2,2.246425E-2,-1.3063818E-3,-7.863475E-3,-3.2663795E-3,2.2138096E1,1.1046E1,7.0531988E-3,2.02387E-3,-1.9372966E-3],"split_indices":[3,15,15,0,3,15,4,2,0,2,8,0,11,2,2,0,0,0,0,0,0,8,15,4,0,2,0,0,0,0,0,0,4,0,0,0,0,8,11,0,0,0,0,0,8,0,0,0,0],"split_type":[0,0,0,0,0,0,0,0,0,0,0,0,0,0,0,0,0,0,0,0,0,0,0,0,0,0,0,0,0,0,0,0,0,0,0,0,0,0,0,0,0,0,0,0,0,0,0,0,0],"sum_hessian":[3.47E2,1.6E2,1.87E2,1.32E2,2.8E1,9.1E1,9.6E1,1.03E2,2.9E1,9E0,1.9E1,5.1E1,4E1,6.1E1,3.5E1,6.2E1,4.1E1,4E0,5E0,1.1E1,8E0,1.1E1,4E1,1.9E1,2.1E1,4.5E1,1.6E1,1.3E1,2.2E1,5E0,6E0,5E0,3.5E1,5E0,1.4E1,4E0,4.1E1,8E0,2.7E1,5E0,9E0,4E0,4E0,8E0,1.9E1,1.1E1,8E0,7E0,4E0],"tree_param":{"num_deleted":"0","num_feature":"18","num_nodes":"49","size_leaf_vector":"1"}},{"base_weights":[-1.9253844E-2,-1.2525669E0,9.650023E-1,-1.5446256E0,-9.332165E-1,2.7561918E-1,1.6946008E0,-6.6853955E-2,-5.083912E-2,-1.0693635E0,-4.199842E-1,7.55545E-2,5.6439036E-1,1.2503917E0,8.166696E-2,-1.0971043E0,-1.9486139E-2,-2.1842815E-2,-2.7737308E-1,-1.8099308E-2,2.3514569E-1,3.1170675E-1,6.550736E-1,2.840863E-2,4.7000777E-2,-2.0808924E-2,-4.0673837E-2,-4.461279E-3,-1.2246398E-2,1.0104233E-1,-9.3625985E-2,-2.9342731E-2,4.8003864E-1,1.756812E-2,3.3503862E-3,5.4803497E-1,2.9427195E-2,-5.104003E-3,2.2401315E-1,-2.1099043E-1,-1.4421582E-2,-6.5468596E-3,3.793891E-3,6.336937E-3,2.2059374E-2,2.6799109E-2,1.4391849E-2,4.222934E-3,9.704211E-3,-1.1067488E-2,-3.4843166E-3,1.9287637E-3,-2.6409228E-3],"categories":[],"categories_nodes":[],"categories_segments":[],"categories_sizes":[],"default_left":[0,0,0,0,0,0,0,0,0,0,0,0,0,0,0,0,0,0,0,0,0,0,0,0,0,0,0,0,0,0,0,0,0,0,0,0,0,0,0,0,0,0,0,0,0,0,0,0,0,0,0,0,0],"id":16,"left_children":[1,3,5,7,9,11,13,-1,-1,15,17,19,21,23,-1,25,-1,-1,27,29,31,33,35,-1,-1,-1,-1,-1,-1,37,39,41,43,-1,-1,45,-1,-1,47,49,51,-1,-1,-1,-1,-1,-1,-1,-1,-1,-1,-1,-1],"loss_changes":[4.3214178E2,1.3295044E1,9.912158E1,8.049774E-1,5.001129E0,5.9079685E0,2.128476E1,0E0,0E0,3.0545044E-1,3.058946E-1,9.30928E-1,7.5820446E-1,2.8444672E-1,0E0,1.9786072E-1,0E0,0E0,7.17957E-2,3.6939505E-1,1.5038266E0,4.5159352E-1,6.516266E-2,0E0,0E0,0E0,0E0,0E0,0E0,5.0834817E-1,2.293517E-1,2.6376984E-1,3.697648E-1,0E0,0E0,3.134718E-1,0E0,0E0,2.1107614E-2,7.963249E-2,6.753378E-2,0E0,0E0,0E0,0E0,0E0,0E0,0E0,0E0,0E0,0E0,0E0,0E0],"parents":[2147483647,0,0,1,1,2,2,3,3,4,4,5,5,6,6,9,9,10,10,11,11,12,12,13,13,15,15,18,18,19,19,20,20,21,21,22,22,29,29,30,30,31,31,32,32,35,35,38,38,39,39,40,40],"right_children":[2,4,6,8,10,12,14,-1,-1,16,18,20,22,24,-1,26,-1,-1,28,30,32,34,36,-1,-1,-1,-1,-1,-1,38,40,42,44,-1,-1,46,-1,-1,48,50,52,-1,-1,-1,-1,-1,-1,-1,-1,-1,-1,-1,-1],"split_conditions":[9.94E0,8.17E0,1.226E1,7.36E0,9.22E0,1.123E1,1.37E1,-6.6853955E-2,-5.083912E-2,1.5963087E2,4.0001865E1,4.745059E1,-9.982013E1,1.0448098E1,8.166696E-2,-4.3774813E-1,-1.9486139E-2,-2.1842815E-2,2.460357E1,-3.328799E-1,9.29052E0,-4.3104768E-1,1.169E1,2.840863E-2,4.7000777E-2,-2.0808924E-2,-4.0673837E-2,-4.461279E-3,-1.2246398E-2,-1.4179684E2,-2.2053024E-1,1.01E1,5.311173E1,1.756812E-2,3.3503862E-3,1.145E1,2.9427195E-2,-5.104003E-3,-9.568717E1,1.035E1,-2.3392263E-1,-6.5468596E-3,3.793891E-3,6.336937E-3,2.2059374E-2,2.6799109E-2,1.4391849E-2,4.222934E-3,9.704211E-3,-1.1067488E-2,-3.4843166E-3,1.9287637E-3,-2.6409228E-3],"split_indices":[13,13,13,13,13,15,13,0,0,11,2,2,11,4,0,7,0,0,10,6,4,6,13,0,0,0,0,0,0,11,7,16,2,0,0,16,0,0,11,14,6,0,0,0,0,0,0,0,0,0,0,0,0],"split_type":[0,0,0,0,0,0,0,0,0,0,0,0,0,0,0,0,0,0,0,0,0,0,0,0,0,0,0,0,0,0,0,0,0,0,0,0,0,0,0,0,0,0,0,0,0,0,0,0,0,0,0,0,0],"sum_hessian":[3.54E2,1.57E2,1.97E2,8E1,7.7E1,1.02E2,9.5E1,2.1E1,5.9E1,6E1,1.7E1,6.1E1,4.1E1,5.5E1,4E1,5.6E1,4E0,6E0,1.1E1,3.9E1,2.2E1,1.2E1,2.9E1,7E0,4.8E1,4E0,5.2E1,4E0,7E0,1.5E1,2.4E1,1.1E1,1.1E1,6E0,6E0,2E1,9E0,5E0,1E1,9E0,1.5E1,5E0,6E0,4E0,7E0,7E0,1.3E1,4E0,6E0,4E0,5E0,7E0,8E0],"tree_param":{"num_deleted":"0","num_feature":"18","num_nodes":"53","size_leaf_vector":"1"}},{"base_weights":[-6.682846E-4,-1.2091852E0,9.386279E-1,-1.4497263E0,-8.4642357E-1,2.5822344E-1,1.6724862E0,-1.4946401E0,-2.8391588E-2,-3.5904385E-2,-4.069494E-1,6.818983E-2,5.461749E-1,1.229624E0,2.272824E0,-5.936849E-2,-4.5309532E-2,-6.245588E-3,-4.8369795E-1,-3.478857E-2,2.1441086E-1,3.020519E-1,6.3375574E-1,2.7510367E-2,4.6216976E-2,6.420869E-2,9.0315394E-2,-2.3263851E-2,-6.852422E-3,8.145491E-2,-1.0314312E-1,3.100812E-1,-6.2195575E-3,1.7023958E-2,3.2466166E-3,5.301927E-1,2.8470142E-2,-4.950303E-3,7.3853545E-3,-9.785181E-3,-2.2904025E-2,1.2642267E-1,2.0283774E-2,2.5951747E-2,3.8490596E-1,1.2902154E-3,-2.6509783E-3,7.4013206E-3,-2.0111208E-3,8.395034E-3,1.6039426E-2],"categories":[],"categories_nodes":[],"categories_segments":[],"categories_sizes":[],"default_left":[0,0,0,0,0,0,0,0,0,0,0,0,0,0,0,0,0,0,0,0,0,0,0,0,0,0,0,0,0,0,0,0,0,0,0,0,0,0,0,0,0,0,0,0,0,0,0,0,0,0,0],"id":17,"left_children":[1,3,5,7,9,11,13,15,-1,-1,17,19,21,23,25,-1,-1,-1,27,29,31,33,35,-1,-1,-1,-1,-1,-1,37,39,41,-1,-1,-1,43,-1,-1,-1,-1,45,47,-1,-1,49,-1,-1,-1,-1,-1,-1],"loss_changes":[4.0752066E2,1.247258E1,1.0043088E2,1.59935E0,3.7996635E0,5.763126E0,2.2994385E1,1.0104218E0,0E0,0E0,2.3982143E-1,9.862037E-1,7.065544E-1,3.6684418E-1,5.24292E-2,0E0,0E0,0E0,4.8992443E-1,3.1828657E-1,1.0518064E0,4.2405057E-1,6.107521E-2,0E0,0E0,0E0,0E0,0E0,0E0,4.3077588E-1,3.3009008E-1,9.4415927E-1,0E0,0E0,0E0,2.9709578E-1,0E0,0E0,0E0,0E0,5.5849414E-2,2.1123719E-1,0E0,0E0,2.2829771E-2,0E0,0E0,0E0,0E0,0E0,0E0],"parents":[2147483647,0,0,1,1,2,2,3,3,4,4,5,5,6,6,7,7,10,10,11,11,12,12,13,13,14,14,18,18,19,19,20,20,21,21,22,22,29,29,30,30,31,31,35,35,40,40,41,41,44,44],"right_children":[2,4,6,8,10,12,14,16,-1,-1,18,20,22,24,26,-1,-1,-1,28,30,32,34,36,-1,-1,-1,-1,-1,-1,38,40,42,-1,-1,-1,44,-1,-1,-1,-1,46,48,-1,-1,50,-1,-1,-1,-1,-1,-1],"split_conditions":[9.94E0,8.31E0,1.226E1,8.604569E1,9.22E0,1.123E1,1.384E1,7.3459277E0,-2.8391588E-2,-3.5904385E-2,9.56E0,4.4391785E1,-9.982013E1,1.0448098E1,1.447E1,-5.936849E-2,-4.5309532E-2,-6.245588E-3,9.83E0,-3.328799E-1,8.138045E1,-4.3104768E-1,1.169E1,2.7510367E-2,4.6216976E-2,6.420869E-2,9.0315394E-2,-2.3263851E-2,-6.852422E-3,-1.4179684E2,-2.2053024E-1,4.741802E1,-6.2195575E-3,1.7023958E-2,3.2466166E-3,1.145E1,2.8470142E-2,-4.950303E-3,7.3853545E-3,-9.785181E-3,-2.3392263E-1,6.185246E1,2.0283774E-2,2.5951747E-2,3.231388E1,1.2902154E-3,-2.6509783E-3,7.4013206E-3,-2.0111208E-3,8.395034E-3,1.6039426E-2],"split_indices":[13,13,13,11,13,15,13,4,0,0,13,9,11,4,13,0,0,0,13,6,10,6,13,0,0,0,0,0,0,11,7,11,0,0,0,16,0,0,0,0,6,10,0,0,10,0,0,0,0,0,0],"split_type":[0,0,0,0,0,0,0,0,0,0,0,0,0,0,0,0,0,0,0,0,0,0,0,0,0,0,0,0,0,0,0,0,0,0,0,0,0,0,0,0,0,0,0,0,0,0,0,0,0,0,0],"sum_hessian":[3.57E2,1.56E2,2.01E2,9.2E1,6.4E1,1.05E2,9.6E1,8.5E1,7E0,4.7E1,1.7E1,6.4E1,4.1E1,5.7E1,3.9E1,4.9E1,3.6E1,5E0,1.2E1,3.8E1,2.6E1,1.2E1,2.9E1,7E0,5E1,1.5E1,2.4E1,7E0,5E0,1.4E1,2.4E1,2.1E1,5E0,6E0,6E0,2E1,9E0,5E0,9E0,7E0,1.7E1,1.3E1,8E0,7E0,1.3E1,8E0,9E0,9E0,4E0,5E0,8E0],"tree_param":{"num_deleted":"0","num_feature":"18","num_nodes":"51","size_leaf_vector":"1"}},{"base_weights":[1.3735331E-2,-9.2830724E-1,1.1475906E0,-1.2608379E0,-1.4042567E-1,7.873813E-1,2.1580133E0,-1.3593831E0,-3.2341868E-2,-4.1820303E-1,-4.471264E-2,3.9025566E-1,1.1467944E0,6.345964E-2,8.829923E-2,-5.5770814E-2,-1.0858592E0,-5.622913E-1,-6.3484337E-4,-1.5168516E-1,1.7934474E-1,8.638585E-2,4.8287323E-1,2.3907933E-2,4.2539697E-2,-4.176044E-2,-2.7417827E-2,-2.7577275E-2,-1.2231671E-2,-2.2466078E-1,-1.7418703E-2,1.1604277E-2,4.9141247E-2,7.992977E-3,-2.1399162E-3,4.1268596E-1,3.1449437E-2,-1.1848971E-2,-1.4384732E-1,-3.5508338E-3,1.9645302E-3,5.141495E-3,-1.9451194E-3,3.2111812E-1,2.089249E-2,-1.4141556E-3,-7.386224E-3,7.8357436E-2,1.6320137E-2,-1.0145722E-3,5.174223E-3],"categories":[],"categories_nodes":[],"categories_segments":[],"categories_sizes":[],"default_left":[0,0,0,0,0,0,0,0,0,0,0,0,0,0,0,0,0,0,0,0,0,0,0,0,0,0,0,0,0,0,0,0,0,0,0,0,0,0,0,0,0,0,0,0,0,0,0,0,0,0,0],"id":18,"left_children":[1,3,5,7,9,11,13,15,-1,17,19,21,23,-1,-1,-1,25,27,-1,29,31,33,35,-1,-1,-1,-1,-1,-1,37,39,-1,41,-1,-1,43,-1,-1,45,-1,-1,-1,-1,47,-1,-1,-1,49,-1,-1,-1],"loss_changes":[3.8132318E2,5.0911926E1,5.726294E1,3.7223358E0,1.549929E0,1.6823067E1,5.2801514E-1,3.6583405E0,0E0,8.5602355E-1,1.1057632E0,1.6187639E0,1.5094757E-1,0E0,0E0,0E0,1.7331696E-1,2.3616481E-1,0E0,2.998302E-1,2.611306E-1,3.0752417E-1,8.645258E-1,0E0,0E0,0E0,0E0,0E0,0E0,1.1969483E-1,7.498197E-2,0E0,9.397442E-2,0E0,0E0,4.2043972E-1,0E0,0E0,7.443091E-2,0E0,0E0,0E0,0E0,8.51753E-1,0E0,0E0,0E0,7.9921916E-2,0E0,0E0,0E0],"parents":[2147483647,0,0,1,1,2,2,3,3,4,4,5,5,6,6,7,7,9,9,10,10,11,11,12,12,16,16,17,17,19,19,20,20,21,21,22,22,29,29,30,30,32,32,35,35,38,38,43,43,47,47],"right_children":[2,4,6,8,10,12,14,16,-1,18,20,22,24,-1,-1,-1,26,28,-1,30,32,34,36,-1,-1,-1,-1,-1,-1,38,40,-1,42,-1,-1,44,-1,-1,46,-1,-1,-1,-1,48,-1,-1,-1,50,-1,-1,-1],"split_conditions":[1.066E1,9.22E0,1.384E1,8.788E0,1.0140576E1,1.2479459E1,1.466E1,-5.1572895E1,-3.2341868E-2,5.4092383E-1,-5.733488E1,1.078E1,-1.4797566E2,6.345964E-2,8.829923E-2,-5.5770814E-2,1.2795864E2,4.045911E1,-6.3484337E-4,1.0748621E1,-2.3187728E-1,1.06272E1,5.8602062E1,2.3907933E-2,4.2539697E-2,-4.176044E-2,-2.7417827E-2,-2.7577275E-2,-1.2231671E-2,1.4603986E1,9.408957E0,1.1604277E-2,1.06794E1,7.992977E-3,-2.1399162E-3,1.2624E1,3.1449437E-2,-1.1848971E-2,2.3742512E1,-3.5508338E-3,1.9645302E-3,5.141495E-3,-1.9451194E-3,4.4174366E1,2.089249E-2,-1.4141556E-3,-7.386224E-3,1.123E1,1.6320137E-2,-1.0145722E-3,5.174223E-3],"split_indices":[14,14,14,0,1,1,14,12,0,6,11,17,11,0,0,0,11,2,0,1,6,0,2,0,0,0,0,0,0,9,9,0,0,0,0,0,0,0,9,0,0,0,0,2,0,0,0,17,0,0,0],"split_type":[0,0,0,0,0,0,0,0,0,0,0,0,0,0,0,0,0,0,0,0,0,0,0,0,0,0,0,0,0,0,0,0,0,0,0,0,0,0,0,0,0,0,0,0,0,0,0,0,0,0,0],"sum_hessian":[3.55E2,1.94E2,1.61E2,1.36E2,5.8E1,1.2E2,4.1E1,1.05E2,3.1E1,1.4E1,4.4E1,5.8E1,6.2E1,2E1,2.1E1,6E1,4.5E1,1E1,4E0,3E1,1.4E1,1.4E1,4.4E1,5E0,5.7E1,3.5E1,1E1,4E0,6E0,1.9E1,1.1E1,6E0,8E0,7E0,7E0,3.9E1,5E0,7E0,1.2E1,5E0,6E0,4E0,4E0,2.7E1,1.2E1,5E0,7E0,1E1,1.7E1,4E0,6E0],"tree_param":{"num_deleted":"0","num_feature":"18","num_nodes":"51","size_leaf_vector":"1"}},{"base_weights":[1.5592892E-2,-8.493486E-1,1.1612583E0,-1.2194612E0,-9.119021E-2,7.767188E-1,2.0472052E0,-1.4742545E0,-1.03593E0,-4.305753E-1,4.772133E-3,3.6406747E-1,1.0611757E0,5.8927376E-2,8.426278E-2,-5.6478694E-2,-3.8573947E-2,-1.1173844E0,-2.8990421E-2,-5.824182E-3,-5.491584E-1,-9.095058E-2,1.3774407E-1,-8.744776E-3,4.275497E-1,2.6526058E-2,1.1081582E0,-4.256462E-2,-2.5405435E-2,-2.6308933E-2,-1.11497985E-2,-1.9528538E-1,1.25969155E-2,-3.1411105E-3,2.0498127E-1,2.6558605E-1,4.834823E-1,2.3165487E-2,4.129389E-2,-2.469061E-1,-2.46085E-3,-2.9457689E-3,3.1304571E-3,3.0955002E-1,1.2855927E-3,4.521633E-3,1.3301733E-2,8.330386E-3,5.135316E-1,-1.0566718E-2,-4.835391E-3,1.6231576E-2,5.983822E-3,2.373649E-2,1.3836191E-2],"categories":[],"categories_nodes":[],"categories_segments":[],"categories_sizes":[],"default_left":[0,0,0,0,0,0,0,0,0,0,0,0,0,0,0,0,0,0,0,0,0,0,0,0,0,0,0,0,0,0,0,0,0,0,0,0,0,0,0,0,0,0,0,0,0,0,0,0,0,0,0,0,0,0,0],"id":19,"left_children":[1,3,5,7,9,11,13,15,17,19,21,23,25,-1,-1,-1,-1,27,-1,-1,29,31,33,-1,35,-1,37,-1,-1,-1,-1,39,41,-1,43,45,47,-1,-1,49,-1,-1,-1,51,-1,-1,-1,-1,53,-1,-1,-1,-1,-1,-1],"loss_changes":[3.547496E2,5.7132004E1,5.0874863E1,4.879242E0,2.216692E0,1.2408241E1,1.6504364E0,3.160324E-1,6.83342E-1,3.906858E-1,6.998634E-1,1.8732848E0,1.701355E-1,0E0,0E0,0E0,0E0,6.512985E-1,0E0,0E0,2.0579457E-1,3.4817538E-1,3.6525849E-1,0E0,2.5207424E-1,0E0,1.3963318E-1,0E0,0E0,0E0,0E0,8.82324E-2,1.2551302E-1,0E0,3.0784708E-1,1.4113015E-1,1.09648705E-1,0E0,0E0,1.7487645E-2,0E0,0E0,0E0,1.467303E-1,0E0,0E0,0E0,0E0,2.3534393E-1,0E0,0E0,0E0,0E0,0E0,0E0],"parents":[2147483647,0,0,1,1,2,2,3,3,4,4,5,5,6,6,7,7,8,8,9,9,10,10,11,11,12,12,17,17,20,20,21,21,22,22,24,24,26,26,31,31,32,32,34,34,35,35,36,36,39,39,43,43,48,48],"right_children":[2,4,6,8,10,12,14,16,18,20,22,24,26,-1,-1,-1,-1,28,-1,-1,30,32,34,-1,36,-1,38,-1,-1,-1,-1,40,42,-1,44,46,48,-1,-1,50,-1,-1,-1,52,-1,-1,-1,-1,54,-1,-1,-1,-1,-1,-1],"split_conditions":[1.078E1,9.22E0,1.357E1,7.87E0,9.85E0,1.177E1,1.447E1,4.690143E1,8.605426E0,9.56E0,-5.733488E1,1.0706726E1,1.226E1,5.8927376E-2,8.426278E-2,-5.6478694E-2,-3.8573947E-2,8.2225746E1,-2.8990421E-2,-5.824182E-3,9.95E0,1.0748621E1,9.73E0,-8.744776E-3,-1.09969086E2,2.6526058E-2,1.22E1,-4.256462E-2,-2.5405435E-2,-2.6308933E-2,-1.11497985E-2,-2.2053024E-1,-1.4179684E2,-3.1411105E-3,1.054E1,1.158E1,1.080897E1,2.3165487E-2,4.129389E-2,1.016E1,-2.46085E-3,-2.9457689E-3,3.1304571E-3,-3.2576498E-1,1.2855927E-3,4.521633E-3,1.3301733E-2,8.330386E-3,1.145E1,-1.0566718E-2,-4.835391E-3,1.6231576E-2,5.983822E-3,2.373649E-2,1.3836191E-2],"split_indices":[13,13,13,13,13,13,13,2,1,13,11,1,13,0,0,0,0,9,0,0,15,1,17,0,11,0,14,0,0,0,0,7,11,0,13,15,1,0,0,13,0,0,0,7,0,0,0,0,16,0,0,0,0,0,0],"split_type":[0,0,0,0,0,0,0,0,0,0,0,0,0,0,0,0,0,0,0,0,0,0,0,0,0,0,0,0,0,0,0,0,0,0,0,0,0,0,0,0,0,0,0,0,0,0,0,0,0,0,0,0,0,0,0],"sum_hessian":[3.56E2,2.03E2,1.53E2,1.36E2,6.7E1,1.08E2,4.5E1,5.4E1,8.2E1,1.4E1,5.3E1,4.5E1,6.3E1,2.1E1,2.4E1,4.2E1,1.2E1,5.8E1,2.4E1,5E0,9E0,3.1E1,2.2E1,4E0,4.1E1,1E1,5.3E1,4.9E1,9E0,4E0,5E0,1.5E1,1.6E1,5E0,1.7E1,1.2E1,2.9E1,5E0,4.8E1,1E1,5E0,7E0,9E0,1E1,7E0,6E0,6E0,4E0,2.5E1,6E0,4E0,4E0,6E0,1E1,1.5E1],"tree_param":{"num_deleted":"0","num_feature":"18","num_nodes":"55","size_leaf_vector":"1"}},{"base_weights":[1.2437237E-2,-8.653059E-1,1.051652E0,-1.1723131E0,-1.12230554E-1,7.243796E-1,2.0078187E0,-1.2534581E0,-2.8738823E-2,-2.9170617E-1,-1.4816259E-2,3.5994157E-1,1.0547218E0,6.360632E-2,9.1175795E-2,-1.4292928E0,-1.0340676E0,-4.7121918E-1,-1.327626E-1,-9.129416E-3,6.770318E-2,2.2945052E-1,5.5988586E-1,4.2585593E-2,7.451867E-1,-4.2035665E-2,-5.5855144E-2,-3.956202E-2,-2.5389386E-2,-8.723672E-3,-2.192662E-2,-7.3096966E-3,-1.9588294E-3,2.2856575E-1,-4.461879E-3,6.424684E-2,1.9593181E-2,1.596809E-2,2.96517E-2,5.29284E-1,3.1185541E-2,1.24713695E-2,2.3956122E-3,-6.0501257E-3,5.6928873E-2,1.5149069E-1,-7.0175757E-3,1.0572491E-2,2.3066534E-2,-4.3798024E-3,4.2924066E-3,1.072177E-2,8.330491E-2,-2.0138433E-3,1.7289604E-3,1.1296654E-2,6.8453914E-3,-1.613621E-3,2.7527753E-3],"categories":[],"categories_nodes":[],"categories_segments":[],"categories_sizes":[],"default_left":[0,0,0,0,0,0,0,0,0,0,0,0,0,0,0,0,0,0,0,0,0,0,0,0,0,0,0,0,0,0,0,0,0,0,0,0,0,0,0,0,0,0,0,0,0,0,0,0,0,0,0,0,0,0,0,0,0,0,0],"id":20,"left_children":[1,3,5,7,9,11,13,15,-1,17,19,21,23,-1,-1,25,27,29,31,-1,33,35,37,-1,39,-1,-1,-1,-1,-1,-1,-1,-1,41,43,45,-1,-1,-1,47,-1,-1,-1,-1,49,51,-1,-1,-1,53,-1,-1,55,-1,-1,57,-1,-1,-1],"loss_changes":[3.247281E2,4.4489944E1,4.9552658E1,3.1943665E0,9.9223703E-1,1.4428246E1,7.9052734E-1,2.8040009E0,0E0,5.0808835E-1,7.6286095E-1,1.4369907E0,1.5735626E0,0E0,0E0,2.8961182E-2,2.9788208E-1,1.3389385E-1,5.4569513E-2,0E0,3.376709E-1,1.9285743E0,3.4485054E-1,0E0,7.741547E-2,0E0,0E0,0E0,0E0,0E0,0E0,0E0,0E0,1.473465E-1,2.1962689E-1,6.1566347E-1,0E0,0E0,0E0,7.1355104E-2,0E0,0E0,0E0,0E0,6.119735E-2,1.7331621E-1,0E0,0E0,0E0,2.6802553E-2,0E0,0E0,1.12493165E-1,0E0,0E0,3.9703563E-2,0E0,0E0,0E0],"parents":[2147483647,0,0,1,1,2,2,3,3,4,4,5,5,6,6,7,7,9,9,10,10,11,11,12,12,15,15,16,16,17,17,18,18,20,20,21,21,22,22,24,24,33,33,34,34,35,35,39,39,44,44,45,45,49,49,52,52,55,55],"right_children":[2,4,6,8,10,12,14,16,-1,18,20,22,24,-1,-1,26,28,30,32,-1,34,36,38,-1,40,-1,-1,-1,-1,-1,-1,-1,-1,42,44,46,-1,-1,-1,48,-1,-1,-1,-1,50,52,-1,-1,-1,54,-1,-1,56,-1,-1,58,-1,-1,-1],"split_conditions":[1.066E1,9.22E0,1.384E1,8.5991955E0,-8.2608696E1,1.2479459E1,3.767124E-1,4.657359E1,-2.8738823E-2,1.0463107E1,9.83E0,7.946778E-2,2.3251554E1,6.360632E-2,9.1175795E-2,1.4641077E1,8.2225746E1,-8.685225E1,-2.2318661E-1,-9.129416E-3,-3.2576498E-1,1.193924E1,5.8602062E1,4.2585593E-2,1.242E1,-4.2035665E-2,-5.5855144E-2,-3.956202E-2,-2.5389386E-2,-8.723672E-3,-2.192662E-2,-7.3096966E-3,-1.9588294E-3,1.032E1,-2.1671219E-1,1.141E1,1.9593181E-2,1.596809E-2,2.96517E-2,3.993569E1,3.1185541E-2,1.24713695E-2,2.3956122E-3,-6.0501257E-3,1.039E1,1.0573375E1,-7.0175757E-3,1.0572491E-2,2.3066534E-2,1.007E1,4.2924066E-3,1.072177E-2,1.132E1,-2.0138433E-3,1.7289604E-3,1.096E1,6.8453914E-3,-1.613621E-3,2.7527753E-3],"split_indices":[14,14,14,1,12,1,6,2,0,1,14,6,8,0,0,8,9,12,7,0,7,1,2,0,14,0,0,0,0,0,0,0,0,16,7,14,0,0,0,2,0,0,0,0,14,1,0,0,0,17,0,0,17,0,0,14,0,0,0],"split_type":[0,0,0,0,0,0,0,0,0,0,0,0,0,0,0,0,0,0,0,0,0,0,0,0,0,0,0,0,0,0,0,0,0,0,0,0,0,0,0,0,0,0,0,0,0,0,0,0,0,0,0,0,0,0,0,0,0,0,0],"sum_hessian":[3.54E2,1.92E2,1.62E2,1.36E2,5.6E1,1.22E2,4E1,1.1E2,2.6E1,1.9E1,3.7E1,5.9E1,6.3E1,3E1,1E1,5.8E1,5.2E1,8E0,1.1E1,9E0,2.8E1,3.7E1,2.2E1,4.3E1,2E1,2.1E1,3.7E1,4.2E1,1E1,4E0,4E0,5E0,6E0,8E0,2E1,2.5E1,1.2E1,1.7E1,5E0,9E0,1.1E1,4E0,4E0,5E0,1.5E1,1.9E1,6E0,4E0,5E0,8E0,7E0,5E0,1.4E1,4E0,4E0,9E0,5E0,5E0,4E0],"tree_param":{"num_deleted":"0","num_feature":"18","num_nodes":"59","size_leaf_vector":"1"}},{"base_weights":[1.815169E-2,-8.989842E-1,9.508174E-1,-1.1371832E0,-2.2520806E-1,6.572894E-1,1.9650751E0,-1.3313624E0,-9.5687604E-1,-5.828714E-1,-1.1574743E-1,2.6087877E-1,9.772444E-1,5.2029293E-2,8.19515E-2,-5.4167334E-2,-3.651466E-2,-9.9060947E-1,-1.5202639E-2,-2.4669651E-2,-1.1800197E-2,-1.9278322E-1,-1.9441923E-2,9.4196536E-2,5.2781254E-1,6.543184E-1,1.1519862E0,-1.0373781E0,-2.4926752E-2,1.3778695E-3,-2.4935874E-1,2.370324E-3,-4.8423428E-2,-8.104412E-2,1.7219411E-1,1.5904374E-2,2.7932866E-2,4.7923586E-1,3.1164184E-2,3.418328E-2,4.710998E-2,-3.8905814E-2,-2.1994205E-2,-1.0633678E-2,-5.85587E-3,1.6875562E-4,-3.6925138E-3,3.8574701E-3,-1.4557816E-2,1.8478258E-2,9.4360985E-2,9.367159E-3,1.8920112E-2,-1.9572852E-3,1.587047E-1,3.895441E-3,8.458116E-3],"categories":[],"categories_nodes":[],"categories_segments":[],"categories_sizes":[],"default_left":[0,0,0,0,0,0,0,0,0,0,0,0,0,0,0,0,0,0,0,0,0,0,0,0,0,0,0,0,0,0,0,0,0,0,0,0,0,0,0,0,0,0,0,0,0,0,0,0,0,0,0,0,0,0,0,0,0],"id":21,"left_children":[1,3,5,7,9,11,13,15,17,19,21,23,25,-1,-1,-1,-1,27,-1,-1,-1,29,31,33,35,37,39,41,-1,-1,43,-1,45,47,49,-1,-1,51,-1,-1,-1,-1,-1,-1,-1,-1,-1,-1,-1,-1,53,-1,-1,-1,55,-1,-1],"loss_changes":[3.0365973E2,2.8472107E1,5.1105896E1,3.3476257E0,1.8117368E0,1.7248093E1,2.9373627E0,1.7663727E0,8.854904E-1,5.8510303E-2,2.781729E-1,2.7533484E0,3.534813E0,0E0,0E0,0E0,0E0,2.2698212E-1,0E0,0E0,0E0,2.8385305E-1,4.753711E-2,5.6068915E-1,1.7576218E-1,6.432915E-1,2.669525E-1,2.876091E-1,0E0,0E0,1.8970251E-2,0E0,4.0437896E-2,8.2866395E-1,6.9088906E-1,0E0,0E0,3.9899826E-2,0E0,0E0,0E0,0E0,0E0,0E0,0E0,0E0,0E0,0E0,0E0,0E0,2.3795657E-1,0E0,0E0,0E0,3.9982766E-2,0E0,0E0],"parents":[2147483647,0,0,1,1,2,2,3,3,4,4,5,5,6,6,7,7,8,8,9,9,10,10,11,11,12,12,17,17,21,21,22,22,23,23,24,24,25,25,26,26,27,27,30,30,32,32,33,33,34,34,37,37,50,50,54,54],"right_children":[2,4,6,8,10,12,14,16,18,20,22,24,26,-1,-1,-1,-1,28,-1,-1,-1,30,32,34,36,38,40,42,-1,-1,44,-1,46,48,50,-1,-1,52,-1,-1,-1,-1,-1,-1,-1,-1,-1,-1,-1,-1,54,-1,-1,-1,56,-1,-1],"split_conditions":[4.570413E-1,8.85E0,1.2549633E1,-6.563246E1,1.0783687E1,1.3340383E1,-4.292465E1,8.1881E0,2.5908194E1,-3.1554043E-1,-2.2053024E-1,7.946778E-2,-2.3580246E-1,5.2029293E-2,8.19515E-2,-5.4167334E-2,-3.651466E-2,1.2795864E2,-1.5202639E-2,-2.4669651E-2,-1.1800197E-2,-3.502622E-1,-2.4899842E-1,9.273585E0,1.6049042E2,1.38356E1,-5.6880733E1,8.54E0,-2.4926752E-2,1.3778695E-3,-7.874657E1,2.370324E-3,1.039E1,1.07372E1,1.039E1,1.5904374E-2,2.7932866E-2,-1.5928061E2,3.1164184E-2,3.418328E-2,4.710998E-2,-3.8905814E-2,-2.1994205E-2,-1.0633678E-2,-5.85587E-3,1.6875562E-4,-3.6925138E-3,3.8574701E-3,-1.4557816E-2,1.8478258E-2,-1.4179684E2,9.367159E-3,1.8920112E-2,-1.9572852E-3,1.0625243E1,3.895441E-3,8.458116E-3],"split_indices":[5,17,4,12,3,3,11,0,8,6,7,6,6,0,0,0,0,11,0,0,0,7,6,4,11,0,12,17,0,0,12,0,17,0,17,0,0,11,0,0,0,0,0,0,0,0,0,0,0,0,11,0,0,0,4,0,0],"split_type":[0,0,0,0,0,0,0,0,0,0,0,0,0,0,0,0,0,0,0,0,0,0,0,0,0,0,0,0,0,0,0,0,0,0,0,0,0,0,0,0,0,0,0,0,0,0,0,0,0,0,0,0,0,0,0,0,0],"sum_hessian":[3.53E2,1.78E2,1.75E2,1.31E2,4.7E1,1.37E2,3.8E1,6E1,7.1E1,1E1,3.7E1,6.2E1,7.5E1,1.6E1,2.2E1,3.7E1,2.3E1,6.6E1,5E0,6E0,4E0,2E1,1.7E1,3.9E1,2.3E1,2.8E1,4.7E1,5.5E1,1.1E1,4E0,1.6E1,4E0,1.3E1,1.2E1,2.7E1,1.9E1,4E0,1.7E1,1.1E1,2.3E1,2.4E1,4.9E1,6E0,9E0,7E0,7E0,6E0,8E0,4E0,4E0,2.3E1,4E0,1.3E1,7E0,1.6E1,1.1E1,5E0],"tree_param":{"num_deleted":"0","num_feature":"18","num_nodes":"57","size_leaf_vector":"1"}},{"base_weights":[1.3887079E-3,-8.8227606E-1,9.307523E-1,-1.0965043E0,-2.0094253E-1,3.0596495E-1,1.4235632E0,-1.3234172E0,-9.321756E-1,-5.2324975E-1,-1.171126E-1,-6.569576E-2,3.813078E-1,1.0682982E0,1.9245139E0,-4.9563598E-2,-2.8557496E-2,-3.683057E-2,-2.8693907E-2,-2.344929E-2,-1.0585311E-2,-2.3841833E-1,-6.335425E-2,3.744916E-3,-1.4136968E-2,1.1108941E-1,4.824321E-1,2.2503372E-2,4.033857E-2,4.5415867E-2,2.0562832E0,-3.4115629E-3,-1.1101758E-2,-7.6989885E-3,-2.8055772E-2,1.2947826E-2,2.127692E-2,4.101767E-1,2.3813415E-2,4.4813786E-2,7.8253604E-2,2.8930306E-3,-6.253561E-2,-1.6305266E-3,3.743951E-3,2.5830242E-1,4.5865518E-1,7.089244E-5,-3.7493827E-3,3.612917E-3,1.2087055E-2,5.084993E-1,9.060039E-3,2.0587057E-2,1.1326151E-2],"categories":[],"categories_nodes":[],"categories_segments":[],"categories_sizes":[],"default_left":[0,0,0,0,0,0,0,0,0,0,0,0,0,0,0,0,0,0,0,0,0,0,0,0,0,0,0,0,0,0,0,0,0,0,0,0,0,0,0,0,0,0,0,0,0,0,0,0,0,0,0,0,0,0,0],"id":22,"left_children":[1,3,5,7,9,11,13,15,17,19,21,23,25,27,29,-1,-1,-1,-1,-1,-1,31,33,-1,-1,35,37,-1,-1,-1,39,-1,-1,-1,41,-1,43,45,-1,-1,-1,-1,47,-1,-1,49,51,-1,-1,-1,-1,53,-1,-1,-1],"loss_changes":[2.9318472E2,2.6490509E1,5.3139404E1,3.949417E0,1.1545755E0,2.2092037E0,1.5207153E1,3.542328E-1,2.0062256E-1,7.040858E-2,2.2617948E-1,8.12229E-1,1.7225733E0,5.667267E-1,8.470001E-1,0E0,0E0,0E0,0E0,0E0,0E0,7.9987705E-2,1.3669747E-1,0E0,0E0,4.1424102E-1,3.2930565E-1,0E0,0E0,0E0,7.853699E-2,0E0,0E0,0E0,9.074605E-2,0E0,8.667491E-2,1.4658308E-1,0E0,0E0,0E0,0E0,4.806059E-2,0E0,0E0,9.92381E-2,1.4198065E-1,0E0,0E0,0E0,0E0,6.0245037E-2,0E0,0E0,0E0],"parents":[2147483647,0,0,1,1,2,2,3,3,4,4,5,5,6,6,7,7,8,8,9,9,10,10,11,11,12,12,13,13,14,14,21,21,22,22,25,25,26,26,30,30,34,34,36,36,37,37,42,42,45,45,46,46,51,51],"right_children":[2,4,6,8,10,12,14,16,18,20,22,24,26,28,30,-1,-1,-1,-1,-1,-1,32,34,-1,-1,36,38,-1,-1,-1,40,-1,-1,-1,42,-1,44,46,-1,-1,-1,-1,48,-1,-1,50,52,-1,-1,-1,-1,54,-1,-1,-1],"split_conditions":[4.570413E-1,9.07E0,1.226E1,7.87E0,1.0776552E1,9.29052E0,1.397E1,7.519665E0,1.8467148E1,4.4059353E1,3.7942715E1,2.308395E1,4.8429275E-1,1.0448098E1,4.71875E1,-4.9563598E-2,-2.8557496E-2,-3.683057E-2,-2.8693907E-2,-2.344929E-2,-1.0585311E-2,2.0893526E1,9.83E0,3.744916E-3,-1.4136968E-2,1.1774414E1,1.173E1,2.2503372E-2,4.033857E-2,4.5415867E-2,1.1813748E1,-3.4115629E-3,-1.1101758E-2,-7.6989885E-3,9.496477E0,1.2947826E-2,-1.21040764E2,5.0110096E-1,2.3813415E-2,4.4813786E-2,7.8253604E-2,2.8930306E-3,1.5790102E1,-1.6305266E-3,3.743951E-3,-8.4535805E1,1.161E1,7.089244E-5,-3.7493827E-3,3.612917E-3,1.2087055E-2,1.145E1,9.060039E-3,2.0587057E-2,1.1326151E-2],"split_indices":[5,13,13,13,3,4,13,4,8,2,2,8,5,4,2,0,0,0,0,0,0,8,14,0,0,3,13,0,0,0,4,0,0,0,4,0,11,5,0,0,0,0,8,0,0,11,14,0,0,0,0,13,0,0,0],"split_type":[0,0,0,0,0,0,0,0,0,0,0,0,0,0,0,0,0,0,0,0,0,0,0,0,0,0,0,0,0,0,0,0,0,0,0,0,0,0,0,0,0,0,0,0,0,0,0,0,0,0,0,0,0,0,0],"sum_hessian":[3.55E2,1.82E2,1.73E2,1.38E2,4.4E1,7.7E1,9.6E1,5.5E1,8.3E1,8E0,3.6E1,1.3E1,6.4E1,5.8E1,3.8E1,4.9E1,6E0,4.7E1,3.6E1,4E0,4E0,1E1,2.6E1,9E0,4E0,1.8E1,4.6E1,7E0,5.1E1,8E0,3E1,4E0,6E0,4E0,2.2E1,4E0,1.4E1,3.5E1,1.1E1,5E0,2.5E1,5E0,1.7E1,8E0,6E0,1E1,2.5E1,7E0,1E1,4E0,6E0,1.9E1,6E0,1.3E1,6E0],"tree_param":{"num_deleted":"0","num_feature":"18","num_nodes":"55","size_leaf_vector":"1"}},{"base_weights":[-7.0343423E-3,-9.242213E-1,8.034273E-1,-1.0893121E0,-4.2281258E-1,2.5393185E-1,1.3331059E0,-1.3025384E0,-9.5740473E-1,-6.414213E-1,-1.6325001E-1,9.012596E-2,4.3029547E-1,1.0368074E0,1.8933027E0,-4.9035408E-2,-2.611049E-2,-1.0139499E0,-2.4748938E-2,-7.2311157E-1,-1.0459434E-2,-9.363996E-3,-2.3900479E-4,2.6055703E-2,2.908438E-1,-2.9097446E-3,4.9616075E-1,9.51528E-1,4.946824E-2,4.150915E-2,7.302906E-2,-4.0782142E-2,-3.0091787E-2,-1.4789986E-2,-2.8313968E-2,3.3554076E-3,6.4953105E-3,3.4897556E-3,1.5025768E-2,2.9241268E-2,4.3890053E-1,2.1092778E-2,3.5883263E-2,-3.2679148E-2,4.6635913E-3,3.0143896E-1,5.4602724E-1,-1.5538534E-3,-6.3434714E-3,1.3110598E-2,2.504319E-3,1.1546172E-2,2.1829696E-2,-3.4792104E-3,2.8441831E-2,3.2283417E-3,-6.536704E-3,-1.6518394E-3,2.3591653E-3],"categories":[],"categories_nodes":[],"categories_segments":[],"categories_sizes":[],"default_left":[0,0,0,0,0,0,0,0,0,0,0,0,0,0,0,0,0,0,0,0,0,0,0,0,0,0,0,0,0,0,0,0,0,0,0,0,0,0,0,0,0,0,0,0,0,0,0,0,0,0,0,0,0,0,0,0,0,0,0],"id":23,"left_children":[1,3,5,7,9,11,13,15,17,19,21,23,25,27,29,-1,-1,31,-1,33,-1,-1,-1,35,37,-1,39,41,-1,-1,-1,-1,-1,-1,-1,43,-1,-1,-1,-1,45,-1,-1,47,-1,49,51,53,-1,-1,-1,-1,-1,-1,55,-1,57,-1,-1],"loss_changes":[2.6462994E2,1.3363373E1,5.4671074E1,2.2687073E0,2.3352218E0,2.6768236E0,1.3971603E1,4.4013214E-1,5.5374146E-1,4.5201302E-1,3.1367803E-1,6.35424E-1,1.5539837E0,5.385208E-1,7.2016907E-1,0E0,0E0,4.1033936E-1,0E0,2.06604E-2,0E0,0E0,0E0,1.3546123E-1,2.5117695E-1,0E0,3.6183357E-1,2.595253E-1,0E0,0E0,0E0,0E0,0E0,0E0,0E0,1.6275342E-1,0E0,0E0,0E0,0E0,3.6553526E-1,0E0,0E0,1.2423578E-1,0E0,2.313062E-1,5.689907E-2,7.093229E-2,0E0,0E0,0E0,0E0,0E0,0E0,4.1055664E-2,0E0,3.9561905E-2,0E0,0E0],"parents":[2147483647,0,0,1,1,2,2,3,3,4,4,5,5,6,6,7,7,8,8,9,9,10,10,11,11,12,12,13,13,14,14,17,17,19,19,23,23,24,24,26,26,27,27,35,35,40,40,43,43,45,45,46,46,47,47,54,54,56,56],"right_children":[2,4,6,8,10,12,14,16,18,20,22,24,26,28,30,-1,-1,32,-1,34,-1,-1,-1,36,38,-1,40,42,-1,-1,-1,-1,-1,-1,-1,44,-1,-1,-1,-1,46,-1,-1,48,-1,50,52,54,-1,-1,-1,-1,-1,-1,56,-1,58,-1,-1],"split_conditions":[1.1167585E1,9.428728E0,1.227E1,-7.359736E1,1.0783687E1,1.108E1,1.3525575E1,8.6802E0,5.9354107E1,-2.6539668E-1,2.3540375E1,5.105992E1,9.790325E0,-3.1011236E1,4.5536766E1,-4.9035408E-2,-2.611049E-2,7.5132227E0,-2.4748938E-2,-4.50343E-1,-1.0459434E-2,-9.363996E-3,-2.3900479E-4,2.5908194E1,9.448192E0,-2.9097446E-3,1.06842E1,1.0463984E1,4.946824E-2,4.150915E-2,7.302906E-2,-4.0782142E-2,-3.0091787E-2,-1.4789986E-2,-2.8313968E-2,3.622579E1,6.4953105E-3,3.4897556E-3,1.5025768E-2,2.9241268E-2,1.2624E1,2.1092778E-2,3.5883263E-2,3.203169E1,4.6635913E-3,1.1016E1,3.584434E1,-4.2220512E-1,-6.3434714E-3,1.3110598E-2,2.504319E-3,1.1546172E-2,2.1829696E-2,-3.4792104E-3,-2.4899842E-1,3.2283417E-3,2.1974306E1,-1.6518394E-3,2.3591653E-3],"split_indices":[3,3,14,12,3,14,4,0,2,6,8,2,4,12,2,0,0,4,0,7,0,0,0,8,4,0,0,4,0,0,0,0,0,0,0,10,0,0,0,0,0,0,0,10,0,0,2,7,0,0,0,0,0,0,6,0,10,0,0],"split_type":[0,0,0,0,0,0,0,0,0,0,0,0,0,0,0,0,0,0,0,0,0,0,0,0,0,0,0,0,0,0,0,0,0,0,0,0,0,0,0,0,0,0,0,0,0,0,0,0,0,0,0,0,0,0,0,0,0,0,0],"sum_hessian":[3.54E2,1.66E2,1.88E2,1.24E2,4.2E1,9.3E1,9.5E1,4.4E1,8E1,2.2E1,2E1,4.9E1,4.4E1,6.4E1,3.1E1,3.9E1,5E0,6.4E1,1.6E1,1.7E1,5E0,1.2E1,8E0,3.8E1,1.1E1,5E0,3.9E1,5.4E1,1E1,6E0,2.5E1,3.6E1,2.8E1,4E0,1.3E1,3.4E1,4E0,5E0,6E0,4E0,3.5E1,7E0,4.7E1,2.7E1,7E0,1.7E1,1.8E1,2.3E1,4E0,1.3E1,4E0,5E0,1.3E1,5E0,1.8E1,6E0,1.2E1,8E0,4E0],"tree_param":{"num_deleted":"0","num_feature":"18","num_nodes":"59","size_leaf_vector":"1"}},{"base_weights":[-9.904949E-3,-8.199058E-1,8.382719E-1,-1.0216937E0,-1.626256E-1,2.9031035E-1,1.2996924E0,-5.2396554E-2,-9.353504E-1,-3.8239783E-1,-8.444014E-2,-6.45346E-2,3.6118186E-1,9.685237E-1,1.765794E0,-2.4327215E-2,-9.895396E-1,-7.4349544E-3,-1.7898593E-2,-1.4917624E-1,-2.220583E-2,3.5448477E-3,-1.3619344E-2,1.0565296E-1,4.548041E-1,2.289544E-2,1.0034406E0,4.1227743E-2,6.77032E-2,-3.8253468E-2,-2.58519E-2,-7.6247645E-3,-3.962544E-4,3.6245205E-3,-9.181849E-2,1.2363807E-2,1.9777996E-2,3.8987312E-1,2.2299752E-2,3.78155E-2,2.3562675E-2,-5.5719097E-3,-9.11985E-4,4.1493853E-3,-3.9229296E-2,2.5557438E-1,4.4411355E-1,-3.5648998E-3,1.4427062E-3,3.3542044E-3,1.1476599E-2,1.8688813E-2,1.0219033E-2],"categories":[],"categories_nodes":[],"categories_segments":[],"categories_sizes":[],"default_left":[0,0,0,0,0,0,0,0,0,0,0,0,0,0,0,0,0,0,0,0,0,0,0,0,0,0,0,0,0,0,0,0,0,0,0,0,0,0,0,0,0,0,0,0,0,0,0,0,0,0,0,0,0],"id":24,"left_children":[1,3,5,7,9,11,13,-1,15,17,19,21,23,25,27,-1,29,-1,-1,31,33,-1,-1,35,37,-1,39,-1,-1,-1,-1,-1,-1,-1,41,-1,43,45,-1,-1,-1,-1,-1,-1,47,49,51,-1,-1,-1,-1,-1,-1],"loss_changes":[2.3908464E2,2.34422E1,4.2605614E1,3.67305E0,7.0657897E-1,2.0100317E0,1.2490738E1,0E0,9.815979E-1,1.174984E-1,1.2963805E-1,7.4816364E-1,1.530879E0,1.9138336E-2,3.5432434E-1,0E0,1.0222397E0,0E0,0E0,1.3440657E-1,1.6271588E-1,0E0,0E0,3.791029E-1,2.6525497E-1,0E0,5.8670044E-2,0E0,0E0,0E0,0E0,0E0,0E0,0E0,4.5943983E-2,0E0,8.863349E-2,1.5601969E-1,0E0,0E0,0E0,0E0,0E0,0E0,5.0974343E-2,1.0174292E-1,1.4842367E-1,0E0,0E0,0E0,0E0,0E0,0E0],"parents":[2147483647,0,0,1,1,2,2,3,3,4,4,5,5,6,6,8,8,9,9,10,10,11,11,12,12,13,13,14,14,16,16,19,19,20,20,23,23,24,24,26,26,34,34,36,36,37,37,44,44,45,45,46,46],"right_children":[2,4,6,8,10,12,14,-1,16,18,20,22,24,26,28,-1,30,-1,-1,32,34,-1,-1,36,38,-1,40,-1,-1,-1,-1,-1,-1,-1,42,-1,44,46,-1,-1,-1,-1,-1,-1,48,50,52,-1,-1,-1,-1,-1,-1],"split_conditions":[4.570413E-1,9.07E0,1.226E1,7.36E0,9.83E0,9.29052E0,1.384E1,-5.2396554E-2,-2.1671219E-1,9.56E0,-7.2687675E1,1.078E1,4.8429275E-1,-3.814108E-1,3.354069E1,-2.4327215E-2,6.9651E1,-7.4349544E-3,-1.7898593E-2,1.1337407E1,3.516661E1,3.5448477E-3,-1.3619344E-2,1.1774414E1,1.173E1,2.289544E-2,7.278583E1,4.1227743E-2,6.77032E-2,-3.8253468E-2,-2.58519E-2,-7.6247645E-3,-3.962544E-4,3.6245205E-3,5.1431843E1,1.2363807E-2,1.067E1,5.065229E-1,2.2299752E-2,3.78155E-2,2.3562675E-2,-5.5719097E-3,-9.11985E-4,4.1493853E-3,1.0479161E1,-8.4535805E1,1.166E1,-3.5648998E-3,1.4427062E-3,3.3542044E-3,1.1476599E-2,1.8688813E-2,1.0219033E-2],"split_indices":[5,13,13,13,13,4,13,0,7,13,11,15,5,7,10,0,11,0,0,3,9,0,0,3,13,0,10,0,0,0,0,0,0,0,9,0,15,5,0,0,0,0,0,0,4,11,15,0,0,0,0,0,0],"split_type":[0,0,0,0,0,0,0,0,0,0,0,0,0,0,0,0,0,0,0,0,0,0,0,0,0,0,0,0,0,0,0,0,0,0,0,0,0,0,0,0,0,0,0,0,0,0,0,0,0,0,0,0,0],"sum_hessian":[3.46E2,1.77E2,1.69E2,1.35E2,4.2E1,7.8E1,9.1E1,2E1,1.15E2,1E1,3.2E1,1.3E1,6.5E1,5.5E1,3.6E1,2.2E1,9.3E1,5E0,5E0,1.5E1,1.7E1,9E0,4E0,1.8E1,4.7E1,7E0,4.8E1,7E0,2.9E1,7.2E1,2.1E1,1E1,5E0,6E0,1.1E1,4E0,1.4E1,3.6E1,1.1E1,4.1E1,7E0,5E0,6E0,5E0,9E0,1.2E1,2.4E1,5E0,4E0,4E0,8E0,1.5E1,9E0],"tree_param":{"num_deleted":"0","num_feature":"18","num_nodes":"53","size_leaf_vector":"1"}},{"base_weights":[-8.044728E-4,-8.6843204E-1,7.6124305E-1,-9.8616475E-1,-2.7824095E-1,2.8164825E-1,1.3084866E0,-1.1481798E0,-8.388869E-1,-5.14706E-1,-1.4609638E-1,1.5910047E-1,5.846444E-1,9.726258E-1,1.7666013E0,-4.7806893E-2,-3.3428267E-2,-1.9666994E-2,-8.803754E-1,-2.5357611E-2,-9.86762E-3,-8.375337E-3,1.6668828E-3,4.050584E-2,4.3757388E-1,1.7419685E-2,3.243347E-2,3.1024551E-2,4.4413906E-2,4.7054846E-2,7.237896E-2,-3.4216385E-2,-2.3637222E-2,1.3767892E-2,-2.9001634E-3,3.1465638E-1,2.5761701E-2,3.9971862E-2,-8.031454E-3,3.6424315E-1,6.9302684E-3,-5.896759E-3,5.4678144E-3,1.5356312E-2,7.4581415E-3,-4.349518E-2,3.7196798E-3,-4.692546E-3,-1.8478846E-2,1.4053606E-3,-5.518548E-2,-3.926031E-3,-5.37498E-4],"categories":[],"categories_nodes":[],"categories_segments":[],"categories_sizes":[],"default_left":[0,0,0,0,0,0,0,0,0,0,0,0,0,0,0,0,0,0,0,0,0,0,0,0,0,0,0,0,0,0,0,0,0,0,0,0,0,0,0,0,0,0,0,0,0,0,0,0,0,0,0,0,0],"id":25,"left_children":[1,3,5,7,9,11,13,15,17,19,21,23,25,27,29,-1,-1,-1,31,-1,-1,-1,-1,33,35,-1,-1,-1,-1,-1,-1,-1,-1,-1,37,39,-1,41,-1,43,-1,45,-1,-1,-1,47,-1,-1,49,-1,51,-1,-1],"loss_changes":[2.347165E2,1.1260086E1,4.923548E1,2.3296509E0,8.3098316E-1,3.694397E0,1.1821686E1,1.2330475E0,4.498825E-1,2.6029396E-1,3.40075E-1,2.4261594E0,4.9818134E-1,4.952736E-1,1.3437576E0,0E0,0E0,0E0,3.5868454E-1,0E0,0E0,0E0,0E0,7.8442466E-1,5.202408E-1,0E0,0E0,0E0,0E0,0E0,0E0,0E0,0E0,0E0,4.602886E-1,3.3723116E-2,0E0,2.1028084E-1,0E0,1.7718434E-2,0E0,1.2723516E-1,0E0,0E0,0E0,4.729155E-2,0E0,0E0,4.2157408E-2,0E0,2.4244715E-2,0E0,0E0],"parents":[2147483647,0,0,1,1,2,2,3,3,4,4,5,5,6,6,7,7,8,8,9,9,10,10,11,11,12,12,13,13,14,14,18,18,23,23,24,24,34,34,35,35,37,37,39,39,41,41,45,45,48,48,50,50],"right_children":[2,4,6,8,10,12,14,16,18,20,22,24,26,28,30,-1,-1,-1,32,-1,-1,-1,-1,34,36,-1,-1,-1,-1,-1,-1,-1,-1,-1,38,40,-1,42,-1,44,-1,46,-1,-1,-1,48,-1,-1,50,-1,52,-1,-1],"split_conditions":[1.1167585E1,9.18E0,1.253E1,-6.563246E1,1.0783687E1,1.32845125E1,1.3253455E1,7.3459277E0,-2.615124E-1,4.0001865E1,2.400814E1,7.699099E-2,4.4753452E1,5.3325954E1,4.943859E1,-4.7806893E-2,-3.3428267E-2,-1.9666994E-2,5.8350098E1,-2.5357611E-2,-9.86762E-3,-8.375337E-3,1.6668828E-3,1.01E1,7.05314E1,1.7419685E-2,3.243347E-2,3.1024551E-2,4.4413906E-2,4.7054846E-2,7.237896E-2,-3.4216385E-2,-2.3637222E-2,1.3767892E-2,2.446623E1,1.0655133E1,2.5761701E-2,-4.742268E1,-8.031454E-3,5.4618626E1,6.9302684E-3,1.2385648E1,5.4678144E-3,1.5356312E-2,7.4581415E-3,1.011E1,3.7196798E-3,-4.692546E-3,1.051E1,1.4053606E-3,1.065E1,-3.926031E-3,-5.37498E-4],"split_indices":[3,15,14,12,3,3,4,4,7,2,8,7,2,2,2,0,0,0,2,0,0,0,0,15,9,0,0,0,0,0,0,0,0,0,8,4,0,12,0,9,0,3,0,0,0,14,0,0,14,0,14,0,0],"split_type":[0,0,0,0,0,0,0,0,0,0,0,0,0,0,0,0,0,0,0,0,0,0,0,0,0,0,0,0,0,0,0,0,0,0,0,0,0,0,0,0,0,0,0,0,0,0,0,0,0,0,0,0,0],"sum_hessian":[3.53E2,1.65E2,1.88E2,1.37E2,2.8E1,1.01E2,8.7E1,6.2E1,7.5E1,9E0,1.9E1,7.3E1,2.8E1,5.2E1,3.5E1,3.2E1,3E1,1.1E1,6.4E1,4E0,5E0,1.3E1,6E0,5.2E1,2.1E1,2.3E1,5E0,3.9E1,1.3E1,1.4E1,2.1E1,4.7E1,1.7E1,5E0,4.7E1,1.6E1,5E0,4E1,7E0,1E1,6E0,2.9E1,1.1E1,6E0,4E0,2.2E1,7E0,4E0,1.8E1,7E0,1.1E1,4E0,7E0],"tree_param":{"num_deleted":"0","num_feature":"18","num_nodes":"53","size_leaf_vector":"1"}},{"base_weights":[2.6215976E-3,-8.365953E-1,7.302265E-1,-9.814586E-1,-3.6660418E-1,2.6317385E-1,1.2251819E0,-1.1645148E0,-8.376177E-1,-2.0550702E-2,-1.3606748E-1,1.5974309E-1,5.588019E-1,9.1506445E-1,1.7425076E0,-4.582877E-2,-3.166863E-2,-8.843641E-1,-5.2629286E-1,-2.0831387E-1,1.0068734E-3,4.056544E-2,4.3959185E-1,4.3064582E-1,2.8088557E-2,8.242744E-1,4.0704597E-2,4.598857E-2,7.0479214E-2,-9.033453E-1,-1.7609397E-2,-7.149735E-3,-2.4058534E-2,-9.318675E-3,-4.405314E-3,1.1822096E-2,-2.9814092E-3,1.2644313E-2,2.4374723E-2,7.938182E-3,1.7172944E-2,3.1171061E-2,1.5587295E-2,-3.3835303E-2,-2.096326E-2,-1.0822553E-2,3.1566333E-2,-2.8070189E-2,8.976802E-2,4.16278E-2,-8.962083E-2,5.0143242E-2,5.110788E-3,2.6185482E-3,-3.5659797E-4,-6.915322E-4,-5.670275E-3,3.8026297E-3,-1.476009E-3],"categories":[],"categories_nodes":[],"categories_segments":[],"categories_sizes":[],"default_left":[0,0,0,0,0,0,0,0,0,0,0,0,0,0,0,0,0,0,0,0,0,0,0,0,0,0,0,0,0,0,0,0,0,0,0,0,0,0,0,0,0,0,0,0,0,0,0,0,0,0,0,0,0,0,0,0,0,0,0],"id":26,"left_children":[1,3,5,7,9,11,13,15,17,-1,19,21,23,25,27,-1,-1,29,31,33,-1,35,37,39,-1,41,-1,-1,-1,43,-1,-1,-1,-1,-1,-1,45,-1,-1,-1,-1,-1,-1,-1,-1,-1,47,49,51,53,55,57,-1,-1,-1,-1,-1,-1,-1],"loss_changes":[2.1432732E2,1.0737961E1,4.3137558E1,2.2896194E0,1.7862897E0,2.9072847E0,1.3004791E1,4.425888E-1,5.9695816E-1,0E0,2.4267277E-1,2.4501948E0,3.65314E-1,2.0371628E-1,7.410965E-1,0E0,0E0,2.7057648E-2,4.180181E-1,2.8518438E-2,0E0,6.6242224E-1,2.2750759E-1,6.4917326E-2,0E0,3.056755E-1,0E0,0E0,0E0,7.525253E-2,0E0,0E0,0E0,0E0,0E0,0E0,4.9091724E-1,0E0,0E0,0E0,0E0,0E0,0E0,0E0,0E0,0E0,1.5177049E-1,9.810975E-2,3.7946254E-2,1.8182373E-2,5.3915106E-2,7.4472174E-2,0E0,0E0,0E0,0E0,0E0,0E0,0E0],"parents":[2147483647,0,0,1,1,2,2,3,3,4,4,5,5,6,6,7,7,8,8,10,10,11,11,12,12,13,13,14,14,17,17,18,18,19,19,21,21,22,22,23,23,25,25,29,29,36,36,46,46,47,47,48,48,49,49,50,50,51,51],"right_children":[2,4,6,8,10,12,14,16,18,-1,20,22,24,26,28,-1,-1,30,32,34,-1,36,38,40,-1,42,-1,-1,-1,44,-1,-1,-1,-1,-1,-1,46,-1,-1,-1,-1,-1,-1,-1,-1,-1,48,50,52,54,56,58,-1,-1,-1,-1,-1,-1,-1],"split_conditions":[1.1167585E1,8.67E0,1.24E1,3.7772797E1,1.0783687E1,1.193924E1,1.4437346E1,8.1597E0,8.2225746E1,-2.0550702E-2,4.3435963E1,7.946778E-2,-2.9251003E-1,5.3325954E1,4.943859E1,-4.582877E-2,-3.166863E-2,8.55E0,8.381326E1,1.4603986E1,1.0068734E-3,1.01E1,5.9354107E1,1.4776335E1,2.8088557E-2,2.4989462E1,4.0704597E-2,4.598857E-2,7.0479214E-2,8.7E0,-1.7609397E-2,-7.149735E-3,-2.4058534E-2,-9.318675E-3,-4.405314E-3,1.1822096E-2,1.013E1,1.2644313E-2,2.4374723E-2,7.938182E-3,1.7172944E-2,3.1171061E-2,1.5587295E-2,-3.3835303E-2,-2.096326E-2,-1.0822553E-2,1.066E1,1.054E1,1.132E1,1.1046E1,-2.3444974E-1,1.078E1,5.110788E-3,2.6185482E-3,-3.5659797E-4,-6.915322E-4,-5.670275E-3,3.8026297E-3,-1.476009E-3],"split_indices":[3,17,14,9,3,1,1,0,9,0,2,6,6,2,2,0,0,17,9,9,0,15,2,9,0,8,0,0,0,14,0,0,0,0,0,0,17,0,0,0,0,0,0,0,0,0,14,17,17,0,6,15,0,0,0,0,0,0,0],"split_type":[0,0,0,0,0,0,0,0,0,0,0,0,0,0,0,0,0,0,0,0,0,0,0,0,0,0,0,0,0,0,0,0,0,0,0,0,0,0,0,0,0,0,0,0,0,0,0,0,0,0,0,0,0,0,0,0,0,0,0],"sum_hessian":[3.49E2,1.62E2,1.87E2,1.23E2,3.9E1,9.7E1,9E1,5.1E1,7.2E1,2E1,1.9E1,7.3E1,2.4E1,5.8E1,3.2E1,3.5E1,1.6E1,6.1E1,1.1E1,1.3E1,6E0,5.2E1,2.1E1,1.7E1,7E0,4.4E1,1.4E1,1.2E1,2E1,5.7E1,4E0,4E0,7E0,7E0,6E0,6E0,4.6E1,1.7E1,4E0,4E0,1.3E1,3.9E1,5E0,5E1,7E0,4E0,4.2E1,2.1E1,2.1E1,1E1,1.1E1,1.3E1,8E0,6E0,4E0,6E0,5E0,8E0,5E0],"tree_param":{"num_deleted":"0","num_feature":"18","num_nodes":"59","size_leaf_vector":"1"}},{"base_weights":[1.1902403E-2,-7.2909236E-1,7.868975E-1,-9.1148156E-1,-1.7003998E-1,2.6387647E-1,1.1993588E0,-1.0402248E0,-7.2364765E-1,-4.059967E-1,-8.428225E-2,-6.5472536E-2,3.3075354E-1,9.207137E-1,1.6666524E0,-1.1186755E0,-7.702814E-1,-7.4741596E-1,-1.147196E-2,-6.5576234E-3,-1.952958E-2,-1.2405466E-1,-7.432424E-3,8.632822E-2,-1.2863649E-2,9.9906266E-2,4.170375E-1,1.7106244E-2,3.4369405E-2,4.398007E-2,6.678999E-2,-4.199116E-2,-2.278664E-2,-2.9912805E-2,-1.5202744E-2,-2.9210538E-2,-1.9815598E-2,-1.7262453E-1,4.2000198E-4,2.6285816E-3,-4.0866933E-3,4.98581E-4,4.783766E-3,-2.992401E-2,2.1974592E-1,3.7355992E-1,2.5567498E-2,-7.5945416E-3,-3.2150198E-3,-2.2699137E-3,5.6123274E-4,1.0488813E-2,3.294868E-3,2.3114234E-1,4.2123312E-1,2.9787696E-3,1.0409911E-2,7.0137004E-3,1.6177872E-2],"categories":[],"categories_nodes":[],"categories_segments":[],"categories_sizes":[],"default_left":[0,0,0,0,0,0,0,0,0,0,0,0,0,0,0,0,0,0,0,0,0,0,0,0,0,0,0,0,0,0,0,0,0,0,0,0,0,0,0,0,0,0,0,0,0,0,0,0,0,0,0,0,0,0,0,0,0,0,0],"id":27,"left_children":[1,3,5,7,9,11,13,15,17,19,21,23,25,27,29,31,33,35,-1,-1,-1,37,39,41,-1,43,45,-1,-1,-1,-1,-1,-1,-1,-1,-1,-1,47,-1,-1,-1,-1,-1,49,51,53,-1,-1,-1,-1,-1,-1,-1,55,57,-1,-1,-1,-1],"loss_changes":[2.0443863E2,1.8402664E1,3.721984E1,2.5602264E0,8.965969E-1,1.7396755E0,1.1095779E1,8.113022E-1,3.3231926E-1,2.6417696E-1,1.0605557E-1,6.481196E-1,1.2530313E0,4.0650177E-1,6.087494E-1,5.158539E-1,7.38821E-2,2.2385216E-1,0E0,0E0,0E0,1.5357268E-1,1.18351646E-1,3.1577066E-2,0E0,3.0219316E-1,3.2931137E-1,0E0,0E0,0E0,0E0,0E0,0E0,0E0,0E0,0E0,0E0,3.4690082E-2,0E0,0E0,0E0,0E0,0E0,1.5926708E-2,6.419131E-2,1.9458342E-1,0E0,0E0,0E0,0E0,0E0,0E0,0E0,8.632004E-2,9.94339E-2,0E0,0E0,0E0,0E0],"parents":[2147483647,0,0,1,1,2,2,3,3,4,4,5,5,6,6,7,7,8,8,9,9,10,10,11,11,12,12,13,13,14,14,15,15,16,16,17,17,21,21,22,22,23,23,25,25,26,26,37,37,43,43,44,44,45,45,53,53,54,54],"right_children":[2,4,6,8,10,12,14,16,18,20,22,24,26,28,30,32,34,36,-1,-1,-1,38,40,42,-1,44,46,-1,-1,-1,-1,-1,-1,-1,-1,-1,-1,48,-1,-1,-1,-1,-1,50,52,54,-1,-1,-1,-1,-1,-1,-1,56,58,-1,-1,-1,-1],"split_conditions":[4.570413E-1,9.07E0,1.226E1,8.17E0,9.83E0,9.29052E0,1.4437346E1,8.1881E0,1.5963087E2,9.56E0,-5.5685493E1,1.07372E1,4.8429275E-1,1.22E1,-4.292465E1,6.9651E1,3.3212155E-1,8.62E0,-1.147196E-2,-6.5576234E-3,-1.952958E-2,1.0748621E1,4.257539E-1,1.035E1,-1.2863649E-2,1.6379908E1,1.6049042E2,1.7106244E-2,3.4369405E-2,4.398007E-2,6.678999E-2,-4.199116E-2,-2.278664E-2,-2.9912805E-2,-1.5202744E-2,-2.9210538E-2,-1.9815598E-2,1.035E1,4.2000198E-4,2.6285816E-3,-4.0866933E-3,4.98581E-4,4.783766E-3,1.3203189E1,1.074E1,5.065229E-1,2.5567498E-2,-7.5945416E-3,-3.2150198E-3,-2.2699137E-3,5.6123274E-4,1.0488813E-2,3.294868E-3,-8.4535805E1,-1.5928061E2,2.9787696E-3,1.0409911E-2,7.0137004E-3,1.6177872E-2],"split_indices":[5,13,13,13,13,4,1,0,11,13,11,0,5,14,11,11,5,17,0,0,0,1,5,14,0,9,11,0,0,0,0,0,0,0,0,0,0,14,0,0,0,0,0,10,14,5,0,0,0,0,0,0,0,11,11,0,0,0,0],"split_type":[0,0,0,0,0,0,0,0,0,0,0,0,0,0,0,0,0,0,0,0,0,0,0,0,0,0,0,0,0,0,0,0,0,0,0,0,0,0,0,0,0,0,0,0,0,0,0,0,0,0,0,0,0,0,0,0,0,0,0],"sum_hessian":[3.54E2,1.81E2,1.73E2,1.36E2,4.5E1,7.7E1,9.6E1,7.8E1,5.8E1,1.1E1,3.4E1,1.3E1,6.4E1,6.2E1,3.4E1,5.8E1,2E1,5.4E1,4E0,5E0,6E0,2.2E1,1.2E1,9E0,4E0,1.8E1,4.6E1,5E0,5.7E1,1.2E1,2.2E1,5.2E1,6E0,1.6E1,4E0,3.9E1,1.5E1,1.6E1,6E0,7E0,5E0,4E0,5E0,9E0,9E0,4.2E1,4E0,1E1,6E0,5E0,4E0,5E0,4E0,1.2E1,3E1,4E0,8E0,4E0,2.6E1],"tree_param":{"num_deleted":"0","num_feature":"18","num_nodes":"59","size_leaf_vector":"1"}},{"base_weights":[-1.1938694E-3,-7.092929E-1,7.560287E-1,-8.831575E-1,-1.6472021E-1,4.8073563E-1,1.5056263E0,-4.5372725E-2,-8.0687875E-1,-3.9349976E-1,-8.15752E-2,2.0876953E-1,7.854844E-1,4.2586274E-2,1.7119329E0,-8.5842335E-1,-5.894915E-1,-6.3601565E-3,-1.8924685E-2,-3.28094E-2,-1.37434E-1,-4.6938956E-2,2.806689E-1,8.386424E-1,1.5749117E-2,3.4895334E-2,6.517921E-2,-3.2873638E-2,-2.0689929E-2,-1.18381595E-2,-2.2484388E-2,-5.6926124E-3,1.9267464E-2,-8.308209E-3,-1.4439116E-3,2.943325E-3,-1.24917645E-2,6.0723964E-2,3.4206453E-1,1.8411387E-2,3.177886E-2,3.5272583E-3,-1.8094756E-2,-1.8428029E-3,7.2114225E-3,2.4507213E-1,4.1153336E-1,9.7544905E-4,-2.8041443E-3,2.5463752E-3,1.13781085E-2,1.6907329E-2,6.284042E-3],"categories":[],"categories_nodes":[],"categories_segments":[],"categories_sizes":[],"default_left":[0,0,0,0,0,0,0,0,0,0,0,0,0,0,0,0,0,0,0,0,0,0,0,0,0,0,0,0,0,0,0,0,0,0,0,0,0,0,0,0,0,0,0,0,0,0,0,0,0,0,0,0,0],"id":28,"left_children":[1,3,5,7,9,11,13,-1,15,17,19,21,23,-1,25,27,29,-1,-1,31,33,35,37,39,-1,-1,-1,-1,-1,-1,-1,-1,41,-1,-1,-1,-1,43,45,-1,-1,-1,47,-1,-1,49,51,-1,-1,-1,-1,-1,-1],"loss_changes":[1.9195558E2,1.737069E1,3.497631E1,2.9643326E0,8.429067E-1,1.0444828E1,1.0869217E0,0E0,8.273697E-1,2.476579E-1,9.083086E-2,1.2817583E0,7.497139E-1,0E0,3.919983E-2,8.575897E-1,1.8994331E-2,0E0,0E0,1.329399E-1,1.3504902E-1,6.418617E-1,7.084255E-1,2.3652267E-1,0E0,0E0,0E0,0E0,0E0,0E0,0E0,0E0,4.567249E-2,0E0,0E0,0E0,0E0,2.118232E-1,1.8213892E-1,0E0,0E0,0E0,3.1607796E-2,0E0,0E0,2.2155344E-1,2.266097E-1,0E0,0E0,0E0,0E0,0E0,0E0],"parents":[2147483647,0,0,1,1,2,2,3,3,4,4,5,5,6,6,8,8,9,9,10,10,11,11,12,12,14,14,15,15,16,16,19,19,20,20,21,21,22,22,23,23,32,32,37,37,38,38,42,42,45,45,46,46],"right_children":[2,4,6,8,10,12,14,-1,16,18,20,22,24,-1,26,28,30,-1,-1,32,34,36,38,40,-1,-1,-1,-1,-1,-1,-1,-1,42,-1,-1,-1,-1,44,46,-1,-1,-1,48,-1,-1,50,52,-1,-1,-1,-1,-1,-1],"split_conditions":[4.570413E-1,9.07E0,1.357E1,7.36E0,9.83E0,1.177E1,1.442E1,-4.5372725E-2,9.036E0,9.56E0,3.203169E1,9.448192E0,2.4989462E1,4.2586274E-2,1.3412433E1,5.9354107E1,8.42E0,-6.3601565E-3,-1.8924685E-2,3.6464867E1,4.168377E1,2.308395E1,1.4807302E1,1.0463984E1,1.5749117E-2,3.4895334E-2,6.517921E-2,-3.2873638E-2,-2.0689929E-2,-1.18381595E-2,-2.2484388E-2,-5.6926124E-3,1.011E1,-8.308209E-3,-1.4439116E-3,2.943325E-3,-1.24917645E-2,4.798611E-1,5.065229E-1,1.8411387E-2,3.177886E-2,3.5272583E-3,1.5790102E1,-1.8428029E-3,7.2114225E-3,3.9516125E1,1.161E1,9.7544905E-4,-2.8041443E-3,2.5463752E-3,1.13781085E-2,1.6907329E-2,6.284042E-3],"split_indices":[5,13,13,13,13,13,13,0,0,13,10,4,8,0,8,2,14,0,0,2,10,8,9,4,0,0,0,0,0,0,0,0,13,0,0,0,0,5,5,0,0,0,8,0,0,2,14,0,0,0,0,0,0],"split_type":[0,0,0,0,0,0,0,0,0,0,0,0,0,0,0,0,0,0,0,0,0,0,0,0,0,0,0,0,0,0,0,0,0,0,0,0,0,0,0,0,0,0,0,0,0,0,0,0,0,0,0,0,0],"sum_hessian":[3.56E2,1.84E2,1.72E2,1.39E2,4.5E1,1.27E2,4.5E1,2.1E1,1.18E2,1.1E1,3.4E1,6.8E1,5.9E1,2E1,2.5E1,9.3E1,2.5E1,5E0,6E0,1.9E1,1.5E1,1.5E1,5.3E1,5E1,9E0,4E0,2.1E1,7.7E1,1.6E1,4E0,2.1E1,5E0,1.4E1,7E0,8E0,1.1E1,4E0,1.2E1,4.1E1,7E0,4.3E1,4E0,1E1,7E0,5E0,1.9E1,2.2E1,6E0,4E0,6E0,1.3E1,1.7E1,5E0],"tree_param":{"num_deleted":"0","num_feature":"18","num_nodes":"53","size_leaf_vector":"1"}},{"base_weights":[2.6395635E-3,-7.487593E-1,6.466818E-1,-8.594525E-1,-2.7221033E-1,2.0413475E-1,1.0555353E0,-1.057839E0,-7.433452E-1,-4.5113865E-1,-1.422964E-1,7.355719E-2,3.4491122E-1,7.871181E-1,1.4586384E0,-3.9940886E-2,-2.50876E-2,-1.8082086E-2,-7.836364E-1,-2.0151064E-2,-8.453591E-3,-7.6588267E-3,-4.0943755E-4,2.742479E-2,1.2518705E-2,-2.7413983E-3,4.0080193E-1,6.7143613E-1,3.783554E-2,3.538092E-2,5.763433E-2,-2.9803617E-2,-5.092669E-1,-8.249223E-3,4.346071E-3,2.5309103E-2,3.465527E-1,1.0353687E-2,2.5742782E-2,-2.1433592E-2,-9.873046E-3,-3.5665818E-2,5.30958E-3,2.3847617E-1,4.353763E-1,-5.87433E-3,-4.4881213E-3,1.83114E-3,1.0425736E-2,1.7349493E-2,8.059226E-3,-2.9439982E-2,2.2358766E-3,-5.8101654E-2,7.1569E-4,-6.8315305E-4,-3.662611E-3],"categories":[],"categories_nodes":[],"categories_segments":[],"categories_sizes":[],"default_left":[0,0,0,0,0,0,0,0,0,0,0,0,0,0,0,0,0,0,0,0,0,0,0,0,0,0,0,0,0,0,0,0,0,0,0,0,0,0,0,0,0,0,0,0,0,0,0,0,0,0,0,0,0,0,0,0,0],"id":29,"left_children":[1,3,5,7,9,11,13,15,17,19,21,23,25,27,29,-1,-1,-1,31,-1,-1,-1,-1,33,-1,-1,35,37,-1,-1,-1,-1,39,41,-1,-1,43,-1,-1,-1,-1,45,-1,47,49,51,-1,-1,-1,-1,-1,53,-1,55,-1,-1,-1],"loss_changes":[1.6986063E2,8.311661E0,3.3981613E1,2.2311325E0,6.796539E-1,1.6657965E0,9.455467E0,2.6348114E-2,4.497223E-1,1.7027974E-1,1.8003032E-1,6.073333E-1,1.0651717E0,1.1311073E0,9.2196655E-1,0E0,0E0,0E0,3.9243698E-1,0E0,0E0,0E0,0E0,1.4341521E-1,0E0,0E0,3.9111614E-1,5.052147E-1,0E0,0E0,0E0,0E0,7.551384E-2,1.4138716E-1,0E0,0E0,2.321639E-1,0E0,0E0,0E0,0E0,7.312314E-2,0E0,1.5453172E-1,6.3937426E-2,3.694535E-2,0E0,0E0,0E0,0E0,0E0,2.5145514E-2,0E0,1.6733706E-2,0E0,0E0,0E0],"parents":[2147483647,0,0,1,1,2,2,3,3,4,4,5,5,6,6,7,7,8,8,9,9,10,10,11,11,12,12,13,13,14,14,18,18,23,23,26,26,27,27,32,32,33,33,36,36,41,41,43,43,44,44,45,45,51,51,53,53],"right_children":[2,4,6,8,10,12,14,16,18,20,22,24,26,28,30,-1,-1,-1,32,-1,-1,-1,-1,34,-1,-1,36,38,-1,-1,-1,-1,40,42,-1,-1,44,-1,-1,-1,-1,46,-1,48,50,52,-1,-1,-1,-1,-1,54,-1,56,-1,-1,-1],"split_conditions":[1.1167585E1,8.79E0,1.227E1,-7.359736E1,1.0783687E1,1.108E1,1.2549633E1,8.100955E0,-2.3255982E-1,-2.6539668E-1,2.3540375E1,4.741802E1,9.790325E0,3.1752867E1,-7.938145E1,-3.9940886E-2,-2.50876E-2,-1.8082086E-2,1.2795864E2,-2.0151064E-2,-8.453591E-3,-7.6588267E-3,-4.0943755E-4,3.622579E1,1.2518705E-2,-2.7413983E-3,1.23191395E1,1.229E1,3.783554E-2,3.538092E-2,5.763433E-2,-2.9803617E-2,-1.32619E-2,2.5908194E1,4.346071E-3,2.5309103E-2,1.32845125E1,1.0353687E-2,2.5742782E-2,-2.1433592E-2,-9.873046E-3,2.8935917E1,5.30958E-3,3.8987207E-3,1.226E1,2.1974306E1,-4.4881213E-3,1.83114E-3,1.0425736E-2,1.7349493E-2,8.059226E-3,1.066E1,2.2358766E-3,1.2201194E1,7.1569E-4,-6.8315305E-4,-3.662611E-3],"split_indices":[3,16,14,12,3,14,4,4,7,6,8,11,4,11,12,0,0,0,11,0,0,0,0,10,0,0,3,16,0,0,0,0,7,8,0,0,3,0,0,0,0,10,0,6,16,10,0,0,0,0,0,14,0,10,0,0,0],"split_type":[0,0,0,0,0,0,0,0,0,0,0,0,0,0,0,0,0,0,0,0,0,0,0,0,0,0,0,0,0,0,0,0,0,0,0,0,0,0,0,0,0,0,0,0,0,0,0,0,0,0,0,0,0,0,0,0,0],"sum_hessian":[3.49E2,1.61E2,1.88E2,1.3E2,3.1E1,9.1E1,9.7E1,4.5E1,8.5E1,1.2E1,1.9E1,4.8E1,4.3E1,6E1,3.7E1,3.8E1,7E0,1.4E1,7.1E1,7E0,5E0,1.2E1,7E0,4.2E1,6E0,5E0,3.8E1,4.4E1,1.6E1,1E1,2.7E1,6E1,1.1E1,3.1E1,1.1E1,4E0,3.4E1,5E0,3.9E1,7E0,4E0,2.7E1,4E0,1.7E1,1.7E1,2.1E1,6E0,4E0,1.3E1,1.3E1,4E0,1.6E1,5E0,1E1,6E0,6E0,4E0],"tree_param":{"num_deleted":"0","num_feature":"18","num_nodes":"57","size_leaf_vector":"1"}},{"base_weights":[1.571364E-2,-7.270129E-1,6.4558786E-1,-8.2630146E-1,-2.2233531E-1,1.9702229E-1,1.0604466E0,-4.2546522E-2,-7.512969E-1,-3.9371464E-1,-1.0525152E-1,4.7137693E-2,3.1429404E-1,8.0587006E-1,1.5029331E0,-7.9594016E-1,-1.9515516E-2,-1.7779563E-2,-8.303716E-3,5.1349266E-3,-1.8607351E-1,-2.3806538E-2,1.9072662E-1,-3.4674807E-3,3.504807E-1,7.2954243E-1,3.592008E-2,3.9862234E-2,6.1035205E-2,-8.3699924E-1,-1.9129287E-2,-8.680845E-3,-4.171152E-3,-7.75383E-2,4.249668E-3,1.1313785E-2,8.7959394E-2,5.065346E-1,3.0660656E-1,7.62603E-1,1.5087219E-2,-3.302818E-2,-2.6082104E-2,-7.2383776E-4,-4.7352305E-3,-2.675737E-3,3.5284806E-2,3.29697E-4,5.391592E-3,9.1790715E-3,2.3768298E-2,2.2166722E-1,1.4760991E-2,2.9389039E-2,1.9390604E-2,2.1671522E-3,-9.4258814E-4,4.9017547E-3,1.0263272E-2],"categories":[],"categories_nodes":[],"categories_segments":[],"categories_sizes":[],"default_left":[0,0,0,0,0,0,0,0,0,0,0,0,0,0,0,0,0,0,0,0,0,0,0,0,0,0,0,0,0,0,0,0,0,0,0,0,0,0,0,0,0,0,0,0,0,0,0,0,0,0,0,0,0,0,0,0,0,0,0],"id":30,"left_children":[1,3,5,7,9,11,13,-1,15,17,19,21,23,25,27,29,-1,-1,-1,-1,31,33,35,-1,37,39,-1,-1,-1,41,-1,-1,-1,43,45,-1,47,49,51,53,-1,-1,-1,-1,-1,-1,55,-1,-1,-1,-1,57,-1,-1,-1,-1,-1,-1,-1],"loss_changes":[1.6514352E2,7.9338913E0,3.533452E1,2.6705399E0,5.204016E-1,1.6198673E0,9.940857E0,0E0,6.4520264E-1,6.4196825E-2,3.862875E-1,4.3238646E-1,8.0560255E-1,2.083168E-1,7.4113464E-1,5.638695E-1,0E0,0E0,0E0,0E0,2.5829852E-2,4.404729E-2,1.4850968E-1,0E0,1.733365E-1,1.9739723E-1,0E0,0E0,0E0,3.2310486E-2,0E0,0E0,0E0,2.8142221E-2,5.121133E-2,0E0,4.209236E-2,1.7657924E-1,2.5559258E-1,6.763458E-2,0E0,0E0,0E0,0E0,0E0,0E0,2.4290117E-2,0E0,0E0,0E0,0E0,9.0195894E-2,0E0,0E0,0E0,0E0,0E0,0E0,0E0],"parents":[2147483647,0,0,1,1,2,2,3,3,4,4,5,5,6,6,8,8,9,9,10,10,11,11,12,12,13,13,14,14,15,15,20,20,21,21,22,22,24,24,25,25,29,29,33,33,34,34,36,36,37,37,38,38,39,39,46,46,51,51],"right_children":[2,4,6,8,10,12,14,-1,16,18,20,22,24,26,28,30,-1,-1,-1,-1,32,34,36,-1,38,40,-1,-1,-1,42,-1,-1,-1,44,46,-1,48,50,52,54,-1,-1,-1,-1,-1,-1,56,-1,-1,-1,-1,58,-1,-1,-1,-1,-1,-1,-1],"split_conditions":[1.1167585E1,9.07E0,1.226E1,7.36E0,1.0803531E1,1.092E1,1.4437346E1,-4.2546522E-2,8.696674E0,4.8286552E1,9.496477E0,4.4391785E1,1.0722277E1,5.4329983E1,4.943859E1,5.9354107E1,-1.9515516E-2,-1.7779563E-2,-8.303716E-3,5.1349266E-3,3.7942715E1,1.0748621E1,1.046E1,-3.4674807E-3,1.12E1,6.3180027E1,3.592008E-2,3.9862234E-2,6.1035205E-2,8.1966E0,-1.9129287E-2,-8.680845E-3,-4.171152E-3,9.8216E0,9.408957E0,1.1313785E-2,1.074E1,1.132E1,2.3639694E1,2.3251554E1,1.5087219E-2,-3.302818E-2,-2.6082104E-2,-7.2383776E-4,-4.7352305E-3,-2.675737E-3,1.062E1,3.29697E-4,5.391592E-3,9.1790715E-3,2.3768298E-2,2.9588015E1,1.4760991E-2,2.9389039E-2,1.9390604E-2,2.1671522E-3,-9.4258814E-4,4.9017547E-3,1.0263272E-2],"split_indices":[3,13,13,13,3,13,1,0,1,9,4,9,1,2,2,2,0,0,0,0,2,1,13,0,17,9,0,0,0,0,0,0,0,4,9,0,13,15,8,8,0,0,0,0,0,0,13,0,0,0,0,9,0,0,0,0,0,0,0],"split_type":[0,0,0,0,0,0,0,0,0,0,0,0,0,0,0,0,0,0,0,0,0,0,0,0,0,0,0,0,0,0,0,0,0,0,0,0,0,0,0,0,0,0,0,0,0,0,0,0,0,0,0,0,0,0,0,0,0,0,0],"sum_hessian":[3.51E2,1.61E2,1.9E2,1.34E2,2.7E1,9.2E1,9.8E1,2.1E1,1.13E2,1E1,1.7E1,4.1E1,5.1E1,6.4E1,3.4E1,9.1E1,2.2E1,5E0,5E0,4E0,1.3E1,2.8E1,1.3E1,4E0,4.7E1,4.9E1,1.5E1,1.3E1,2.1E1,7.7E1,1.4E1,6E0,7E0,9E0,1.9E1,5E0,8E0,8E0,3.9E1,4.3E1,6E0,4.2E1,3.5E1,5E0,4E0,5E0,1.4E1,4E0,4E0,4E0,4E0,2.3E1,1.6E1,3.3E1,1E1,1E1,4E0,1.1E1,1.2E1],"tree_param":{"num_deleted":"0","num_feature":"18","num_nodes":"59","size_leaf_vector":"1"}},{"base_weights":[9.235308E-3,-6.316381E-1,6.758379E-1,-7.711418E-1,-8.637027E-2,4.2870152E-1,1.3747689E0,-9.6488696E-1,-6.476981E-1,-1.3663742E-1,-2.2926914E-2,1.839748E-1,7.0250756E-1,4.3093402E-2,6.419655E-2,-1.0078869E0,-1.9231148E-2,-6.732154E-1,-1.0797573E-2,1.5068398E-3,-1.8105187E-1,1.4504569E-2,-4.4501275E-3,-4.8357308E-2,2.4821733E-1,7.4890286E-1,1.4129187E-2,-3.780761E-2,-2.2897825E-2,-6.902419E-1,-1.3996091E-2,-7.7689714E-3,-2.0450933E-3,-7.26208E-4,2.3122958E-3,2.6609874E-3,-1.1978164E-2,9.186359E-2,3.3493763E-1,8.1721544E-1,2.0242905E-2,-2.1083439E-2,-2.7168777E-2,-1.5924708E-3,1.9748537E-1,4.5427492E-1,2.8275344E-1,1.9747965E-2,3.1620655E-2,4.727811E-3,9.562661E-3,8.371761E-3,2.1176398E-2,1.8883698E-1,3.3551872E-1,4.170489E-3,9.704334E-3,1.3548564E-2,6.2811365E-3],"categories":[],"categories_nodes":[],"categories_segments":[],"categories_sizes":[],"default_left":[0,0,0,0,0,0,0,0,0,0,0,0,0,0,0,0,0,0,0,0,0,0,0,0,0,0,0,0,0,0,0,0,0,0,0,0,0,0,0,0,0,0,0,0,0,0,0,0,0,0,0,0,0,0,0,0,0,0,0],"id":31,"left_children":[1,3,5,7,9,11,13,15,17,19,21,23,25,-1,-1,27,-1,29,-1,-1,31,33,-1,35,37,39,-1,-1,-1,41,-1,-1,-1,-1,-1,-1,-1,43,45,47,-1,-1,-1,-1,49,51,53,-1,-1,-1,-1,-1,-1,55,57,-1,-1,-1,-1],"loss_changes":[1.5165846E2,1.3701508E1,2.9465881E1,2.819046E0,1.18053764E-1,8.581753E0,1.1760559E0,4.68338E-1,6.0899734E-1,1.7388496E-1,6.9313E-2,1.0567949E0,5.8877754E-1,0E0,0E0,2.6340485E-2,0E0,1.4155579E-1,0E0,0E0,5.964452E-2,2.5256924E-2,0E0,5.770356E-1,7.149794E-1,2.1256828E-1,0E0,0E0,0E0,7.4523926E-2,0E0,0E0,0E0,0E0,0E0,0E0,0E0,3.1020904E-1,8.951545E-2,8.543396E-2,0E0,0E0,0E0,0E0,1.9080877E-2,1.2817442E-1,7.044101E-2,0E0,0E0,0E0,0E0,0E0,0E0,3.9242923E-2,3.6802173E-2,0E0,0E0,0E0,0E0],"parents":[2147483647,0,0,1,1,2,2,3,3,4,4,5,5,6,6,7,7,8,8,9,9,10,10,11,11,12,12,15,15,17,17,20,20,21,21,23,23,24,24,25,25,29,29,37,37,38,38,39,39,44,44,45,45,46,46,53,53,54,54],"right_children":[2,4,6,8,10,12,14,16,18,20,22,24,26,-1,-1,28,-1,30,-1,-1,32,34,-1,36,38,40,-1,-1,-1,42,-1,-1,-1,-1,-1,-1,-1,44,46,48,-1,-1,-1,-1,50,52,54,-1,-1,-1,-1,-1,-1,56,58,-1,-1,-1,-1],"split_conditions":[4.570413E-1,1.0783687E1,1.357E1,7.87E0,-2.2053024E-1,1.177E1,5.6049937E-1,8.1597E0,3.0852327E1,-3.502622E-1,1.056E1,9.448192E0,2.4989462E1,4.3093402E-2,6.419655E-2,1.6751153E0,-1.9231148E-2,1.5963087E2,-1.0797573E-2,1.5068398E-3,1.035E1,1.039E1,-4.4501275E-3,2.308395E1,-9.568717E1,4.870696E-2,1.4129187E-2,-3.780761E-2,-2.2897825E-2,-1.5831274E-1,-1.3996091E-2,-7.7689714E-3,-2.0450933E-3,-7.26208E-4,2.3122958E-3,2.6609874E-3,-1.1978164E-2,4.803161E-1,1.1721105E1,-3.489962E-1,2.0242905E-2,-2.1083439E-2,-2.7168777E-2,-1.5924708E-3,2.3639694E1,1.05514E1,5.0975186E-1,1.9747965E-2,3.1620655E-2,4.727811E-3,9.562661E-3,8.371761E-3,2.1176398E-2,1.166E1,5.4827213E-1,4.170489E-3,9.704334E-3,1.3548564E-2,6.2811365E-3],"split_indices":[5,3,13,13,7,13,7,0,8,7,14,4,8,0,0,11,0,11,0,0,14,14,0,8,11,7,0,0,0,7,0,0,0,0,0,0,0,5,3,7,0,0,0,0,8,0,5,0,0,0,0,0,0,15,11,0,0,0,0],"split_type":[0,0,0,0,0,0,0,0,0,0,0,0,0,0,0,0,0,0,0,0,0,0,0,0,0,0,0,0,0,0,0,0,0,0,0,0,0,0,0,0,0,0,0,0,0,0,0,0,0,0,0,0,0,0,0,0,0,0,0],"sum_hessian":[3.53E2,1.8E2,1.73E2,1.43E2,3.7E1,1.29E2,4.4E1,5.3E1,9E1,2E1,1.7E1,6.9E1,6E1,3.3E1,1.1E1,4.7E1,6E0,8.3E1,7E0,4E0,1.6E1,1.3E1,4E0,1.5E1,5.4E1,5.1E1,9E0,4.1E1,6E0,7.7E1,6E0,1.2E1,4E0,8E0,5E0,1.1E1,4E0,2E1,3.4E1,3.5E1,1.6E1,3.2E1,4.5E1,9E0,1.1E1,8E0,2.6E1,8E0,2.7E1,7E0,4E0,4E0,4E0,1.1E1,1.5E1,7E0,4E0,1.1E1,4E0],"tree_param":{"num_deleted":"0","num_feature":"18","num_nodes":"59","size_leaf_vector":"1"}},{"base_weights":[5.597961E-3,-6.685296E-1,5.869588E-1,-7.901545E-1,-3.107356E-1,2.036586E-1,9.9750566E-1,-9.17922E-1,-6.146297E-1,-4.733003E-1,-1.1789163E-1,6.691227E-2,3.3633175E-1,7.1678084E-1,1.3534263E0,-3.90802E-2,-2.8055787E-2,-6.7328334E-1,-4.599177E-1,-2.1705598E-2,-1.3201461E-2,-1.8045126E-1,1.1927166E-3,-2.721101E-3,1.8066783E-1,-2.671544E-3,3.8355935E-1,6.27876E-1,3.744709E-2,3.7205003E-2,5.7166193E-2,-1.817503E-2,-2.6556963E-2,-2.0604419E-2,-9.062916E-3,-8.084038E-3,-4.142411E-3,2.812745E-2,-4.224749E-3,1.2038701E-1,1.1757787E-2,2.4003968E-2,3.3997136E-1,5.049548E-1,2.5630143E-2,-1.2320564E-4,4.420032E-3,1.761553E-1,1.137804E-3,2.2030196E-1,4.3330848E-1,1.1869567E-2,2.1258544E-2,2.566309E-3,-1.4731404E-3,3.032475E-3,8.425487E-3,1.4748179E-3,9.490138E-3,3.3766603E-1,2.1320866E-2,6.2670005E-3,1.3657915E-2],"categories":[],"categories_nodes":[],