{"learner":{"attributes":{"scikit_learn":"{\"_estimator_type\": \"regressor\"}"},"feature_names":["MA50","EMA20","RSI"],"feature_types":["float","float","float"],"gradient_booster":{"model":{"gbtree_model_param":{"num_parallel_tree":"1","num_trees":"100"},"iteration_indptr":[0,1,2,3,4,5,6,7,8,9,10,11,12,13,14,15,16,17,18,19,20,21,22,23,24,25,26,27,28,29,30,31,32,33,34,35,36,37,38,39,40,41,42,43,44,45,46,47,48,49,50,51,52,53,54,55,56,57,58,59,60,61,62,63,64,65,66,67,68,69,70,71,72,73,74,75,76,77,78,79,80,81,82,83,84,85,86,87,88,89,90,91,92,93,94,95,96,97,98,99,100],"tree_info":[0,0,0,0,0,0,0,0,0,0,0,0,0,0,0,0,0,0,0,0,0,0,0,0,0,0,0,0,0,0,0,0,0,0,0,0,0,0,0,0,0,0,0,0,0,0,0,0,0,0,0,0,0,0,0,0,0,0,0,0,0,0,0,0,0,0,0,0,0,0,0,0,0,0,0,0,0,0,0,0,0,0,0,0,0,0,0,0,0,0,0,0,0,0,0,0,0,0,0,0],"trees":[{"base_weights":[3.6273255E-7,-1.6778284E0,3.9812891E0,-3.581711E0,-1.4152627E-1,2.4476938E0,5.3741946E0,-3.8755575E-1,-1.941921E0,-1.331926E0,1.4078489E-1,2.0332708E0,3.72583E0,4.1838E-1,6.0332674E-1,-1.9833325E-1,-5.5684566E-2,-1.3515203E-1,-3.8184643E-2,-3.2713476E-1,6.366222E-1,7.1484643E-1,2.1418147E-1,1.6315055E-1,4.1909772E-1,-6.178397E-2,2.10108E-3,-1.0238076E-2,7.325386E-2,-3.1484604E-2,1.05098106E-1],"categories":[],"categories_nodes":[],"categories_segments":[],"categories_sizes":[],"default_left":[0,0,0,0,0,0,0,0,0,0,0,0,0,0,0,0,0,0,0,0,0,0,0,0,0,0,0,0,0,0,0],"id":0,"left_children":[1,3,5,7,9,11,13,-1,15,17,19,21,23,-1,-1,-1,-1,-1,-1,25,27,29,-1,-1,-1,-1,-1,-1,-1,-1,-1],"loss_changes":[2.6586084E3,8.184761E2,2.3891187E2,5.2704834E1,5.2613365E1,2.3146393E1,2.2615967E1,0E0,1.00120544E-1,4.240799E-2,2.9673786E1,5.0518494E0,5.826584E0,0E0,0E0,0E0,0E0,0E0,0E0,6.6926847E0,4.4697113E0,2.0614738E0,0E0,0E0,0E0,0E0,0E0,0E0,0E0,0E0,0E0],"parents":[2147483647,0,0,1,1,2,2,3,3,4,4,5,5,6,6,8,8,9,9,10,10,11,11,12,12,19,19,20,20,21,21],"right_children":[2,4,6,8,10,12,14,-1,16,18,20,22,24,-1,-1,-1,-1,-1,-1,26,28,30,-1,-1,-1,-1,-1,-1,-1,-1,-1],"split_conditions":[1.9053574E1,1.5874114E1,2.1924358E1,1.45025425E1,1.6475546E1,7.012715E1,4.3440174E1,-3.8755575E-1,7.984947E1,6.811467E1,4.9320724E1,2.2764019E1,1.8829172E1,4.1838E-1,6.0332674E-1,-1.9833325E-1,-5.5684566E-2,-1.3515203E-1,-3.8184643E-2,4.5010555E1,1.7390076E1,2.0367746E1,2.1418147E-1,1.6315055E-1,4.1909772E-1,-6.178397E-2,2.10108E-3,-1.0238076E-2,7.325386E-2,-3.1484604E-2,1.05098106E-1],"split_indices":[1,1,1,1,0,2,2,0,2,2,2,2,0,0,0,0,0,0,0,2,1,0,0,0,0,0,0,0,0,0,0],"split_type":[0,0,0,0,0,0,0,0,0,0,0,0,0,0,0,0,0,0,0,0,0,0,0,0,0,0,0,0,0,0,0],"sum_hessian":[3.96E2,2.79E2,1.17E2,1.24E2,1.55E2,5.7E1,6E1,1.04E2,2E1,2.9E1,1.26E2,4.5E1,1.2E1,2.4E1,3.6E1,1.9E1,1E0,2.8E1,1E0,6.5E1,6.1E1,4E0,4.1E1,3E0,9E0,3.5E1,3E1,7E0,5.4E1,1E0,3E0],"tree_param":{"num_deleted":"0","num_feature":"3","num_nodes":"31","size_leaf_vector":"1"}},{"base_weights":[2.72127E-3,-1.5129439E0,3.5991917E0,-3.228672E0,-1.2846315E-1,2.2179248E0,4.853524E0,-3.4916922E-1,-1.7598246E-1,-1.2045105E0,1.2673278E-1,1.8361996E0,3.3980353E0,3.4244257E-1,5.28555E-1,-1.2843546E-1,-7.586866E-2,-2.9532555E-1,5.7397664E-1,6.580841E-1,1.9327325E0,1.5091424E-1,3.813789E-1,-5.577712E-2,1.8976703E-3,-9.342194E-3,6.606168E-2,-2.9910374E-2,9.7215705E-2,1.5481615E-1,2.1566539E-1],"categories":[],"categories_nodes":[],"categories_segments":[],"categories_sizes":[],"default_left":[0,0,0,0,0,0,0,0,0,0,0,0,0,0,0,0,0,0,0,0,0,0,0,0,0,0,0,0,0,0,0],"id":1,"left_children":[1,3,5,7,9,11,13,-1,-1,15,17,19,21,-1,-1,-1,-1,23,25,27,29,-1,-1,-1,-1,-1,-1,-1,-1,-1,-1],"loss_changes":[2.16951E3,6.646953E2,1.9367834E2,4.214734E1,4.2990707E1,1.9888214E1,1.956189E1,0E0,0E0,9.346771E-2,2.4142406E1,3.9595184E0,4.4535522E0,0E0,0E0,0E0,0E0,5.4547443E0,3.646778E0,1.7939095E0,2.7792358E-1,0E0,0E0,0E0,0E0,0E0,0E0,0E0,0E0,0E0,0E0],"parents":[2147483647,0,0,1,1,2,2,3,3,4,4,5,5,6,6,9,9,10,10,11,11,12,12,17,17,18,18,19,19,20,20],"right_children":[2,4,6,8,10,12,14,-1,-1,16,18,20,22,-1,-1,-1,-1,24,26,28,30,-1,-1,-1,-1,-1,-1,-1,-1,-1,-1],"split_conditions":[1.9053574E1,1.5874114E1,2.1924358E1,1.45025425E1,1.6475546E1,7.012715E1,3.9542088E1,-3.4916922E-1,-1.7598246E-1,6.3836227E1,4.9320724E1,2.2764019E1,1.8829172E1,3.4244257E-1,5.28555E-1,-1.2843546E-1,-7.586866E-2,4.5010555E1,1.7390076E1,2.0367746E1,2.1042866E1,1.5091424E-1,3.813789E-1,-5.577712E-2,1.8976703E-3,-9.342194E-3,6.606168E-2,-2.9910374E-2,9.7215705E-2,1.5481615E-1,2.1566539E-1],"split_indices":[1,1,1,1,0,2,2,0,0,2,2,2,0,0,0,0,0,2,1,0,0,0,0,0,0,0,0,0,0,0,0],"split_type":[0,0,0,0,0,0,0,0,0,0,0,0,0,0,0,0,0,0,0,0,0,0,0,0,0,0,0,0,0,0,0],"sum_hessian":[3.96E2,2.79E2,1.17E2,1.24E2,1.55E2,5.7E1,6E1,1.04E2,2E1,2.9E1,1.26E2,4.5E1,1.2E1,1.6E1,4.4E1,2.3E1,6E0,6.5E1,6.1E1,4E0,4.1E1,3E0,9E0,3.5E1,3E1,7E0,5.4E1,1E0,3E0,1.8E1,2.3E1],"tree_param":{"num_deleted":"0","num_feature":"3","num_nodes":"31","size_leaf_vector":"1"}},{"base_weights":[5.2561746E-3,-1.3642447E0,3.2548747E0,-2.9100068E0,-1.1690823E-1,2.012858E0,4.38245E0,-3.145849E-1,-1.5922232E0,-1.0908698E0,1.1408198E-1,1.6620969E0,3.0991776E0,3.5199484E-1,5.054094E-1,-1.627733E-1,-4.410124E-2,-1.1612709E-1,-6.936564E-2,-2.6660967E-1,5.174944E-1,7.0085746E-1,1.762227E0,1.3959561E-1,3.4705484E-1,-5.03544E-2,1.7140111E-3,2.987397E-2,7.900008E-2,-2.8414821E-2,9.546883E-2,1.401494E-1,1.9836053E-1],"categories":[],"categories_nodes":[],"categories_segments":[],"categories_sizes":[],"default_left":[0,0,0,0,0,0,0,0,0,0,0,0,0,0,0,0,0,0,0,0,0,0,0,0,0,0,0,0,0,0,0,0,0],"id":2,"left_children":[1,3,5,7,9,11,13,-1,15,17,19,21,23,-1,-1,-1,-1,-1,-1,25,27,29,31,-1,-1,-1,-1,-1,-1,-1,-1,-1,-1],"loss_changes":[1.7712316E3,5.3952356E2,1.5643396E2,3.383972E1,3.5220642E1,1.6949097E1,1.7546875E1,0E0,1.4061356E-1,3.3405304E-2,1.9642088E1,3.1923904E0,3.3781128E0,0E0,0E0,0E0,0E0,0E0,0E0,4.4458146E0,3.4599419E0,1.7714217E0,4.9419403E-1,0E0,0E0,0E0,0E0,0E0,0E0,0E0,0E0,0E0,0E0],"parents":[2147483647,0,0,1,1,2,2,3,3,4,4,5,5,6,6,8,8,9,9,10,10,11,11,12,12,19,19,20,20,21,21,22,22],"right_children":[2,4,6,8,10,12,14,-1,16,18,20,22,24,-1,-1,-1,-1,-1,-1,26,28,30,32,-1,-1,-1,-1,-1,-1,-1,-1,-1,-1],"split_conditions":[1.9053574E1,1.5874114E1,2.1924358E1,1.45025425E1,1.6475546E1,7.012715E1,4.7315887E1,-3.145849E-1,7.984947E1,6.3836227E1,4.9320724E1,2.371194E1,1.8829172E1,3.5199484E-1,5.054094E-1,-1.627733E-1,-4.410124E-2,-1.1612709E-1,-6.936564E-2,4.5010555E1,1.8217644E1,2.0367746E1,2.1042866E1,1.3959561E-1,3.4705484E-1,-5.03544E-2,1.7140111E-3,2.987397E-2,7.900008E-2,-2.8414821E-2,9.546883E-2,1.401494E-1,1.9836053E-1],"split_indices":[1,1,1,1,0,2,2,0,2,2,2,2,0,0,0,0,0,0,0,2,1,0,0,0,0,0,0,0,0,0,0,0,0],"split_type":[0,0,0,0,0,0,0,0,0,0,0,0,0,0,0,0,0,0,0,0,0,0,0,0,0,0,0,0,0,0,0,0,0],"sum_hessian":[3.96E2,2.79E2,1.17E2,1.24E2,1.55E2,5.7E1,6E1,1.04E2,2E1,2.9E1,1.26E2,4.5E1,1.2E1,2.9E1,3.1E1,1.9E1,1E0,2.3E1,6E0,6.5E1,6.1E1,5E0,4E1,3E0,9E0,3.5E1,3E1,3.5E1,2.6E1,1E0,4E0,1.8E1,2.2E1],"tree_param":{"num_deleted":"0","num_feature":"3","num_nodes":"33","size_leaf_vector":"1"}},{"base_weights":[7.50835E-3,-1.2301303E0,2.9442143E0,-2.6231778E0,-1.0602081E-1,1.8806129E0,4.0120673E0,-2.8342602E0,-1.4428521E0,-9.7041816E-1,1.0748981E-1,1.5385696E0,2.919003E0,3.2412717E-1,4.5788488E-1,-2.9882193E-1,-2.3896597E-1,-1.4730985E-1,-4.1896153E-2,-1.0020242E-1,-3.4141984E-2,-1.9174129E-1,5.5129516E-1,7.089694E-1,1.6402037E0,1.2912598E-1,3.2455456E-1,-4.212783E-2,1.0419498E-2,3.6575817E-2,7.9893105E-2,-2.6994038E-2,9.171111E-2,1.2826894E-1,1.8797725E-1],"categories":[],"categories_nodes":[],"categories_segments":[],"categories_sizes":[],"default_left":[0,0,0,0,0,0,0,0,0,0,0,0,0,0,0,0,0,0,0,0,0,0,0,0,0,0,0,0,0,0,0,0,0,0,0],"id":3,"left_children":[1,3,5,7,9,11,13,15,17,19,21,23,25,-1,-1,-1,-1,-1,-1,-1,-1,27,29,31,33,-1,-1,-1,-1,-1,-1,-1,-1,-1,-1],"loss_changes":[1.4465504E3,4.381845E2,1.2647571E2,2.7053833E1,2.889536E1,1.717453E1,1.0497314E1,4.6447754E-2,3.3176422E-2,2.7417564E-1,1.6838554E1,2.8843079E0,3.2505417E0,0E0,0E0,0E0,0E0,0E0,0E0,0E0,0E0,5.2064476E0,2.051011E0,1.6738291E0,1.1860962E0,0E0,0E0,0E0,0E0,0E0,0E0,0E0,0E0,0E0,0E0],"parents":[2147483647,0,0,1,1,2,2,3,3,4,4,5,5,6,6,7,7,8,8,9,9,10,10,11,11,12,12,21,21,22,22,23,23,24,24],"right_children":[2,4,6,8,10,12,14,16,18,20,22,24,26,-1,-1,-1,-1,-1,-1,-1,-1,28,30,32,34,-1,-1,-1,-1,-1,-1,-1,-1,-1,-1],"split_conditions":[1.9053574E1,1.5874114E1,2.2233997E1,1.45025425E1,1.6523645E1,7.012715E1,4.7315887E1,5.3678524E1,7.984947E1,6.811467E1,5.2115192E1,2.603572E1,1.8829172E1,3.2412717E-1,4.5788488E-1,-2.9882193E-1,-2.3896597E-1,-1.4730985E-1,-4.1896153E-2,-1.0020242E-1,-3.4141984E-2,1.816684E1,1.8302067E1,2.0367746E1,2.0489225E1,1.2912598E-1,3.2455456E-1,-4.212783E-2,1.0419498E-2,3.6575817E-2,7.9893105E-2,-2.6994038E-2,9.171111E-2,1.2826894E-1,1.8797725E-1],"split_indices":[1,1,1,1,0,2,2,2,2,2,2,2,0,0,0,0,0,0,0,0,0,1,1,0,1,0,0,0,0,0,0,0,0,0,0],"split_type":[0,0,0,0,0,0,0,0,0,0,0,0,0,0,0,0,0,0,0,0,0,0,0,0,0,0,0,0,0,0,0,0,0,0,0],"sum_hessian":[3.96E2,2.79E2,1.17E2,1.24E2,1.55E2,6E1,5.7E1,1.04E2,2E1,3E1,1.25E2,4.7E1,1.3E1,2.7E1,3E1,7.3E1,3.1E1,1.9E1,1E0,2.8E1,2E0,7.5E1,5E1,6E0,4.1E1,3E0,1E1,4.2E1,3.3E1,3E1,2E1,1E0,5E0,1.9E1,2.2E1],"tree_param":{"num_deleted":"0","num_feature":"3","num_nodes":"35","size_leaf_vector":"1"}},{"base_weights":[8.873632E-3,-1.1098906E0,2.6634932E0,-2.3666756E0,-9.5736586E-2,1.8644216E0,3.8309329E0,-2.5559556E0,-1.3075763E-1,-5.5823296E-1,2.3206775E-1,1.5346936E0,2.8409126E0,1.06468014E-1,3.8679236E-1,-2.7657697E-1,-2.226721E-1,-9.168673E-2,-2.7928567E-1,-4.4363242E-1,4.0242228E-1,1.2678854E0,2.0722015E-1,1.1944156E-1,3.108418E-1,-4.349657E-2,9.426816E-3,-6.672128E-2,-1.7568875E-2,2.6580993E-2,9.220436E-2,7.915443E-2,1.5220283E-1],"categories":[],"categories_nodes":[],"categories_segments":[],"categories_sizes":[],"default_left":[0,0,0,0,0,0,0,0,0,0,0,0,0,0,0,0,0,0,0,0,0,0,0,0,0,0,0,0,0,0,0,0,0],"id":4,"left_children":[1,3,5,7,9,11,13,15,-1,17,19,21,23,-1,-1,-1,-1,-1,25,27,29,31,-1,-1,-1,-1,-1,-1,-1,-1,-1,-1,-1],"loss_changes":[1.1820039E3,3.5665396E2,1.0293591E2,2.1716187E1,2.3780443E1,1.8822357E1,6.9122314E-1,1.0946045E0,0E0,6.246538E0,1.0768518E1,5.4037323E0,3.7748566E0,0E0,0E0,0E0,0E0,0E0,2.2508883E0,1.0210104E0,5.007926E0,3.6375961E0,0E0,0E0,0E0,0E0,0E0,0E0,0E0,0E0,0E0,0E0,0E0],"parents":[2147483647,0,0,1,1,2,2,3,3,4,4,5,5,6,6,7,7,9,9,10,10,11,11,12,12,18,18,19,19,20,20,21,21],"right_children":[2,4,6,8,10,12,14,16,-1,18,20,22,24,-1,-1,-1,-1,-1,26,28,30,32,-1,-1,-1,-1,-1,-1,-1,-1,-1,-1,-1],"split_conditions":[1.9053574E1,1.5874114E1,2.290141E1,1.45025425E1,1.786035E1,7.012715E1,3.4159298E1,1.4134311E1,-1.3075763E-1,1.6369726E1,4.2682583E1,2.2531557E1,1.8829172E1,1.06468014E-1,3.8679236E-1,-2.7657697E-1,-2.226721E-1,-9.168673E-2,5.829786E1,3.8681843E1,5.9352226E1,4.0684193E1,2.0722015E-1,1.1944156E-1,3.108418E-1,-4.349657E-2,9.426816E-3,-6.672128E-2,-1.7568875E-2,2.6580993E-2,9.220436E-2,7.915443E-2,1.5220283E-1],"split_indices":[1,1,1,1,1,2,2,1,0,0,2,0,0,0,0,0,0,0,2,2,2,2,0,0,0,0,0,0,0,0,0,0,0],"split_type":[0,0,0,0,0,0,0,0,0,0,0,0,0,0,0,0,0,0,0,0,0,0,0,0,0,0,0,0,0,0,0,0,0],"sum_hessian":[3.96E2,2.79E2,1.17E2,1.24E2,1.55E2,7.1E1,4.6E1,1.04E2,2E1,6.4E1,9.1E1,5.5E1,1.6E1,1E0,4.5E1,5.9E1,4.5E1,2.7E1,3.7E1,1.8E1,7.3E1,3.9E1,1.6E1,3E0,1.3E1,2.6E1,1.1E1,9E0,9E0,5.9E1,1.4E1,1.5E1,2.4E1],"tree_param":{"num_deleted":"0","num_feature":"3","num_nodes":"33","size_leaf_vector":"1"}},{"base_weights":[9.600366E-3,-1.0014775E0,2.4086869E0,-2.1350482E0,-8.6747915E-2,1.4963343E0,3.236683E0,-2.3051152E0,-1.1830447E0,-6.2006783E-1,1.4890441E-1,1.2283618E0,2.3294423E0,2.5707414E0,3.7598568E-1,-2.4938023E-1,-2.0088902E-1,-1.2089335E-1,-3.3263396E-2,-7.2419006E-1,-8.933067E-3,-2.586001E-1,3.8888675E-1,4.411873E-1,1.2928264E0,1.1048341E-1,2.5863415E-1,1.965751E-1,2.9177487E-1,-8.733108E-2,-5.0556023E-2,-1.8388137E-2,2.119856E-2,-6.3432865E-2,-9.968866E-3,2.3953987E-2,7.692974E-2,-2.960205E-2,6.994944E-2,1.0299225E-1,1.447091E-1],"categories":[],"categories_nodes":[],"categories_segments":[],"categories_sizes":[],"default_left":[0,0,0,0,0,0,0,0,0,0,0,0,0,0,0,0,0,0,0,0,0,0,0,0,0,0,0,0,0,0,0,0,0,0,0,0,0,0,0,0,0],"id":5,"left_children":[1,3,5,7,9,11,13,15,17,19,21,23,25,27,-1,-1,-1,-1,-1,29,31,33,35,37,39,-1,-1,-1,-1,-1,-1,-1,-1,-1,-1,-1,-1,-1,-1,-1,-1],"loss_changes":[9.6540063E2,2.9014984E2,8.4296875E1,1.7510925E1,1.9698112E1,1.0087112E1,1.1586975E1,8.5913086E-1,6.0207367E-2,3.0478992E0,1.0760099E1,1.7638779E0,1.2323303E0,5.625305E-1,0E0,0E0,0E0,0E0,0E0,8.9518166E-1,3.4817496E-1,2.384775E0,3.7358294E0,1.1591947E0,2.129898E-1,0E0,0E0,0E0,0E0,0E0,0E0,0E0,0E0,0E0,0E0,0E0,0E0,0E0,0E0,0E0,0E0],"parents":[2147483647,0,0,1,1,2,2,3,3,4,4,5,5,6,6,7,7,8,8,9,9,10,10,11,11,12,12,13,13,19,19,20,20,21,21,22,22,23,23,24,24],"right_children":[2,4,6,8,10,12,14,16,18,20,22,24,26,28,-1,-1,-1,-1,-1,30,32,34,36,38,40,-1,-1,-1,-1,-1,-1,-1,-1,-1,-1,-1,-1,-1,-1,-1,-1],"split_conditions":[1.9053574E1,1.5874114E1,2.1924358E1,1.45025425E1,1.767576E1,7.012715E1,4.7315887E1,1.4134311E1,7.984947E1,7.019579E1,4.741053E1,2.2764019E1,1.8829172E1,2.3206688E1,3.7598568E-1,-2.4938023E-1,-2.0088902E-1,-1.2089335E-1,-3.3263396E-2,1.6619883E1,1.6680346E1,4.0887238E1,5.8797016E1,2.0367746E1,2.1042866E1,1.1048341E-1,2.5863415E-1,1.965751E-1,2.9177487E-1,-8.733108E-2,-5.0556023E-2,-1.8388137E-2,2.119856E-2,-6.3432865E-2,-9.968866E-3,2.3953987E-2,7.692974E-2,-2.960205E-2,6.994944E-2,1.0299225E-1,1.447091E-1],"split_indices":[1,1,1,1,1,2,2,1,2,2,2,2,0,1,0,0,0,0,0,1,0,2,2,0,0,0,0,0,0,0,0,0,0,0,0,0,0,0,0,0,0],"split_type":[0,0,0,0,0,0,0,0,0,0,0,0,0,0,0,0,0,0,0,0,0,0,0,0,0,0,0,0,0,0,0,0,0,0,0,0,0,0,0,0,0],"sum_hessian":[3.96E2,2.79E2,1.17E2,1.24E2,1.55E2,5.7E1,6E1,1.04E2,2E1,4.7E1,1.08E2,4.5E1,1.2E1,2.9E1,3.1E1,5.9E1,4.5E1,1.9E1,1E0,4E1,7E0,4E1,6.8E1,4E0,4.1E1,3E0,9E0,1.3E1,1.6E1,2.2E1,1.8E1,4E0,3E0,1.1E1,2.9E1,5E1,1.8E1,1E0,3E0,1.8E1,2.3E1],"tree_param":{"num_deleted":"0","num_feature":"3","num_nodes":"41","size_leaf_vector":"1"}},{"base_weights":[1.0679415E-2,-9.038725E-1,2.180712E0,-2.0124629E0,-1.4169776E-1,1.3580313E0,2.9271839E0,-2.2133298E-1,-1.6008381E0,-8.04567E-1,8.038323E-2,1.1117874E0,2.1248915E0,2.0057352E-1,3.2102382E-1,-1.6655283E-1,-5.8607172E-2,-8.678968E-1,-4.759246E-1,-1.8471894E-1,3.7507427E-1,5.123757E-1,1.1888899E0,1.1555264E-1,2.4273287E-1,-9.129252E-2,-5.056102E-2,-5.5309173E-2,-2.4119282E-2,-3.499138E-2,4.380923E-3,2.0874863E-2,5.8454823E-2,-2.8121948E-2,6.915115E-2,9.418786E-2,1.3675249E-1],"categories":[],"categories_nodes":[],"categories_segments":[],"categories_sizes":[],"default_left":[0,0,0,0,0,0,0,0,0,0,0,0,0,0,0,0,0,0,0,0,0,0,0,0,0,0,0,0,0,0,0,0,0,0,0,0,0],"id":6,"left_children":[1,3,5,7,9,11,13,-1,15,17,19,21,23,-1,-1,-1,-1,25,27,29,31,33,35,-1,-1,-1,-1,-1,-1,-1,-1,-1,-1,-1,-1,-1,-1],"loss_changes":[7.898603E2,2.3629793E2,6.84895E1,5.882538E0,2.4648851E1,8.589973E0,9.47113E0,0E0,1.7153397E0,4.6108627E-1,9.912811E0,1.5167809E0,1.0063934E0,0E0,0E0,0E0,0E0,9.3063354E-2,2.9620409E-2,2.5446913E0,1.9684286E0,1.1895953E0,4.769516E-1,0E0,0E0,0E0,0E0,0E0,0E0,0E0,0E0,0E0,0E0,0E0,0E0,0E0,0E0],"parents":[2147483647,0,0,1,1,2,2,3,3,4,4,5,5,6,6,8,8,9,9,10,10,11,11,12,12,17,17,18,18,19,19,20,20,21,21,22,22],"right_children":[2,4,6,8,10,12,14,-1,16,18,20,22,24,-1,-1,-1,-1,26,28,30,32,34,36,-1,-1,-1,-1,-1,-1,-1,-1,-1,-1,-1,-1,-1,-1],"split_conditions":[1.9053574E1,1.5361649E1,2.1924358E1,5.3678524E1,1.6523645E1,7.012715E1,3.9542088E1,-2.2133298E-1,6.890364E1,6.3836227E1,4.9579853E1,2.603572E1,1.9140537E1,2.0057352E-1,3.2102382E-1,-1.6655283E-1,-5.8607172E-2,1.6619883E1,1.5827242E1,1.816684E1,1.8217644E1,2.0367746E1,2.0489225E1,1.1555264E-1,2.4273287E-1,-9.129252E-2,-5.056102E-2,-5.5309173E-2,-2.4119282E-2,-3.499138E-2,4.380923E-3,2.0874863E-2,5.8454823E-2,-2.8121948E-2,6.915115E-2,9.418786E-2,1.3675249E-1],"split_indices":[1,1,1,2,0,2,2,0,2,2,2,2,0,0,0,0,0,1,0,1,1,0,1,0,0,0,0,0,0,0,0,0,0,0,0,0,0],"split_type":[0,0,0,0,0,0,0,0,0,0,0,0,0,0,0,0,0,0,0,0,0,0,0,0,0,0,0,0,0,0,0,0,0,0,0,0,0],"sum_hessian":[3.96E2,2.79E2,1.17E2,1.13E2,1.66E2,5.7E1,6E1,7.3E1,4E1,4.1E1,1.25E2,4.5E1,1.2E1,1.6E1,4.4E1,3.7E1,3E0,3.3E1,8E0,6.6E1,5.9E1,6E0,3.9E1,4E0,8E0,2.8E1,5E0,5E0,3E0,3.8E1,2.8E1,3.4E1,2.5E1,1E0,5E0,1.9E1,2E1],"tree_param":{"num_deleted":"0","num_feature":"3","num_nodes":"37","size_leaf_vector":"1"}},{"base_weights":[1.0953666E-2,-8.156959E-1,1.9724021E0,-1.7127702E0,-4.8996575E-2,1.4191962E0,2.9042914E0,-1.8846916E0,-9.934864E-1,-3.7776574E-1,1.8797223E-1,1.159604E0,2.1912382E0,2.551335E-1,3.603484E-1,-2.003842E0,-1.5433149E-1,-1.0096437E-1,-2.8669834E-2,-6.4281724E-2,-2.1339984E-1,-3.4684277E-1,3.1906524E-1,9.339825E-1,1.5528667E-1,1.063084E-1,2.4376333E-1,-2.1322976E-1,-1.6091363E-1,-3.456595E-2,9.805636E-3,-1.9224795E-2,-7.103398E-2,2.1402946E-2,7.3892586E-2,5.466807E-2,1.14449635E-1],"categories":[],"categories_nodes":[],"categories_segments":[],"categories_sizes":[],"default_left":[0,0,0,0,0,0,0,0,0,0,0,0,0,0,0,0,0,0,0,0,0,0,0,0,0,0,0,0,0,0,0,0,0,0,0,0,0],"id":7,"left_children":[1,3,5,7,9,11,13,15,17,19,21,23,25,-1,-1,27,-1,-1,-1,-1,29,31,33,35,-1,-1,-1,-1,-1,-1,-1,-1,-1,-1,-1,-1,-1],"loss_changes":[6.453168E2,1.9249623E2,5.671039E1,1.4079742E1,1.1913032E1,1.2690674E1,1.4180603E0,1.0970154E0,1.88694E-2,2.6510096E0,6.350502E0,3.7846298E0,2.4120865E0,0E0,0E0,2.7011108E-1,0E0,0E0,0E0,0E0,1.7228111E0,8.749442E-1,3.0170755E0,2.635624E0,0E0,0E0,0E0,0E0,0E0,0E0,0E0,0E0,0E0,0E0,0E0,0E0,0E0],"parents":[2147483647,0,0,1,1,2,2,3,3,4,4,5,5,6,6,7,7,8,8,9,9,10,10,11,11,12,12,15,15,20,20,21,21,22,22,23,23],"right_children":[2,4,6,8,10,12,14,16,18,20,22,24,26,-1,-1,28,-1,-1,-1,-1,30,32,34,36,-1,-1,-1,-1,-1,-1,-1,-1,-1,-1,-1,-1,-1],"split_conditions":[1.9053574E1,1.5276655E1,2.3206688E1,1.4449289E1,1.7884716E1,7.012715E1,5.59305E1,5.3678524E1,7.984947E1,1.6369726E1,4.2682583E1,2.2531557E1,1.9140537E1,2.551335E-1,3.603484E-1,1.4238213E1,-1.5433149E-1,-1.0096437E-1,-2.8669834E-2,-6.4281724E-2,5.829786E1,1.9844746E1,5.9352226E1,4.0684193E1,1.5528667E-1,1.063084E-1,2.4376333E-1,-2.1322976E-1,-1.6091363E-1,-3.456595E-2,9.805636E-3,-1.9224795E-2,-7.103398E-2,2.1402946E-2,7.3892586E-2,5.466807E-2,1.14449635E-1],"split_indices":[1,0,1,1,1,2,2,2,2,0,2,0,0,0,0,1,0,0,0,0,2,0,2,2,0,0,0,0,0,0,0,0,0,0,0,0,0],"split_type":[0,0,0,0,0,0,0,0,0,0,0,0,0,0,0,0,0,0,0,0,0,0,0,0,0,0,0,0,0,0,0,0,0,0,0,0,0],"sum_hessian":[3.96E2,2.79E2,1.17E2,1.28E2,1.51E2,7.5E1,4.2E1,1.02E2,2.6E1,6.3E1,8.8E1,5.8E1,1.7E1,3.1E1,1.1E1,7.2E1,3E1,2.5E1,1E0,2.3E1,4E1,1.7E1,7.1E1,3.9E1,1.9E1,4E0,1.3E1,5.1E1,2.1E1,2.8E1,1.2E1,1.3E1,4E0,5.8E1,1.3E1,1.5E1,2.4E1],"tree_param":{"num_deleted":"0","num_feature":"3","num_nodes":"37","size_leaf_vector":"1"}},{"base_weights":[1.1238367E-2,-7.367766E-1,1.7860938E0,-1.6403775E0,-1.15535386E-1,1.2501832E0,2.5690613E0,-1.8144575E0,-1.3221943E0,-6.57762E-1,6.612377E-2,1.0235468E0,1.92321E0,2.2375524E-1,3.2639652E-1,-1.9139539E-1,-1.385825E-1,-1.3716751E-1,-4.8446726E-2,-7.0037144E-1,-3.446617E-1,-3.1517935E-1,2.1624231E-1,8.57804E-1,1.4193903E-1,9.7803764E-2,2.1387987E-1,-7.45209E-2,-4.0815763E-2,-4.7842027E-3,-3.86158E-2,-5.2634355E-2,-2.0121338E-2,6.2100906E-3,4.2959478E-2,5.6456514E-2,1.0346239E-1],"categories":[],"categories_nodes":[],"categories_segments":[],"categories_sizes":[],"default_left":[0,0,0,0,0,0,0,0,0,0,0,0,0,0,0,0,0,0,0,0,0,0,0,0,0,0,0,0,0,0,0,0,0,0,0,0,0],"id":8,"left_children":[1,3,5,7,9,11,13,15,17,19,21,23,25,-1,-1,-1,-1,-1,-1,27,29,31,33,35,-1,-1,-1,-1,-1,-1,-1,-1,-1,-1,-1,-1,-1],"loss_changes":[5.2838043E2,1.5698961E2,4.6301086E1,3.9153442E0,1.6493065E1,9.013832E0,3.5239563E0,3.7554932E-1,1.1593323E0,3.1893158E-1,7.28048E0,2.4564972E0,1.3722382E0,0E0,0E0,0E0,0E0,0E0,0E0,1.675148E-1,6.774372E-2,7.604513E-1,2.9659896E0,1.593607E0,0E0,0E0,0E0,0E0,0E0,0E0,0E0,0E0,0E0,0E0,0E0,0E0,0E0],"parents":[2147483647,0,0,1,1,2,2,3,3,4,4,5,5,6,6,7,7,8,8,9,9,10,10,11,11,12,12,19,19,20,20,21,21,22,22,23,23],"right_children":[2,4,6,8,10,12,14,16,18,20,22,24,26,-1,-1,-1,-1,-1,-1,28,30,32,34,36,-1,-1,-1,-1,-1,-1,-1,-1,-1,-1,-1,-1,-1],"split_conditions":[1.9053574E1,1.5361649E1,2.290141E1,1.4238213E1,1.6523645E1,7.012715E1,5.59305E1,5.766563E1,6.890364E1,6.431226E1,4.5010555E1,2.2723473E1,1.9140537E1,2.2375524E-1,3.2639652E-1,-1.9139539E-1,-1.385825E-1,-1.3716751E-1,-4.8446726E-2,1.6619883E1,6.503152E1,4.0887238E1,5.5432194E1,4.0684193E1,1.4193903E-1,9.7803764E-2,2.1387987E-1,-7.45209E-2,-4.0815763E-2,-4.7842027E-3,-3.86158E-2,-5.2634355E-2,-2.0121338E-2,6.2100906E-3,4.2959478E-2,5.6456514E-2,1.0346239E-1],"split_indices":[1,1,1,1,0,2,2,2,2,2,2,0,0,0,0,0,0,0,0,1,2,2,2,2,0,0,0,0,0,0,0,0,0,0,0,0,0],"split_type":[0,0,0,0,0,0,0,0,0,0,0,0,0,0,0,0,0,0,0,0,0,0,0,0,0,0,0,0,0,0,0,0,0,0,0,0,0],"sum_hessian":[3.96E2,2.79E2,1.17E2,1.13E2,1.66E2,7.1E1,4.6E1,7E1,4.3E1,4.1E1,1.25E2,5.5E1,1.6E1,3.4E1,1.2E1,5.4E1,1.6E1,4E1,3E0,3.5E1,6E0,3.5E1,9E1,4.1E1,1.4E1,4E0,1.2E1,2.9E1,6E0,1E0,5E0,1.1E1,2.4E1,5.3E1,3.7E1,1.7E1,2.4E1],"tree_param":{"num_deleted":"0","num_feature":"3","num_nodes":"37","size_leaf_vector":"1"}},{"base_weights":[1.1287805E-2,-6.655915E-1,1.6173464E0,-1.4183704E0,-5.813673E-2,1.1626586E0,2.383368E0,-1.530105E0,-7.921558E-2,-3.567656E-1,1.5348297E-1,9.457304E-1,1.8091089E0,2.0874129E-1,2.973968E-1,-1.6692601E-1,-1.315335E-1,-5.5460614E-1,-2.0159978E-1,-2.900459E-1,2.652879E-1,7.6156336E-1,1.266778E-1,8.997952E-2,2.0046417E-1,-5.9260834E-2,-3.1649686E-2,-2.4160057E-2,3.4560967E-2,-1.6358986E-2,-6.1140478E-2,1.722208E-2,6.198705E-2,4.076549E-2,9.168654E-2],"categories":[],"categories_nodes":[],"categories_segments":[],"categories_sizes":[],"default_left":[0,0,0,0,0,0,0,0,0,0,0,0,0,0,0,0,0,0,0,0,0,0,0,0,0,0,0,0,0,0,0,0,0,0,0],"id":9,"left_children":[1,3,5,7,9,11,13,15,-1,17,19,21,23,-1,-1,-1,-1,25,27,29,31,33,-1,-1,-1,-1,-1,-1,-1,-1,-1,-1,-1,-1,-1],"loss_changes":[4.326583E2,1.27955696E2,3.832843E1,7.534149E0,9.913294E0,8.9468E0,1.3081055E0,9.4244385E-1,0E0,1.8835678E0,4.6391077E0,2.5237236E0,1.3966484E0,0E0,0E0,0E0,0E0,6.580448E-2,9.1527414E-1,6.7209804E-1,2.3352432E0,1.8247433E0,0E0,0E0,0E0,0E0,0E0,0E0,0E0,0E0,0E0,0E0,0E0,0E0,0E0],"parents":[2147483647,0,0,1,1,2,2,3,3,4,4,5,5,6,6,7,7,9,9,10,10,11,11,12,12,17,17,18,18,19,19,20,20,21,21],"right_children":[2,4,6,8,10,12,14,16,-1,18,20,22,24,-1,-1,-1,-1,26,28,30,32,34,-1,-1,-1,-1,-1,-1,-1,-1,-1,-1,-1,-1,-1],"split_conditions":[1.9053574E1,1.5874114E1,2.3206688E1,1.45025425E1,1.786035E1,7.012715E1,5.59305E1,1.4134311E1,-7.921558E-2,1.6369726E1,4.2682583E1,2.2531557E1,1.9140537E1,2.0874129E-1,2.973968E-1,-1.6692601E-1,-1.315335E-1,6.3836227E1,7.649889E1,1.9844746E1,5.9352226E1,3.743307E1,1.266778E-1,8.997952E-2,2.0046417E-1,-5.9260834E-2,-3.1649686E-2,-2.4160057E-2,3.4560967E-2,-1.6358986E-2,-6.1140478E-2,1.722208E-2,6.198705E-2,4.076549E-2,9.168654E-2],"split_indices":[1,1,1,1,1,2,2,1,0,0,2,0,0,0,0,0,0,2,2,0,2,2,0,0,0,0,0,0,0,0,0,0,0,0,0],"split_type":[0,0,0,0,0,0,0,0,0,0,0,0,0,0,0,0,0,0,0,0,0,0,0,0,0,0,0,0,0,0,0,0,0,0,0],"sum_hessian":[3.96E2,2.79E2,1.17E2,1.24E2,1.55E2,7.5E1,4.2E1,1.04E2,2E1,6.4E1,9.1E1,5.8E1,1.7E1,3.1E1,1.1E1,5.9E1,4.5E1,2.7E1,3.7E1,1.8E1,7.3E1,3.9E1,1.9E1,4E0,1.3E1,2.2E1,5E0,3.5E1,2E0,1.4E1,4E0,5.9E1,1.4E1,1.3E1,2.6E1],"tree_param":{"num_deleted":"0","num_feature":"3","num_nodes":"35","size_leaf_vector":"1"}},{"base_weights":[1.1668587E-2,-6.0066223E-1,1.4645581E0,-1.2606138E0,-3.6620103E-2,1.0536238E0,2.156801E0,-1.386337E0,-7.3431337E-1,-2.9100078E-1,1.4671679E-1,8.555493E-1,1.6443337E0,1.8851939E-1,2.7013537E-1,-1.5064831E0,-1.1505466E-1,-7.4651524E-2,-2.0853234E-2,-4.6319947E-1,-1.6874011E-1,-4.241728E-1,2.1624403E-1,5.4472625E-1,1.0009784E0,8.278119E-2,1.8184964E-1,-1.0030376E-1,-1.5694825E-1,-5.944216E-2,-3.58763E-2,-3.0167287E-2,9.018789E-3,-2.3821069E-2,-5.6249272E-2,1.0052769E-2,4.6679888E-2,-1.4842605E-3,6.772626E-2,5.373546E-2,1.06899016E-1],"categories":[],"categories_nodes":[],"categories_segments":[],"categories_sizes":[],"default_left":[0,0,0,0,0,0,0,0,0,0,0,0,0,0,0,0,0,0,0,0,0,0,0,0,0,0,0,0,0,0,0,0,0,0,0,0,0,0,0,0,0],"id":10,"left_children":[1,3,5,7,9,11,13,15,17,19,21,23,25,-1,-1,27,-1,-1,-1,29,31,33,35,37,39,-1,-1,-1,-1,-1,-1,-1,-1,-1,-1,-1,-1,-1,-1,-1,-1],"loss_changes":[3.540704E2,1.0418117E2,3.129457E1,7.5177E0,7.131574E0,7.4855423E0,1.2673035E0,1.1846313E0,1.75457E-2,1.2692394E0,3.6243463E0,2.1217003E0,1.0543594E0,0E0,0E0,4.873352E-1,0E0,0E0,0E0,1.4305782E-1,1.3695878E0,1.2323105E-1,2.2725365E0,1.5674806E0,6.553116E-1,0E0,0E0,0E0,0E0,0E0,0E0,0E0,0E0,0E0,0E0,0E0,0E0,0E0,0E0,0E0,0E0],"parents":[2147483647,0,0,1,1,2,2,3,3,4,4,5,5,6,6,7,7,8,8,9,9,10,10,11,11,12,12,15,15,19,19,20,20,21,21,22,22,23,23,24,24],"right_children":[2,4,6,8,10,12,14,16,18,20,22,24,26,-1,-1,28,-1,-1,-1,30,32,34,36,38,40,-1,-1,-1,-1,-1,-1,-1,-1,-1,-1,-1,-1,-1,-1,-1,-1],"split_conditions":[1.9053574E1,1.5276655E1,2.3206688E1,1.4449289E1,1.7884716E1,7.012715E1,5.59305E1,5.1659664E1,7.984947E1,1.6475546E1,3.8681843E1,2.1147905E1,1.9140537E1,1.8851939E-1,2.7013537E-1,1.999562E1,-1.1505466E-1,-7.4651524E-2,-2.0853234E-2,5.2367744E1,5.2115192E1,1.9844746E1,5.5685726E1,3.7064026E1,2.6557922E1,8.278119E-2,1.8184964E-1,-1.0030376E-1,-1.5694825E-1,-5.944216E-2,-3.58763E-2,-3.0167287E-2,9.018789E-3,-2.3821069E-2,-5.6249272E-2,1.0052769E-2,4.6679888E-2,-1.4842605E-3,6.772626E-2,5.373546E-2,1.06899016E-1],"split_indices":[1,0,1,1,1,2,2,2,2,0,2,0,0,0,0,2,0,0,0,2,2,0,2,2,2,0,0,0,0,0,0,0,0,0,0,0,0,0,0,0,0],"split_type":[0,0,0,0,0,0,0,0,0,0,0,0,0,0,0,0,0,0,0,0,0,0,0,0,0,0,0,0,0,0,0,0,0,0,0,0,0,0,0,0,0],"sum_hessian":[3.96E2,2.79E2,1.17E2,1.28E2,1.51E2,7.5E1,4.2E1,1.02E2,2.6E1,6.3E1,8.8E1,5.8E1,1.7E1,3.1E1,1.1E1,6.4E1,3.8E1,2.5E1,1E0,2.5E1,3.8E1,9E0,7.9E1,2E1,3.8E1,4E0,1.3E1,9E0,5.5E1,9E0,1.6E1,2.5E1,1.3E1,5E0,4E0,5.5E1,2.4E1,4E0,1.6E1,6E0,3.2E1],"tree_param":{"num_deleted":"0","num_feature":"3","num_nodes":"41","size_leaf_vector":"1"}},{"base_weights":[1.1364478E-2,-5.427662E-1,1.3261546E0,-1.2075732E0,-8.569581E-2,8.4612185E-1,1.8081518E0,-1.3209962E0,-9.138186E-1,-4.38676E-1,7.3275454E-2,6.8071705E-1,1.3527868E0,1.4505287E-1,2.192514E-1,-1.4206582E-1,-1.04491316E-1,-9.680423E-2,-3.9486772E-1,-4.8294082E-1,-1.3485193E-1,-5.4712363E-2,3.9684215E-1,4.5741957E-1,7.7807146E-1,6.526537E-2,1.4843999E-1,-4.616456E-2,-6.387806E-3,-5.322912E-2,-3.356442E-2,-1.8270843E-2,5.8116915E-4,-2.0235902E-2,1.0507217E-2,2.6247555E-2,5.2320193E-2,2.1110217E-3,6.3745596E-2,4.625311E-2,8.193741E-2],"categories":[],"categories_nodes":[],"categories_segments":[],"categories_sizes":[],"default_left":[0,0,0,0,0,0,0,0,0,0,0,0,0,0,0,0,0,0,0,0,0,0,0,0,0,0,0,0,0,0,0,0,0,0,0,0,0,0,0,0,0],"id":11,"left_children":[1,3,5,7,9,11,13,15,17,19,21,23,25,-1,-1,-1,-1,-1,27,29,31,33,35,37,39,-1,-1,-1,-1,-1,-1,-1,-1,-1,-1,-1,-1,-1,-1,-1,-1],"loss_changes":[2.8996033E2,8.497832E1,2.5772247E1,2.591156E0,9.403133E0,4.191231E0,4.7921906E0,7.1673584E-1,6.026325E-1,6.342077E-1,4.825573E0,6.8756676E-1,3.2125473E-1,0E0,0E0,0E0,0E0,0E0,8.1024945E-2,1.4845085E-1,5.4915175E-2,2.0029612E0,4.2296362E-1,1.3219194E0,3.8059235E-2,0E0,0E0,0E0,0E0,0E0,0E0,0E0,0E0,0E0,0E0,0E0,0E0,0E0,0E0,0E0,0E0],"parents":[2147483647,0,0,1,1,2,2,3,3,4,4,5,5,6,6,7,7,8,8,9,9,10,10,11,11,12,12,18,18,19,19,20,20,21,21,22,22,23,23,24,24],"right_children":[2,4,6,8,10,12,14,16,18,20,22,24,26,-1,-1,-1,-1,-1,28,30,32,34,36,38,40,-1,-1,-1,-1,-1,-1,-1,-1,-1,-1,-1,-1,-1,-1,-1,-1],"split_conditions":[1.9053574E1,1.5361649E1,2.2233997E1,5.4801632E1,1.7449781E1,7.012715E1,5.037999E1,1.4264893E1,6.8094025E1,6.811467E1,5.5432194E1,2.0836645E1,1.8829172E1,1.4505287E-1,2.192514E-1,-1.4206582E-1,-1.04491316E-1,-9.680423E-2,1.4134426E1,1.661071E1,1.6680346E1,1.816684E1,6.2996284E1,3.743307E1,2.603572E1,6.526537E-2,1.4843999E-1,-4.616456E-2,-6.387806E-3,-5.322912E-2,-3.356442E-2,-1.8270843E-2,5.8116915E-4,-2.0235902E-2,1.0507217E-2,2.6247555E-2,5.2320193E-2,2.1110217E-3,6.3745596E-2,4.625311E-2,8.193741E-2],"split_indices":[1,1,1,2,1,2,2,1,2,2,2,0,0,0,0,0,0,0,0,1,0,1,2,2,2,0,0,0,0,0,0,0,0,0,0,0,0,0,0,0,0],"split_type":[0,0,0,0,0,0,0,0,0,0,0,0,0,0,0,0,0,0,0,0,0,0,0,0,0,0,0,0,0,0,0,0,0,0,0,0,0,0,0,0,0],"sum_hessian":[3.96E2,2.79E2,1.17E2,1.13E2,1.66E2,6E1,5.7E1,7.9E1,3.4E1,5.1E1,1.15E2,4.7E1,1.3E1,3.2E1,2.5E1,5.5E1,2.4E1,3E1,4E0,4.4E1,7E0,8.3E1,3.2E1,1.6E1,3.1E1,3E0,1E1,3E0,1E0,3.1E1,1.3E1,5E0,2E0,4.3E1,4E1,1.7E1,1.5E1,5E0,1.1E1,5E0,2.6E1],"tree_param":{"num_deleted":"0","num_feature":"3","num_nodes":"41","size_leaf_vector":"1"}},{"base_weights":[1.1085588E-2,-4.900311E-1,1.2000821E0,-1.0283426E0,-2.9950757E-2,8.5964715E-1,1.7738721E0,-1.1252749E0,-5.8009308E-2,-1.7142737E-1,2.0229457E-1,6.947043E-1,1.352535E0,1.53886E-1,2.2527483E-1,-1.2587619E0,-9.705563E-1,-1.9786224E-1,4.7943115E-2,-4.3961143E-1,2.8481472E-1,5.711653E-1,9.6632026E-2,7.5955234E-2,1.5221782E-1,-8.033436E-2,-1.3459907E-1,-1.10081375E-1,-8.24798E-2,-3.2658327E-2,-8.797701E-3,-1.4926148E-2,-5.2589912E-2,2.021156E-2,4.431885E-2,4.0983107E-2,7.206664E-2],"categories":[],"categories_nodes":[],"categories_segments":[],"categories_sizes":[],"default_left":[0,0,0,0,0,0,0,0,0,0,0,0,0,0,0,0,0,0,0,0,0,0,0,0,0,0,0,0,0,0,0,0,0,0,0,0,0],"id":12,"left_children":[1,3,5,7,9,11,13,15,-1,17,19,21,23,-1,-1,25,27,29,-1,31,33,35,-1,-1,-1,-1,-1,-1,-1,-1,-1,-1,-1,-1,-1,-1,-1],"loss_changes":[2.37131E2,6.9315834E1,2.1525024E1,4.952286E0,5.0289865E0,5.2390594E0,1.3726349E0,9.468384E-1,0E0,1.7293699E0,3.197478E0,1.4278278E0,6.5454483E-1,0E0,0E0,1.0241623E0,9.831238E-2,1.2725656E0,0E0,9.6879005E-2,5.914879E-1,7.4179363E-1,0E0,0E0,0E0,0E0,0E0,0E0,0E0,0E0,0E0,0E0,0E0,0E0,0E0,0E0,0E0],"parents":[2147483647,0,0,1,1,2,2,3,3,4,4,5,5,6,6,7,7,9,9,10,10,11,11,12,12,15,15,16,16,17,17,19,19,20,20,21,21],"right_children":[2,4,6,8,10,12,14,16,-1,18,20,22,24,-1,-1,26,28,30,-1,32,34,36,-1,-1,-1,-1,-1,-1,-1,-1,-1,-1,-1,-1,-1,-1,-1],"split_conditions":[1.9053574E1,1.5276655E1,2.3206688E1,1.45025425E1,1.816684E1,7.012715E1,5.59305E1,4.815459E1,-5.8009308E-2,7.649889E1,3.741032E1,2.2765099E1,1.9157097E1,1.53886E-1,2.2527483E-1,1.999562E1,1.39952345E1,1.7674334E1,4.7943115E-2,1.9844746E1,5.5634857E1,4.3669556E1,9.6632026E-2,7.5955234E-2,1.5221782E-1,-8.033436E-2,-1.3459907E-1,-1.10081375E-1,-8.24798E-2,-3.2658327E-2,-8.797701E-3,-1.4926148E-2,-5.2589912E-2,2.021156E-2,4.431885E-2,4.0983107E-2,7.206664E-2],"split_indices":[1,0,1,1,1,2,2,2,0,2,2,0,0,0,0,2,1,1,0,0,2,2,0,0,0,0,0,0,0,0,0,0,0,0,0,0,0],"split_type":[0,0,0,0,0,0,0,0,0,0,0,0,0,0,0,0,0,0,0,0,0,0,0,0,0,0,0,0,0,0,0,0,0,0,0,0,0],"sum_hessian":[3.96E2,2.79E2,1.17E2,1.28E2,1.51E2,7.5E1,4.2E1,1.04E2,2.4E1,9.4E1,5.7E1,5.8E1,1.7E1,3.1E1,1.1E1,5.2E1,5.2E1,9.1E1,3E0,6E0,5.1E1,4.2E1,1.6E1,5E0,1.2E1,1E1,4.2E1,2.4E1,2.8E1,4.1E1,5E1,2E0,4E0,3.5E1,1.6E1,2.2E1,2E1],"tree_param":{"num_deleted":"0","num_feature":"3","num_nodes":"37","size_leaf_vector":"1"}},{"base_weights":[1.0871162E-2,-5.127744E-1,9.445687E-1,-9.8563975E-1,-1.29539E-1,4.7780144E-1,1.3856084E0,-1.0792559E0,-7.434989E-1,-3.9814642E-1,-1.6558297E-2,5.9442647E-2,5.795134E-1,8.456968E-1,1.5873864E0,-1.1594321E-1,-8.5649095E-2,-7.886941E-2,-3.145891E-1,-4.3157563E-1,-2.2761981E-1,-2.0327145E-1,8.553612E-2,-4.9193423E-2,3.046646E-1,3.1772107E-1,7.020485E-1,3.24824E-2,8.8154286E-2,1.3508606E0,1.8982846E-1,-3.7739683E-2,-3.1679154E-3,-4.568472E-2,-2.375005E-2,-2.9034654E-2,-1.1936913E-2,-2.901352E-2,-6.231982E-3,7.6205557E-4,2.0511312E-2,1.2780114E-2,3.8747218E-2,2.2840157E-2,3.7003692E-2,4.0434346E-2,7.452324E-2,1.0871506E-1,1.5631056E-1],"categories":[],"categories_nodes":[],"categories_segments":[],"categories_sizes":[],"default_left":[0,0,0,0,0,0,0,0,0,0,0,0,0,0,0,0,0,0,0,0,0,0,0,0,0,0,0,0,0,0,0,0,0,0,0,0,0,0,0,0,0,0,0,0,0,0,0,0,0],"id":13,"left_children":[1,3,5,7,9,11,13,15,17,19,21,23,25,27,29,-1,-1,-1,31,33,35,37,39,-1,41,43,45,-1,-1,47,-1,-1,-1,-1,-1,-1,-1,-1,-1,-1,-1,-1,-1,-1,-1,-1,-1,-1,-1],"loss_changes":[1.945882E2,4.6083107E1,2.8776344E1,1.7817535E0,4.3027463E0,2.9867496E0,6.6103363E0,4.3579865E-1,4.3034935E-1,1.4118862E-1,1.9426863E0,2.1780207E0,1.6054344E0,1.2442112E-1,1.2595367E0,0E0,0E0,0E0,7.688904E-2,5.8254242E-2,2.6453465E-2,4.2268813E-1,6.1335284E-1,0E0,1.1158252E-1,8.939505E-3,1.8720055E-1,0E0,0E0,1.4771652E-1,0E0,0E0,0E0,0E0,0E0,0E0,0E0,0E0,0E0,0E0,0E0,0E0,0E0,0E0,0E0,0E0,0E0,0E0,0E0],"parents":[2147483647,0,0,1,1,2,2,3,3,4,4,5,5,6,6,7,7,8,8,9,9,10,10,11,11,12,12,13,13,14,14,18,18,19,19,20,20,21,21,22,22,24,24,25,25,26,26,29,29],"right_children":[2,4,6,8,10,12,14,16,18,20,22,24,26,28,30,-1,-1,-1,32,34,36,38,40,-1,42,44,46,-1,-1,48,-1,-1,-1,-1,-1,-1,-1,-1,-1,-1,-1,-1,-1,-1,-1,-1,-1,-1,-1],"split_conditions":[1.8530981E1,1.5361649E1,2.1051872E1,5.4801632E1,1.6523645E1,3.743307E1,3.9297775E1,1.4264893E1,6.8094025E1,6.3836227E1,4.623617E1,2.0367746E1,1.838788E1,2.2531557E1,2.395476E1,-1.1594321E-1,-8.5649095E-2,-7.886941E-2,1.4134426E1,1.6619883E1,1.558013E1,1.8127298E1,5.6060387E1,-4.9193423E-2,2.0706646E1,1.8632347E1,4.3669556E1,3.24824E-2,8.8154286E-2,5.4636566E1,1.8982846E-1,-3.7739683E-2,-3.1679154E-3,-4.568472E-2,-2.375005E-2,-2.9034654E-2,-1.1936913E-2,-2.901352E-2,-6.231982E-3,7.6205557E-4,2.0511312E-2,1.2780114E-2,3.8747218E-2,2.2840157E-2,3.7003692E-2,4.0434346E-2,7.452324E-2,1.0871506E-1,1.5631056E-1],"split_indices":[1,1,1,2,0,2,2,1,2,2,2,0,0,0,1,0,0,0,0,1,0,0,2,0,0,1,2,0,0,2,0,0,0,0,0,0,0,0,0,0,0,0,0,0,0,0,0,0,0],"split_type":[0,0,0,0,0,0,0,0,0,0,0,0,0,0,0,0,0,0,0,0,0,0,0,0,0,0,0,0,0,0,0,0,0,0,0,0,0,0,0,0,0,0,0,0,0,0,0,0,0],"sum_hessian":[3.96E2,2.54E2,1.42E2,1.13E2,1.41E2,7E1,7.2E1,7.9E1,3.4E1,4.1E1,1E2,1.4E1,5.6E1,2.1E1,5.1E1,5.5E1,2.4E1,3E1,4E0,3.3E1,8E0,3.5E1,6.5E1,4E0,1E1,1.9E1,3.7E1,2E0,1.9E1,3.2E1,1.9E1,3E0,1E0,2.8E1,5E0,4E0,4E0,2.1E1,1.4E1,4E1,2.5E1,4E0,6E0,9E0,1E1,6E0,3.1E1,1.7E1,1.5E1],"tree_param":{"num_deleted":"0","num_feature":"3","num_nodes":"49","size_leaf_vector":"1"}},{"base_weights":[1.05567975E-2,-4.6324524E-1,8.553747E-1,-8.898948E-1,-1.17461465E-1,4.325158E-1,1.254931E0,-9.7204274E-1,-6.68016E-1,-3.2834113E-1,4.331987E-3,5.3654227E-2,5.246282E-1,9.760195E-1,1.6013266E-1,-6.4143315E-2,-1.0095732E0,-7.160462E-2,-3.2453442E-1,-3.733398E-1,-1.4723396E-1,-8.53554E-2,2.0917702E-1,-4.5257874E-2,2.7888247E-1,2.889406E-1,6.348683E-1,7.341068E-1,1.1735677E0,-1.1265444E-1,-8.57073E-2,-3.7740327E-2,-3.00951E-3,-4.107367E-2,-2.487359E-2,-1.8073712E-2,1.3521195E-3,-1.7777463E-2,6.5929564E-3,9.269307E-3,3.1904005E-2,1.1757775E-2,3.5425976E-2,2.2708485E-2,3.7137493E-2,5.671164E-2,9.016927E-2,2.005148E-2,7.499676E-2,4.9721718E-2,1.21634185E-1],"categories":[],"categories_nodes":[],"categories_segments":[],"categories_sizes":[],"default_left":[0,0,0,0,0,0,0,0,0,0,0,0,0,0,0,0,0,0,0,0,0,0,0,0,0,0,0,0,0,0,0,0,0,0,0,0,0,0,0,0,0,0,0,0,0,0,0,0,0,0,0],"id":14,"left_children":[1,3,5,7,9,11,13,15,17,19,21,23,25,27,-1,-1,29,-1,31,33,35,37,39,-1,41,43,45,47,49,-1,-1,-1,-1,-1,-1,-1,-1,-1,-1,-1,-1,-1,-1,-1,-1,-1,-1,-1,-1,-1,-1],"loss_changes":[1.5930598E2,3.7515244E1,2.361792E1,1.4285278E0,3.6485167E0,2.4495993E0,5.4898834E0,3.5746765E-1,3.2853127E-1,3.6881018E-1,1.6897079E0,1.8364856E0,1.2975473E0,1.1934204E0,0E0,0E0,3.009796E-1,0E0,8.204204E-2,8.888674E-2,6.7073435E-2,9.065455E-1,3.2875097E-1,0E0,9.209275E-2,1.7647147E-2,1.7559528E-1,3.581047E-2,3.168297E-2,0E0,0E0,0E0,0E0,0E0,0E0,0E0,0E0,0E0,0E0,0E0,0E0,0E0,0E0,0E0,0E0,0E0,0E0,0E0,0E0,0E0,0E0],"parents":[2147483647,0,0,1,1,2,2,3,3,4,4,5,5,6,6,7,7,8,8,9,9,10,10,11,11,12,12,13,13,16,16,18,18,19,19,20,20,21,21,22,22,24,24,25,25,26,26,27,27,28,28],"right_children":[2,4,6,8,10,12,14,16,18,20,22,24,26,28,-1,-1,30,-1,32,34,36,38,40,-1,42,44,46,48,50,-1,-1,-1,-1,-1,-1,-1,-1,-1,-1,-1,-1,-1,-1,-1,-1,-1,-1,-1,-1,-1,-1],"split_conditions":[1.8530981E1,1.5361649E1,2.1051872E1,5.5634857E1,1.7449781E1,3.743307E1,5.037999E1,1.999562E1,6.72764E1,6.431226E1,5.3959927E1,2.0367746E1,1.838788E1,2.3206688E1,1.6013266E-1,-6.4143315E-2,4.6814564E1,-7.160462E-2,1.4134426E1,1.6619883E1,1.6680346E1,1.816684E1,5.9352226E1,-4.5257874E-2,2.0706646E1,5.5634857E1,7.3705765E1,2.2415237E1,2.1759163E1,-1.1265444E-1,-8.57073E-2,-3.7740327E-2,-3.00951E-3,-4.107367E-2,-2.487359E-2,-1.8073712E-2,1.3521195E-3,-1.7777463E-2,6.5929564E-3,9.269307E-3,3.1904005E-2,1.1757775E-2,3.5425976E-2,2.2708485E-2,3.7137493E-2,5.671164E-2,9.016927E-2,2.005148E-2,7.499676E-2,4.9721718E-2,1.21634185E-1],"split_indices":[1,1,1,2,1,2,2,2,2,2,2,0,0,1,0,0,2,0,0,1,0,1,2,0,0,2,2,0,0,0,0,0,0,0,0,0,0,0,0,0,0,0,0,0,0,0,0,0,0,0,0],"split_type":[0,0,0,0,0,0,0,0,0,0,0,0,0,0,0,0,0,0,0,0,0,0,0,0,0,0,0,0,0,0,0,0,0,0,0,0,0,0,0,0,0,0,0,0,0,0,0,0,0,0,0],"sum_hessian":[3.96E2,2.54E2,1.42E2,1.13E2,1.41E2,7E1,7.2E1,8E1,3.3E1,5.1E1,9E1,1.4E1,5.6E1,4.2E1,3E1,1E1,7E1,2.8E1,5E0,4E1,1.1E1,6.3E1,2.7E1,4E0,1E1,1.9E1,3.7E1,2.1E1,2.1E1,3.6E1,3.4E1,4E0,1E0,2.9E1,1.1E1,9E0,2E0,3.9E1,2.4E1,1.4E1,1.3E1,4E0,6E0,1.3E1,6E0,3.2E1,5E0,1E0,2E1,2E0,1.9E1],"tree_param":{"num_deleted":"0","num_feature":"3","num_nodes":"51","size_leaf_vector":"1"}},{"base_weights":[1.0024176E-2,-4.185973E-1,7.742791E-1,-8.041934E-1,-1.0608637E-1,4.3995392E-1,1.1918356E0,-8.9583486E-1,-6.3204503E-1,-2.9709718E-1,4.2284452E-3,3.2764456E-1,8.148342E-1,9.602667E-1,1.528124E-1,-9.184345E-2,-4.9416654E-2,-6.771541E-2,-3.500489E-2,-3.3761483E-1,-1.3390382E-1,-1.6097702E-1,1.0100013E-1,1.9510156E-1,4.9108908E-2,5.17221E-2,9.572043E-2,8.2068145E-2,1.2969542E-1,-3.710329E-2,-2.2593498E-2,-1.6447049E-2,1.2619655E-3,-2.3276044E-2,-5.453402E-3,3.6810876E-3,2.8255526E-2,-4.1637268E-2,2.8183699E-2],"categories":[],"categories_nodes":[],"categories_segments":[],"categories_sizes":[],"default_left":[0,0,0,0,0,0,0,0,0,0,0,0,0,0,0,0,0,0,0,0,0,0,0,0,0,0,0,0,0,0,0,0,0,0,0,0,0,0,0],"id":15,"left_children":[1,3,5,7,9,11,13,15,17,19,21,23,25,27,-1,-1,-1,-1,-1,29,31,33,35,37,-1,-1,-1,-1,-1,-1,-1,-1,-1,-1,-1,-1,-1,-1,-1],"loss_changes":[1.3037181E2,3.0642956E1,1.94384E1,1.2322464E0,2.9933841E0,3.1433315E0,3.4386444E0,1.9972229E-1,3.0994797E-1,2.986269E-1,1.471095E0,1.290647E0,2.6759624E-1,8.154831E-1,0E0,0E0,0E0,0E0,0E0,6.918812E-2,5.582036E-2,2.4709523E-1,6.655244E-1,2.079699E0,0E0,0E0,0E0,0E0,0E0,0E0,0E0,0E0,0E0,0E0,0E0,0E0,0E0,0E0,0E0],"parents":[2147483647,0,0,1,1,2,2,3,3,4,4,5,5,6,6,7,7,8,8,9,9,10,10,11,11,12,12,13,13,19,19,20,20,21,21,22,22,23,23],"right_children":[2,4,6,8,10,12,14,16,18,20,22,24,26,28,-1,-1,-1,-1,-1,30,32,34,36,38,-1,-1,-1,-1,-1,-1,-1,-1,-1,-1,-1,-1,-1,-1,-1],"split_conditions":[1.8530981E1,1.5361649E1,2.1782907E1,1.4238857E1,1.7449781E1,6.6647316E1,2.3738855E1,6.3604374E1,5.9897194E1,6.431226E1,4.623617E1,2.0836645E1,1.8977629E1,5.5817337E1,1.528124E-1,-9.184345E-2,-4.9416654E-2,-6.771541E-2,-3.500489E-2,1.6619883E1,1.6680346E1,1.8127298E1,5.8797016E1,3.0416584E1,4.9108908E-2,5.17221E-2,9.572043E-2,8.2068145E-2,1.2969542E-1,-3.710329E-2,-2.2593498E-2,-1.6447049E-2,1.2619655E-3,-2.3276044E-2,-5.453402E-3,3.6810876E-3,2.8255526E-2,-4.1637268E-2,2.8183699E-2],"split_indices":[1,1,1,1,1,2,1,2,2,2,2,0,0,2,0,0,0,0,0,1,0,0,2,2,0,0,0,0,0,0,0,0,0,0,0,0,0,0,0],"split_type":[0,0,0,0,0,0,0,0,0,0,0,0,0,0,0,0,0,0,0,0,0,0,0,0,0,0,0,0,0,0,0,0,0,0,0,0,0,0,0],"sum_hessian":[3.96E2,2.54E2,1.42E2,1.13E2,1.41E2,8E1,6.2E1,7.1E1,4.2E1,5.1E1,9E1,6.3E1,1.7E1,3.9E1,2.3E1,6.6E1,5E0,3.5E1,7E0,4E1,1.1E1,3.3E1,5.7E1,3.6E1,2.7E1,7E0,1E1,3E1,9E0,2.9E1,1.1E1,9E0,2E0,1.9E1,1.4E1,4.3E1,1.4E1,4E0,3.2E1],"tree_param":{"num_deleted":"0","num_feature":"3","num_nodes":"39","size_leaf_vector":"1"}},{"base_weights":[9.606308E-3,-3.779754E-1,7.006814E-1,-7.2591406E-1,-9.5982574E-2,3.8541386E-1,1.0626539E0,-8.3744943E-1,-5.996866E-1,-2.6882735E-1,3.8406246E-3,2.808811E-1,6.952323E-1,8.302745E-1,1.3483731E-1,-5.149811E-2,-8.939016E-2,-7.299111E-2,-4.9697664E-1,-3.0530915E-1,-1.21778965E-1,-1.457248E-1,9.145069E-2,1.4692861E-1,4.2872223E-1,4.8166007E-2,8.392813E-2,7.0784345E-2,1.0775679E-1,-5.223831E-2,-2.4006138E-2,-3.389241E-2,-2.0683656E-2,-2.1983003E-2,-6.4669712E-3,-2.9104847E-2,-8.981566E-3,3.3213354E-3,2.561835E-2,-3.8306277E-2,2.3323994E-2,3.3343956E-2,5.279792E-2],"categories":[],"categories_nodes":[],"categories_segments":[],"categories_sizes":[],"default_left":[0,0,0,0,0,0,0,0,0,0,0,0,0,0,0,0,0,0,0,0,0,0,0,0,0,0,0,0,0,0,0,0,0,0,0,0,0,0,0,0,0,0,0],"id":16,"left_children":[1,3,5,7,9,11,13,15,17,19,21,23,25,27,-1,-1,-1,-1,29,31,33,35,37,39,41,-1,-1,-1,-1,-1,-1,-1,-1,-1,-1,-1,-1,-1,-1,-1,-1,-1,-1],"loss_changes":[1.0660052E2,2.4949963E1,1.590934E1,1.1027794E0,2.451089E0,2.330844E0,3.262558E0,5.954895E-1,3.9964676E-1,2.4177814E-1,1.2057394E0,1.1252298E0,1.802845E-1,4.180317E-1,0E0,0E0,0E0,0E0,1.03051186E-1,6.561446E-2,5.2979127E-2,2.5010663E-1,5.479201E-1,1.5989059E0,8.87599E-2,0E0,0E0,0E0,0E0,0E0,0E0,0E0,0E0,0E0,0E0,0E0,0E0,0E0,0E0,0E0,0E0,0E0,0E0],"parents":[2147483647,0,0,1,1,2,2,3,3,4,4,5,5,6,6,7,7,8,8,9,9,10,10,11,11,12,12,13,13,18,18,19,19,20,20,21,21,22,22,23,23,24,24],"right_children":[2,4,6,8,10,12,14,16,18,20,22,24,26,28,-1,-1,-1,-1,30,32,34,36,38,40,42,-1,-1,-1,-1,-1,-1,-1,-1,-1,-1,-1,-1,-1,-1,-1,-1,-1,-1],"split_conditions":[1.8530981E1,1.5361649E1,2.1584007E1,4.9274242E1,1.7449781E1,6.610972E1,5.037999E1,1.999562E1,1.39952345E1,6.431226E1,4.623617E1,2.0706646E1,1.8977629E1,2.3738855E1,1.3483731E-1,-5.149811E-2,-8.939016E-2,-7.299111E-2,6.8094025E1,1.6306091E1,1.558013E1,4.0887238E1,5.8797016E1,3.0416584E1,4.3669556E1,4.8166007E-2,8.392813E-2,7.0784345E-2,1.0775679E-1,-5.223831E-2,-2.4006138E-2,-3.389241E-2,-2.0683656E-2,-2.1983003E-2,-6.4669712E-3,-2.9104847E-2,-8.981566E-3,3.3213354E-3,2.561835E-2,-3.8306277E-2,2.3323994E-2,3.3343956E-2,5.279792E-2],"split_indices":[1,1,1,2,1,2,2,2,1,2,2,0,0,1,0,0,0,0,2,0,0,2,2,2,2,0,0,0,0,0,0,0,0,0,0,0,0,0,0,0,0,0,0],"split_type":[0,0,0,0,0,0,0,0,0,0,0,0,0,0,0,0,0,0,0,0,0,0,0,0,0,0,0,0,0,0,0,0,0,0,0,0,0,0,0,0,0,0,0],"sum_hessian":[3.96E2,2.54E2,1.42E2,1.13E2,1.41E2,7.7E1,6.5E1,5.7E1,5.6E1,5.1E1,9E1,5.9E1,1.8E1,3.8E1,2.7E1,1E1,4.7E1,2.2E1,3.4E1,4E1,1.1E1,3.3E1,5.7E1,3.2E1,2.7E1,9E0,9E0,2.8E1,1E1,3E1,4E0,2.8E1,1.2E1,3E0,8E0,8E0,2.5E1,4.3E1,1.4E1,4E0,2.8E1,1.6E1,1.1E1],"tree_param":{"num_deleted":"0","num_feature":"3","num_nodes":"43","size_leaf_vector":"1"}},{"base_weights":[8.984114E-3,-3.4167704E-1,6.3422614E-1,-6.5586764E-1,-8.703331E-2,3.602027E-1,9.764749E-1,-7.6640147E-1,-5.5080056E-1,-2.4354166E-1,3.3564514E-3,2.598624E-1,6.532475E-1,7.9728E-1,1.2968989E-1,-4.6816435E-2,-8.2487136E-2,-6.6734485E-2,-4.5963198E-1,-2.6597604E-1,-6.132398E-2,-1.3227256E-1,8.280524E-2,1.3551308E-1,3.966905E-1,4.6851445E-2,8.269751E-2,6.854983E-2,1.09761015E-1,-4.851661E-2,-2.42589E-2,-3.8904954E-2,-2.377888E-2,-9.550743E-3,1.6089758E-3,-1.9909782E-2,-3.435402E-3,3.2249962E-3,2.3938969E-2,-3.52417E-2,2.1231767E-2,3.2931954E-2,5.0981265E-2],"categories":[],"categories_nodes":[],"categories_segments":[],"categories_sizes":[],"default_left":[0,0,0,0,0,0,0,0,0,0,0,0,0,0,0,0,0,0,0,0,0,0,0,0,0,0,0,0,0,0,0,0,0,0,0,0,0,0,0,0,0,0,0],"id":17,"left_children":[1,3,5,7,9,11,13,15,17,19,21,23,25,27,-1,-1,-1,-1,29,31,33,35,37,39,41,-1,-1,-1,-1,-1,-1,-1,-1,-1,-1,-1,-1,-1,-1,-1,-1,-1,-1],"loss_changes":[8.725819E1,2.0344622E1,1.3059406E1,9.0179825E-1,2.0096564E0,2.2119846E0,2.5833626E0,5.3803253E-1,3.520279E-1,1.9626236E-1,9.915288E-1,1.0011411E0,2.5441456E-1,6.911621E-1,0E0,0E0,0E0,0E0,9.2900276E-2,6.706691E-2,2.0060573E-2,2.1563691E-1,4.5141757E-1,1.3489833E0,5.3122044E-2,0E0,0E0,0E0,0E0,0E0,0E0,0E0,0E0,0E0,0E0,0E0,0E0,0E0,0E0,0E0,0E0,0E0,0E0],"parents":[2147483647,0,0,1,1,2,2,3,3,4,4,5,5,6,6,7,7,8,8,9,9,10,10,11,11,12,12,13,13,18,18,19,19,20,20,21,21,22,22,23,23,24,24],"right_children":[2,4,6,8,10,12,14,16,18,20,22,24,26,28,-1,-1,-1,-1,30,32,34,36,38,40,42,-1,-1,-1,-1,-1,-1,-1,-1,-1,-1,-1,-1,-1,-1,-1,-1,-1,-1],"split_conditions":[1.8530981E1,1.5361649E1,2.1782907E1,4.815459E1,1.7449781E1,6.610972E1,2.395476E1,1.999562E1,1.39952345E1,7.019579E1,4.623617E1,2.0743847E1,1.9140537E1,5.59305E1,1.2968989E-1,-4.6816435E-2,-8.2487136E-2,-6.6734485E-2,6.520305E1,4.654909E1,1.6680346E1,1.8127298E1,5.9352226E1,3.0416584E1,4.654909E1,4.6851445E-2,8.269751E-2,6.854983E-2,1.09761015E-1,-4.851661E-2,-2.42589E-2,-3.8904954E-2,-2.377888E-2,-9.550743E-3,1.6089758E-3,-1.9909782E-2,-3.435402E-3,3.2249962E-3,2.3938969E-2,-3.52417E-2,2.1231767E-2,3.2931954E-2,5.0981265E-2],"split_indices":[1,1,1,2,1,2,1,2,1,2,2,0,0,2,0,0,0,0,2,2,0,0,2,2,2,0,0,0,0,0,0,0,0,0,0,0,0,0,0,0,0,0,0],"split_type":[0,0,0,0,0,0,0,0,0,0,0,0,0,0,0,0,0,0,0,0,0,0,0,0,0,0,0,0,0,0,0,0,0,0,0,0,0,0,0,0,0,0,0],"sum_hessian":[3.96E2,2.54E2,1.42E2,1.13E2,1.41E2,8E1,6.2E1,5.2E1,6.1E1,5.1E1,9E1,6.1E1,1.9E1,4.2E1,2E1,1E1,4.2E1,2.4E1,3.7E1,4.5E1,6E0,3.3E1,5.7E1,3.3E1,2.8E1,1.1E1,8E0,3.3E1,9E0,3.2E1,5E0,6E0,3.9E1,4E0,2E0,1.9E1,1.4E1,4.4E1,1.3E1,4E0,2.9E1,2E1,8E0],"tree_param":{"num_deleted":"0","num_feature":"3","num_nodes":"43","size_leaf_vector":"1"}},{"base_weights":[8.518296E-3,-3.0882567E-1,5.7435185E-1,-5.691397E-1,-5.807696E-2,2.8923708E-1,8.437874E-1,-6.498191E-1,-4.112694E-1,-1.4812006E-1,3.8501292E-2,1.358312E-2,3.5670328E-1,6.4498645E-1,1.0923246E0,-7.027774E-2,-5.10762E-1,-5.587385E-2,-3.4712532E-1,-1.899308E-1,-3.0296024E-2,-2.2079004E-1,6.913126E-2,-3.2422334E-1,1.6589667E-1,1.9393674E-1,4.3298295E-1,4.7918865E-1,7.8146666E-1,8.874427E-1,1.2777211E-1,-1.3404942E-2,-5.2046854E-2,-3.5360534E-2,-6.664276E-3,-2.9984856E-2,-1.5123993E-2,-1.36138275E-2,1.3225436E-2,-1.29908E-2,-2.9866347E-2,4.472618E-2,5.4650693E-3,-7.3822974E-3,-3.683677E-2,4.9981307E-3,2.2499384E-2,1.3845499E-2,2.7719498E-2,2.6766434E-2,4.7505893E-2,1.9456292E-2,4.979231E-2,3.164679E-2,8.1214316E-2,2.593689E-2,9.0913124E-2],"categories":[],"categories_nodes":[],"categories_segments":[],"categories_sizes":[],"default_left":[0,0,0,0,0,0,0,0,0,0,0,0,0,0,0,0,0,0,0,0,0,0,0,0,0,0,0,0,0,0,0,0,0,0,0,0,0,0,0,0,0,0,0,0,0,0,0,0,0,0,0,0,0,0,0,0,0],"id":18,"left_children":[1,3,5,7,9,11,13,15,17,19,21,23,25,27,29,-1,31,-1,33,35,37,39,41,43,45,47,49,51,53,55,-1,-1,-1,-1,-1,-1,-1,-1,-1,-1,-1,-1,-1,-1,-1,-1,-1,-1,-1,-1,-1,-1,-1,-1,-1,-1,-1],"loss_changes":[7.1464226E1,1.6611666E1,1.0741211E1,1.3248558E0,1.1449058E0,1.3155642E0,2.9023552E0,2.3755264E-1,2.3171473E-1,3.2923484E-1,5.235569E-1,8.255751E-1,6.2372875E-1,5.9853935E-1,4.360962E-2,0E0,2.5301456E-2,0E0,3.8230896E-2,1.6729164E-1,3.4489417E-1,1.0742307E-2,2.9313847E-1,2.8074801E-2,6.410748E-2,5.4007232E-2,1.3716936E-1,2.0432949E-2,5.680275E-2,9.395599E-3,0E0,0E0,0E0,0E0,0E0,0E0,0E0,0E0,0E0,0E0,0E0,0E0,0E0,0E0,0E0,0E0,0E0,0E0,0E0,0E0,0E0,0E0,0E0,0E0,0E0,0E0,0E0],"parents":[2147483647,0,0,1,1,2,2,3,3,4,4,5,5,6,6,7,7,8,8,9,9,10,10,11,11,12,12,13,13,14,14,16,16,18,18,19,19,20,20,21,21,22,22,23,23,24,24,25,25,26,26,27,27,28,28,29,29],"right_children":[2,4,6,8,10,12,14,16,18,20,22,24,26,28,30,-1,32,-1,34,36,38,40,42,44,46,48,50,52,54,56,-1,-1,-1,-1,-1,-1,-1,-1,-1,-1,-1,-1,-1,-1,-1,-1,-1,-1,-1,-1,-1,-1,-1,-1,-1,-1,-1],"split_conditions":[1.8530981E1,1.5874114E1,2.1051872E1,5.4801632E1,1.7884716E1,3.743307E1,5.037999E1,1.4264893E1,1.39952345E1,6.3302456E1,3.8681843E1,2.0367746E1,1.838788E1,2.3206688E1,2.3738855E1,-7.027774E-2,1.4284388E1,-5.587385E-2,7.984947E1,4.3669556E1,1.6680346E1,1.8889568E1,1.7016651E1,2.0031906E1,2.0706646E1,5.5634857E1,4.654909E1,2.2531557E1,2.1759163E1,5.2803078E1,1.2777211E-1,-1.3404942E-2,-5.2046854E-2,-3.5360534E-2,-6.664276E-3,-2.9984856E-2,-1.5123993E-2,-1.36138275E-2,1.3225436E-2,-1.29908E-2,-2.9866347E-2,4.472618E-2,5.4650693E-3,-7.3822974E-3,-3.683677E-2,4.9981307E-3,2.2499384E-2,1.3845499E-2,2.7719498E-2,2.6766434E-2,4.7505893E-2,1.9456292E-2,4.979231E-2,3.164679E-2,8.1214316E-2,2.593689E-2,9.0913124E-2],"split_indices":[1,1,1,2,1,2,2,1,1,2,2,0,0,1,1,0,1,0,2,2,0,0,0,0,0,2,2,0,0,2,0,0,0,0,0,0,0,0,0,0,0,0,0,0,0,0,0,0,0,0,0,0,0,0,0,0,0],"split_type":[0,0,0,0,0,0,0,0,0,0,0,0,0,0,0,0,0,0,0,0,0,0,0,0,0,0,0,0,0,0,0,0,0,0,0,0,0,0,0,0,0,0,0,0,0,0,0,0,0,0,0,0,0,0,0,0,0],"sum_hessian":[3.96E2,2.54E2,1.42E2,1.24E2,1.3E2,7E1,7.2E1,8E1,4.4E1,6.7E1,6.3E1,1.4E1,5.6E1,4.2E1,3E1,5.5E1,2.5E1,1.1E1,3.3E1,4.9E1,1.8E1,6E0,5.7E1,4E0,1E1,1.9E1,3.7E1,2.1E1,2.1E1,1.7E1,1.3E1,1E0,2.4E1,3.2E1,1E0,1.1E1,3.8E1,1.1E1,7E0,4E0,2E0,1E0,5.6E1,1E0,3E0,4E0,6E0,1.3E1,6E0,9E0,2.8E1,2E0,1.9E1,2E0,1.9E1,1E0,1.6E1],"tree_param":{"num_deleted":"0","num_feature":"3","num_nodes":"57","size_leaf_vector":"1"}},{"base_weights":[8.306424E-3,-3.2362658E-1,4.5343828E-1,-5.529593E-1,-1.23359084E-1,2.0122205E-1,7.483443E-1,-6.66368E-2,-4.8511535E-1,-2.4490313E-1,-4.756779E-2,-2.6848194E-1,2.3670141E-1,4.1777873E-1,8.7898487E-1,-5.759787E-1,-4.1466676E-2,-2.7211407E-1,-9.977765E-2,-1.27894E-1,6.34094E-2,-3.5383543E-1,1.218195E-2,1.2809622E-1,3.1450734E-1,2.5152732E-2,4.7143947E-2,7.3888725E-1,1.0872114E-1,-3.7517168E-2,-6.666953E-2,-2.9139707E-2,-1.174914E-2,-1.2889576E-2,6.6583636E-3,-1.5600412E-2,-1.3908196E-3,3.076541E-3,3.795942E-2,-3.9654963E-2,-7.0132255E-3,9.484504E-3,1.8474506E-2,1.620023E-2,3.6371175E-2,5.932004E-2,8.839208E-2],"categories":[],"categories_nodes":[],"categories_segments":[],"categories_sizes":[],"default_left":[0,0,0,0,0,0,0,0,0,0,0,0,0,0,0,0,0,0,0,0,0,0,0,0,0,0,0,0,0,0,0,0,0,0,0,0,0,0,0,0,0,0,0,0,0,0,0],"id":19,"left_children":[1,3,5,7,9,11,13,-1,15,17,19,21,23,25,27,29,-1,31,33,35,37,39,-1,41,43,-1,-1,45,-1,-1,-1,-1,-1,-1,-1,-1,-1,-1,-1,-1,-1,-1,-1,-1,-1,-1,-1],"loss_changes":[5.8805058E1,1.0403351E1,1.2494034E1,4.9230957E-1,1.1214242E0,1.6133766E0,3.0012283E0,0E0,2.0924568E-1,1.5845227E-1,6.945168E-1,2.7629918E-1,6.948738E-1,9.5528126E-2,8.01136E-1,2.599373E-1,0E0,8.204532E-2,5.2179486E-2,1.4201713E-1,3.2893217E-1,4.4897974E-2,0E0,5.4056168E-2,3.1627417E-1,0E0,0E0,2.363205E-1,0E0,0E0,0E0,0E0,0E0,0E0,0E0,0E0,0E0,0E0,0E0,0E0,0E0,0E0,0E0,0E0,0E0,0E0,0E0],"parents":[2147483647,0,0,1,1,2,2,3,3,4,4,5,5,6,6,8,8,9,9,10,10,11,11,12,12,13,13,14,14,15,15,17,17,18,18,19,19,20,20,21,21,23,23,24,24,27,27],"right_children":[2,4,6,8,10,12,14,-1,16,18,20,22,24,26,28,30,-1,32,34,36,38,40,-1,42,44,-1,-1,46,-1,-1,-1,-1,-1,-1,-1,-1,-1,-1,-1,-1,-1,-1,-1,-1,-1,-1,-1],"split_conditions":[1.821044E1,1.490444E1,2.0651611E1,1.3941209E1,1.6369726E1,3.0416584E1,3.904825E1,-6.66368E-2,4.5337887E1,6.3836227E1,5.205132E1,2.0367746E1,1.8641352E1,3.1384993E1,2.395476E1,1.999562E1,-4.1466676E-2,1.6619883E1,1.5827242E1,1.8127298E1,7.839139E1,2.603572E1,1.218195E-2,5.3678524E1,4.368179E1,2.5152732E-2,4.7143947E-2,5.59305E1,1.0872114E-1,-3.7517168E-2,-6.666953E-2,-2.9139707E-2,-1.174914E-2,-1.2889576E-2,6.6583636E-3,-1.5600412E-2,-1.3908196E-3,3.076541E-3,3.795942E-2,-3.9654963E-2,-7.0132255E-3,9.484504E-3,1.8474506E-2,1.620023E-2,3.6371175E-2,5.932004E-2,8.839208E-2],"split_indices":[1,1,1,1,0,2,2,0,2,2,2,0,1,2,1,2,0,1,0,0,2,2,0,2,2,0,0,2,0,0,0,0,0,0,0,0,0,0,0,0,0,0,0,0,0,0,0],"split_type":[0,0,0,0,0,0,0,0,0,0,0,0,0,0,0,0,0,0,0,0,0,0,0,0,0,0,0,0,0,0,0,0,0,0,0,0,0,0,0,0,0,0,0,0,0,0,0],"sum_hessian":[3.96E2,2.27E2,1.69E2,1.05E2,1.22E2,9.2E1,7.7E1,3.6E1,6.9E1,4.6E1,7.6E1,6E0,8.6E1,2.3E1,5.4E1,2.7E1,4.2E1,3.8E1,8E0,4.4E1,3.2E1,5E0,1E0,3.7E1,4.9E1,7E0,1.6E1,3.5E1,1.9E1,1E1,1.7E1,3.3E1,5E0,7E0,1E0,3.5E1,9E0,3E1,2E0,4E0,1E0,2.5E1,1.2E1,1.3E1,3.6E1,2E1,1.5E1],"tree_param":{"num_deleted":"0","num_feature":"3","num_nodes":"47","size_leaf_vector":"1"}},{"base_weights":[7.826918E-3,-2.0754302E-1,5.716334E-1,-4.5536986E-1,-7.527629E-4,4.0609786E-1,8.2011676E-1,-5.285553E-1,-3.1780848E-1,-1.8778124E-1,4.4549078E-2,3.309449E-1,6.7233466E-2,6.679247E-1,1.2021369E-1,-6.444738E-2,-4.7144666E-1,-4.5864537E-2,-2.6867652E-1,-3.648251E-2,-1.4804049E-1,-5.0615508E-2,1.4990388E-1,2.3660937E-1,3.8225186E-1,5.225582E-2,7.7400155E-2,-5.307857E-2,-4.02938E-2,-2.7286423E-2,-5.6865695E-3,-2.5454028E-2,-1.3768416E-3,-7.1921423E-3,3.0825948E-2,1.1191528E-2,2.956977E-2,1.0028288E-2,3.0734716E-2,2.557869E-2,4.3161392E-2],"categories":[],"categories_nodes":[],"categories_segments":[],"categories_sizes":[],"default_left":[0,0,0,0,0,0,0,0,0,0,0,0,0,0,0,0,0,0,0,0,0,0,0,0,0,0,0,0,0,0,0,0,0,0,0,0,0,0,0,0,0],"id":20,"left_children":[1,3,5,7,9,11,13,15,17,19,21,23,-1,25,-1,-1,27,-1,29,-1,31,33,35,37,39,-1,-1,-1,-1,-1,-1,-1,-1,-1,-1,-1,-1,-1,-1,-1,-1],"loss_changes":[4.8325146E1,1.4759132E1,4.1915665E0,1.1508617E0,1.3470576E0,1.1380711E0,1.6970997E0,2.5223923E-1,2.0891333E-1,1.6410255E-1,1.2909214E0,1.7575979E-1,0E0,1.0439968E-1,0E0,0E0,3.0040741E-2,0E0,1.8189192E-2,0E0,3.8259387E-1,5.421093E-1,3.0475545E-1,1.8133378E-1,1.0184622E-1,0E0,0E0,0E0,0E0,0E0,0E0,0E0,0E0,0E0,0E0,0E0,0E0,0E0,0E0,0E0,0E0],"parents":[2147483647,0,0,1,1,2,2,3,3,4,4,5,5,6,6,7,7,8,8,9,9,10,10,11,11,13,13,16,16,18,18,20,20,21,21,22,22,23,23,24,24],"right_children":[2,4,6,8,10,12,14,16,18,20,22,24,-1,26,-1,-1,28,-1,30,-1,32,34,36,38,40,-1,-1,-1,-1,-1,-1,-1,-1,-1,-1,-1,-1,-1,-1,-1,-1],"split_conditions":[1.9532415E1,1.5369565E1,2.3206688E1,5.585134E1,4.3669556E1,7.1029045E1,5.6060387E1,1.3840917E1,1.39952345E1,2.603572E1,1.8080378E1,2.050624E1,6.7233466E-2,2.3738855E1,1.2021369E-1,-6.444738E-2,4.491032E1,-4.5864537E-2,7.984947E1,-3.648251E-2,1.795008E1,7.649889E1,6.363445E1,4.0684193E1,3.4159298E1,5.225582E-2,7.7400155E-2,-5.307857E-2,-4.02938E-2,-2.7286423E-2,-5.6865695E-3,-2.5454028E-2,-1.3768416E-3,-7.1921423E-3,3.0825948E-2,1.1191528E-2,2.956977E-2,1.0028288E-2,3.0734716E-2,2.557869E-2,4.3161392E-2],"split_indices":[1,0,1,2,2,2,2,1,1,2,0,1,0,1,0,0,2,0,2,0,0,2,2,2,2,0,0,0,0,0,0,0,0,0,0,0,0,0,0,0,0],"split_type":[0,0,0,0,0,0,0,0,0,0,0,0,0,0,0,0,0,0,0,0,0,0,0,0,0,0,0,0,0,0,0,0,0,0,0,0,0,0,0,0,0],"sum_hessian":[3.96E2,2.87E2,1.09E2,1.3E2,1.57E2,6.7E1,4.2E1,8.3E1,4.7E1,3E1,1.27E2,5.4E1,1.3E1,3.2E1,1E1,2.4E1,5.9E1,1E1,3.7E1,4E0,2.6E1,6.7E1,6E1,2.1E1,3.3E1,1.6E1,1.6E1,2.8E1,3.1E1,3.6E1,1E0,1.4E1,1.2E1,6.4E1,3E0,4.9E1,1.1E1,8E0,1.3E1,1.1E1,2.2E1],"tree_param":{"num_deleted":"0","num_feature":"3","num_nodes":"41","size_leaf_vector":"1"}},{"base_weights":[7.5252997E-3,-1.8760674E-1,5.1834804E-1,-4.1163942E-1,-6.7073485E-4,3.6808679E-1,7.4391586E-1,-4.7757855E-1,-2.876701E-1,-1.3118605E-1,5.4105077E-2,2.9984108E-1,6.0990304E-2,6.189093E-1,1.1473953E-1,-5.8983732E-2,-4.282313E-1,-4.1695073E-2,-2.4267648E-1,-2.8987145E-2,-9.616933E-2,-6.285836E-2,1.2253267E-1,2.1480092E-1,3.4604818E-1,4.7337648E-2,7.165488E-2,-2.9281149E-2,-4.486426E-2,-2.915603E-2,-2.0201258E-2,-2.4653537E-2,-2.2921904E-3,-7.498994E-3,1.1984888E-2,7.213898E-3,2.7836328E-2,6.503378E-3,2.66899E-2,2.0699713E-2,3.808717E-2],"categories":[],"categories_nodes":[],"categories_segments":[],"categories_sizes":[],"default_left":[0,0,0,0,0,0,0,0,0,0,0,0,0,0,0,0,0,0,0,0,0,0,0,0,0,0,0,0,0,0,0,0,0,0,0,0,0,0,0,0,0],"id":21,"left_children":[1,3,5,7,9,11,13,15,17,19,21,23,-1,25,-1,-1,27,-1,29,-1,31,33,35,37,39,-1,-1,-1,-1,-1,-1,-1,-1,-1,-1,-1,-1,-1,-1,-1,-1],"loss_changes":[3.966936E1,1.2061097E1,3.454527E0,9.3346786E-1,1.136653E0,9.3932533E-1,1.458683E0,2.1274376E-1,1.7802262E-1,2.3328555E-1,9.0409714E-1,1.4178896E-1,0E0,1.5814304E-1,0E0,0E0,4.0005684E-2,0E0,1.6637564E-2,0E0,4.3490595E-1,1.0208163E-1,5.3747356E-1,1.5429926E-1,8.579683E-2,0E0,0E0,0E0,0E0,0E0,0E0,0E0,0E0,0E0,0E0,0E0,0E0,0E0,0E0,0E0,0E0],"parents":[2147483647,0,0,1,1,2,2,3,3,4,4,5,5,6,6,7,7,8,8,9,9,10,10,11,11,13,13,16,16,18,18,20,20,21,21,22,22,23,23,24,24],"right_children":[2,4,6,8,10,12,14,16,18,20,22,24,-1,26,-1,-1,28,-1,30,-1,32,34,36,38,40,-1,-1,-1,-1,-1,-1,-1,-1,-1,-1,-1,-1,-1,-1,-1,-1],"split_conditions":[1.9532415E1,1.5369565E1,2.3206688E1,5.585134E1,4.654909E1,7.1029045E1,6.3076103E1,1.381334E1,1.39952345E1,1.7573015E1,1.786035E1,2.050624E1,6.0990304E-2,2.3738855E1,1.1473953E-1,-5.8983732E-2,1.999562E1,-4.1695073E-2,5.9897194E1,-2.8987145E-2,4.0887238E1,7.649889E1,6.363445E1,3.743307E1,3.1384993E1,4.7337648E-2,7.165488E-2,-2.9281149E-2,-4.486426E-2,-2.915603E-2,-2.0201258E-2,-2.4653537E-2,-2.2921904E-3,-7.498994E-3,1.1984888E-2,7.213898E-3,2.7836328E-2,6.503378E-3,2.66899E-2,2.0699713E-2,3.808717E-2],"split_indices":[1,0,1,2,2,2,2,1,1,1,1,1,0,1,0,0,2,0,2,0,2,2,2,2,2,0,0,0,0,0,0,0,0,0,0,0,0,0,0,0,0],"split_type":[0,0,0,0,0,0,0,0,0,0,0,0,0,0,0,0,0,0,0,0,0,0,0,0,0,0,0,0,0,0,0,0,0,0,0,0,0,0,0,0,0],"sum_hessian":[3.96E2,2.87E2,1.09E2,1.3E2,1.57E2,6.7E1,4.2E1,8.3E1,4.7E1,4.6E1,1.11E2,5.4E1,1.3E1,3.4E1,8E0,2.2E1,6.1E1,1E1,3.7E1,7E0,3.9E1,4.1E1,7E1,2.1E1,3.3E1,1.6E1,1.8E1,1E1,5.1E1,1.4E1,2.3E1,1.2E1,2.7E1,3.9E1,2E0,5.4E1,1.6E1,6E0,1.5E1,8E0,2.5E1],"tree_param":{"num_deleted":"0","num_feature":"3","num_nodes":"41","size_leaf_vector":"1"}},{"base_weights":[7.140974E-3,-2.4012636E-1,3.387281E-1,-4.0934882E-1,-9.23401E-2,1.503116E-1,5.5903584E-1,-4.749577E-1,-3.4228808E-1,-1.8408754E-1,-3.5139184E-2,-2.145176E-1,1.7793795E-1,4.5184636E-1,8.1134325E-1,-2.6619185E-2,-5.193837E-1,-4.0953334E-2,-2.9024E-2,-2.0678985E-1,-6.525675E-2,-9.322933E-2,6.422483E-2,-2.8113332E-1,9.258843E-3,9.9515215E-2,2.3398048E-1,3.654172E-1,6.3371405E-2,5.2857365E-2,1.0029369E-1,-5.7834595E-2,-4.119128E-2,-2.2035481E-2,-9.5456755E-3,-9.106398E-3,7.060051E-3,-1.5086857E-2,-5.4894662E-3,3.3375283E-3,3.2046255E-2,-3.1591605E-2,-5.3609847E-3,7.45945E-3,1.4170162E-2,1.1588301E-2,2.723422E-2,2.1118408E-2,4.0835746E-2],"categories":[],"categories_nodes":[],"categories_segments":[],"categories_sizes":[],"default_left":[0,0,0,0,0,0,0,0,0,0,0,0,0,0,0,0,0,0,0,0,0,0,0,0,0,0,0,0,0,0,0,0,0,0,0,0,0,0,0,0,0,0,0,0,0,0,0,0,0],"id":22,"left_children":[1,3,5,7,9,11,13,15,17,19,21,23,25,27,29,-1,31,-1,-1,33,35,37,39,41,-1,43,45,47,-1,-1,-1,-1,-1,-1,-1,-1,-1,-1,-1,-1,-1,-1,-1,-1,-1,-1,-1,-1,-1],"loss_changes":[3.2631626E1,5.664198E0,6.9726048E0,3.038044E-1,6.3904E-1,9.7550845E-1,1.7428837E0,3.3475113E-1,7.713604E-2,1.1329889E-1,4.5043707E-1,1.6923639E-1,3.590815E-1,6.643934E-1,6.6176414E-1,0E0,2.1576881E-2,0E0,0E0,3.7864804E-2,3.798405E-2,9.9987596E-2,2.1854421E-1,3.0547112E-2,0E0,2.9379815E-2,1.9496107E-1,1.8529701E-1,0E0,0E0,0E0,0E0,0E0,0E0,0E0,0E0,0E0,0E0,0E0,0E0,0E0,0E0,0E0,0E0,0E0,0E0,0E0,0E0,0E0],"parents":[2147483647,0,0,1,1,2,2,3,3,4,4,5,5,6,6,7,7,8,8,9,9,10,10,11,11,12,12,13,13,14,14,16,16,19,19,20,20,21,21,22,22,23,23,25,25,26,26,27,27],"right_children":[2,4,6,8,10,12,14,16,18,20,22,24,26,28,30,-1,32,-1,-1,34,36,38,40,42,-1,44,46,48,-1,-1,-1,-1,-1,-1,-1,-1,-1,-1,-1,-1,-1,-1,-1,-1,-1,-1,-1,-1,-1],"split_conditions":[1.821044E1,1.490444E1,2.0651611E1,4.8075386E1,1.6369726E1,3.0416584E1,5.6060387E1,1.999562E1,1.39742775E1,6.3836227E1,5.3959927E1,2.0367746E1,1.8641352E1,2.3738855E1,2.0553686E1,-2.6619185E-2,4.39607E1,-4.0953334E-2,-2.9024E-2,1.6619883E1,1.5827242E1,4.326511E1,7.839139E1,2.603572E1,9.258843E-3,5.3678524E1,4.368179E1,3.4159298E1,6.3371405E-2,5.2857365E-2,1.0029369E-1,-5.7834595E-2,-4.119128E-2,-2.2035481E-2,-9.5456755E-3,-9.106398E-3,7.060051E-3,-1.5086857E-2,-5.4894662E-3,3.3375283E-3,3.2046255E-2,-3.1591605E-2,-5.3609847E-3,7.45945E-3,1.4170162E-2,1.1588301E-2,2.723422E-2,2.1118408E-2,4.0835746E-2],"split_indices":[1,1,1,2,0,2,2,2,1,2,2,0,1,1,0,0,2,0,0,1,0,2,2,2,0,2,2,2,0,0,0,0,0,0,0,0,0,0,0,0,0,0,0,0,0,0,0,0,0],"split_type":[0,0,0,0,0,0,0,0,0,0,0,0,0,0,0,0,0,0,0,0,0,0,0,0,0,0,0,0,0,0,0,0,0,0,0,0,0,0,0,0,0,0,0,0,0,0,0,0,0],"sum_hessian":[3.96E2,2.27E2,1.69E2,1.05E2,1.22E2,9.2E1,7.7E1,5E1,5.5E1,4.6E1,7.6E1,6E0,8.6E1,5.6E1,2.1E1,1E1,4E1,2.1E1,3.4E1,3.8E1,8E0,4.8E1,2.8E1,5E0,1E0,3.7E1,4.9E1,4E1,1.6E1,1E1,1.1E1,2.3E1,1.7E1,3.3E1,5E0,7E0,1E0,1.8E1,3E1,2.6E1,2E0,4E0,1E0,2.5E1,1.2E1,1.3E1,3.6E1,1E1,3E1],"tree_param":{"num_deleted":"0","num_feature":"3","num_nodes":"49","size_leaf_vector":"1"}},{"base_weights":[6.6705626E-3,-1.5384409E-1,4.2686647E-1,-3.367466E-1,-1.223371E-3,3.0297545E-1,6.1285996E-1,-4.2089093E-1,-2.66245E-1,-5.4753266E-2,9.458843E-2,2.4571377E-1,5.0629098E-2,5.0704855E-1,9.562535E-2,-2.4199277E-2,-4.5311984E-1,-3.4969594E-2,-2.2421394E-1,-1.2911415E-1,2.2139268E-2,-4.993921E-2,1.522075E-1,1.7665559E-1,2.831716E-1,2.6636792E-2,5.3828306E-2,-5.229211E-2,-3.679859E-2,-2.6801646E-2,-1.6194368E-2,-2.0026525E-2,-9.763045E-3,6.3514113E-3,-2.4700465E-2,2.8763772E-3,-6.885869E-3,8.998131E-3,2.3476321E-2,4.95254E-3,2.212341E-2,1.711428E-2,3.110596E-2],"categories":[],"categories_nodes":[],"categories_segments":[],"categories_sizes":[],"default_left":[0,0,0,0,0,0,0,0,0,0,0,0,0,0,0,0,0,0,0,0,0,0,0,0,0,0,0,0,0,0,0,0,0,0,0,0,0,0,0,0,0,0,0],"id":23,"left_children":[1,3,5,7,9,11,13,15,17,19,21,23,-1,25,-1,-1,27,-1,29,31,33,35,37,39,41,-1,-1,-1,-1,-1,-1,-1,-1,-1,-1,-1,-1,-1,-1,-1,-1,-1,-1],"loss_changes":[2.6842367E1,8.039025E0,2.349041E0,6.6507244E-1,8.1552875E-1,6.672659E-1,1.0775356E0,2.247591E-1,1.8114996E-1,5.860738E-1,4.8227125E-1,9.224844E-2,0E0,1.1973286E-1,0E0,0E0,9.281063E-2,0E0,9.843159E-2,9.6933246E-2,5.8361346E-1,2.7293965E-2,1.8949795E-1,1.1372328E-1,5.2989483E-2,0E0,0E0,0E0,0E0,0E0,0E0,0E0,0E0,0E0,0E0,0E0,0E0,0E0,0E0,0E0,0E0,0E0,0E0],"parents":[2147483647,0,0,1,1,2,2,3,3,4,4,5,5,6,6,7,7,8,8,9,9,10,10,11,11,13,13,16,16,18,18,19,19,20,20,21,21,22,22,23,23,24,24],"right_children":[2,4,6,8,10,12,14,16,18,20,22,24,-1,26,-1,-1,28,-1,30,32,34,36,38,40,42,-1,-1,-1,-1,-1,-1,-1,-1,-1,-1,-1,-1,-1,-1,-1,-1,-1,-1],"split_conditions":[1.9532415E1,1.5369565E1,2.3206688E1,4.9274242E1,5.5218616E1,7.1029045E1,6.3076103E1,1.999562E1,1.39952345E1,1.8080378E1,1.6774933E1,2.050624E1,5.0629098E-2,2.1837042E1,9.562535E-2,-2.4199277E-2,4.39607E1,-3.4969594E-2,5.9897194E1,4.3669556E1,1.9541279E1,5.829786E1,6.520305E1,3.743307E1,3.1384993E1,2.6636792E-2,5.3828306E-2,-5.229211E-2,-3.679859E-2,-2.6801646E-2,-1.6194368E-2,-2.0026525E-2,-9.763045E-3,6.3514113E-3,-2.4700465E-2,2.8763772E-3,-6.885869E-3,8.998131E-3,2.3476321E-2,4.95254E-3,2.212341E-2,1.711428E-2,3.110596E-2],"split_indices":[1,0,1,2,2,2,2,2,1,0,0,1,0,0,0,0,2,0,2,2,0,2,2,2,2,0,0,0,0,0,0,0,0,0,0,0,0,0,0,0,0,0,0],"split_type":[0,0,0,0,0,0,0,0,0,0,0,0,0,0,0,0,0,0,0,0,0,0,0,0,0,0,0,0,0,0,0,0,0,0,0,0,0,0,0,0,0,0,0],"sum_hessian":[3.96E2,2.87E2,1.09E2,1.3E2,1.57E2,6.7E1,4.2E1,5.7E1,7.3E1,1.01E2,5.6E1,5.4E1,1.3E1,3.4E1,8E0,1E1,4.7E1,2.2E1,5.1E1,5.1E1,5E1,1.6E1,4E1,2.1E1,3.3E1,5E0,2.9E1,2.3E1,2.4E1,2.8E1,2.3E1,1.4E1,3.7E1,4.4E1,6E0,3E0,1.3E1,2.4E1,1.6E1,6E0,1.5E1,8E0,2.5E1],"tree_param":{"num_deleted":"0","num_feature":"3","num_nodes":"43","size_leaf_vector":"1"}},{"base_weights":[6.233033E-3,-2.0229238E-1,2.7191836E-1,-3.3506688E-1,-8.130602E-2,1.1947085E-1,4.5996886E-1,-4.3811172E-1,-2.995646E-1,-1.0847532E-1,4.2181622E-2,-1.354061E-1,1.4676633E-1,3.3796734E-1,6.1609316E-1,-4.4674076E-2,-1.1550761E-2,-3.6022407E-1,-2.5957689E-2,-1.7883028E-1,-6.76674E-2,-4.9562726E-2,1.802082E-1,-2.2583307E-1,5.66926E-2,8.396222E-2,1.9866233E-1,1.7983342E-2,3.8252845E-1,4.9873587E-1,7.582785E-2,-2.1999326E-2,-4.193398E-2,-2.4645451E-2,-1.2766804E-2,-9.308952E-3,1.05953215E-4,7.0513724E-3,-6.4223516E-3,1.1552739E-2,3.4882735E-2,-2.7088279E-2,-7.5472514E-3,-1.1247635E-3,8.308856E-3,6.150927E-3,1.202769E-2,9.65226E-3,2.2300113E-2,2.8349865E-2,4.426259E-2,3.7861854E-2,6.1682362E-2],"categories":[],"categories_nodes":[],"categories_segments":[],"categories_sizes":[],"default_left":[0,0,0,0,0,0,0,0,0,0,0,0,0,0,0,0,0,0,0,0,0,0,0,0,0,0,0,0,0,0,0,0,0,0,0,0,0,0,0,0,0,0,0,0,0,0,0,0,0,0,0,0,0],"id":24,"left_children":[1,3,5,7,9,11,13,15,17,19,21,23,25,27,29,-1,-1,31,-1,33,35,37,39,41,43,45,47,-1,49,51,-1,-1,-1,-1,-1,-1,-1,-1,-1,-1,-1,-1,-1,-1,-1,-1,-1,-1,-1,-1,-1,-1,-1],"loss_changes":[2.204966E1,3.555007E0,4.961919E0,2.565403E-1,4.004743E-1,7.0165825E-1,1.2774773E0,1.7991543E-2,1.0539627E-1,2.6638985E-1,2.875211E-1,1.8651208E-1,2.733959E-1,2.5535345E-1,1.7247295E-1,0E0,0E0,1.5644383E-1,0E0,8.9628935E-2,1.1017123E-1,2.9174447E-2,5.7858706E-2,2.6971728E-2,8.10794E-3,2.6847452E-2,9.780133E-2,0E0,8.2816124E-2,6.433153E-2,0E0,0E0,0E0,0E0,0E0,0E0,0E0,0E0,0E0,0E0,0E0,0E0,0E0,0E0,0E0,0E0,0E0,0E0,0E0,0E0,0E0,0E0,0E0],"parents":[2147483647,0,0,1,1,2,2,3,3,4,4,5,5,6,6,7,7,8,8,9,9,10,10,11,11,12,12,13,13,14,14,17,17,19,19,20,20,21,21,22,22,23,23,24,24,25,25,26,26,28,28,29,29],"right_children":[2,4,6,8,10,12,14,16,18,20,22,24,26,28,30,-1,-1,32,-1,34,36,38,40,42,44,46,48,-1,50,52,-1,-1,-1,-1,-1,-1,-1,-1,-1,-1,-1,-1,-1,-1,-1,-1,-1,-1,-1,-1,-1,-1,-1],"split_conditions":[1.816684E1,1.490444E1,2.0651611E1,1.381334E1,6.431226E1,3.6142147E1,5.037999E1,6.291264E1,4.491032E1,1.6306091E1,1.6774933E1,2.0367746E1,1.8641352E1,2.2877928E1,2.382142E1,-4.4674076E-2,-1.1550761E-2,1.999562E1,-2.5957689E-2,5.6786995E1,5.205132E1,6.503152E1,8.313542E1,2.603572E1,2.0625559E1,1.8612675E1,4.3669556E1,1.7983342E-2,2.3206688E1,7.2421906E1,7.582785E-2,-2.1999326E-2,-4.193398E-2,-2.4645451E-2,-1.2766804E-2,-9.308952E-3,1.05953215E-4,7.0513724E-3,-6.4223516E-3,1.1552739E-2,3.4882735E-2,-2.7088279E-2,-7.5472514E-3,-1.1247635E-3,8.308856E-3,6.150927E-3,1.202769E-2,9.65226E-3,2.2300113E-2,2.8349865E-2,4.426259E-2,3.7861854E-2,6.1682362E-2],"split_indices":[1,1,1,1,2,2,2,2,2,0,0,0,1,0,1,0,0,2,0,2,2,2,2,2,0,0,2,0,1,2,0,0,0,0,0,0,0,0,0,0,0,0,0,0,0,0,0,0,0,0,0,0,0],"split_type":[0,0,0,0,0,0,0,0,0,0,0,0,0,0,0,0,0,0,0,0,0,0,0,0,0,0,0,0,0,0,0,0,0,0,0,0,0,0,0,0,0,0,0,0,0,0,0,0,0,0,0,0,0],"sum_hessian":[3.96E2,2.22E2,1.74E2,1.05E2,1.17E2,9.7E1,7.7E1,2.4E1,8.1E1,9.6E1,2.1E1,9E0,8.8E1,4.5E1,3.2E1,2.3E1,1E0,2.9E1,5.2E1,3.4E1,6.2E1,1.3E1,8E0,6E0,3E0,4.1E1,4.7E1,1.1E1,3.4E1,2E1,1.2E1,1E1,1.9E1,1.3E1,2.1E1,4.5E1,1.7E1,1E0,1.2E1,7E0,1E0,4E0,2E0,1E0,2E0,2.7E1,1.4E1,1E1,3.7E1,1.5E1,1.9E1,1.2E1,8E0],"tree_param":{"num_deleted":"0","num_feature":"3","num_nodes":"53","size_leaf_vector":"1"}},{"base_weights":[5.9698713E-3,-1.261606E-1,3.5185722E-1,-2.7273136E-1,1.3661046E-3,2.816676E-1,5.9163386E-1,-3.4585342E-1,-2.1411042E-1,-4.5602467E-2,9.261887E-2,2.3074014E-1,4.6407065E-1,4.8052046E-2,8.448874E-2,-1.9999383E-1,-3.720743E-1,-2.8553408E-1,-1.8034944E-1,-1.0189514E-1,1.8513855E-2,-1.7787525E-2,1.2894563E-1,1.7316413E-1,2.9370028E-1,1.82607E-2,4.8784066E-2,-2.503105E-2,-1.3548279E-2,-4.31708E-2,-2.99943E-2,-1.5729256E-2,-3.0425373E-2,-2.1866664E-2,-1.3251431E-2,-1.6676366E-2,-7.340036E-3,5.498984E-3,-2.0819774E-2,2.8297424E-3,-4.6534436E-3,7.542491E-3,1.9691927E-2,1.2298922E-2,2.5397724E-2,7.285595E-3,2.9847411E-2],"categories":[],"categories_nodes":[],"categories_segments":[],"categories_sizes":[],"default_left":[0,0,0,0,0,0,0,0,0,0,0,0,0,0,0,0,0,0,0,0,0,0,0,0,0,0,0,0,0,0,0,0,0,0,0,0,0,0,0,0,0,0,0,0,0,0,0],"id":25,"left_children":[1,3,5,7,9,11,13,15,17,19,21,23,25,-1,-1,27,29,31,33,35,37,39,41,43,45,-1,-1,-1,-1,-1,-1,-1,-1,-1,-1,-1,-1,-1,-1,-1,-1,-1,-1,-1,-1,-1,-1],"loss_changes":[1.8188189E1,5.3835773E0,1.6846371E0,5.0033855E-1,6.685555E-1,7.010913E-1,2.69372E-1,1.474123E-1,1.341765E-1,3.7364227E-1,2.1486104E-1,2.0289135E-1,3.1343937E-2,0E0,0E0,1.7930269E-3,7.698202E-2,7.357836E-3,7.183349E-2,8.9422286E-2,4.1665563E-1,1.9864E-2,1.3066739E-1,1.2690032E-1,1.1991024E-2,0E0,0E0,0E0,0E0,0E0,0E0,0E0,0E0,0E0,0E0,0E0,0E0,0E0,0E0,0E0,0E0,0E0,0E0,0E0,0E0,0E0,0E0],"parents":[2147483647,0,0,1,1,2,2,3,3,4,4,5,5,6,6,7,7,8,8,9,9,10,10,11,11,12,12,15,15,16,16,17,17,18,18,19,19,20,20,21,21,22,22,23,23,24,24],"right_children":[2,4,6,8,10,12,14,16,18,20,22,24,26,-1,-1,28,30,32,34,36,38,40,42,44,46,-1,-1,-1,-1,-1,-1,-1,-1,-1,-1,-1,-1,-1,-1,-1,-1,-1,-1,-1,-1,-1,-1],"split_conditions":[1.9532415E1,1.551985E1,2.3738855E1,4.9274242E1,5.5432194E1,6.86981E1,6.3076103E1,1.999562E1,1.39952345E1,1.8127298E1,1.6774933E1,2.1782907E1,1.9157097E1,4.8052046E-2,8.448874E-2,1.4251285E1,4.39607E1,5.1284267E1,5.9897194E1,4.3669556E1,1.9541279E1,1.6001322E1,6.520305E1,4.654909E1,3.4159298E1,1.82607E-2,4.8784066E-2,-2.503105E-2,-1.3548279E-2,-4.31708E-2,-2.99943E-2,-1.5729256E-2,-3.0425373E-2,-2.1866664E-2,-1.3251431E-2,-1.6676366E-2,-7.340036E-3,5.498984E-3,-2.0819774E-2,2.8297424E-3,-4.6534436E-3,7.542491E-3,1.9691927E-2,1.2298922E-2,2.5397724E-2,7.285595E-3,2.9847411E-2],"split_indices":[1,0,1,2,2,2,2,2,1,0,0,1,0,0,0,1,2,2,2,2,0,0,2,2,2,0,0,0,0,0,0,0,0,0,0,0,0,0,0,0,0,0,0,0,0,0,0],"split_type":[0,0,0,0,0,0,0,0,0,0,0,0,0,0,0,0,0,0,0,0,0,0,0,0,0,0,0,0,0,0,0,0,0,0,0,0,0,0,0,0,0,0,0,0,0,0,0],"sum_hessian":[3.96E2,2.87E2,1.09E2,1.33E2,1.54E2,8.6E1,2.3E1,5.7E1,7.6E1,1.02E2,5.2E1,6.9E1,1.7E1,1.8E1,5E0,1E1,4.7E1,2.2E1,5.4E1,5.4E1,4.8E1,1.3E1,3.9E1,3.8E1,3.1E1,2E0,1.5E1,4E0,6E0,2.3E1,2.4E1,4E0,1.8E1,2.8E1,2.6E1,1.5E1,3.9E1,4.2E1,6E0,5E0,8E0,2.3E1,1.6E1,2.5E1,1.3E1,1E0,3E1],"tree_param":{"num_deleted":"0","num_feature":"3","num_nodes":"47","size_leaf_vector":"1"}},{"base_weights":[5.542825E-3,-1.14263065E-1,3.1916603E-1,-2.3635589E-1,1.1190188E-2,2.5998014E-1,5.5762154E-1,-3.1106257E-1,-1.790833E-1,-1.0234254E-1,4.0969063E-2,2.1661955E-1,4.213881E-1,7.7448085E-2,4.4144798E-2,-1.8350185E-1,-3.320646E-1,-2.2295041E-1,-1.1614893E-1,-1.6835888E-1,-4.897838E-2,-5.0484976E-3,9.042514E-2,1.5681434E-1,2.7707052E-1,3.34716E-2,5.7979237E-2,-2.3028566E-2,-1.2387031E-2,-3.89381E-2,-2.6902983E-2,-2.5898768E-2,-1.8399458E-2,-1.2897956E-2,2.1948814E-3,-2.3255577E-2,-1.1398739E-2,-1.01243295E-2,1.0715905E-2,-1.6033723E-3,3.215399E-2,6.623988E-3,1.7156905E-2,1.1116366E-2,2.3039315E-2,6.9212914E-3,2.811483E-2],"categories":[],"categories_nodes":[],"categories_segments":[],"categories_sizes":[],"default_left":[0,0,0,0,0,0,0,0,0,0,0,0,0,0,0,0,0,0,0,0,0,0,0,0,0,0,0,0,0,0,0,0,0,0,0,0,0,0,0,0,0,0,0,0,0,0,0],"id":26,"left_children":[1,3,5,7,9,11,13,15,17,19,21,23,25,-1,-1,27,29,31,33,35,37,39,41,43,45,-1,-1,-1,-1,-1,-1,-1,-1,-1,-1,-1,-1,-1,-1,-1,-1,-1,-1,-1,-1,-1,-1],"loss_changes":[1.4953311E1,4.4139233E0,1.4074831E0,5.689764E-1,4.8765832E-1,5.3860617E-1,1.8716669E-1,1.0516596E-1,2.0876813E-1,9.74412E-2,2.599032E-1,2.2046709E-1,5.306053E-2,0E0,0E0,2.1621585E-3,8.311701E-2,2.1137E-2,6.839067E-2,1.886785E-2,1.577383E-1,2.2041427E-1,9.657207E-2,1.05386555E-1,1.0206938E-2,0E0,0E0,0E0,0E0,0E0,0E0,0E0,0E0,0E0,0E0,0E0,0E0,0E0,0E0,0E0,0E0,0E0,0E0,0E0,0E0,0E0,0E0],"parents":[2147483647,0,0,1,1,2,2,3,3,4,4,5,5,6,6,7,7,8,8,9,9,10,10,11,11,12,12,15,15,16,16,17,17,18,18,19,19,20,20,21,21,22,22,23,23,24,24],"right_children":[2,4,6,8,10,12,14,16,18,20,22,24,26,-1,-1,28,30,32,34,36,38,40,42,44,46,-1,-1,-1,-1,-1,-1,-1,-1,-1,-1,-1,-1,-1,-1,-1,-1,-1,-1,-1,-1,-1,-1],"split_conditions":[1.9532415E1,1.661071E1,2.395476E1,4.9274242E1,4.3669556E1,6.86981E1,2.2910723E1,1.999562E1,1.490444E1,4.0887238E1,1.8143923E1,2.1782907E1,2.0553686E1,7.7448085E-2,4.4144798E-2,1.4251285E1,4.39607E1,1.39952345E1,6.811467E1,2.603572E1,1.8097828E1,8.313542E1,6.363445E1,4.654909E1,3.4159298E1,3.34716E-2,5.7979237E-2,-2.3028566E-2,-1.2387031E-2,-3.89381E-2,-2.6902983E-2,-2.5898768E-2,-1.8399458E-2,-1.2897956E-2,2.1948814E-3,-2.3255577E-2,-1.1398739E-2,-1.01243295E-2,1.0715905E-2,-1.6033723E-3,3.215399E-2,6.623988E-3,1.7156905E-2,1.1116366E-2,2.3039315E-2,6.9212914E-3,2.811483E-2],"split_indices":[1,1,1,2,2,2,0,2,1,2,1,1,0,0,0,1,2,1,2,2,1,2,2,2,2,0,0,0,0,0,0,0,0,0,0,0,0,0,0,0,0,0,0,0,0,0,0],"split_type":[0,0,0,0,0,0,0,0,0,0,0,0,0,0,0,0,0,0,0,0,0,0,0,0,0,0,0,0,0,0,0,0,0,0,0,0,0,0,0,0,0,0,0,0,0,0,0],"sum_hessian":[3.96E2,2.87E2,1.09E2,1.45E2,1.42E2,8.9E1,2E1,6.1E1,8.4E1,2.9E1,1.13E2,7.2E1,1.7E1,5E0,1.5E1,1E1,5.1E1,4.8E1,3.6E1,1.2E1,1.7E1,5.9E1,5.4E1,3.8E1,3.4E1,1.3E1,4E0,4E0,6E0,2.4E1,2.7E1,2.2E1,2.6E1,3.3E1,3E0,4E0,8E0,1.3E1,4E0,5.8E1,1E0,4.3E1,1.1E1,2.5E1,1.3E1,1E0,3.3E1],"tree_param":{"num_deleted":"0","num_feature":"3","num_nodes":"47","size_leaf_vector":"1"}},{"base_weights":[5.3570312E-3,-1.03308834E-1,2.8981534E-1,-2.2386281E-1,1.5785217E-3,2.3105301E-1,4.9075308E-1,-3.1071427E-1,-1.8878762E-1,-4.3330744E-2,7.1493305E-2,1.8833831E-1,3.8432947E-1,3.9570678E-2,7.0994094E-2,-3.212132E-2,-1.4379501E-2,-2.628528E-1,-1.5839115E-1,-9.657941E-2,8.628806E-3,-1.6239278E-2,1.0304798E-1,1.4200905E-1,2.3891652E-1,3.036348E-2,5.334088E-2,-1.683712E-2,-3.08526E-2,-1.7914487E-2,-1.0308063E-2,-2.0169368E-2,-7.627748E-3,-2.1395072E-2,3.3168115E-3,2.2887639E-3,-3.966193E-3,6.0785296E-3,1.6908152E-2,1.0047517E-2,2.089999E-2,6.575203E-3,2.4238145E-2],"categories":[],"categories_nodes":[],"categories_segments":[],"categories_sizes":[],"default_left":[0,0,0,0,0,0,0,0,0,0,0,0,0,0,0,0,0,0,0,0,0,0,0,0,0,0,0,0,0,0,0,0,0,0,0,0,0,0,0,0,0,0,0],"id":27,"left_children":[1,3,5,7,9,11,13,15,17,19,21,23,25,-1,-1,-1,-1,27,29,31,33,35,37,39,41,-1,-1,-1,-1,-1,-1,-1,-1,-1,-1,-1,-1,-1,-1,-1,-1,-1,-1],"loss_changes":[1.2301571E1,3.6419942E0,1.1854429E0,3.4954977E-1,4.897702E-1,4.972191E-1,2.190628E-1,1.8652678E-2,1.7899561E-1,2.6367718E-1,1.7054424E-1,1.3009906E-1,5.4576635E-2,0E0,0E0,0E0,0E0,6.456554E-2,6.418252E-2,8.4914416E-2,2.7473176E-1,1.648752E-2,1.1530629E-1,8.751398E-2,3.2628775E-3,0E0,0E0,0E0,0E0,0E0,0E0,0E0,0E0,0E0,0E0,0E0,0E0,0E0,0E0,0E0,0E0,0E0,0E0],"parents":[2147483647,0,0,1,1,2,2,3,3,4,4,5,5,6,6,7,7,8,8,9,9,10,10,11,11,12,12,17,17,18,18,19,19,20,20,21,21,22,22,23,23,24,24],"right_children":[2,4,6,8,10,12,14,16,18,20,22,24,26,-1,-1,-1,-1,28,30,32,34,36,38,40,42,-1,-1,-1,-1,-1,-1,-1,-1,-1,-1,-1,-1,-1,-1,-1,-1,-1,-1],"split_conditions":[1.9532415E1,1.551985E1,2.3738855E1,1.3941209E1,5.3959927E1,6.86981E1,6.3076103E1,6.291264E1,4.5010555E1,1.8080378E1,1.6774933E1,2.1782907E1,2.0553686E1,3.9570678E-2,7.0994094E-2,-3.212132E-2,-1.4379501E-2,1.999562E1,6.1321743E1,1.6306091E1,2.603572E1,1.6619883E1,6.520305E1,4.654909E1,3.4159298E1,3.036348E-2,5.334088E-2,-1.683712E-2,-3.08526E-2,-1.7914487E-2,-1.0308063E-2,-2.0169368E-2,-7.627748E-3,-2.1395072E-2,3.3168115E-3,2.2887639E-3,-3.966193E-3,6.0785296E-3,1.6908152E-2,1.0047517E-2,2.089999E-2,6.575203E-3,2.4238145E-2],"split_indices":[1,0,1,1,2,2,2,2,2,0,0,1,0,0,0,0,0,2,2,0,2,1,2,2,2,0,0,0,0,0,0,0,0,0,0,0,0,0,0,0,0,0,0],"split_type":[0,0,0,0,0,0,0,0,0,0,0,0,0,0,0,0,0,0,0,0,0,0,0,0,0,0,0,0,0,0,0,0,0,0,0,0,0,0,0,0,0,0,0],"sum_hessian":[3.96E2,2.87E2,1.09E2,1.33E2,1.54E2,8.6E1,2.3E1,3.6E1,9.7E1,9.4E1,6E1,6.9E1,1.7E1,1.8E1,5E0,3.3E1,3E0,2.6E1,7.1E1,4.6E1,4.8E1,1.6E1,4.4E1,3.8E1,3.1E1,1.3E1,4E0,1E1,1.6E1,5E1,2.1E1,6E0,4E1,4E0,4.4E1,6E0,1E1,2.8E1,1.6E1,2.5E1,1.3E1,1E0,3E1],"tree_param":{"num_deleted":"0","num_feature":"3","num_nodes":"43","size_leaf_vector":"1"}},{"base_weights":[5.0959215E-3,-9.3488395E-2,2.6316127E-1,-2.0239003E-1,1.2619757E-3,2.0961942E-1,4.462854E-1,-2.641381E-1,-1.6249073E-1,-3.5767257E-2,7.118271E-2,1.7817421E-1,3.9130402E-1,3.5821956E-2,6.5077975E-2,-1.5306473E-1,-2.8749588E-1,-2.191492E-2,-1.3476852E-1,-7.81767E-2,1.7561125E-2,-1.9745827E-2,9.49027E-2,1.24284536E-1,2.2114629E-1,1.2787628E-2,4.3120194E-2,-1.9839326E-2,-9.882082E-3,-3.3456597E-2,-2.3163687E-2,-1.6510773E-2,-9.768977E-3,-1.556922E-2,-6.2343716E-3,-1.30052E-2,5.698194E-3,3.3377649E-3,-6.2459405E-3,8.3019035E-3,2.9700851E-2,7.510671E-3,1.8812638E-2,1.5749836E-2,2.3923391E-2],"categories":[],"categories_nodes":[],"categories_segments":[],"categories_sizes":[],"default_left":[0,0,0,0,0,0,0,0,0,0,0,0,0,0,0,0,0,0,0,0,0,0,0,0,0,0,0,0,0,0,0,0,0,0,0,0,0,0,0,0,0,0,0,0,0],"id":28,"left_children":[1,3,5,7,9,11,13,15,17,19,21,23,25,-1,-1,27,29,-1,31,33,35,37,39,41,43,-1,-1,-1,-1,-1,-1,-1,-1,-1,-1,-1,-1,-1,-1,-1,-1,-1,-1,-1,-1],"loss_changes":[1.0124757E1,2.971975E0,9.849782E-1,2.8721666E-1,4.038582E-1,4.2732E-1,1.9909286E-1,8.831E-2,1.02404356E-1,2.3205881E-1,1.1834246E-1,1.4851189E-1,7.09821E-2,0E0,0E0,7.4413717E-3,3.0303478E-2,0E0,5.0242186E-2,6.0249776E-2,2.7508596E-1,2.9313868E-2,7.861832E-2,9.8896205E-2,9.521961E-3,0E0,0E0,0E0,0E0,0E0,0E0,0E0,0E0,0E0,0E0,0E0,0E0,0E0,0E0,0E0,0E0,0E0,0E0,0E0,0E0],"parents":[2147483647,0,0,1,1,2,2,3,3,4,4,5,5,6,6,7,7,8,8,9,9,10,10,11,11,12,12,15,15,16,16,18,18,19,19,20,20,21,21,22,22,23,23,24,24],"right_children":[2,4,6,8,10,12,14,16,18,20,22,24,26,-1,-1,28,30,-1,32,34,36,38,40,42,44,-1,-1,-1,-1,-1,-1,-1,-1,-1,-1,-1,-1,-1,-1,-1,-1,-1,-1,-1,-1],"split_conditions":[1.9532415E1,1.551985E1,2.3738855E1,4.8075386E1,5.5218616E1,7.2421906E1,6.3076103E1,1.999562E1,1.39952345E1,1.8182222E1,1.6680346E1,2.136064E1,1.9157097E1,3.5821956E-2,6.5077975E-2,1.4251285E1,4.3405224E1,-2.191492E-2,5.854378E1,1.6306091E1,3.741032E1,6.503152E1,8.313542E1,4.654909E1,3.6142147E1,1.2787628E-2,4.3120194E-2,-1.9839326E-2,-9.882082E-3,-3.3456597E-2,-2.3163687E-2,-1.6510773E-2,-9.768977E-3,-1.556922E-2,-6.2343716E-3,-1.30052E-2,5.698194E-3,3.3377649E-3,-6.2459405E-3,8.3019035E-3,2.9700851E-2,7.510671E-3,1.8812638E-2,1.5749836E-2,2.3923391E-2],"split_indices":[1,0,1,2,2,2,2,2,1,0,0,1,0,0,0,1,2,0,2,0,2,2,2,2,2,0,0,0,0,0,0,0,0,0,0,0,0,0,0,0,0,0,0,0,0],"split_type":[0,0,0,0,0,0,0,0,0,0,0,0,0,0,0,0,0,0,0,0,0,0,0,0,0,0,0,0,0,0,0,0,0,0,0,0,0,0,0,0,0,0,0,0,0],"sum_hessian":[3.96E2,2.87E2,1.09E2,1.33E2,1.54E2,8.6E1,2.3E1,5E1,8.3E1,1.01E2,5.3E1,7.5E1,1.1E1,1.8E1,5E0,1E1,4E1,2.5E1,5.8E1,5.6E1,4.5E1,1.1E1,4.2E1,3.5E1,4E1,2E0,9E0,4E0,6E0,1.9E1,2.1E1,3E1,2.8E1,8E0,4.8E1,9E0,3.6E1,5E0,6E0,4.1E1,1E0,2.1E1,1.4E1,1.1E1,2.9E1],"tree_param":{"num_deleted":"0","num_feature":"3","num_nodes":"45","size_leaf_vector":"1"}},{"base_weights":[4.823848E-3,-1.2336993E-1,1.681518E-1,-2.036546E-1,-5.0204303E-2,6.370146E-2,2.7550504E-1,-2.8478253E-1,-1.7901655E-1,-6.0103163E-2,1.4459164E-1,-1.0246121E-1,8.575256E-2,2.1782124E-1,4.3341142E-1,-2.9196147E-2,-6.3423156E-3,-2.181175E-1,-1.5325459E-2,-1.0480733E-1,-3.3190966E-2,6.064682E-2,2.821579E-2,-1.864315E-2,-2.784511E-2,6.4920895E-2,1.6502166E-2,1.8608114E-1,3.4249987E-2,2.5863284E-1,5.5750754E-2,-1.4046027E-2,-2.4840854E-2,-1.5978863E-2,-7.1609938E-3,-8.390279E-3,-1.5990898E-3,-1.2494087E-3,8.205557E-3,-3.934924E-3,2.0589828E-3,4.255424E-3,9.683418E-3,1.3008659E-2,2.0829253E-2,1.2504435E-2,2.9309798E-2],"categories":[],"categories_nodes":[],"categories_segments":[],"categories_sizes":[],"default_left":[0,0,0,0,0,0,0,0,0,0,0,0,0,0,0,0,0,0,0,0,0,0,0,0,0,0,0,0,0,0,0,0,0,0,0,0,0,0,0,0,0,0,0,0,0,0,0],"id":29,"left_children":[1,3,5,7,9,11,13,15,17,19,21,23,25,27,29,-1,-1,31,-1,33,35,37,-1,-1,39,41,-1,43,-1,45,-1,-1,-1,-1,-1,-1,-1,-1,-1,-1,-1,-1,-1,-1,-1,-1,-1],"loss_changes":[8.332982E0,1.2996953E0,1.9447389E0,1.6089582E-1,2.3622489E-1,3.3855247E-1,6.889367E-1,1.803267E-2,5.1187277E-2,1.3247019E-1,5.217588E-2,6.372969E-2,1.213913E-1,1.9349289E-1,3.329754E-1,0E0,0E0,3.8030267E-2,0E0,6.5217465E-2,6.1460078E-2,8.854484E-3,0E0,0E0,4.7106063E-3,4.2275876E-2,0E0,4.0064692E-2,0E0,1.3995349E-2,0E0,0E0,0E0,0E0,0E0,0E0,0E0,0E0,0E0,0E0,0E0,0E0,0E0,0E0,0E0,0E0,0E0],"parents":[2147483647,0,0,1,1,2,2,3,3,4,4,5,5,6,6,7,7,8,8,9,9,10,10,11,11,12,12,13,13,14,14,17,17,19,19,20,20,21,21,24,24,25,25,27,27,29,29],"right_children":[2,4,6,8,10,12,14,16,18,20,22,24,26,28,30,-1,-1,32,-1,34,36,38,-1,-1,40,42,-1,44,-1,46,-1,-1,-1,-1,-1,-1,-1,-1,-1,-1,-1,-1,-1,-1,-1,-1,-1],"split_conditions":[1.816684E1,1.490444E1,2.050624E1,1.3782009E1,7.649889E1,3.7064026E1,5.6060387E1,6.291264E1,4.491032E1,1.6646263E1,1.6955252E1,2.603572E1,6.520305E1,2.4249508E1,2.0553686E1,-2.9196147E-2,-6.3423156E-3,1.999562E1,-1.5325459E-2,5.6786995E1,4.326511E1,1.4134426E1,2.821579E-2,-1.864315E-2,2.0706646E1,1.8910149E1,1.6502166E-2,3.6142147E1,3.4249987E-2,7.19101E1,5.5750754E-2,-1.4046027E-2,-2.4840854E-2,-1.5978863E-2,-7.1609938E-3,-8.390279E-3,-1.5990898E-3,-1.2494087E-3,8.205557E-3,-3.934924E-3,2.0589828E-3,4.255424E-3,9.683418E-3,1.3008659E-2,2.0829253E-2,1.2504435E-2,2.9309798E-2],"split_indices":[1,1,1,1,2,2,2,2,2,1,0,2,2,1,0,0,0,2,0,2,2,0,0,0,0,0,0,2,0,2,0,0,0,0,0,0,0,0,0,0,0,0,0,0,0,0,0],"split_type":[0,0,0,0,0,0,0,0,0,0,0,0,0,0,0,0,0,0,0,0,0,0,0,0,0,0,0,0,0,0,0,0,0,0,0,0,0,0,0,0,0,0,0,0,0,0,0],"sum_hessian":[3.96E2,2.22E2,1.74E2,1.05E2,1.17E2,8.9E1,8.5E1,2.2E1,8.3E1,1.12E2,5E0,1E1,7.9E1,6.4E1,2.1E1,2.1E1,1E0,3E1,5.3E1,4.1E1,7.1E1,4E0,1E0,4E0,6E0,6.4E1,1.5E1,5.3E1,1.1E1,1E1,1.1E1,1E1,2E1,1.4E1,2.7E1,1.7E1,5.4E1,1E0,3E0,5E0,1E0,3.9E1,2.5E1,1.7E1,3.6E1,3E0,7E0],"tree_param":{"num_deleted":"0","num_feature":"3","num_nodes":"47","size_leaf_vector":"1"}},{"base_weights":[4.562623E-3,-9.112382E-2,1.8480837E-1,-1.7865874E-1,-2.1550955E-2,1.23831294E-1,3.1664538E-1,-2.5784978E-1,-1.5715279E-1,-7.0393115E-2,4.6209297E-3,9.9306196E-2,2.6038498E-1,2.5261012E-1,5.3048855E-1,-2.9738283E-2,-1.7671851E-2,-1.9755997E-1,-1.347754E-1,-1.513426E-1,-5.1813148E-2,-1.2375959E-2,1.7698245E-2,5.4243334E-2,1.3615388E-1,1.3287812E-2,2.980999E-2,1.1344973E-1,2.7202186E-1,1.3847447E-2,5.62181E-2,-1.2769145E-2,-2.2475017E-2,-1.424918E-2,-5.268819E-3,-1.783692E-2,-7.296705E-3,-8.5235555E-3,-2.1802268E-3,1.1739599E-3,2.6805019E-2,-7.7739507E-3,9.081115E-3,7.1626343E-3,1.4242916E-2,9.7150804E-4,1.32253645E-2,9.463183E-3,2.813129E-2],"categories":[],"categories_nodes":[],"categories_segments":[],"categories_sizes":[],"default_left":[0,0,0,0,0,0,0,0,0,0,0,0,0,0,0,0,0,0,0,0,0,0,0,0,0,0,0,0,0,0,0,0,0,0,0,0,0,0,0,0,0,0,0,0,0,0,0,0,0],"id":30,"left_children":[1,3,5,7,9,11,13,15,17,19,21,23,25,27,29,-1,-1,31,33,35,37,-1,39,41,43,-1,-1,45,47,-1,-1,-1,-1,-1,-1,-1,-1,-1,-1,-1,-1,-1,-1,-1,-1,-1,-1,-1,-1],"loss_changes":[6.8639297E0,1.5795639E0,1.0701761E0,1.5533233E-1,1.8695584E-1,2.9564524E-1,4.5481396E-1,2.1216273E-2,5.7464838E-2,6.8864435E-2,1.6336207E-1,1.3043296E-1,2.7713835E-2,6.368613E-2,3.3967018E-2,0E0,0E0,3.019321E-2,3.2397747E-2,6.0489327E-3,4.1272208E-2,0E0,1.2812795E-1,1.9528624E-1,8.020103E-3,0E0,0E0,1.0418855E-2,2.2822857E-2,0E0,0E0,0E0,0E0,0E0,0E0,0E0,0E0,0E0,0E0,0E0,0E0,0E0,0E0,0E0,0E0,0E0,0E0,0E0,0E0],"parents":[2147483647,0,0,1,1,2,2,3,3,4,4,5,5,6,6,7,7,8,8,9,9,10,10,11,11,12,12,13,13,14,14,17,17,18,18,19,19,20,20,22,22,23,23,24,24,27,27,28,28],"right_children":[2,4,6,8,10,12,14,16,18,20,22,24,26,28,30,-1,-1,32,34,36,38,-1,40,42,44,-1,-1,46,48,-1,-1,-1,-1,-1,-1,-1,-1,-1,-1,-1,-1,-1,-1,-1,-1,-1,-1,-1,-1],"split_conditions":[1.857216E1,1.4479905E1,2.3206688E1,1.3782009E1,1.7449781E1,7.19101E1,6.3076103E1,4.9274242E1,4.491032E1,4.904395E1,4.0887238E1,2.040164E1,1.9157097E1,2.1837042E1,2.0911165E1,-2.9738283E-2,-1.7671851E-2,1.999562E1,6.444439E1,1.6369726E1,1.551985E1,-1.2375959E-2,8.313542E1,3.743307E1,2.603572E1,1.3287812E-2,2.980999E-2,4.9281265E1,3.6554028E1,1.3847447E-2,5.62181E-2,-1.2769145E-2,-2.2475017E-2,-1.424918E-2,-5.268819E-3,-1.783692E-2,-7.296705E-3,-8.5235555E-3,-2.1802268E-3,1.1739599E-3,2.6805019E-2,-7.7739507E-3,9.081115E-3,7.1626343E-3,1.4242916E-2,9.7150804E-4,1.32253645E-2,9.463183E-3,2.813129E-2],"split_indices":[1,0,1,1,1,2,2,2,2,2,2,1,0,0,0,0,0,2,2,0,0,0,2,2,2,0,0,2,2,0,0,0,0,0,0,0,0,0,0,0,0,0,0,0,0,0,0,0,0],"split_type":[0,0,0,0,0,0,0,0,0,0,0,0,0,0,0,0,0,0,0,0,0,0,0,0,0,0,0,0,0,0,0,0,0,0,0,0,0,0,0,0,0,0,0,0,0,0,0,0,0],"sum_hessian":[3.96E2,2.59E2,1.37E2,1.14E2,1.45E2,9.5E1,4.2E1,2.2E1,9.2E1,5E1,9.5E1,8.2E1,1.3E1,3.4E1,8E0,1.3E1,9E0,3E1,6.2E1,8E0,4.2E1,8E0,8.7E1,3.8E1,4.4E1,4E0,9E0,5E0,2.9E1,1E0,7E0,1E1,2E1,5.6E1,6E0,5E0,3E0,1.9E1,2.3E1,8.6E1,1E0,8E0,3E1,5E0,3.9E1,1E0,4E0,2E0,2.7E1],"tree_param":{"num_deleted":"0","num_feature":"3","num_nodes":"49","size_leaf_vector":"1"}},{"base_weights":[4.2710463E-3,-9.5039256E-2,1.4742227E-1,-1.6227864E-1,-3.1430002E-2,7.01373E-2,2.4174434E-1,-2.5654344E-2,-1.4651614E-1,-3.58988E-2,2.5464727E-2,-3.927558E-2,8.887631E-2,1.8913838E-1,3.7169322E-1,-1.8900025E-1,-1.23744205E-1,-6.184559E-2,-5.6805527E-3,-1.3964717E-1,3.2002766E-2,5.759231E-2,1.2979108E-1,1.5789936E-1,2.8531661E-2,2.056071E-1,4.652834E-2,-1.160835E-2,-2.1565607E-2,-1.2943304E-2,-4.3387413E-3,-1.1669206E-2,-4.3057804E-3,-6.449339E-3,2.092724E-3,-1.643776E-2,-7.997513E-4,8.3511835E-3,-7.6704024E-4,3.2706463E-3,1.1213807E-2,5.4971105E-3,1.6992768E-2,1.3160733E-2,1.9404173E-2,1.0498429E-2,2.3842113E-2],"categories":[],"categories_nodes":[],"categories_segments":[],"categories_sizes":[],"default_left":[0,0,0,0,0,0,0,0,0,0,0,0,0,0,0,0,0,0,0,0,0,0,0,0,0,0,0,0,0,0,0,0,0,0,0,0,0,0,0,0,0,0,0,0,0,0,0],"id":31,"left_children":[1,3,5,7,9,11,13,-1,15,17,-1,19,21,23,25,27,29,31,33,35,37,39,41,43,-1,45,-1,-1,-1,-1,-1,-1,-1,-1,-1,-1,-1,-1,-1,-1,-1,-1,-1,-1,-1,-1,-1],"loss_changes":[5.6579185E0,1.0000057E0,1.1712623E0,1.3179898E-1,1.6510895E-1,1.9006702E-1,4.2873287E-1,0E0,7.335687E-2,9.452072E-2,0E0,1.0462959E-1,9.23633E-2,1.1719251E-1,2.1521473E-1,3.910649E-2,2.5469542E-2,6.195435E-2,9.054781E-2,1.821991E-2,1.903232E-2,5.8773562E-2,8.9758515E-2,1.5323639E-2,0E0,4.686117E-3,0E0,0E0,0E0,0E0,0E0,0E0,0E0,0E0,0E0,0E0,0E0,0E0,0E0,0E0,0E0,0E0,0E0,0E0,0E0,0E0,0E0],"parents":[2147483647,0,0,1,1,2,2,3,3,4,4,5,5,6,6,8,8,9,9,11,11,12,12,13,13,14,14,15,15,16,16,17,17,18,18,19,19,20,20,21,21,22,22,23,23,25,25],"right_children":[2,4,6,8,10,12,14,-1,16,18,-1,20,22,24,26,28,30,32,34,36,38,40,42,44,-1,46,-1,-1,-1,-1,-1,-1,-1,-1,-1,-1,-1,-1,-1,-1,-1,-1,-1,-1,-1,-1,-1],"split_conditions":[1.83013E1,1.5361649E1,2.1051872E1,1.3713796E1,8.313542E1,3.7064026E1,5.6060387E1,-2.5654344E-2,4.4637753E1,1.748393E1,2.5464727E-2,2.0367746E1,1.8952547E1,2.4249508E1,2.0553686E1,1.999562E1,6.72764E1,5.1105732E1,4.4510227E1,2.603572E1,2.2764019E1,6.363445E1,4.654909E1,2.398494E1,2.8531661E-2,7.19101E1,4.652834E-2,-1.160835E-2,-2.1565607E-2,-1.2943304E-2,-4.3387413E-3,-1.1669206E-2,-4.3057804E-3,-6.449339E-3,2.092724E-3,-1.643776E-2,-7.997513E-4,8.3511835E-3,-7.6704024E-4,3.2706463E-3,1.1213807E-2,5.4971105E-3,1.6992768E-2,1.3160733E-2,1.9404173E-2,1.0498429E-2,2.3842113E-2],"split_indices":[1,1,1,1,2,2,2,0,2,0,0,0,0,1,0,2,2,2,2,2,2,2,2,0,0,2,0,0,0,0,0,0,0,0,0,0,0,0,0,0,0,0,0,0,0,0,0],"split_type":[0,0,0,0,0,0,0,0,0,0,0,0,0,0,0,0,0,0,0,0,0,0,0,0,0,0,0,0,0,0,0,0,0,0,0,0,0,0,0,0,0,0,0,0,0,0,0],"sum_hessian":[3.96E2,2.34E2,1.62E2,1.13E2,1.21E2,9E1,7.2E1,1.4E1,9.9E1,1.2E2,1E0,1.3E1,7.7E1,5.3E1,1.9E1,3.2E1,6.7E1,6.4E1,5.6E1,5E0,8E0,4.5E1,3.2E1,4.2E1,1.1E1,8E0,1.1E1,1E1,2.2E1,6.2E1,5E0,1.5E1,4.9E1,1.7E1,3.9E1,4E0,1E0,3E0,5E0,3.2E1,1.3E1,1.2E1,2E1,2.7E1,1.5E1,3E0,5E0],"tree_param":{"num_deleted":"0","num_feature":"3","num_nodes":"47","size_leaf_vector":"1"}},{"base_weights":[4.091501E-3,-9.5267236E-2,1.2198928E-1,-1.508374E-1,-4.134197E-2,4.5676064E-2,2.0664501E-1,-2.3259895E-2,-1.3586718E-1,-5.0737113E-2,1.3152917E-1,-1.5122756E-2,5.5771142E-2,1.4662954E-1,2.9859018E-1,-1.7110567E-1,-1.1422156E-1,-8.1983805E-2,-3.1325098E-2,6.106911E-2,2.4191475E-2,3.835439E-2,1.21586144E-1,8.575884E-2,1.7227936E-1,2.349846E-1,4.044391E-2,-1.0553065E-2,-1.9502826E-2,-1.228893E-2,-7.6964037E-3,-1.397718E-2,-4.8983223E-3,-5.460124E-3,3.0452866E-4,-7.065773E-4,7.986927E-3,-1.1388938E-3,4.708198E-3,1.519866E-2,9.1187E-3,7.787705E-4,8.988729E-3,1.1526362E-2,2.0197313E-2,1.8920098E-2,4.051566E-2],"categories":[],"categories_nodes":[],"categories_segments":[],"categories_sizes":[],"default_left":[0,0,0,0,0,0,0,0,0,0,0,0,0,0,0,0,0,0,0,0,0,0,0,0,0,0,0,0,0,0,0,0,0,0,0,0,0,0,0,0,0,0,0,0,0,0,0],"id":32,"left_children":[1,3,5,7,9,11,13,-1,15,17,19,-1,21,23,25,27,29,31,33,35,-1,37,39,41,43,45,-1,-1,-1,-1,-1,-1,-1,-1,-1,-1,-1,-1,-1,-1,-1,-1,-1,-1,-1,-1,-1],"loss_changes":[4.662149E0,6.4103746E-1,1.1663451E0,9.814024E-2,1.8695392E-1,2.0124657E-1,4.3077683E-1,0E0,5.0629854E-2,6.1727345E-2,3.1893127E-2,0E0,1.0194102E-1,6.9536924E-2,1.2713838E-1,3.1186461E-2,9.918213E-3,6.943506E-2,5.3766936E-2,6.969074E-3,0E0,3.3096656E-2,3.6996007E-3,5.0941557E-3,3.936124E-2,1.0253906E-1,0E0,0E0,0E0,0E0,0E0,0E0,0E0,0E0,0E0,0E0,0E0,0E0,0E0,0E0,0E0,0E0,0E0,0E0,0E0,0E0,0E0],"parents":[2147483647,0,0,1,1,2,2,3,3,4,4,5,5,6,6,8,8,9,9,10,10,12,12,13,13,14,14,15,15,16,16,17,17,18,18,19,19,21,21,22,22,23,23,24,24,25,25],"right_children":[2,4,6,8,10,12,14,-1,16,18,20,-1,22,24,26,28,30,32,34,36,-1,38,40,42,44,46,-1,-1,-1,-1,-1,-1,-1,-1,-1,-1,-1,-1,-1,-1,-1,-1,-1,-1,-1,-1,-1],"split_conditions":[1.8159298E1,1.490444E1,2.050624E1,1.3713796E1,7.649889E1,2.603572E1,5.078218E1,-2.3259895E-2,4.4637753E1,1.6306091E1,1.6955252E1,-1.5122756E-2,6.363445E1,2.2877928E1,2.382142E1,1.999562E1,1.409671E1,5.6786995E1,5.205132E1,1.4134426E1,2.4191475E-2,3.743307E1,1.8795942E1,2.1147905E1,3.904825E1,7.649889E1,4.044391E-2,-1.0553065E-2,-1.9502826E-2,-1.228893E-2,-7.6964037E-3,-1.397718E-2,-4.8983223E-3,-5.460124E-3,3.0452866E-4,-7.065773E-4,7.986927E-3,-1.1388938E-3,4.708198E-3,1.519866E-2,9.1187E-3,7.787705E-4,8.988729E-3,1.1526362E-2,2.0197313E-2,1.8920098E-2,4.051566E-2],"split_indices":[0,1,1,1,2,2,2,0,2,0,0,0,2,0,1,2,0,2,2,0,0,2,0,0,2,2,0,0,0,0,0,0,0,0,0,0,0,0,0,0,0,0,0,0,0,0,0],"split_type":[0,0,0,0,0,0,0,0,0,0,0,0,0,0,0,0,0,0,0,0,0,0,0,0,0,0,0,0,0,0,0,0,0,0,0,0,0,0,0,0,0,0,0,0,0,0,0],"sum_hessian":[3.96E2,2.15E2,1.81E2,1.05E2,1.1E2,9.6E1,8.5E1,1.4E1,9.1E1,1.05E2,5E0,4E0,9.2E1,5.3E1,3.2E1,3.2E1,5.9E1,3.9E1,6.6E1,4E0,1E0,7.4E1,1.8E1,1.7E1,3.6E1,2.2E1,1E1,1E1,2.2E1,4.6E1,1.3E1,1.3E1,2.6E1,3.9E1,2.7E1,1E0,3E0,1.1E1,6.3E1,7E0,1.1E1,1E0,1.6E1,1.4E1,2.2E1,1.9E1,3E0],"tree_param":{"num_deleted":"0","num_feature":"3","num_nodes":"47","size_leaf_vector":"1"}},{"base_weights":[3.90484E-3,-5.652305E-2,1.6408609E-1,-1.2376954E-1,1.6022829E-3,1.063022E-1,2.380499E-1,-1.8914253E-1,-1.0704049E-1,-2.8905608E-2,4.8322402E-2,5.9471607E-2,1.3977316E-1,1.8621665E-1,3.2683825E-1,-2.8505191E-2,-1.5874754E-1,-1.452486E-1,-9.1374435E-2,-9.786097E-2,-1.26222465E-2,4.157951E-2,2.298193E-2,-2.4868011E-2,7.4564375E-2,1.0609476E-1,1.675574E-1,1.3738732E-1,2.5614992E-1,4.307655E-2,2.4043811E-2,-1.626117E-2,-3.880024E-3,-9.593668E-3,-1.6510773E-2,-1.0194374E-2,-6.07486E-3,-1.1677917E-2,-5.144964E-3,-9.764258E-3,2.793668E-4,2.2544862E-4,6.7026704E-3,-4.7531127E-4,-2.8708458E-3,5.910418E-3,1.0366713E-2,1.4235933E-2,7.840656E-3,4.109192E-3,1.7257938E-2,-1.8453598E-4,1.4444122E-2,1.3919544E-2,3.1980377E-2],"categories":[],"categories_nodes":[],"categories_segments":[],"categories_sizes":[],"default_left":[0,0,0,0,0,0,0,0,0,0,0,0,0,0,0,0,0,0,0,0,0,0,0,0,0,0,0,0,0,0,0,0,0,0,0,0,0,0,0,0,0,0,0,0,0,0,0,0,0,0,0,0,0,0,0],"id":33,"left_children":[1,3,5,7,9,11,13,15,17,19,21,23,25,27,29,-1,31,33,35,37,39,41,-1,43,45,47,49,51,53,-1,-1,-1,-1,-1,-1,-1,-1,-1,-1,-1,-1,-1,-1,-1,-1,-1,-1,-1,-1,-1,-1,-1,-1,-1,-1],"loss_changes":[3.8520021E0,1.1298198E0,4.4055176E-1,1.2630033E-1,2.2374862E-1,9.043771E-2,1.5544009E-1,3.054291E-2,5.197215E-2,1.0543315E-1,6.632064E-2,3.7495986E-2,1.5909314E-2,7.408166E-2,4.009688E-2,0E0,3.8875341E-3,1.3538778E-2,1.9702613E-2,9.796098E-3,1.0250474E-1,6.089229E-2,0E0,2.4979608E-4,4.6712607E-3,7.916003E-3,4.3402314E-3,2.0891368E-2,4.482001E-2,0E0,0E0,0E0,0E0,0E0,0E0,0E0,0E0,0E0,0E0,0E0,0E0,0E0,0E0,0E0,0E0,0E0,0E0,0E0,0E0,0E0,0E0,0E0,0E0,0E0,0E0],"parents":[2147483647,0,0,1,1,2,2,3,3,4,4,5,5,6,6,7,7,8,8,9,9,10,10,11,11,12,12,13,13,14,14,16,16,17,17,18,18,19,19,20,20,21,21,23,23,24,24,25,25,26,26,27,27,28,28],"right_children":[2,4,6,8,10,12,14,16,18,20,22,24,26,28,30,-1,32,34,36,38,40,42,-1,44,46,48,50,52,54,-1,-1,-1,-1,-1,-1,-1,-1,-1,-1,-1,-1,-1,-1,-1,-1,-1,-1,-1,-1,-1,-1,-1,-1,-1,-1],"split_conditions":[1.9596947E1,1.551985E1,4.8501225E1,1.3824639E1,5.3959927E1,2.2531557E1,2.382142E1,4.033093E1,4.491032E1,1.7402903E1,8.313542E1,2.0706646E1,3.904825E1,7.2421906E1,2.2910723E1,-2.8505191E-2,6.291264E1,1.999562E1,6.2304676E1,5.0927273E1,4.0887238E1,1.751107E1,2.298193E-2,2.0553686E1,4.654909E1,2.3123396E1,2.3440506E1,4.9281265E1,1.9475649E1,4.307655E-2,2.4043811E-2,-1.626117E-2,-3.880024E-3,-9.593668E-3,-1.6510773E-2,-1.0194374E-2,-6.07486E-3,-1.1677917E-2,-5.144964E-3,-9.764258E-3,2.793668E-4,2.2544862E-4,6.7026704E-3,-4.7531127E-4,-2.8708458E-3,5.910418E-3,1.0366713E-2,1.4235933E-2,7.840656E-3,4.109192E-3,1.7257938E-2,-1.8453598E-4,1.4444122E-2,1.3919544E-2,3.1980377E-2],"split_indices":[1,0,2,1,2,0,1,2,2,0,2,0,2,2,0,0,2,2,2,2,2,0,0,0,2,0,0,2,0,0,0,0,0,0,0,0,0,0,0,0,0,0,0,0,0,0,0,0,0,0,0,0,0,0,0],"split_type":[0,0,0,0,0,0,0,0,0,0,0,0,0,0,0,0,0,0,0,0,0,0,0,0,0,0,0,0,0,0,0,0,0,0,0,0,0,0,0,0,0,0,0,0,0,0,0,0,0,0,0,0,0,0,0],"sum_hessian":[3.96E2,2.88E2,1.08E2,1.33E2,1.55E2,6.2E1,4.6E1,2.5E1,1.08E2,9.4E1,6.1E1,2.7E1,3.5E1,3.1E1,1.5E1,4E0,2.1E1,2.9E1,7.9E1,1.7E1,7.7E1,6E1,1E0,4E0,2.3E1,1.8E1,1.7E1,2E1,1.1E1,5E0,1E1,2E1,1E0,1E1,1.9E1,5.7E1,2.2E1,1.1E1,6E0,1.1E1,6.6E1,2.4E1,3.6E1,1E0,3E0,1.7E1,6E0,6E0,1.2E1,1E0,1.6E1,1E0,1.9E1,5E0,6E0],"tree_param":{"num_deleted":"0","num_feature":"3","num_nodes":"55","size_leaf_vector":"1"}},{"base_weights":[3.75697E-3,-6.14752E-2,1.2663093E-1,-1.2022014E-1,-1.4782435E-2,7.946317E-2,2.0805694E-1,-1.9326363E-2,-1.08181804E-1,-1.789581E-2,2.1832848E-2,5.6902226E-2,1.3494308E-1,1.5868564E-1,3.8967364E-2,-1.4320867E-1,-9.208475E-2,-3.5124242E-2,2.1170128E-2,1.2746351E-2,8.997299E-2,1.0838337E-1,2.0098495E-1,2.7876664E-2,1.7207372E-1,-8.72149E-3,-1.668448E-2,-9.741754E-3,-3.7245273E-3,-9.194302E-3,-2.4144882E-3,3.0316154E-3,-1.169796E-2,6.3120523E-3,-3.847758E-3,4.700025E-3,9.521872E-3,1.1564697E-2,-1.481247E-3,9.660482E-3,2.7316347E-2,3.909175E-3,7.3693594E-4,7.144801E-3,1.8556375E-2],"categories":[],"categories_nodes":[],"categories_segments":[],"categories_sizes":[],"default_left":[0,0,0,0,0,0,0,0,0,0,0,0,0,0,0,0,0,0,0,0,0,0,0,0,0,0,0,0,0,0,0,0,0,0,0,0,0,0,0,0,0,0,0,0,0],"id":34,"left_children":[1,3,5,7,9,11,13,-1,15,17,-1,19,21,23,-1,25,27,29,31,33,35,37,39,41,43,-1,-1,-1,-1,-1,-1,-1,-1,-1,-1,-1,-1,-1,-1,-1,-1,-1,-1,-1,-1],"loss_changes":[3.189873E0,7.113934E-1,5.134814E-1,8.02145E-2,1.0986838E-1,1.03720844E-1,3.8649702E-1,0E0,4.3759465E-2,9.833508E-2,0E0,9.377062E-2,2.2067904E-2,6.700575E-2,0E0,2.5152922E-2,1.7427802E-2,6.078726E-2,6.0404804E-2,7.725926E-2,3.8653612E-3,1.9609898E-2,1.88151E-2,8.618741E-4,3.696716E-2,0E0,0E0,0E0,0E0,0E0,0E0,0E0,0E0,0E0,0E0,0E0,0E0,0E0,0E0,0E0,0E0,0E0,0E0,0E0,0E0],"parents":[2147483647,0,0,1,1,2,2,3,3,4,4,5,5,6,6,8,8,9,9,11,11,12,12,13,13,15,15,16,16,17,17,18,18,19,19,20,20,21,21,22,22,23,23,24,24],"right_children":[2,4,6,8,10,12,14,-1,16,18,-1,20,22,24,-1,26,28,30,32,34,36,38,40,42,44,-1,-1,-1,-1,-1,-1,-1,-1,-1,-1,-1,-1,-1,-1,-1,-1,-1,-1,-1,-1],"split_conditions":[1.857216E1,1.4479905E1,2.2629534E1,1.3713796E1,8.313542E1,6.3935047E1,6.3076103E1,-1.9326363E-2,4.3716167E1,1.8159298E1,2.1832848E-2,2.0836645E1,7.649889E1,3.546004E1,3.8967364E-2,1.999562E1,6.444439E1,4.3669556E1,1.9541279E1,1.838788E1,2.603572E1,7.3705765E1,1.9234676E1,3.517167E1,2.1837042E1,-8.72149E-3,-1.668448E-2,-9.741754E-3,-3.7245273E-3,-9.194302E-3,-2.4144882E-3,3.0316154E-3,-1.169796E-2,6.3120523E-3,-3.847758E-3,4.700025E-3,9.521872E-3,1.1564697E-2,-1.481247E-3,9.660482E-3,2.7316347E-2,3.909175E-3,7.3693594E-4,7.144801E-3,1.8556375E-2],"split_indices":[1,0,1,1,2,2,2,0,2,0,0,0,2,2,0,2,2,2,0,0,2,2,0,2,0,0,0,0,0,0,0,0,0,0,0,0,0,0,0,0,0,0,0,0,0],"split_type":[0,0,0,0,0,0,0,0,0,0,0,0,0,0,0,0,0,0,0,0,0,0,0,0,0,0,0,0,0,0,0,0,0,0,0,0,0,0,0,0,0,0,0,0,0],"sum_hessian":[3.96E2,2.59E2,1.37E2,1.14E2,1.45E2,8.8E1,4.9E1,1.4E1,1E2,1.44E2,1E0,6.4E1,2.4E1,4E1,9E0,2.9E1,7.1E1,1E2,4.4E1,2.8E1,3.6E1,1.9E1,5E0,4E0,3.6E1,1E1,1.9E1,6.4E1,7E0,1.5E1,8.5E1,4.2E1,2E0,1.4E1,1.4E1,5E0,3.1E1,1.8E1,1E0,3E0,2E0,2E0,2E0,5E0,3.1E1],"tree_param":{"num_deleted":"0","num_feature":"3","num_nodes":"45","size_leaf_vector":"1"}},{"base_weights":[3.573898E-3,-4.6370763E-2,1.359632E-1,-1.0184616E-1,1.5784288E-3,8.6727746E-2,1.9906682E-1,-1.5071762E-1,-8.5673995E-2,-2.5179652E-2,4.2553257E-2,4.8530307E-2,1.1402777E-1,1.5509242E-1,2.7457392E-1,-2.4731502E-2,-1.280853E-1,-1.2155214E-1,-7.2616234E-2,-5.17394E-2,6.781405E-3,3.6450464E-2,2.0741178E-2,-1.9972991E-2,6.077973E-2,8.723972E-2,1.3596916E-1,1.1953068E-1,2.3269123E-1,3.6239497E-2,2.0171027E-1,-1.3023676E-2,-3.499794E-3,-7.928641E-3,-1.4301282E-2,-8.097101E-3,-4.6083224E-3,-1.1862755E-2,-4.0436E-3,-1.2667008E-2,2.3293307E-3,4.356537E-4,5.71504E-3,-2.4269104E-3,-1.3942718E-4,4.735396E-3,8.662033E-3,9.958636E-3,3.2751847E-3,3.4276962E-3,1.39934765E-2,1.8805185E-3,1.2783276E-2,1.1845938E-2,3.458662E-2,8.057403E-3,2.1967677E-2],"categories":[],"categories_nodes":[],"categories_segments":[],"categories_sizes":[],"default_left":[0,0,0,0,0,0,0,0,0,0,0,0,0,0,0,0,0,0,0,0,0,0,0,0,0,0,0,0,0,0,0,0,0,0,0,0,0,0,0,0,0,0,0,0,0,0,0,0,0,0,0,0,0,0,0,0,0],"id":35,"left_children":[1,3,5,7,9,11,13,15,17,19,21,23,25,27,29,-1,31,33,35,37,39,41,-1,43,45,47,49,51,53,-1,55,-1,-1,-1,-1,-1,-1,-1,-1,-1,-1,-1,-1,-1,-1,-1,-1,-1,-1,-1,-1,-1,-1,-1,-1,-1,-1],"loss_changes":[2.6313238E0,7.689009E-1,3.2139134E-1,9.2995286E-2,1.7211108E-1,6.0162008E-2,1.13473415E-1,3.828174E-2,3.9427638E-2,8.099423E-2,5.481776E-2,2.4709478E-2,9.297699E-3,6.049186E-2,2.9284716E-2,0E0,1.0496378E-3,1.2244374E-2,1.3559431E-2,3.451848E-2,9.990621E-2,4.02759E-2,0E0,3.6524376E-4,4.224509E-3,9.520471E-3,2.4623573E-3,1.7665654E-2,7.538256E-2,0E0,6.24007E-3,0E0,0E0,0E0,0E0,0E0,0E0,0E0,0E0,0E0,0E0,0E0,0E0,0E0,0E0,0E0,0E0,0E0,0E0,0E0,0E0,0E0,0E0,0E0,0E0,0E0,0E0],"parents":[2147483647,0,0,1,1,2,2,3,3,4,4,5,5,6,6,7,7,8,8,9,9,10,10,11,11,12,12,13,13,14,14,16,16,17,17,18,18,19,19,20,20,21,21,23,23,24,24,25,25,26,26,27,27,28,28,30,30],"right_children":[2,4,6,8,10,12,14,16,18,20,22,24,26,28,30,-1,32,34,36,38,40,42,-1,44,46,48,50,52,54,-1,56,-1,-1,-1,-1,-1,-1,-1,-1,-1,-1,-1,-1,-1,-1,-1,-1,-1,-1,-1,-1,-1,-1,-1,-1,-1,-1],"split_conditions":[1.9596947E1,1.551985E1,4.8501225E1,1.388778E1,5.3959927E1,2.2531557E1,2.382142E1,4.033093E1,4.3547062E1,1.8182222E1,8.313542E1,2.0706646E1,3.904825E1,7.4236984E1,2.2910723E1,-2.4731502E-2,6.444439E1,1.999562E1,6.2304676E1,1.6306091E1,2.603572E1,1.751107E1,2.0741178E-2,2.0625559E1,4.654909E1,3.7674805E1,2.3440506E1,5.037999E1,1.9475649E1,3.6239497E-2,2.3162867E1,-1.3023676E-2,-3.499794E-3,-7.928641E-3,-1.4301282E-2,-8.097101E-3,-4.6083224E-3,-1.1862755E-2,-4.0436E-3,-1.2667008E-2,2.3293307E-3,4.356537E-4,5.71504E-3,-2.4269104E-3,-1.3942718E-4,4.735396E-3,8.662033E-3,9.958636E-3,3.2751847E-3,3.4276962E-3,1.39934765E-2,1.8805185E-3,1.2783276E-2,1.1845938E-2,3.458662E-2,8.057403E-3,2.1967677E-2],"split_indices":[1,0,2,1,2,0,1,2,2,0,2,0,2,2,0,0,2,2,2,0,2,0,0,0,2,2,0,2,0,0,0,0,0,0,0,0,0,0,0,0,0,0,0,0,0,0,0,0,0,0,0,0,0,0,0,0,0],"split_type":[0,0,0,0,0,0,0,0,0,0,0,0,0,0,0,0,0,0,0,0,0,0,0,0,0,0,0,0,0,0,0,0,0,0,0,0,0,0,0,0,0,0,0,0,0,0,0,0,0,0,0,0,0,0,0,0,0],"sum_hessian":[3.96E2,2.88E2,1.08E2,1.33E2,1.55E2,6.2E1,4.6E1,3.1E1,1.02E2,9.4E1,6.1E1,2.7E1,3.5E1,3.1E1,1.5E1,4E0,2.7E1,2.5E1,7.7E1,5.1E1,4.3E1,6E1,1E0,4E0,2.3E1,1.8E1,1.7E1,2.3E1,8E0,5E0,1E1,2.6E1,1E0,1E1,1.5E1,5.7E1,2E1,6E0,4.5E1,4E0,3.9E1,2.4E1,3.6E1,3E0,1E0,1.7E1,6E0,1.4E1,4E0,1E0,1.6E1,2E0,2.1E1,5E0,3E0,2E0,8E0],"tree_param":{"num_deleted":"0","num_feature":"3","num_nodes":"57","size_leaf_vector":"1"}},{"base_weights":[3.4515923E-3,-4.199499E-2,1.2391591E-1,-9.2230365E-2,1.4251074E-3,7.871328E-2,1.8187016E-1,-1.3284057E-1,-7.5956814E-2,-2.2937775E-2,3.8732342E-2,2.3905944E-2,9.388465E-2,1.4149255E-1,2.512585E-1,-2.2752972E-2,-1.14468254E-1,-1.1152996E-1,-6.291241E-2,-7.842043E-2,-9.840012E-3,3.2906923E-2,1.9704152E-2,-1.8489456E-2,4.1003313E-2,5.0059244E-2,1.0674533E-1,1.08188786E-1,2.1458118E-1,3.3219527E-2,1.8426947E-1,-1.1596739E-2,-3.3247948E-3,-7.2078356E-3,-1.3302581E-2,-6.921932E-3,-3.94454E-3,-9.472259E-3,-3.9270944E-3,-8.076016E-3,3.0089705E-4,4.0248292E-3,-4.1097007E-3,-2.2449493E-3,-1.3246537E-4,4.647255E-3,1.0927836E-3,3.308296E-4,5.367947E-3,8.824231E-3,1.2332289E-2,-6.26564E-4,1.1343749E-2,1.0858727E-2,3.1992674E-2,7.5202943E-3,2.0015059E-2],"categories":[],"categories_nodes":[],"categories_segments":[],"categories_sizes":[],"default_left":[0,0,0,0,0,0,0,0,0,0,0,0,0,0,0,0,0,0,0,0,0,0,0,0,0,0,0,0,0,0,0,0,0,0,0,0,0,0,0,0,0,0,0,0,0,0,0,0,0,0,0,0,0,0,0,0,0],"id":36,"left_children":[1,3,5,7,9,11,13,15,17,19,21,23,25,27,29,-1,31,33,35,37,39,41,-1,43,45,47,49,51,53,-1,55,-1,-1,-1,-1,-1,-1,-1,-1,-1,-1,-1,-1,-1,-1,-1,-1,-1,-1,-1,-1,-1,-1,-1,-1,-1,-1],"loss_changes":[2.1786563E0,6.305055E-1,2.712301E-1,7.8466654E-2,1.4267868E-1,5.0140172E-2,9.613025E-2,3.832239E-2,3.8458347E-2,6.8264715E-2,5.069346E-2,1.1630876E-2,2.2274047E-2,5.467671E-2,2.5536537E-2,0E0,1.6242266E-4,1.1612862E-2,8.221924E-3,7.7681392E-3,7.132064E-2,3.4794785E-2,0E0,3.1012855E-4,1.3015438E-3,2.0226464E-3,4.6691298E-4,1.51284635E-2,6.575394E-2,0E0,4.0012E-3,0E0,0E0,0E0,0E0,0E0,0E0,0E0,0E0,0E0,0E0,0E0,0E0,0E0,0E0,0E0,0E0,0E0,0E0,0E0,0E0,0E0,0E0,0E0,0E0,0E0,0E0],"parents":[2147483647,0,0,1,1,2,2,3,3,4,4,5,5,6,6,7,7,8,8,9,9,10,10,11,11,12,12,13,13,14,14,16,16,17,17,18,18,19,19,20,20,21,21,23,23,24,24,25,25,26,26,27,27,28,28,30,30],"right_children":[2,4,6,8,10,12,14,16,18,20,22,24,26,28,30,-1,32,34,36,38,40,42,-1,44,46,48,50,52,54,-1,56,-1,-1,-1,-1,-1,-1,-1,-1,-1,-1,-1,-1,-1,-1,-1,-1,-1,-1,-1,-1,-1,-1,-1,-1,-1,-1],"split_conditions":[1.9596947E1,1.551985E1,4.8501225E1,1.3941209E1,5.3959927E1,2.1398026E1,2.382142E1,4.033093E1,4.3547062E1,1.7402903E1,8.313542E1,2.0706646E1,3.464335E1,7.4236984E1,2.2910723E1,-2.2752972E-2,6.444439E1,1.999562E1,6.2765118E1,5.0927273E1,4.0887238E1,1.9335482E1,1.9704152E-2,2.0625559E1,2.0498749E1,2.1927467E1,2.3206688E1,4.9281265E1,1.9475649E1,3.3219527E-2,2.3162867E1,-1.1596739E-2,-3.3247948E-3,-7.2078356E-3,-1.3302581E-2,-6.921932E-3,-3.94454E-3,-9.472259E-3,-3.9270944E-3,-8.076016E-3,3.0089705E-4,4.0248292E-3,-4.1097007E-3,-2.2449493E-3,-1.3246537E-4,4.647255E-3,1.0927836E-3,3.308296E-4,5.367947E-3,8.824231E-3,1.2332289E-2,-6.26564E-4,1.1343749E-2,1.0858727E-2,3.1992674E-2,7.5202943E-3,2.0015059E-2],"split_indices":[1,0,2,1,2,0,1,2,2,0,2,0,2,2,0,0,2,2,2,2,2,1,0,0,1,0,1,2,0,0,0,0,0,0,0,0,0,0,0,0,0,0,0,0,0,0,0,0,0,0,0,0,0,0,0,0,0],"split_type":[0,0,0,0,0,0,0,0,0,0,0,0,0,0,0,0,0,0,0,0,0,0,0,0,0,0,0,0,0,0,0,0,0,0,0,0,0,0,0,0,0,0,0,0,0,0,0,0,0,0,0,0,0,0,0,0,0],"sum_hessian":[3.96E2,2.88E2,1.08E2,1.33E2,1.55E2,6.2E1,4.6E1,3.6E1,9.7E1,9.4E1,6.1E1,1.4E1,4.8E1,3.1E1,1.5E1,4E0,3.2E1,2.4E1,7.3E1,1.7E1,7.7E1,6E1,1E0,4E0,1E1,1.2E1,3.6E1,2.3E1,8E0,5E0,1E1,3.1E1,1E0,1E1,1.4E1,5.6E1,1.7E1,1.1E1,6E0,1.1E1,6.6E1,5.5E1,