{"learner":{"attributes":{"scikit_learn":"{\"_estimator_type\": \"regressor\"}"},"feature_names":["MA50_XOM","EMA20_XOM","RSI_XOM","upper_bb_XOM","lower_bb_XOM","ATR_XOM","MACD_XOM","MACD_signal_XOM","ADX_XOM","StochK_XOM","StochD_XOM","CCI_XOM","WilliamsR_XOM","XOM_lag1","XOM_lag2","XOM_lag3","XOM_lag4","XOM_lag5"],"feature_types":["float","float","float","float","float","float","float","float","float","float","float","float","float","float","float","float","float","float"],"gradient_booster":{"model":{"gbtree_model_param":{"num_parallel_tree":"1","num_trees":"100"},"iteration_indptr":[0,1,2,3,4,5,6,7,8,9,10,11,12,13,14,15,16,17,18,19,20,21,22,23,24,25,26,27,28,29,30,31,32,33,34,35,36,37,38,39,40,41,42,43,44,45,46,47,48,49,50,51,52,53,54,55,56,57,58,59,60,61,62,63,64,65,66,67,68,69,70,71,72,73,74,75,76,77,78,79,80,81,82,83,84,85,86,87,88,89,90,91,92,93,94,95,96,97,98,99,100],"tree_info":[0,0,0,0,0,0,0,0,0,0,0,0,0,0,0,0,0,0,0,0,0,0,0,0,0,0,0,0,0,0,0,0,0,0,0,0,0,0,0,0,0,0,0,0,0,0,0,0,0,0,0,0,0,0,0,0,0,0,0,0,0,0,0,0,0,0,0,0,0,0,0,0,0,0,0,0,0,0,0,0,0,0,0,0,0,0,0,0,0,0,0,0,0,0,0,0,0,0,0,0],"trees":[{"base_weights":[-1.3926591E-1,-1.72608E0,3.558872E0,-4.1522665E0,-6.4513E-1,2.1789985E0,6.675122E-1,-5.6162834E-1,-3.276901E-1,-1.2931826E0,1.305251E-1,1.7290452E0,3.9888716E-1,-2.5194016E-1,-9.4772863E-1,-2.2225183E-1,4.1303274E-1,1.3338593E-1,2.454722E-1,-1.309916E-1,-6.699043E-2,-5.0549317E-2,-3.5802408E-3,1.6403094E-2,5.6278914E-1,4.2431585E-2,8.819312E-2],"categories":[],"categories_nodes":[],"categories_segments":[],"categories_sizes":[],"default_left":[0,0,0,0,0,0,0,0,0,0,0,0,0,0,0,0,0,0,0,0,0,0,0,0,0,0,0],"id":0,"left_children":[1,3,5,7,9,11,-1,-1,-1,13,15,17,-1,-1,19,21,23,-1,-1,-1,-1,-1,-1,-1,25,-1,-1],"loss_changes":[1.719674E3,5.349514E2,1.8320874E2,8.323975E0,7.2049934E1,1.4613174E1,0E0,0E0,0E0,1.5788773E1,6.669501E0,2.1613846E0,0E0,0E0,9.5438766E-1,9.7289264E-1,1.5146189E0,0E0,0E0,0E0,0E0,0E0,0E0,0E0,4.4682455E-1,0E0,0E0],"parents":[2147483647,0,0,1,1,2,2,3,3,4,4,5,5,9,9,10,10,11,11,14,14,15,15,16,16,24,24],"right_children":[2,4,6,8,10,12,-1,-1,-1,14,16,18,-1,-1,20,22,24,-1,-1,-1,-1,-1,-1,-1,26,-1,-1],"split_conditions":[1.934E1,1.5825E1,2.235E1,1.25395E-1,1.797E1,2.128E1,6.675122E-1,-5.6162834E-1,-3.276901E-1,1.67E1,5.2087765E1,1.973E1,3.9888716E-1,-2.5194016E-1,6.485852E1,1.9423998E1,1.8585E1,1.3338593E-1,2.454722E-1,-1.309916E-1,-6.699043E-2,-5.0549317E-2,-3.5802408E-3,1.6403094E-2,5.9352226E1,4.2431585E-2,8.819312E-2],"split_indices":[14,13,13,7,13,13,0,0,0,13,2,13,0,0,2,3,13,0,0,0,0,0,0,0,2,0,0],"split_type":[0,0,0,0,0,0,0,0,0,0,0,0,0,0,0,0,0,0,0,0,0,0,0,0,0,0,0],"sum_hessian":[2.91E2,2.04E2,8.7E1,6.2E1,1.42E2,4.8E1,3.9E1,5.4E1,8E0,7.7E1,6.5E1,3.4E1,1.4E1,2.5E1,5.2E1,2.9E1,3.6E1,8E0,2.6E1,4.4E1,8E0,1.5E1,1.4E1,1.3E1,2.3E1,9E0,1.4E1],"tree_param":{"num_deleted":"0","num_feature":"18","num_nodes":"27","size_leaf_vector":"1"}},{"base_weights":[-2.3890069E-2,-1.5503014E0,3.0914788E0,-3.348754E0,-4.901771E-1,1.6276704E0,4.303624E0,-4.925523E-1,-2.5989363E-1,-9.1113216E-1,4.2770017E-2,1.6102386E-1,2.5307515E-1,3.380375E-1,5.880644E-1,-1.8975611E-1,-6.6441226E-1,-1.509574E-1,4.0871364E-1,-1.240851E-1,-4.887813E-1,-5.5279568E-2,-5.044687E-2,2.6535077E-2,6.821508E-2,-3.634819E-1,-9.742519E-2,-1.9371855E-1,2.6079401E-2,-7.07365E-2,-1.0402064E-2,-5.066014E-2,-1.8341555E-3],"categories":[],"categories_nodes":[],"categories_segments":[],"categories_sizes":[],"default_left":[0,0,0,0,0,0,0,0,0,0,0,0,0,0,0,0,0,0,0,0,0,0,0,0,0,0,0,0,0,0,0,0,0],"id":1,"left_children":[1,3,5,7,9,11,13,-1,-1,15,17,-1,-1,-1,-1,-1,19,21,23,-1,25,-1,27,-1,-1,29,-1,31,-1,-1,-1,-1,-1],"loss_changes":[1.4171271E3,3.7967517E2,1.6688129E2,3.7847046E1,2.8531012E1,3.3544083E0,9.8411255E0,0E0,0E0,8.761192E0,4.1026173E0,0E0,0E0,0E0,0E0,0E0,2.1720314E0,1.0340662E0,3.74835E-1,0E0,8.5250854E-1,0E0,1.0863148E0,0E0,0E0,1.2535489E0,0E0,6.695774E-1,0E0,0E0,0E0,0E0,0E0],"parents":[2147483647,0,0,1,1,2,2,3,3,4,4,5,5,6,6,9,9,10,10,16,16,17,17,18,18,20,20,22,22,25,25,27,27],"right_children":[2,4,6,8,10,12,14,-1,-1,16,18,-1,-1,-1,-1,-1,20,22,24,-1,26,-1,28,-1,-1,30,-1,32,-1,-1,-1,-1,-1],"split_conditions":[1.934E1,1.5140405E1,2.1715E1,1.564488E-1,1.8045E1,2.025E1,2.2430243E1,-4.925523E-1,-2.5989363E-1,1.6400126E1,5.7477352E1,1.6102386E-1,2.5307515E-1,3.380375E-1,5.880644E-1,-1.8975611E-1,-7.884475E1,-7.257447E1,1.0446342E2,-1.240851E-1,1.693456E1,-5.5279568E-2,1.7175516E1,2.6535077E-2,6.821508E-2,1.7632017E1,-9.742519E-2,2.7012583E1,2.6079401E-2,-7.07365E-2,-1.0402064E-2,-5.066014E-2,-1.8341555E-3],"split_indices":[14,0,14,7,14,14,8,0,0,0,11,0,0,0,0,0,11,11,11,0,4,0,4,0,0,1,0,8,0,0,0,0,0],"split_type":[0,0,0,0,0,0,0,0,0,0,0,0,0,0,0,0,0,0,0,0,0,0,0,0,0,0,0,0,0,0,0,0,0],"sum_hessian":[2.96E2,1.99E2,9.7E1,7.3E1,1.26E2,4.5E1,5.2E1,5.3E1,2E1,7E1,5.6E1,2.3E1,2.2E1,8E0,4.4E1,2E1,5E1,3.7E1,1.9E1,1.7E1,3.3E1,9E0,2.8E1,8E0,1.1E1,2.4E1,9E0,1.8E1,1E1,1.4E1,1E1,8E0,1E1],"tree_param":{"num_deleted":"0","num_feature":"18","num_nodes":"33","size_leaf_vector":"1"}},{"base_weights":[1.0232744E-2,-1.3705672E0,2.7026901E0,-4.2523044E-1,-5.550642E-1,1.5758584E0,3.8433547E0,-1.2889713E0,-2.3156768E-1,1.4838083E-1,1.7513548E0,3.8329068E-1,5.4075974E-1,-8.048384E-2,-1.4778986E0,-4.498118E-1,2.956879E-1,1.4981082E-1,2.4373823E-1,-2.067661E-1,-1.2836076E-1,1.4998716E-2,-5.9041494E-1,1.5515523E-2,5.8432937E-2,-1.4483004E-2,1.8147796E-2,-7.4826145E-1,-2.6857054E-1,-1.0716213E-1,-6.798752E-2,-5.1745195E-3,-6.7018524E-2],"categories":[],"categories_nodes":[],"categories_segments":[],"categories_sizes":[],"default_left":[0,0,0,0,0,0,0,0,0,0,0,0,0,0,0,0,0,0,0,0,0,0,0,0,0,0,0,0,0,0,0,0,0],"id":2,"left_children":[1,3,5,-1,7,9,11,13,15,-1,17,-1,-1,-1,19,21,23,-1,-1,-1,-1,25,27,-1,-1,-1,-1,29,31,-1,-1,-1,-1],"loss_changes":[1.0967212E3,3.0297546E2,1.2247711E2,0E0,3.2464973E1,1.9041443E0,2.1507568E0,4.3713913E0,1.1294836E1,0E0,5.7681274E-1,0E0,0E0,0E0,2.866516E-1,4.5182686E0,7.4104667E-1,0E0,0E0,0E0,0E0,2.86133E-1,2.4915447E0,0E0,0E0,0E0,0E0,1.8936348E-1,1.0628936E0,0E0,0E0,0E0,0E0],"parents":[2147483647,0,0,1,1,2,2,4,4,5,5,6,6,7,7,8,8,10,10,14,14,15,15,16,16,21,21,22,22,27,27,28,28],"right_children":[2,4,6,-1,8,10,12,14,16,-1,18,-1,-1,-1,20,22,24,-1,-1,-1,-1,26,28,-1,-1,-1,-1,30,32,-1,-1,-1,-1],"split_conditions":[1.934E1,1.485E1,2.19E1,-4.2523044E-1,1.716E1,2.0108E1,-1.9806144E-1,-6.401484E-2,-3.6363636E1,1.4838083E-1,2.273659E1,3.8329068E-1,5.4075974E-1,-8.048384E-2,-3.0565332E1,1.6978188E1,1.7742E1,1.4981082E-1,2.4373823E-1,-2.067661E-1,-1.2836076E-1,-7.817785E1,1.827E1,1.5515523E-2,5.8432937E-2,-1.4483004E-2,1.8147796E-2,4.3610413E1,2.7626993E1,-1.0716213E-1,-6.798752E-2,-5.1745195E-3,-6.7018524E-2],"split_indices":[15,15,15,0,15,15,6,6,12,0,9,0,0,0,12,8,17,0,0,0,0,12,15,0,0,0,0,9,8,0,0,0,0],"split_type":[0,0,0,0,0,0,0,0,0,0,0,0,0,0,0,0,0,0,0,0,0,0,0,0,0,0,0,0,0,0,0,0,0],"sum_hessian":[2.93E2,1.94E2,9.9E1,5.7E1,1.37E2,5.1E1,4.8E1,4.1E1,9.6E1,1.7E1,3.4E1,1.6E1,3.2E1,1E1,3.1E1,6.8E1,2.8E1,8E0,2.6E1,2.3E1,8E0,1.6E1,5.2E1,1.4E1,1.4E1,8E0,8E0,3.4E1,1.8E1,2.3E1,1.1E1,1E1,8E0],"tree_param":{"num_deleted":"0","num_feature":"18","num_nodes":"33","size_leaf_vector":"1"}},{"base_weights":[2.4794245E-3,-1.1539885E0,2.4138117E0,-2.610897E0,-3.2387352E-1,1.1815956E0,3.2660816E0,-3.778906E-1,-1.9851284E-1,-5.983854E-1,9.155348E-2,8.4947586E-1,1.9031487E-1,3.456013E-1,5.221125E-1,-1.3665374E-1,-4.5863858E-1,-1.8896012E-1,2.786255E-1,8.195539E-2,1.3801919E-1,-6.19063E-1,-1.9220765E-1,-4.2950563E-2,-9.750245E-3,3.4838012E-1,8.97803E-3,-4.5646142E-2,-7.045836E-1,1.1739385E-2,-4.389842E-2,1.9312384E-2,6.024128E-2,-1.0695247E-1,-5.3570505E-2],"categories":[],"categories_nodes":[],"categories_segments":[],"categories_sizes":[],"default_left":[0,0,0,0,0,0,0,0,0,0,0,0,0,0,0,0,0,0,0,0,0,0,0,0,0,0,0,0,0,0,0,0,0,0,0],"id":3,"left_children":[1,3,5,7,9,11,13,-1,-1,15,17,19,-1,-1,-1,-1,21,23,25,-1,-1,27,29,-1,-1,31,-1,-1,33,-1,-1,-1,-1,-1,-1],"loss_changes":[8.0869916E2,2.3619708E2,9.485785E1,1.9237213E1,1.442378E1,2.5980988E0,1.4393494E1,0E0,0E0,4.380062E0,2.7289374E0,3.1015682E-1,0E0,0E0,0E0,0E0,2.4455338E0,3.162412E-1,4.282372E-1,0E0,0E0,5.936756E-1,1.0301108E0,0E0,0E0,4.676702E-1,0E0,0E0,6.1607075E-1,0E0,0E0,0E0,0E0,0E0,0E0],"parents":[2147483647,0,0,1,1,2,2,3,3,4,4,5,5,6,6,9,9,10,10,11,11,16,16,17,17,18,18,21,21,22,22,25,25,28,28],"right_children":[2,4,6,8,10,12,14,-1,-1,16,18,20,-1,-1,-1,-1,22,24,26,-1,-1,28,30,-1,-1,32,-1,-1,34,-1,-1,-1,-1,-1,-1],"split_conditions":[1.934E1,1.4986605E1,2.16E1,1.3727583E-1,1.812E1,2.025E1,2.374E1,-3.778906E-1,-1.9851284E-1,1.6369726E1,5.0058567E1,6.3835705E1,1.9031487E-1,3.456013E-1,5.221125E-1,-1.3665374E-1,4.715027E1,1.9410845E1,1.89E1,8.195539E-2,1.3801919E-1,1.7941746E1,-3.0670285E-2,-4.2950563E-2,-9.750245E-3,1.84489E1,8.97803E-3,-4.5646142E-2,4.428471E1,1.1739385E-2,-4.389842E-2,1.9312384E-2,6.024128E-2,-1.0695247E-1,-5.3570505E-2],"split_indices":[14,0,14,7,14,14,14,0,0,0,2,2,0,0,0,0,2,3,14,0,0,8,7,0,0,14,0,0,10,0,0,0,0,0,0],"split_type":[0,0,0,0,0,0,0,0,0,0,0,0,0,0,0,0,0,0,0,0,0,0,0,0,0,0,0,0,0,0,0,0,0,0,0],"sum_hessian":[2.88E2,1.95E2,9.3E1,7E1,1.25E2,3.9E1,5.4E1,5.3E1,1.7E1,7.5E1,5E1,2E1,1.9E1,3.3E1,2.1E1,1.6E1,5.9E1,2E1,3E1,1.2E1,8E0,3.6E1,2.3E1,8E0,1.2E1,2.2E1,8E0,1E1,2.6E1,8E0,1.5E1,9E0,1.3E1,1.7E1,9E0],"tree_param":{"num_deleted":"0","num_feature":"18","num_nodes":"35","size_leaf_vector":"1"}},{"base_weights":[2.0180717E-2,-1.0198613E0,2.12066E0,-2.1935692E0,-2.7587104E-1,1.0801442E0,2.9049153E0,-3.3783633E-1,-1.981262E-1,-6.218756E-1,1.03016965E-1,8.0275275E-2,1.6136624E-1,3.1152546E-1,4.5719606E-1,-8.479135E-1,-4.2179412E-1,-6.81666E-2,2.503293E-1,-1.344291E-1,-8.828151E-2,-2.2426923E-1,-7.482983E-2,-2.156422E-2,6.3793706E-3,3.3922668E-3,3.2099396E-1,-5.070833E-2,-1.6788488E-3,3.8526422E-1,2.1205254E-2,3.0720519E-2,6.341509E-2],"categories":[],"categories_nodes":[],"categories_segments":[],"categories_sizes":[],"default_left":[0,0,0,0,0,0,0,0,0,0,0,0,0,0,0,0,0,0,0,0,0,0,0,0,0,0,0,0,0,0,0,0,0],"id":4,"left_children":[1,3,5,7,9,11,13,-1,-1,15,17,-1,-1,-1,-1,19,21,23,25,-1,-1,27,-1,-1,-1,-1,29,-1,-1,31,-1,-1,-1],"loss_changes":[6.662772E2,1.7753322E2,7.928131E1,1.7863586E1,1.658228E1,2.6859055E0,9.3078E0,0E0,0E0,2.6272717E0,1.5553284E0,0E0,0E0,0E0,0E0,2.4027061E-1,1.0153689E0,3.439366E-1,5.1418066E-1,0E0,0E0,6.3284695E-1,0E0,0E0,0E0,0E0,1.8921018E-1,0E0,0E0,1.4728332E-1,0E0,0E0,0E0],"parents":[2147483647,0,0,1,1,2,2,3,3,4,4,5,5,6,6,9,9,10,10,15,15,16,16,17,17,18,18,21,21,26,26,29,29],"right_children":[2,4,6,8,10,12,14,-1,-1,16,18,-1,-1,-1,-1,20,22,24,26,-1,-1,28,-1,-1,-1,-1,30,-1,-1,32,-1,-1,-1],"split_conditions":[1.9312E1,1.6098063E1,2.1715E1,1.445E1,1.80117E1,1.9894E1,2.374E1,-3.3783633E-1,-1.981262E-1,1.7245E1,5.2739567E1,8.0275275E-2,1.6136624E-1,3.1152546E-1,4.5719606E-1,1.67E1,1.693456E1,1.8442451E1,-4.767442E1,-1.344291E-1,-8.828151E-2,1.7568157E1,-7.482983E-2,-2.156422E-2,6.3793706E-3,3.3922668E-3,1.84489E1,-5.070833E-2,-1.6788488E-3,5.9352226E1,2.1205254E-2,3.0720519E-2,6.341509E-2],"split_indices":[13,1,13,13,13,13,13,0,0,13,2,0,0,0,0,13,4,1,12,0,0,1,0,0,0,0,16,0,0,2,0,0,0],"split_type":[0,0,0,0,0,0,0,0,0,0,0,0,0,0,0,0,0,0,0,0,0,0,0,0,0,0,0,0,0,0,0,0,0],"sum_hessian":[3.03E2,2.03E2,1E2,7.8E1,1.25E2,4.4E1,5.6E1,4.6E1,3.2E1,6.5E1,6E1,1.3E1,3.1E1,3.4E1,2.2E1,2.9E1,3.6E1,2.8E1,3.2E1,1.1E1,1.8E1,1.7E1,1.9E1,1.5E1,1.3E1,8E0,2.4E1,9E0,8E0,1.6E1,8E0,8E0,8E0],"tree_param":{"num_deleted":"0","num_feature":"18","num_nodes":"33","size_leaf_vector":"1"}},{"base_weights":[-3.2305636E-2,-8.604688E-1,1.8710512E0,-2.116837E0,-3.523701E-1,1.2251621E0,3.6098877E-1,-3.085557E-1,-2.1387352E-1,-7.411171E-1,2.7475124E-3,9.139938E-1,2.1714553E-1,-1.2934165E-1,-6.728548E-2,-1.3583176E-1,2.0238388E-1,7.421559E-2,1.3015433E-1,-2.5650117E-1,3.727513E-2,3.6602888E-1,-3.7903711E-3,-5.359433E-2,-7.47962E-3,-7.4867965E-3,1.4677124E-2,5.7619765E-2,2.8392036E-2],"categories":[],"categories_nodes":[],"categories_segments":[],"categories_sizes":[],"default_left":[0,0,0,0,0,0,0,0,0,0,0,0,0,0,0,0,0,0,0,0,0,0,0,0,0,0,0,0,0],"id":5,"left_children":[1,3,5,7,9,11,-1,-1,-1,13,15,17,-1,-1,-1,19,21,-1,-1,23,25,27,-1,-1,-1,-1,-1,-1,-1],"loss_changes":[4.8868362E2,1.3713963E2,5.2412933E1,3.770874E0,2.1399925E1,6.509178E0,0E0,0E0,0E0,3.7110558E0,2.2960582E0,5.518093E-1,0E0,0E0,0E0,1.0331076E0,1.2998079E0,0E0,0E0,8.8531697E-1,1.5880424E-1,1.3495564E-1,0E0,0E0,0E0,0E0,0E0,0E0,0E0],"parents":[2147483647,0,0,1,1,2,2,3,3,4,4,5,5,9,9,10,10,11,11,15,15,16,16,19,19,20,20,21,21],"right_children":[2,4,6,8,10,12,-1,-1,-1,14,16,18,-1,-1,-1,20,22,-1,-1,24,26,28,-1,-1,-1,-1,-1,-1,-1],"split_conditions":[1.941E1,1.5825E1,2.2848E1,4.58235E-2,1.77E1,2.105E1,3.6098877E-1,-3.085557E-1,-2.1387352E-1,1.6344086E1,1.855E1,1.9894E1,2.1714553E-1,-1.2934165E-1,-6.728548E-2,-4.6875E1,1.89E1,7.421559E-2,1.3015433E-1,1.7299541E1,1.8291744E1,1.9316212E1,-3.7903711E-3,-5.359433E-2,-7.47962E-3,-7.4867965E-3,1.4677124E-2,5.7619765E-2,2.8392036E-2],"split_indices":[13,13,13,6,13,13,0,0,0,0,13,13,0,0,0,12,14,0,0,4,0,3,0,0,0,0,0,0,0],"split_type":[0,0,0,0,0,0,0,0,0,0,0,0,0,0,0,0,0,0,0,0,0,0,0,0,0,0,0,0,0],"sum_hessian":[3.08E2,2.15E2,9.3E1,6.1E1,1.54E2,5.6E1,3.7E1,3.6E1,2.5E1,7.3E1,8.1E1,3.5E1,2.1E1,3.2E1,4.1E1,4.8E1,3.3E1,9E0,2.6E1,2.8E1,2E1,1.9E1,1.4E1,1.5E1,1.3E1,9E0,1.1E1,1.1E1,8E0],"tree_param":{"num_deleted":"0","num_feature":"18","num_nodes":"29","size_leaf_vector":"1"}},{"base_weights":[-2.8538281E-2,-7.4423677E-1,1.5802329E0,-1.7153039E0,-1.7999494E-1,1.0588547E0,3.3106306E-1,-2.636749E-1,-1.6062383E-1,-3.8050827E-1,6.793398E-2,7.745682E-1,1.9561793E-1,-7.995866E-2,-2.920108E-1,-6.345744E-2,2.5735474E-1,8.6705196E-1,6.4880386E-2,-5.3495264E-1,-1.5993778E-1,-1.7504609E-1,1.3054331E-2,1.6288388E-1,5.0736237E-2,6.287475E-2,1.336573E-1,-7.999549E-2,-4.7116436E-2,-3.865806E-2,-7.019379E-2,-3.6846858E-2,3.545019E-3,2.98942E-2,9.904906E-3,7.7537647E-3,-3.1209758E-2],"categories":[],"categories_nodes":[],"categories_segments":[],"categories_sizes":[],"default_left":[0,0,0,0,0,0,0,0,0,0,0,0,0,0,0,0,0,0,0,0,0,0,0,0,0,0,0,0,0,0,0,0,0,0,0,0,0],"id":6,"left_children":[1,3,5,7,9,11,-1,-1,-1,13,15,17,-1,-1,19,21,23,25,-1,27,29,31,-1,33,-1,-1,-1,-1,-1,-1,35,-1,-1,-1,-1,-1,-1],"loss_changes":[3.627141E2,1.1913707E2,4.6805298E1,9.708511E0,6.935964E0,7.206558E0,0E0,0E0,0E0,1.4386969E0,1.5842916E0,6.255646E-1,0E0,0E0,1.7754331E0,7.1467483E-1,2.6737487E-1,1.397358E0,0E0,5.970335E-2,4.6521264E-1,5.1908046E-1,0E0,8.239856E-2,0E0,0E0,0E0,0E0,0E0,0E0,5.7103276E-1,0E0,0E0,0E0,0E0,0E0,0E0],"parents":[2147483647,0,0,1,1,2,2,3,3,4,4,5,5,9,9,10,10,11,11,14,14,15,15,16,16,17,17,19,19,20,20,21,21,23,23,30,30],"right_children":[2,4,6,8,10,12,-1,-1,-1,14,16,18,-1,-1,20,22,24,26,-1,28,30,32,-1,34,-1,-1,-1,-1,-1,-1,36,-1,-1,-1,-1,-1,-1],"split_conditions":[1.934E1,1.6098063E1,2.4555393E1,1.433E1,1.81091E1,2.1398E1,3.3106306E-1,-2.636749E-1,-1.6062383E-1,1.6763105E1,5.7477352E1,1.9426655E1,1.9561793E-1,-7.995866E-2,-8.588858E1,1.8527496E1,1.1829613E2,1.9470037E1,6.4880386E-2,-1.19695694E2,1.8365385E1,6.512155E1,1.3054331E-2,1.8698E1,5.0736237E-2,6.287475E-2,1.336573E-1,-7.999549E-2,-4.7116436E-2,-3.865806E-2,1.6938702E1,-3.6846858E-2,3.545019E-3,2.98942E-2,9.904906E-3,7.7537647E-3,-3.1209758E-2],"split_indices":[14,1,3,14,14,14,0,0,0,1,11,4,0,0,11,1,11,1,0,11,3,10,0,14,0,0,0,0,0,0,4,0,0,0,0,0,0],"split_type":[0,0,0,0,0,0,0,0,0,0,0,0,0,0,0,0,0,0,0,0,0,0,0,0,0,0,0,0,0,0,0,0,0,0,0,0,0],"sum_hessian":[3.13E2,2.17E2,9.6E1,7.9E1,1.38E2,6.4E1,3.2E1,4.5E1,3.4E1,7.6E1,6.2E1,4.1E1,2.3E1,1.9E1,5.7E1,3.7E1,2.5E1,2.9E1,1.2E1,1.9E1,3.8E1,2.2E1,1.5E1,1.6E1,9E0,1E1,1.9E1,1.1E1,8E0,1.4E1,2.4E1,1.4E1,8E0,8E0,8E0,1.4E1,1E1],"tree_param":{"num_deleted":"0","num_feature":"18","num_nodes":"37","size_leaf_vector":"1"}},{"base_weights":[4.0230155E-3,-6.8899965E-1,1.4041706E0,-1.6462246E0,-2.6088572E-1,7.028909E-1,1.9175788E0,-2.3729222E-1,-1.5901223E-1,-5.0393486E-1,7.309422E-2,5.9721824E-2,1.0550595E-1,1.5533227E0,3.228191E-1,-1.0053369E-1,-3.8688967E-1,-4.1800007E-2,1.7821804E-1,1.3305235E-1,2.1507022E-1,-2.3827065E-2,-4.2527995E-1,1.7031379E-2,-1.1415046E-1,3.0460432E-1,3.8697565E-4,-3.4281012E-1,-7.552612E-2,2.8290683E-3,-2.5811553E-2,5.6843124E-2,1.9765869E-2,-5.3990755E-2,-1.926766E-2],"categories":[],"categories_nodes":[],"categories_segments":[],"categories_sizes":[],"default_left":[0,0,0,0,0,0,0,0,0,0,0,0,0,0,0,0,0,0,0,0,0,0,0,0,0,0,0,0,0,0,0,0,0,0,0],"id":7,"left_children":[1,3,5,7,9,11,13,-1,-1,15,17,-1,-1,19,-1,-1,21,23,25,-1,-1,-1,27,-1,29,31,-1,33,-1,-1,-1,-1,-1,-1,-1],"loss_changes":[2.8721603E2,8.071119E1,3.393634E1,2.5314026E0,1.1238783E1,7.926655E-1,7.9137115E0,0E0,0E0,2.2578983E0,7.200586E-1,0E0,0E0,4.1187286E-1,0E0,0E0,3.729887E-1,3.7898123E-1,6.8562186E-1,0E0,0E0,0E0,4.2759228E-1,0E0,2.4826753E-1,3.0125785E-1,0E0,4.2933297E-1,0E0,0E0,0E0,0E0,0E0,0E0,0E0],"parents":[2147483647,0,0,1,1,2,2,3,3,4,4,5,5,6,6,9,9,10,10,13,13,16,16,17,17,18,18,22,22,24,24,25,25,27,27],"right_children":[2,4,6,8,10,12,14,-1,-1,16,18,-1,-1,20,-1,-1,22,24,26,-1,-1,-1,28,-1,30,32,-1,34,-1,-1,-1,-1,-1,-1,-1],"split_conditions":[1.9312E1,1.5825E1,2.16E1,4.58235E-2,1.80117E1,2.0108E1,2.3799E1,-2.3729222E-1,-1.5901223E-1,1.67E1,1.855E1,5.9721824E-2,1.0550595E-1,2.1910492E1,3.228191E-1,-1.0053369E-1,1.5796087E1,1.6600523E1,1.89E1,1.3305235E-1,2.1507022E-1,-2.3827065E-2,4.3543335E1,1.7031379E-2,-6.372212E-2,1.8312E1,3.8697565E-4,1.7957129E1,-7.552612E-2,2.8290683E-3,-2.5811553E-2,5.6843124E-2,1.9765869E-2,-5.3990755E-2,-1.926766E-2],"split_indices":[13,13,13,6,13,13,13,0,0,13,14,0,0,8,0,0,4,4,14,0,0,0,8,0,6,17,0,0,0,0,0,0,0,0,0],"split_type":[0,0,0,0,0,0,0,0,0,0,0,0,0,0,0,0,0,0,0,0,0,0,0,0,0,0,0,0,0,0,0,0,0,0,0],"sum_hessian":[2.94E2,1.97E2,9.7E1,6E1,1.37E2,4.2E1,5.5E1,3.9E1,2.1E1,7.9E1,5.8E1,1.5E1,2.7E1,3.6E1,1.9E1,2.2E1,5.7E1,2.8E1,3E1,8E0,2.8E1,1E1,4.7E1,8E0,2E1,1.7E1,1.3E1,3.3E1,1.4E1,8E0,1.2E1,8E0,9E0,2.3E1,1E1],"tree_param":{"num_deleted":"0","num_feature":"18","num_nodes":"35","size_leaf_vector":"1"}},{"base_weights":[-5.560257E-2,-5.9483385E-1,1.2032216E0,-1.4983187E0,-2.4844852E-1,6.893136E-1,1.6191585E0,-2.0121399E-1,-1.3119066E-1,-6.2282366E-1,-4.380144E-2,5.992664E-2,1.0319262E-1,1.4032954E-1,2.3581547E-1,-6.7512023E-1,-3.7038397E-2,-2.33381E-1,1.4291973E-1,-1.01990096E-1,-6.3175365E-2,9.301655E-4,-3.0954024E-1,-7.1615498E-3,2.2707531E-1,-5.9683345E-2,-1.6464679E-1,1.5385026E-1,4.665954E-2,2.8157078E-3,-4.347583E-2,2.7301375E-2,1.0970849E-2],"categories":[],"categories_nodes":[],"categories_segments":[],"categories_sizes":[],"default_left":[0,0,0,0,0,0,0,0,0,0,0,0,0,0,0,0,0,0,0,0,0,0,0,0,0,0,0,0,0,0,0,0,0],"id":8,"left_children":[1,3,5,7,9,11,13,-1,-1,15,17,-1,-1,-1,-1,19,-1,21,23,-1,-1,-1,25,-1,27,-1,29,31,-1,-1,-1,-1,-1],"loss_changes":[2.036761E2,6.534807E1,1.8121689E1,2.8045654E-2,1.1694782E1,6.598072E-1,3.3590546E0,0E0,0E0,7.569618E-1,3.5732064E0,0E0,0E0,0E0,0E0,5.8836555E-1,0E0,9.18314E-1,8.6358726E-1,0E0,0E0,0E0,7.600894E-1,0E0,2.9676604E-1,0E0,6.784732E-1,8.0834866E-2,0E0,0E0,0E0,0E0,0E0],"parents":[2147483647,0,0,1,1,2,2,3,3,4,4,5,5,6,6,9,9,10,10,15,15,17,17,18,18,22,22,24,24,26,26,27,27],"right_children":[2,4,6,8,10,12,14,-1,-1,16,18,-1,-1,-1,-1,20,-1,22,24,-1,-1,-1,26,-1,28,-1,30,32,-1,-1,-1,-1,-1],"split_conditions":[1.93E1,1.4815E1,2.16E1,5.9973217E1,1.7245E1,2.0108E1,4.4293987E1,-2.0121399E-1,-1.3119066E-1,1.2791376E2,5.0058567E1,5.992664E-2,1.0319262E-1,1.4032954E-1,2.3581547E-1,1.66517E1,-3.7038397E-2,1.6978188E1,1.751107E1,-1.01990096E-1,-6.3175365E-2,9.301655E-4,1.7957129E1,-7.1615498E-3,1.0446342E2,-5.9683345E-2,1.8305E1,1.873E1,4.665954E-2,2.8157078E-3,-4.347583E-2,2.7301375E-2,1.0970849E-2],"split_indices":[15,13,13,2,13,13,2,0,0,11,2,0,0,0,0,13,0,8,0,0,0,0,0,0,11,0,16,13,0,0,0,0,0],"split_type":[0,0,0,0,0,0,0,0,0,0,0,0,0,0,0,0,0,0,0,0,0,0,0,0,0,0,0,0,0,0,0,0,0],"sum_hessian":[2.98E2,2.09E2,8.9E1,5.7E1,1.52E2,4.1E1,4.8E1,4.9E1,8E0,5.3E1,9.9E1,1.5E1,2.6E1,1.5E1,3.3E1,4.5E1,8E0,4.9E1,5E1,2.6E1,1.9E1,1.2E1,3.7E1,1.5E1,3.5E1,1.7E1,2E1,2.4E1,1.1E1,1E1,1E1,1.2E1,1.2E1],"tree_param":{"num_deleted":"0","num_feature":"18","num_nodes":"33","size_leaf_vector":"1"}},{"base_weights":[-2.4836801E-2,-5.1089627E-1,1.017691E0,-1.1677986E0,-1.3941431E-1,4.6899107E-1,1.4281712E0,-1.7380552E-1,-1.0151596E-1,-3.1128454E-1,4.7821514E-2,2.932628E-1,5.72611E-1,1.180533E0,2.5328112E-1,-4.4667104E-1,-1.784622E-1,1.9147682E-1,-2.028033E-2,6.629191E-2,2.213317E-3,8.902618E-2,5.2267753E-2,1.1542742E-1,1.7275527E-1,-6.685415E-2,-4.5999743E-2,-2.4691913E-1,-1.9748954E-3,1.4203756E-2,3.496998E-2,9.915352E-2,-1.1979355E-1,-1.0443788E-2,-4.0914577E-2,-1.9256761E-3,3.270926E-2,-5.289854E-3,-3.0276468E-2],"categories":[],"categories_nodes":[],"categories_segments":[],"categories_sizes":[],"default_left":[0,0,0,0,0,0,0,0,0,0,0,0,0,0,0,0,0,0,0,0,0,0,0,0,0,0,0,0,0,0,0,0,0,0,0,0,0,0,0],"id":9,"left_children":[1,3,5,7,9,11,13,-1,-1,15,17,19,21,23,-1,25,27,29,31,-1,-1,-1,-1,-1,-1,-1,-1,33,-1,-1,-1,35,37,-1,-1,-1,-1,-1,-1],"loss_changes":[1.5456601E2,5.0594887E1,2.1177559E1,3.9961853E0,4.327041E0,6.1505985E-1,4.904915E0,0E0,0E0,1.1790509E0,6.397907E-1,1.0808742E0,2.2856712E-1,5.948067E-1,0E0,3.341818E-2,4.0958834E-1,1.0557419E-1,5.46714E-1,0E0,0E0,0E0,0E0,0E0,0E0,0E0,0E0,2.7420974E-1,0E0,0E0,0E0,3.718694E-1,2.1580777E-1,0E0,0E0,0E0,0E0,0E0,0E0],"parents":[2147483647,0,0,1,1,2,2,3,3,4,4,5,5,6,6,9,9,10,10,11,11,12,12,13,13,15,15,16,16,17,17,18,18,27,27,31,31,32,32],"right_children":[2,4,6,8,10,12,14,-1,-1,16,18,20,22,24,-1,26,28,30,32,-1,-1,-1,-1,-1,-1,-1,-1,34,-1,-1,-1,36,38,-1,-1,-1,-1,-1,-1],"split_conditions":[1.9312E1,1.629E1,2.128E1,1.46E1,1.80117E1,2.0360912E1,2.374E1,-1.7380552E-1,-1.0151596E-1,1.7245E1,1.9274744E1,1.8990799E1,2.0519503E1,2.336407E1,2.5328112E-1,-5E1,-4.8275864E1,5.9352226E1,2.3430542E1,6.629191E-2,2.213317E-3,8.902618E-2,5.2267753E-2,1.1542742E-1,1.7275527E-1,-6.685415E-2,-4.5999743E-2,1.7941746E1,-1.9748954E-3,1.4203756E-2,3.496998E-2,1.8578915E1,1.875E1,-1.0443788E-2,-4.0914577E-2,-1.9256761E-3,3.270926E-2,-5.289854E-3,-3.0276468E-2],"split_indices":[13,13,13,13,13,1,13,0,0,13,3,8,1,8,0,12,12,2,8,0,0,0,0,0,0,0,0,8,0,0,0,8,16,0,0,0,0,0,0],"split_type":[0,0,0,0,0,0,0,0,0,0,0,0,0,0,0,0,0,0,0,0,0,0,0,0,0,0,0,0,0,0,0,0,0,0,0,0,0,0,0],"sum_hessian":[3.03E2,2.07E2,9.6E1,7.4E1,1.33E2,4.2E1,5.4E1,4.9E1,2.5E1,6.9E1,6.4E1,1.7E1,2.5E1,3.9E1,1.5E1,3.3E1,3.6E1,2E1,4.4E1,9E0,8E0,1.3E1,1.2E1,1.6E1,2.3E1,1.6E1,1.7E1,2.5E1,1.1E1,1.1E1,9E0,2E1,2.4E1,8E0,1.7E1,1.2E1,8E0,1.5E1,9E0],"tree_param":{"num_deleted":"0","num_feature":"18","num_nodes":"39","size_leaf_vector":"1"}},{"base_weights":[1.1220171E-2,-4.4870472E-1,9.2649573E-1,-1.0915331E0,-1.876464E-1,4.3588853E-1,1.3304716E0,-1.6407876E-1,-1.15236886E-1,-4.8233572E-1,-5.2907627E-2,2.990178E-1,5.603002E-1,1.1693991E-1,1.5422826E0,-5.2757776E-1,-3.450026E-2,-1.8963611E-1,6.2791415E-2,1.2089109E-2,5.8709238E-2,8.5310526E-2,4.955802E-2,1.521204E-1,2.261065E-1,-4.9257852E-2,-7.6478384E-2,-2.4627148E-1,-6.777757E-3,-6.189501E-3,1.8726654E-1,-1.1085187E-2,-3.123616E-1,3.139601E-2,-1.6377931E-2,3.0278986E-2,1.5141467E-2,-4.6547487E-2,-2.776744E-2,-3.850419E-2,2.4708163E-2,6.267539E-3,-1.3939303E-2],"categories":[],"categories_nodes":[],"categories_segments":[],"categories_sizes":[],"default_left":[0,0,0,0,0,0,0,0,0,0,0,0,0,0,0,0,0,0,0,0,0,0,0,0,0,0,0,0,0,0,0,0,0,0,0,0,0,0,0,0,0,0,0],"id":10,"left_children":[1,3,5,7,9,11,13,-1,-1,15,17,19,21,-1,23,25,-1,27,29,-1,-1,-1,-1,-1,-1,-1,-1,31,-1,33,35,-1,37,39,-1,-1,-1,-1,-1,41,-1,-1,-1],"loss_changes":[1.2964983E2,3.4197395E1,1.9833992E1,9.6447754E-1,5.811275E0,6.498194E-1,3.664177E0,0E0,0E0,3.080454E-1,1.6254816E0,7.53304E-1,1.6918182E-1,0E0,6.5636444E-1,1.20521545E-1,0E0,3.524109E-1,4.819979E-1,0E0,0E0,0E0,0E0,0E0,0E0,0E0,0E0,3.2344604E-1,0E0,1.7144041E-1,3.8331926E-2,0E0,2.944684E-2,3.3090508E-1,0E0,0E0,0E0,0E0,0E0,1.3168477E-1,0E0,0E0,0E0],"parents":[2147483647,0,0,1,1,2,2,3,3,4,4,5,5,6,6,9,9,10,10,11,11,12,12,14,14,15,15,17,17,18,18,27,27,29,29,30,30,32,32,33,33,39,39],"right_children":[2,4,6,8,10,12,14,-1,-1,16,18,20,22,-1,24,26,-1,28,30,-1,-1,-1,-1,-1,-1,-1,-1,32,-1,34,36,-1,38,40,-1,-1,-1,-1,-1,42,-1,-1,-1],"split_conditions":[1.90471E1,1.5825E1,2.16E1,-3.0532327E-2,1.714E1,2.0108E1,-3.849082E1,-1.6407876E-1,-1.15236886E-1,-2.4565218E1,1.805E1,-5.299145E1,6.853131E1,1.1693991E-1,2.309E1,4.388564E-2,-3.450026E-2,-4.8275864E1,6.539889E1,1.2089109E-2,5.8709238E-2,8.5310526E-2,4.955802E-2,1.521204E-1,2.261065E-1,-4.9257852E-2,-7.6478384E-2,1.7354E1,-6.777757E-3,2.5153193E-1,1.873E1,-1.1085187E-2,1.7745E1,7.930735E-2,-1.6377931E-2,3.0278986E-2,1.5141467E-2,-4.6547487E-2,-2.776744E-2,-1.2575404E-1,2.4708163E-2,6.267539E-3,-1.3939303E-2],"split_indices":[13,13,13,6,13,13,11,0,0,12,13,12,9,0,17,6,0,12,11,0,0,0,0,0,0,0,0,13,0,6,13,0,13,6,0,0,0,0,0,6,0,0,0],"split_type":[0,0,0,0,0,0,0,0,0,0,0,0,0,0,0,0,0,0,0,0,0,0,0,0,0,0,0,0,0,0,0,0,0,0,0,0,0,0,0,0,0,0,0],"sum_hessian":[3.06E2,2.04E2,1.02E2,5.8E1,1.46E2,4.7E1,5.5E1,2.8E1,3E1,4.5E1,1.01E2,2.4E1,2.3E1,2E1,3.5E1,3.6E1,9E0,4.6E1,5.5E1,1.1E1,1.3E1,1.3E1,1E1,1.5E1,2E1,1.3E1,2.3E1,3.2E1,1.4E1,3.6E1,1.9E1,1E1,2.2E1,2.8E1,8E0,1E1,9E0,1.3E1,9E0,2E1,8E0,9E0,1.1E1],"tree_param":{"num_deleted":"0","num_feature":"18","num_nodes":"43","size_leaf_vector":"1"}},{"base_weights":[1.271242E-2,-4.0824828E-1,8.227433E-1,-8.886163E-1,-1.3949741E-1,3.5252663E-1,1.1380892E0,-1.4554113E-1,-6.8726933E-1,-3.1453487E-1,-6.3838204E-3,4.1631848E-1,1.9108795E-2,9.125037E-1,1.5170211E0,-1.0072323E-1,-6.3399576E-2,-3.8617274E-1,-2.2654663E-1,-1.0103989E-1,8.133264E-2,4.5958978E-1,3.232143E-2,9.166303E-2,1.2929651E-1,2.2958618E-1,1.420159E-1,-6.831205E-2,-3.8833335E-2,-6.4784917E-3,-3.0749902E-1,4.068549E-5,-1.3362932E-1,-5.2912172E-2,3.2125622E-2,4.678005E-2,7.377942E-2,-5.289105E-2,-1.9329159E-2,-2.8583962E-2,-8.764448E-2,-1.646263E-2,1.820342E-3,-3.7349109E-3,-2.0214336E-2],"categories":[],"categories_nodes":[],"categories_segments":[],"categories_sizes":[],"default_left":[0,0,0,0,0,0,0,0,0,0,0,0,0,0,0,0,0,0,0,0,0,0,0,0,0,0,0,0,0,0,0,0,0,0,0,0,0,0,0,0,0,0,0,0,0],"id":11,"left_children":[1,3,5,7,9,11,13,-1,15,17,19,21,-1,23,25,-1,-1,27,29,31,33,35,-1,-1,-1,-1,-1,-1,-1,-1,37,-1,39,41,-1,-1,-1,-1,-1,-1,43,-1,-1,-1,-1],"loss_changes":[1.05702156E2,2.6212307E1,1.5316566E1,2.702877E0,3.0735738E0,5.1335573E-1,4.001053E0,0E0,3.7503052E-1,2.7180195E-1,6.392378E-1,1.2285614E-1,0E0,3.7029266E-2,4.2886353E-1,0E0,0E0,2.0748186E-1,3.8458538E-1,1.222561E-1,9.0998495E-1,6.498814E-2,0E0,0E0,0E0,0E0,0E0,0E0,0E0,0E0,2.4338388E-1,0E0,9.309113E-2,1.1634264E-1,0E0,0E0,0E0,0E0,0E0,0E0,7.615049E-2,0E0,0E0,0E0,0E0],"parents":[2147483647,0,0,1,1,2,2,3,3,4,4,5,5,6,6,8,8,9,9,10,10,11,11,13,13,14,14,17,17,18,18,19,19,20,20,21,21,30,30,32,32,33,33,40,40],"right_children":[2,4,6,8,10,12,14,-1,16,18,20,22,-1,24,26,-1,-1,28,30,32,34,36,-1,-1,-1,-1,-1,-1,-1,-1,38,-1,40,42,-1,-1,-1,-1,-1,-1,44,-1,-1,-1,-1],"split_conditions":[1.93E1,1.6928087E1,2.128E1,4.9274242E1,1.77E1,2.8561245E1,2.3799E1,-1.4554113E-1,1.5825E1,1.714E1,1.8217644E1,2.2330519E1,1.9108795E-2,2.336407E1,2.439E1,-1.0072323E-1,-6.3399576E-2,3.4583168E1,1.733E1,-1.3848902E-1,5.0374207E1,2.1214273E1,3.232143E-2,9.166303E-2,1.2929651E-1,2.2958618E-1,1.420159E-1,-6.831205E-2,-3.8833335E-2,-6.4784917E-3,-1.16227455E-1,4.068549E-5,5.2050335E1,4.5321236E1,3.2125622E-2,4.678005E-2,7.377942E-2,-5.289105E-2,-1.9329159E-2,-2.8583962E-2,8.347621E1,-1.646263E-2,1.820342E-3,-3.7349109E-3,-2.0214336E-2],"split_indices":[13,3,13,2,13,8,13,0,13,13,1,3,0,8,17,0,0,10,13,7,2,3,0,0,0,0,0,0,0,0,7,0,2,2,0,0,0,0,0,0,10,0,0,0,0],"split_type":[0,0,0,0,0,0,0,0,0,0,0,0,0,0,0,0,0,0,0,0,0,0,0,0,0,0,0,0,0,0,0,0,0,0,0,0,0,0,0,0,0,0,0,0,0],"sum_hessian":[3.08E2,2.03E2,1.05E2,7.2E1,1.31E2,4.3E1,6.2E1,3.1E1,4.1E1,5.6E1,7.5E1,3.2E1,1.1E1,4.1E1,2.1E1,2.6E1,1.5E1,2.9E1,2.7E1,3.6E1,3.9E1,2.4E1,8E0,1.5E1,2.6E1,1.1E1,1E1,9E0,2E1,9E0,1.8E1,9E0,2.7E1,2.2E1,1.7E1,1.5E1,9E0,1E1,8E0,8E0,1.9E1,1E1,1.2E1,1.1E1,8E0],"tree_param":{"num_deleted":"0","num_feature":"18","num_nodes":"45","size_leaf_vector":"1"}},{"base_weights":[-1.6466655E-3,-3.153668E-1,7.8078365E-1,-8.7897867E-1,-1.254746E-1,5.0374293E-1,1.1463325E0,-1.3027422E-1,-8.89391E-2,-3.447307E-1,-2.1845827E-2,2.5378654E-2,5.876081E-1,1.1856218E-1,1.8001305E-1,-3.9217106E-1,-1.1000366E-2,-1.1839668E-1,1.4953506E-1,5.2762605E-2,1.0162598E-1,-3.0234896E-2,-6.2179394E-2,-6.4255685E-2,-4.788936E-2,6.5190636E-2,4.0515702E-2,5.223303E-2,-1.223459E-1,1.6451387E-2,1.8918815E-3,-4.7053755E-3,2.1288702E-2,-2.0901006E-1,-5.2970387E-2,-1.3127644E-2,-3.7941955E-2,3.0454998E-3,-1.7926289E-2],"categories":[],"categories_nodes":[],"categories_segments":[],"categories_sizes":[],"default_left":[0,0,0,0,0,0,0,0,0,0,0,0,0,0,0,0,0,0,0,0,0,0,0,0,0,0,0,0,0,0,0,0,0,0,0,0,0,0,0],"id":12,"left_children":[1,3,5,7,9,11,13,-1,-1,15,17,-1,19,-1,-1,21,-1,23,25,-1,-1,-1,-1,27,-1,29,-1,31,33,-1,-1,-1,-1,35,37,-1,-1,-1,-1],"loss_changes":[7.118537E1,2.2043985E1,7.8281136E0,5.8286667E-1,3.5369825E0,1.1485662E0,6.9705963E-1,0E0,0E0,5.826435E-1,1.7882302E0,0E0,1.0319176E0,0E0,0E0,4.7663498E-1,0E0,9.1692466E-1,5.17977E-1,0E0,0E0,0E0,0E0,3.9886805E-1,0E0,8.276976E-2,0E0,2.0507249E-1,2.234112E-1,0E0,0E0,0E0,0E0,1.2433368E-1,1.5392056E-1,0E0,0E0,0E0,0E0],"parents":[2147483647,0,0,1,1,2,2,3,3,4,4,5,5,6,6,9,9,10,10,12,12,15,15,17,17,18,18,23,23,25,25,27,27,28,28,33,33,34,34],"right_children":[2,4,6,8,10,12,14,-1,-1,16,18,-1,20,-1,-1,22,-1,24,26,-1,-1,-1,-1,28,-1,30,-1,32,34,-1,-1,-1,-1,36,38,-1,-1,-1,-1],"split_conditions":[1.9723E1,1.5024368E1,2.4010174E1,-9.782604E-4,1.7256E1,-1.1950662E2,5.585134E1,-1.3027422E-1,-8.89391E-2,1.3273218E2,-3.4698795E1,2.5378654E-2,2.1557148E1,1.1856218E-1,1.8001305E-1,6.7617856E-2,-1.1000366E-2,3.901346E1,1.8854E1,5.2762605E-2,1.0162598E-1,-3.0234896E-2,-6.2179394E-2,1.7370321E1,-4.788936E-2,7.362205E1,4.0515702E-2,-4.4158714E1,4.5321236E1,1.6451387E-2,1.8918815E-3,-4.7053755E-3,2.1288702E-2,1.779E1,2.3802117E-1,-1.3127644E-2,-3.7941955E-2,3.0454998E-3,-1.7926289E-2],"split_indices":[17,3,3,6,14,11,2,0,0,11,12,0,3,0,0,6,0,8,14,0,0,0,0,8,0,9,0,11,2,0,0,0,0,14,6,0,0,0,0],"split_type":[0,0,0,0,0,0,0,0,0,0,0,0,0,0,0,0,0,0,0,0,0,0,0,0,0,0,0,0,0,0,0,0,0,0,0,0,0,0,0],"sum_hessian":[2.88E2,2.06E2,8.2E1,5.1E1,1.55E2,4.8E1,3.4E1,2.8E1,2.3E1,4.9E1,1.06E2,1.1E1,3.7E1,2E1,1.4E1,4.1E1,8E0,6.8E1,3.8E1,2.1E1,1.6E1,1.6E1,2.5E1,5.7E1,1.1E1,2.6E1,1.2E1,1.9E1,3.8E1,1.1E1,1.5E1,1.1E1,8E0,1.6E1,2.2E1,8E0,8E0,1.2E1,1E1],"tree_param":{"num_deleted":"0","num_feature":"18","num_nodes":"39","size_leaf_vector":"1"}},{"base_weights":[1.360288E-2,-2.9112282E-1,6.650525E-1,-7.1831536E-1,-9.985809E-2,4.6130702E-1,1.0843326E0,-8.317625E-1,-6.68959E-2,-2.1928538E-1,3.7367735E-2,2.7627915E-1,6.3235587E-1,1.1927994E0,9.0382785E-2,-1.16422445E-1,-7.12322E-2,-2.6647735E-1,3.3997828E-3,-3.4684345E-2,8.4128216E-2,-9.000126E-3,3.8973588E-1,5.776755E-2,9.278113E-2,1.0961283E-1,1.7679968E-1,-5.131978E-2,-1.96668E-1,3.7168305E-2,3.640047E-2,5.985315E-2,3.296146E-2,-1.627704E-1,-3.966593E-2,3.4054348E-3,1.5383173E-2,-2.6548274E-2,-1.0573735E-1,4.40431E-2,-1.3271094E-2,-7.6622836E-4,-2.5069674E-2,-4.9204607E-3,1.3811634E-2],"categories":[],"categories_nodes":[],"categories_segments":[],"categories_sizes":[],"default_left":[0,0,0,0,0,0,0,0,0,0,0,0,0,0,0,0,0,0,0,0,0,0,0,0,0,0,0,0,0,0,0,0,0,0,0,0,0,0,0,0,0,0,0,0,0],"id":13,"left_children":[1,3,5,7,9,11,13,15,-1,17,19,21,23,25,-1,-1,-1,27,-1,-1,29,-1,31,-1,-1,-1,-1,-1,33,35,-1,-1,-1,37,-1,39,-1,-1,41,43,-1,-1,-1,-1,-1],"loss_changes":[5.855656E1,1.6351353E1,7.529873E0,9.84848E-1,2.3025854E0,1.8824654E0,4.2139435E-1,2.3340607E-1,0E0,8.761649E-1,9.6538055E-1,1.3220229E0,2.0016003E-1,1.6386795E-1,0E0,0E0,0E0,4.9482965E-1,0E0,0E0,5.268347E-1,0E0,1.2821245E-1,0E0,0E0,0E0,0E0,0E0,1.10383034E-1,1.3208422E-1,0E0,0E0,0E0,6.3061416E-2,0E0,1.552821E-1,0E0,0E0,1.4828467E-1,1.3793096E-1,0E0,0E0,0E0,0E0,0E0],"parents":[2147483647,0,0,1,1,2,2,3,3,4,4,5,5,6,6,7,7,9,9,10,10,11,11,12,12,13,13,17,17,20,20,22,22,28,28,29,29,33,33,35,35,38,38,39,39],"right_children":[2,4,6,8,10,12,14,16,-1,18,20,22,24,26,-1,-1,-1,28,-1,-1,30,-1,32,-1,-1,-1,-1,-1,34,36,-1,-1,-1,38,-1,40,-1,-1,42,44,-1,-1,-1,-1,-1],"split_conditions":[1.9421095E1,3.55561E-1,3.8844585E-1,2.6384774E-1,1.7988737E1,2.2649832E1,8.181377E1,4.7818897E1,-6.68959E-2,1.3491724E2,-1.0584405E2,-1.1950662E2,-1.234745E2,-9.325052E0,9.0382785E-2,-1.16422445E-1,-7.12322E-2,1.6306091E1,3.3997828E-3,-3.4684345E-2,1.0446342E2,-9.000126E-3,-2.3098895E-1,5.776755E-2,9.278113E-2,1.0961283E-1,1.7679968E-1,-5.131978E-2,1.7868797E1,1.8249239E-1,3.640047E-2,5.985315E-2,3.296146E-2,1.745E1,-3.966593E-2,1.845E1,1.5383173E-2,-2.6548274E-2,1.6914032E1,1.0411428E0,-1.3271094E-2,-7.6622836E-4,-2.5069674E-2,-4.9204607E-3,1.3811634E-2],"split_indices":[1,5,7,5,0,0,10,11,0,11,11,11,11,11,0,0,0,0,0,0,11,0,7,0,0,0,0,0,0,7,0,0,0,16,0,16,0,0,4,5,0,0,0,0,0],"split_type":[0,0,0,0,0,0,0,0,0,0,0,0,0,0,0,0,0,0,0,0,0,0,0,0,0,0,0,0,0,0,0,0,0,0,0,0,0,0,0,0,0,0,0,0,0],"sum_hessian":[2.93E2,2E2,9.3E1,6.1E1,1.39E2,6.4E1,2.9E1,3.7E1,2.4E1,7.4E1,6.5E1,3.2E1,3.2E1,2.1E1,8E0,2.8E1,9E0,6.2E1,1.2E1,8E0,5.7E1,8E0,2.4E1,1.2E1,2E1,9E0,1.2E1,2E1,4.2E1,4.7E1,1E1,1.4E1,1E1,3.4E1,8E0,3.4E1,1.3E1,1.8E1,1.6E1,2.5E1,9E0,8E0,8E0,1.1E1,1.4E1],"tree_param":{"num_deleted":"0","num_feature":"18","num_nodes":"45","size_leaf_vector":"1"}},{"base_weights":[1.503392E-2,-2.795756E-1,5.838872E-1,-6.71038E-1,-1.0734864E-1,3.939623E-1,8.8058746E-1,-9.643469E-2,-6.271858E-2,-2.1281001E-1,2.5359E-2,2.866456E-1,5.217036E-1,6.8828404E-2,9.984972E-1,-4.09296E-2,-1.6282512E-1,-1.9277686E-2,2.5235917E-2,3.1736106E-1,2.0156875E-2,5.2190315E-2,7.905348E-2,9.0064965E-2,1.4587939E-1,-7.1466486E-3,-1.8906012E-1,-1.5855718E-2,3.7649732E-2,2.1887895E-2,3.6574373E-1,-3.1777512E-2,-1.2386851E-1,-2.0341782E-2,1.6613562E-2,6.0659967E-2,2.2773292E-2,-3.8319542E-3,-3.3207048E-2,9.647925E-3,-1.0929967E-2],"categories":[],"categories_nodes":[],"categories_segments":[],"categories_sizes":[],"default_left":[0,0,0,0,0,0,0,0,0,0,0,0,0,0,0,0,0,0,0,0,0,0,0,0,0,0,0,0,0,0,0,0,0,0,0,0,0,0,0,0,0],"id":14,"left_children":[1,3,5,7,9,11,13,-1,-1,15,17,19,21,-1,23,-1,25,27,-1,29,-1,-1,-1,-1,-1,-1,31,-1,33,-1,35,-1,37,39,-1,-1,-1,-1,-1,-1,-1],"loss_changes":[5.010494E1,1.3209776E1,5.4008636E0,4.7032166E-1,1.93678E0,7.278166E-1,1.07131E0,0E0,0E0,3.472154E-1,4.7348115E-1,9.922266E-2,4.9500942E-2,0E0,3.0849075E-1,0E0,1.4195895E-1,2.986335E-1,0E0,1.4599061E-1,0E0,0E0,0E0,0E0,0E0,0E0,1.282283E-1,0E0,1.7634477E-1,0E0,3.285153E-1,0E0,2.67827E-1,1.3418713E-1,0E0,0E0,0E0,0E0,0E0,0E0,0E0],"parents":[2147483647,0,0,1,1,2,2,3,3,4,4,5,5,6,6,9,9,10,10,11,11,12,12,14,14,16,16,17,17,19,19,26,26,28,28,30,30,32,32,33,33],"right_children":[2,4,6,8,10,12,14,-1,-1,16,18,20,22,-1,24,-1,26,28,-1,30,-1,-1,-1,-1,-1,-1,32,-1,34,-1,36,-1,38,40,-1,-1,-1,-1,-1,-1,-1],"split_conditions":[1.93E1,1.5256917E1,2.296E1,6.337052E1,1.802E1,2.0704E1,-3.849082E1,-9.643469E-2,-6.271858E-2,1.66885E1,1.1829613E2,2.051125E1,-7.5792336E1,6.8828404E-2,2.3112E1,-4.09296E-2,1.687E1,1.8217644E1,2.5235917E-2,1.9470037E1,2.0156875E-2,5.2190315E-2,7.905348E-2,9.0064965E-2,1.4587939E-1,-7.1466486E-3,1.7522E1,-1.5855718E-2,1.5774012E-1,2.1887895E-2,1.0175204E0,-3.1777512E-2,1.803E1,1.8414875E1,1.6613562E-2,6.0659967E-2,2.2773292E-2,-3.8319542E-3,-3.3207048E-2,9.647925E-3,-1.0929967E-2],"split_indices":[15,1,13,11,13,13,11,0,0,13,11,1,11,0,16,0,16,1,0,1,0,0,0,0,0,0,16,0,6,0,5,0,15,1,0,0,0,0,0,0,0],"split_type":[0,0,0,0,0,0,0,0,0,0,0,0,0,0,0,0,0,0,0,0,0,0,0,0,0,0,0,0,0,0,0,0,0,0,0,0,0,0,0,0,0],"sum_hessian":[2.97E2,1.96E2,1.01E2,5.9E1,1.37E2,6.3E1,3.8E1,4E1,1.9E1,7.6E1,6.1E1,3.6E1,2.7E1,1.1E1,2.7E1,2.3E1,5.3E1,4.9E1,1.2E1,2.8E1,8E0,1.4E1,1.3E1,1E1,1.7E1,1.1E1,4.2E1,1.7E1,3.2E1,8E0,2E1,2.1E1,2.1E1,2E1,1.2E1,1.2E1,8E0,1.3E1,8E0,8E0,1.2E1],"tree_param":{"num_deleted":"0","num_feature":"18","num_nodes":"41","size_leaf_vector":"1"}},{"base_weights":[2.0971464E-3,-2.4038191E-1,4.698891E-1,-5.610105E-1,-9.282057E-2,3.2848248E-1,9.498812E-1,-6.159599E-1,-3.3663727E-2,-1.7813934E-1,3.371652E-2,1.8035707E-1,4.8774692E-1,9.224847E-2,1.4511225E-1,-8.406063E-2,-5.037547E-2,-2.474476E-1,-1.0070913E-1,1.4246078E-3,1.7521447E-2,2.3012161E-1,-2.4598808E-4,3.6798096E-1,7.680205E-2,-3.6292274E-2,-2.3048105E-2,1.1406988E-2,-1.6031602E-1,-9.914077E-3,3.1597752E-2,3.5816308E-2,1.2274484E-2,5.909255E-2,3.282639E-2,-2.198288E-1,-4.8556346E-3,5.3029932E-2,-3.4517834E-3,-3.3772163E-2,-1.8162271E-2,3.103489E-5,1.5734034E-2],"categories":[],"categories_nodes":[],"categories_segments":[],"categories_sizes":[],"default_left":[0,0,0,0,0,0,0,0,0,0,0,0,0,0,0,0,0,0,0,0,0,0,0,0,0,0,0,0,0,0,0,0,0,0,0,0,0,0,0,0,0,0,0],"id":15,"left_children":[1,3,5,7,9,11,13,15,-1,17,19,21,23,-1,-1,-1,-1,25,27,29,-1,31,-1,33,-1,-1,-1,-1,35,-1,37,-1,-1,-1,-1,39,-1,41,-1,-1,-1,-1,-1],"loss_changes":[3.289415E1,8.9845915E0,6.4075127E0,8.3133316E-1,1.4310768E0,1.7521381E0,9.5438E-2,1.3062859E-1,0E0,3.9903712E-1,1.7720729E-1,3.813784E-1,2.5113773E-1,0E0,0E0,0E0,0E0,4.405594E-2,4.5324743E-1,1.01352565E-1,0E0,1.8239641E-1,0E0,8.700585E-2,0E0,0E0,0E0,0E0,2.1095628E-1,0E0,4.0137462E-2,0E0,0E0,0E0,0E0,2.8867006E-2,0E0,8.326658E-2,0E0,0E0,0E0,0E0,0E0],"parents":[2147483647,0,0,1,1,2,2,3,3,4,4,5,5,6,6,7,7,9,9,10,10,11,11,12,12,17,17,18,18,19,19,21,21,23,23,28,28,30,30,35,35,37,37],"right_children":[2,4,6,8,10,12,14,16,-1,18,20,22,24,-1,-1,-1,-1,26,28,30,-1,32,-1,34,-1,-1,-1,-1,36,-1,38,-1,-1,-1,-1,40,-1,42,-1,-1,-1,-1,-1],"split_conditions":[1.907E1,1.5256917E1,2.3799E1,-1.1806543E1,1.802E1,2.0704E1,-4.1759293E1,1.3961291E1,-3.3663727E-2,1.7245E1,7.303613E1,1.9291069E1,-6.1620796E1,9.224847E-2,1.4511225E-1,-8.406063E-2,-5.037547E-2,1.67E1,1.7354E1,1.8139894E1,1.7521447E-2,4.013475E-1,-2.4598808E-4,2.7904966E1,7.680205E-2,-3.6292274E-2,-2.3048105E-2,1.1406988E-2,-5.167213E1,-9.914077E-3,6.541333E1,3.5816308E-2,1.2274484E-2,5.909255E-2,3.282639E-2,1.77E1,-4.8556346E-3,-5.7033413E1,-3.4517834E-3,-3.3772163E-2,-1.8162271E-2,3.103489E-5,1.5734034E-2],"split_indices":[14,1,13,12,13,13,12,4,0,13,10,4,12,0,0,0,0,13,13,1,0,6,0,9,0,0,0,0,12,0,9,0,0,0,0,13,0,12,0,0,0,0,0],"split_type":[0,0,0,0,0,0,0,0,0,0,0,0,0,0,0,0,0,0,0,0,0,0,0,0,0,0,0,0,0,0,0,0,0,0,0,0,0,0,0,0,0,0,0],"sum_hessian":[2.88E2,1.9E2,9.8E1,5.9E1,1.31E2,7.7E1,2.1E1,4.9E1,1E1,7.8E1,5.3E1,4.1E1,3.6E1,1.1E1,1E1,4.1E1,8E0,4E1,3.8E1,4.1E1,1.2E1,3.2E1,9E0,1.9E1,1.7E1,2.5E1,1.5E1,9E0,2.9E1,1.1E1,3E1,2.3E1,9E0,9E0,1E1,1.9E1,1E1,2.2E1,8E0,1.1E1,8E0,1.3E1,9E0],"tree_param":{"num_deleted":"0","num_feature":"18","num_nodes":"43","size_leaf_vector":"1"}},{"base_weights":[-7.582485E-3,-2.1785371E-1,4.2376545E-1,-5.287558E-1,-8.805596E-2,1.7467412E-1,5.9987193E-1,-8.091741E-2,-5.530624E-2,-1.7526835E-1,5.397933E-3,4.6419865E-4,2.3526616E-1,3.8047975E-1,9.8231144E-2,-1.9799583E-1,1.4066253E-3,-1.5939435E-2,3.9752994E-2,2.9201457E-1,8.291989E-3,6.26266E-2,2.1500519E-2,-2.2907847E-1,-9.966013E-3,-1.8380264E-2,9.854269E-2,4.8178766E-2,2.9012924E-2,-3.3581086E-2,-1.6726284E-1,-9.305905E-3,5.4491134E-3,6.2459946E-2,1.922612E-2,-1.2955893E-2,-2.6344018E-2,9.237616E-3,-5.2566216E-3,1.3516293E-2,1.1411182E-3],"categories":[],"categories_nodes":[],"categories_segments":[],"categories_sizes":[],"default_left":[0,0,0,0,0,0,0,0,0,0,0,0,0,0,0,0,0,0,0,0,0,0,0,0,0,0,0,0,0,0,0,0,0,0,0,0,0,0,0,0,0],"id":16,"left_children":[1,3,5,7,9,11,13,-1,-1,15,17,-1,19,21,-1,23,-1,-1,25,27,-1,-1,-1,29,-1,31,33,-1,-1,-1,35,-1,37,39,-1,-1,-1,-1,-1,-1,-1],"loss_changes":[2.7120935E1,8.0646715E0,4.194145E0,3.1045723E-1,1.1664445E0,4.3454552E-1,1.705801E0,0E0,0E0,3.152132E-1,3.1420776E-1,0E0,2.8239405E-1,4.97015E-1,0E0,2.3048091E-1,0E0,0E0,1.9319889E-1,4.1761518E-2,0E0,0E0,0E0,5.4689407E-2,0E0,3.7404492E-2,4.131943E-2,0E0,0E0,0E0,2.8444529E-2,0E0,6.674088E-2,3.9656565E-2,0E0,0E0,0E0,0E0,0E0,0E0,0E0],"parents":[2147483647,0,0,1,1,2,2,3,3,4,4,5,5,6,6,9,9,10,10,12,12,13,13,15,15,18,18,19,19,23,23,25,25,26,26,30,30,32,32,33,33],"right_children":[2,4,6,8,10,12,14,-1,-1,16,18,-1,20,22,-1,24,-1,-1,26,28,-1,-1,-1,30,-1,32,34,-1,-1,-1,36,-1,38,40,-1,-1,-1,-1,-1,-1,-1],"split_conditions":[1.934E1,1.564E1,2.112E1,1.375E1,1.77E1,-5.415525E1,-6.1620796E1,-8.091741E-2,-5.530624E-2,-2.1368715E1,3.1287386E1,4.6419865E-4,4.013475E-1,3.505452E1,9.8231144E-2,1.786035E1,1.4066253E-3,-1.5939435E-2,1.8217644E1,-3.4698795E1,8.291989E-3,6.26266E-2,2.1500519E-2,1.6583023E1,-9.966013E-3,-4.3373493E1,1.852176E1,4.8178766E-2,2.9012924E-2,-3.3581086E-2,1.6831264E1,-9.305905E-3,1.7885E1,1.8555353E1,1.922612E-2,-1.2955893E-2,-2.6344018E-2,9.237616E-3,-5.2566216E-3,1.3516293E-2,1.1411182E-3],"split_indices":[14,13,13,13,13,12,12,0,0,12,10,0,6,10,0,1,0,0,1,12,0,0,0,4,0,12,0,0,0,0,4,0,14,1,0,0,0,0,0,0,0],"split_type":[0,0,0,0,0,0,0,0,0,0,0,0,0,0,0,0,0,0,0,0,0,0,0,0,0,0,0,0,0,0,0,0,0,0,0,0,0,0,0,0,0],"sum_hessian":[2.97E2,2E2,9.7E1,5.8E1,1.42E2,4.1E1,5.6E1,2.7E1,3.1E1,7.3E1,6.9E1,1.1E1,3E1,2.5E1,3.1E1,6.5E1,8E0,1.4E1,5.5E1,2.2E1,8E0,1.6E1,9E0,5.1E1,1.4E1,2.8E1,2.7E1,8E0,1.4E1,3.2E1,1.9E1,8E0,2E1,1.7E1,1E1,8E0,1.1E1,8E0,1.2E1,9E0,8E0],"tree_param":{"num_deleted":"0","num_feature":"18","num_nodes":"41","size_leaf_vector":"1"}},{"base_weights":[3.5086481E-3,-1.9553104E-1,3.9740482E-1,-4.6314615E-1,-8.586662E-2,2.7440962E-1,6.348199E-1,-5.330376E-1,-4.7174938E-2,-2.1738575E-1,-3.2651182E-2,2.2551003E-1,5.1640965E-2,5.514787E-2,9.766905E-2,-7.527115E-2,-4.5843758E-2,-3.8138352E-2,-1.291232E-2,-1.1839465E-1,4.8688777E-2,3.0055138E-1,1.2761323E-1,7.3623715E-4,-1.5543896E-1,2.436381E-2,1.0032235E-2,1.9615637E-2,4.5956526E-2,2.8509726E-3,2.3601104E-2,-9.203503E-2,-4.430072E-2,-6.2499575E-2,6.4013086E-2,-1.8379012E-2,4.5226933E-3,-1.7207159E-2,9.339158E-4,1.3401061E-2,-1.742724E-3],"categories":[],"categories_nodes":[],"categories_segments":[],"categories_sizes":[],"default_left":[0,0,0,0,0,0,0,0,0,0,0,0,0,0,0,0,0,0,0,0,0,0,0,0,0,0,0,0,0,0,0,0,0,0,0,0,0,0,0,0,0],"id":17,"left_children":[1,3,5,7,9,11,13,15,-1,17,19,21,-1,-1,-1,-1,-1,-1,-1,23,25,27,29,-1,31,-1,33,-1,-1,-1,-1,35,-1,37,39,-1,-1,-1,-1,-1,-1],"loss_changes":[2.2421984E1,5.5363226E0,2.6290865E0,1.8408012E-1,9.447454E-1,3.0666018E-1,4.801798E-1,5.558014E-2,0E0,3.2566297E-1,6.892528E-1,3.2161474E-1,0E0,0E0,0E0,0E0,0E0,0E0,0E0,2.2152573E-1,2.734424E-1,1.6612864E-1,1.2913275E-1,0E0,4.0724427E-1,0E0,1.6452928E-1,0E0,0E0,0E0,0E0,1.8928072E-1,0E0,8.946107E-2,7.500925E-2,0E0,0E0,0E0,0E0,0E0,0E0],"parents":[2147483647,0,0,1,1,2,2,3,3,4,4,5,5,6,6,7,7,9,9,10,10,11,11,19,19,20,20,21,21,22,22,24,24,26,26,31,31,33,33,34,34],"right_children":[2,4,6,8,10,12,14,16,-1,18,20,22,-1,-1,-1,-1,-1,-1,-1,24,26,28,30,-1,32,-1,34,-1,-1,-1,-1,36,-1,38,40,-1,-1,-1,-1,-1,-1],"split_conditions":[1.93E1,1.5054542E1,2.4555393E1,1.4438058E1,1.6400126E1,6.3935047E1,5.0374207E1,5.1826233E1,-4.7174938E-2,6.07052E1,4.7867863E1,4.8987328E1,5.1640965E-2,5.514787E-2,9.766905E-2,-7.527115E-2,-4.5843758E-2,-3.8138352E-2,-1.291232E-2,1.381909E1,1.6978188E1,3.2735737E1,6.3070976E1,7.3623715E-4,1.8228765E1,2.436381E-2,-3.4698795E1,1.9615637E-2,4.5956526E-2,2.8509726E-3,2.3601104E-2,1.8104198E1,-4.430072E-2,1.8126724E1,1.844E1,-1.8379012E-2,4.5226933E-3,-1.7207159E-2,9.339158E-4,1.3401061E-2,-1.742724E-3],"split_indices":[15,3,3,3,0,2,2,2,0,2,2,9,0,0,0,0,0,0,0,8,8,2,9,0,1,0,12,0,0,0,0,0,0,1,15,0,0,0,0,0,0],"split_type":[0,0,0,0,0,0,0,0,0,0,0,0,0,0,0,0,0,0,0,0,0,0,0,0,0,0,0,0,0,0,0,0,0,0,0,0,0,0,0,0,0],"sum_hessian":[2.84E2,1.89E2,9.5E1,5.4E1,1.35E2,6.4E1,3.1E1,2.9E1,2.5E1,3.8E1,9.7E1,4.8E1,1.6E1,1.3E1,1.8E1,2.1E1,8E0,2.2E1,1.6E1,4.7E1,5E1,2.6E1,2.2E1,1.1E1,3.6E1,1E1,4E1,8E0,1.8E1,8E0,1.4E1,2.8E1,8E0,1.7E1,2.3E1,2E1,8E0,8E0,9E0,1.5E1,8E0],"tree_param":{"num_deleted":"0","num_feature":"18","num_nodes":"41","size_leaf_vector":"1"}},{"base_weights":[-8.211853E-3,-1.5305373E-1,3.038455E-1,-3.3329841E-1,-2.5873777E-2,2.3878184E-1,8.742694E-2,-4.4751745E-1,-2.3197837E-1,1.7535635E-3,-1.3766056E-1,1.1344415E-1,3.1736568E-1,-6.385416E-2,-3.5399016E-2,-2.042326E-1,-4.1428924E-2,-1.6303001E-2,2.7611865E-2,-3.227699E-3,-3.3418916E-2,4.153171E-2,2.6251182E-2,2.687925E-1,6.1452754E-2,-3.364759E-2,-1.4828153E-2,2.3831977E-2,7.369377E-3,2.068523E-2,-1.0477661E-2,4.2777956E-2,1.9105682E-2,-2.42173E-2,7.882231E-2,-6.917293E-2,1.246013E-2,1.53979E-3,1.8712612E-2,-1.0327882E-1,1.3566354E-3,-1.2013199E-3,-2.0883774E-2],"categories":[],"categories_nodes":[],"categories_segments":[],"categories_sizes":[],"default_left":[0,0,0,0,0,0,0,0,0,0,0,0,0,0,0,0,0,0,0,0,0,0,0,0,0,0,0,0,0,0,0,0,0,0,0,0,0,0,0,0,0,0,0],"id":18,"left_children":[1,3,5,7,9,11,-1,13,15,17,19,21,23,-1,-1,25,-1,-1,27,-1,-1,29,-1,31,-1,-1,-1,-1,33,-1,-1,-1,-1,35,37,39,-1,-1,-1,41,-1,-1,-1],"loss_changes":[1.2973411E1,4.4843845E0,2.041235E0,8.3357334E-1,3.584925E-1,7.421093E-1,0E0,1.615467E-1,4.4826746E-2,3.1408435E-1,3.0640918E-1,1.9751117E-1,2.399826E-1,0E0,0E0,1.5544915E-1,0E0,0E0,2.4910662E-1,0E0,0E0,2.885416E-1,0E0,2.435162E-1,0E0,0E0,0E0,0E0,1.6215307E-1,0E0,0E0,0E0,0E0,2.7761316E-1,9.520388E-2,1.0160813E-1,0E0,0E0,0E0,1.4064261E-1,0E0,0E0,0E0],"parents":[2147483647,0,0,1,1,2,2,3,3,4,4,5,5,7,7,8,8,9,9,10,10,11,11,12,12,15,15,18,18,21,21,23,23,28,28,33,33,34,34,35,35,39,39],"right_children":[2,4,6,8,10,12,-1,14,16,18,20,22,24,-1,-1,26,-1,-1,28,-1,-1,30,-1,32,-1,-1,-1,-1,34,-1,-1,-1,-1,36,38,40,-1,-1,-1,42,-1,-1,-1],"split_conditions":[1.934E1,1.67E1,2.42E1,1.5183244E1,3.523017E1,2.0615E1,8.742694E-2,7.2779945E1,1.655E1,4.753221E-1,1.7402E1,9.036915E-1,4.134441E1,-6.385416E-2,-3.5399016E-2,3.55561E-1,-4.1428924E-2,-1.6303001E-2,4.9946734E-1,-3.227699E-3,-3.3418916E-2,1.8990799E1,2.6251182E-2,4.848773E1,6.1452754E-2,-3.364759E-2,-1.4828153E-2,2.3831977E-2,1.73206E1,2.068523E-2,-1.0477661E-2,4.2777956E-2,1.9105682E-2,1.0411428E0,3.8188763E1,1.8595E1,1.246013E-2,1.53979E-3,1.8712612E-2,1.755E1,1.3566354E-3,-1.2013199E-3,-2.0883774E-2],"split_indices":[16,13,13,8,8,13,0,9,17,5,17,5,8,0,0,5,0,0,5,0,0,8,0,9,0,0,0,0,4,0,0,0,0,5,9,17,0,0,0,16,0,0,0],"split_type":[0,0,0,0,0,0,0,0,0,0,0,0,0,0,0,0,0,0,0,0,0,0,0,0,0,0,0,0,0,0,0,0,0,0,0,0,0,0,0,0,0,0,0],"sum_hessian":[2.85E2,1.95E2,9E1,8E1,1.15E2,7.8E1,1.2E1,3.6E1,4.4E1,9.3E1,2.2E1,3.1E1,4.7E1,2.7E1,9E0,3.6E1,8E0,1.5E1,7.8E1,1.2E1,1E1,1.8E1,1.3E1,3.8E1,9E0,2.1E1,1.5E1,8E0,7E1,9E0,9E0,2.4E1,1.4E1,4.9E1,2.1E1,3.6E1,1.3E1,1.1E1,1E1,2.5E1,1.1E1,1E1,1.5E1],"tree_param":{"num_deleted":"0","num_feature":"18","num_nodes":"43","size_leaf_vector":"1"}},{"base_weights":[8.141309E-3,-1.1878067E-1,3.1323302E-1,-2.9242903E-1,-1.9048175E-2,1.6167691E-1,4.8672122E-1,-3.333473E-1,-1.4782238E-1,-1.5623415E-1,2.2546157E-2,2.3803E-1,9.5911026E-2,3.1980547E-1,6.631602E-1,-3.8951677E-1,-2.682366E-1,-2.9982734E-2,-8.497254E-3,-3.6262642E-3,-2.0518096E-1,-9.286744E-2,5.046638E-2,3.864361E-2,1.9424872E-2,-4.7486145E-3,1.507947E-1,4.9238883E-2,2.3655895E-2,1.04066804E-1,6.3027136E-2,-5.6090016E-2,-3.3370737E-2,-2.1015702E-1,-4.1879304E-2,-3.371648E-2,-1.5649166E-2,-1.8193742E-2,-1.7505371E-3,2.000359E-2,1.7293279E-1,3.2665316E-2,8.011513E-3,-3.4291405E-2,-1.6268864E-2,2.054155E-2,-1.145034E-2,1.3274941E-2,2.8979521E-2,-8.970541E-2,2.0496959E-2,-3.3116965E-3,-1.8606957E-2,1.4500789E-2,-1.9880613E-2,9.130475E-3,-6.2012173E-2,-1.2415176E-3,-1.6923968E-2],"categories":[],"categories_nodes":[],"categories_segments":[],"categories_sizes":[],"default_left":[0,0,0,0,0,0,0,0,0,0,0,0,0,0,0,0,0,0,0,0,0,0,0,0,0,0,0,0,0,0,0,0,0,0,0,0,0,0,0,0,0,0,0,0,0,0,0,0,0,0,0,0,0,0,0,0,0,0,0],"id":19,"left_children":[1,3,5,7,9,11,13,15,17,19,21,23,25,27,29,31,33,-1,-1,-1,35,37,39,-1,-1,-1,41,-1,-1,-1,-1,-1,-1,43,-1,-1,-1,-1,-1,45,47,-1,-1,-1,-1,-1,49,-1,-1,51,53,-1,-1,-1,55,-1,57,-1,-1],"loss_changes":[1.1731505E1,3.7005634E0,2.261403E0,4.122548E-1,7.852662E-1,2.2322023E-1,9.9538517E-1,1.1495066E-1,1.1579928E-1,1.9504929E-1,3.462583E-1,7.248807E-2,2.093392E-1,1.2199831E-1,8.044529E-2,6.213379E-2,3.1912804E-2,0E0,0E0,0E0,7.588911E-2,7.770035E-2,3.1737822E-1,0E0,0E0,0E0,1.6515142E-1,0E0,0E0,0E0,0E0,0E0,0E0,5.0106823E-2,0E0,0E0,0E0,0E0,0E0,3.0741188E-1,3.80823E-2,0E0,0E0,0E0,0E0,0E0,1.4684092E-1,0E0,0E0,5.5314198E-2,1.5757313E-1,0E0,0E0,0E0,1.18719146E-1,0E0,7.449448E-2,0E0,0E0],"parents":[2147483647,0,0,1,1,2,2,3,3,4,4,5,5,6,6,7,7,8,8,9,9,10,10,11,11,12,12,13,13,14,14,15,15,16,16,20,20,21,21,22,22,26,26,33,33,39,39,40,40,46,46,49,49,50,50,54,54,56,56],"right_children":[2,4,6,8,10,12,14,16,18,20,22,24,26,28,30,32,34,-1,-1,-1,36,38,40,-1,-1,-1,42,-1,-1,-1,-1,-1,-1,44,-1,-1,-1,-1,-1,46,48,-1,-1,-1,-1,-1,50,-1,-1,52,54,-1,-1,-1,56,-1,58,-1,-1],"split_conditions":[1.9723E1,1.6938602E1,2.4125336E1,6.2765118E1,-7.884475E1,2.2477388E1,-9.325052E0,1.4553881E1,1.49667635E1,1.8697828E1,4.8226994E-1,2.162E1,-1.1950662E2,4.6240753E1,8.173832E-1,2.0007308E0,-9.9957794E-1,-2.9982734E-2,-8.497254E-3,-3.6262642E-3,3.4814816E1,5.829786E1,1.1829613E2,3.864361E-2,1.9424872E-2,-4.7486145E-3,2.0576E1,4.9238883E-2,2.3655895E-2,1.04066804E-1,6.3027136E-2,-5.6090016E-2,-3.3370737E-2,-6.7408585E1,-4.1879304E-2,-3.371648E-2,-1.5649166E-2,-1.8193742E-2,-1.7505371E-3,-2.9476702E-1,8.0574326E1,3.2665316E-2,8.011513E-3,-3.4291405E-2,-1.6268864E-2,2.054155E-2,4.7859085E1,1.3274941E-2,2.8979521E-2,1.8045E1,2.2609184E0,-3.3116965E-3,-1.8606957E-2,1.4500789E-2,5.2605796E-1,9.130475E-3,5.4055733E1,-1.2415176E-3,-1.6923968E-2],"split_indices":[17,3,3,2,11,8,11,3,3,10,5,17,11,10,5,11,11,0,0,0,10,2,11,0,0,0,17,0,0,0,0,0,0,11,0,0,0,0,0,6,10,0,0,0,0,0,2,0,0,16,11,0,0,0,5,0,2,0,0],"split_type":[0,0,0,0,0,0,0,0,0,0,0,0,0,0,0,0,0,0,0,0,0,0,0,0,0,0,0,0,0,0,0,0,0,0,0,0,0,0,0,0,0,0,0,0,0,0,0,0,0,0,0,0,0,0,0,0,0,0,0],"sum_hessian":[3.01E2,2.13E2,8.8E1,7.7E1,1.36E2,4.8E1,4E1,5.9E1,1.8E1,3.1E1,1.05E2,2.1E1,2.7E1,2.2E1,1.8E1,2.9E1,3E1,8E0,1E1,9E0,2.2E1,2E1,8.5E1,1.1E1,1E1,8E0,1.9E1,1.4E1,8E0,8E0,1E1,2E1,9E0,1.7E1,1.3E1,1.2E1,1E1,1.2E1,8E0,6.9E1,1.6E1,8E0,1.1E1,9E0,8E0,1.2E1,5.7E1,8E0,8E0,1.6E1,4.1E1,8E0,8E0,1.2E1,2.9E1,9E0,2E1,1.2E1,8E0],"tree_param":{"num_deleted":"0","num_feature":"18","num_nodes":"59","size_leaf_vector":"1"}},{"base_weights":[-1.3563563E-2,-1.2928051E-1,2.3916875E-1,-3.0505142E-1,-6.024499E-2,1.053393E-1,3.257107E-1,-3.2620156E-1,-2.4183318E-2,-1.11184545E-1,9.439256E-3,2.8510489E-2,6.203007E-2,2.3113193E-1,4.4218525E-1,-4.8461247E-2,-3.287436E-2,-1.2786925E-1,3.4586862E-3,-1.604332E-2,4.0056925E-2,-2.3399885E-3,1.6590996E-2,3.3244804E-2,1.8877376E-2,8.8681616E-2,3.2398302E-2,-7.070325E-2,-1.6163754E-1,1.709624E-2,2.0306544E-2,-1.5377997E-2,-2.7317598E-3,-2.8441438E-2,-1.2747097E-1,-3.9307307E-2,6.7185365E-2,-1.2061194E-2,-2.5024759E-2,-1.06712235E-2,2.9290484E-3,2.7190533E-3,1.7376702E-2],"categories":[],"categories_nodes":[],"categories_segments":[],"categories_sizes":[],"default_left":[0,0,0,0,0,0,0,0,0,0,0,0,0,0,0,0,0,0,0,0,0,0,0,0,0,0,0,0,0,0,0,0,0,0,0,0,0,0,0,0,0,0,0],"id":20,"left_children":[1,3,5,7,9,11,13,15,-1,17,19,-1,21,23,25,-1,-1,27,-1,-1,29,-1,-1,-1,-1,-1,-1,31,33,-1,35,-1,-1,-1,37,39,41,-1,-1,-1,-1,-1,-1],"loss_changes":[8.658316E0,2.4449127E0,1.0428028E0,8.139372E-2,5.228532E-1,1.7569321E-1,5.146942E-1,6.882906E-2,0E0,1.9901991E-1,2.624069E-1,0E0,1.5619785E-1,3.5228014E-2,9.481745E-1,0E0,0E0,1.3528204E-1,0E0,0E0,9.191159E-2,0E0,0E0,0E0,0E0,0E0,0E0,6.915599E-2,6.548202E-2,0E0,1.2560447E-1,0E0,0E0,0E0,5.424148E-2,5.53774E-2,7.467256E-2,0E0,0E0,0E0,0E0,0E0,0E0],"parents":[2147483647,0,0,1,1,2,2,3,3,4,4,5,5,6,6,7,7,9,9,10,10,12,12,13,13,14,14,17,17,20,20,27,27,28,28,30,30,34,34,35,35,36,36],"right_children":[2,4,6,8,10,12,14,16,-1,18,20,-1,22,24,26,-1,-1,28,-1,-1,30,-1,-1,-1,-1,-1,-1,32,34,-1,36,-1,-1,-1,38,40,42,-1,-1,-1,-1,-1,-1],"split_conditions":[1.93E1,1.485E1,2.0704E1,1.6515026E1,1.7957129E1,1.97E1,5.078218E1,4.8535297E1,-2.4183318E-2,6.811467E1,3.767601E1,2.8510489E-2,2.02291E1,2.3485E1,6.584082E-1,-4.8461247E-2,-3.287436E-2,2.0655947E1,3.4586862E-3,-1.604332E-2,4.3071114E1,-2.3399885E-3,1.6590996E-2,3.3244804E-2,1.8877376E-2,8.8681616E-2,3.2398302E-2,1.722E1,1.54162655E1,1.709624E-2,-3.0532327E-2,-1.5377997E-2,-2.7317598E-3,-2.8441438E-2,1.7891397E1,3.1104675E1,1.8291744E1,-1.2061194E-2,-2.5024759E-2,-1.06712235E-2,2.9290484E-3,2.7190533E-3,1.7376702E-2],"split_indices":[14,13,13,8,0,14,2,2,0,2,2,0,13,14,6,0,0,8,0,0,2,0,0,0,0,0,0,17,0,0,6,0,0,0,0,8,0,0,0,0,0,0,0],"split_type":[0,0,0,0,0,0,0,0,0,0,0,0,0,0,0,0,0,0,0,0,0,0,0,0,0,0,0,0,0,0,0,0,0,0,0,0,0,0,0,0,0,0,0],"sum_hessian":[2.94E2,2.02E2,9.2E1,5.6E1,1.46E2,3.7E1,5.5E1,4.6E1,1E1,8.4E1,6.2E1,9E0,2.8E1,3.2E1,2.3E1,2.5E1,2.1E1,7.5E1,9E0,1.1E1,5.1E1,1.3E1,1.5E1,2.3E1,9E0,9E0,1.4E1,2.9E1,4.6E1,8E0,4.3E1,1.4E1,1.5E1,1.5E1,3.1E1,1.9E1,2.4E1,2.2E1,9E0,1.1E1,8E0,1.5E1,9E0],"tree_param":{"num_deleted":"0","num_feature":"18","num_nodes":"43","size_leaf_vector":"1"}},{"base_weights":[1.0098416E-2,-1.1127614E-1,2.3687238E-1,-4.074291E-2,-6.1552882E-2,1.8302111E-1,4.6197432E-1,-1.2950674E-1,-2.8251909E-2,1.4204204E-1,2.752773E-1,8.3464384E-2,3.700081E-2,-1.5165053E-1,-2.4737346E-3,3.9765923E-3,-1.22777395E-1,1.05811015E-1,4.184499E-2,2.255923E-2,4.36748E-2,-2.9733906E-2,-1.1513892E-1,-1.3073629E-2,1.8836908E-2,-3.0223297E-2,-1.4381297E-3,1.871365E-1,5.9950035E-2,-8.241268E-2,-2.452805E-2,1.0097556E-2,-2.8295077E-2,1.3627517E-2,3.2366455E-2,-4.8156423E-3,8.904464E-2,-1.696289E-2,-2.9447943E-3,-8.390451E-2,2.1075315E-3,2.3515873E-2,2.7419409E-2,-1.1335145E-3,-1.824341E-2,4.8773415E-2,-3.344284E-2,8.502182E-3,-2.3531024E-3,-9.189506E-4,1.4442513E-2,-1.06235435E-2,1.3807971E-3],"categories":[],"categories_nodes":[],"categories_segments":[],"categories_sizes":[],"default_left":[0,0,0,0,0,0,0,0,0,0,0,0,0,0,0,0,0,0,0,0,0,0,0,0,0,0,0,0,0,0,0,0,0,0,0,0,0,0,0,0,0,0,0,0,0,0,0,0,0,0,0,0,0],"id":21,"left_children":[1,3,5,-1,7,9,11,13,15,17,19,-1,-1,21,-1,23,25,27,-1,-1,-1,-1,29,31,-1,-1,-1,33,35,37,-1,-1,39,-1,-1,-1,41,-1,-1,43,45,-1,47,-1,-1,49,51,-1,-1,-1,-1,-1,-1],"loss_changes":[8.448883E0,2.0062346E0,1.2125053E0,0E0,3.6293578E-1,2.935896E-1,4.602599E-1,1.2664819E-1,3.3559382E-1,3.7992597E-1,1.04667425E-1,0E0,0E0,9.917843E-2,0E0,2.0235293E-1,3.4402147E-1,1.9018316E-1,0E0,0E0,0E0,0E0,6.2368274E-2,1.06247425E-1,0E0,0E0,0E0,7.1656704E-2,1.05099365E-1,6.6759735E-2,0E0,0E0,1.100705E-1,0E0,0E0,0E0,1.5504976E-1,0E0,0E0,9.749515E-2,7.296766E-2,0E0,3.2645263E-2,0E0,0E0,6.7546085E-2,5.457072E-2,0E0,0E0,0E0,0E0,0E0,0E0],"parents":[2147483647,0,0,1,1,2,2,4,4,5,5,6,6,7,7,8,8,9,9,10,10,13,13,15,15,16,16,17,17,22,22,23,23,27,27,28,28,29,29,32,32,36,36,39,39,40,40,42,42,45,45,46,46],"right_children":[2,4,6,-1,8,10,12,14,16,18,20,-1,-1,22,-1,24,26,28,-1,-1,-1,-1,30,32,-1,-1,-1,34,36,38,-1,-1,40,-1,-1,-1,42,-1,-1,44,46,-1,48,-1,-1,50,52,-1,-1,-1,-1,-1,-1],"split_conditions":[1.93E1,2.6384774E-1,4.134441E1,-4.074291E-2,1.7116787E1,2.2535765E1,4.583918E1,-1.1806543E1,3.5661728E1,1.174001E2,-6.659074E1,8.3464384E-2,3.700081E-2,1.5293401E1,-2.4737346E-3,1.3566235E2,4.428471E1,-4.5385468E-1,4.184499E-2,2.255923E-2,4.36748E-2,-2.9733906E-2,1.656408E1,5.003701E-1,1.8836908E-2,-3.0223297E-2,-1.4381297E-3,2.7577795E1,-7.3161E1,3.7092757E-1,-2.452805E-2,1.0097556E-2,1.810051E1,1.3627517E-2,3.2366455E-2,-4.8156423E-3,3.6847935E1,-1.696289E-2,-2.9447943E-3,1.7745E1,1.8368843E1,2.3515873E-2,2.021E1,-1.1335145E-3,-1.824341E-2,-4.767442E1,1.8646E1,8.502182E-3,-2.3531024E-3,-9.189506E-4,1.4442513E-2,-1.06235435E-2,1.3807971E-3],"split_indices":[15,5,8,0,1,1,8,12,8,11,12,0,0,1,0,11,10,7,0,0,0,0,1,5,0,0,0,10,11,5,0,0,1,0,0,0,11,0,0,14,1,0,14,0,0,12,15,0,0,0,0,0,0],"split_type":[0,0,0,0,0,0,0,0,0,0,0,0,0,0,0,0,0,0,0,0,0,0,0,0,0,0,0,0,0,0,0,0,0,0,0,0,0,0,0,0,0,0,0,0,0,0,0,0,0,0,0,0,0],"sum_hessian":[3.05E2,1.99E2,1.06E2,3.8E1,1.61E2,8.7E1,1.9E1,5.2E1,1.09E2,6.2E1,2.5E1,8E0,1.1E1,4.3E1,9E0,8.2E1,2.7E1,5.3E1,9E0,1.1E1,1.4E1,1.2E1,3.1E1,7.4E1,8E0,1.3E1,1.4E1,1.8E1,3.5E1,2.3E1,8E0,1E1,6.4E1,9E0,9E0,8E0,2.7E1,1.2E1,1.1E1,2.2E1,4.2E1,1E1,1.7E1,1E1,1.2E1,1.8E1,2.4E1,9E0,8E0,1E1,8E0,1.1E1,1.3E1],"tree_param":{"num_deleted":"0","num_feature":"18","num_nodes":"53","size_leaf_vector":"1"}},{"base_weights":[4.939792E-3,-1.02159105E-1,2.2345856E-1,-2.3668282E-1,-2.7902618E-2,1.4334379E-1,3.7004685E-1,-2.9561928E-1,-2.2577303E-2,-1.0956564E-2,-2.5046783E-2,1.1364533E-1,3.1487163E-2,2.7442008E-1,7.828479E-2,-5.2226342E-2,-3.216201E-2,-8.473161E-2,1.3756858E-2,1.6360249E-1,5.3147506E-2,5.1660407E-2,1.2336968E-2,-1.8068803E-2,-4.033788E-2,1.6854722E-2,-8.0059195E-4,5.5779093E-3,2.1840346E-1,-7.6365964E-3,1.0941202E-1,-2.2459673E-4,-1.0186396E-2,1.101545E-2,-1.698364E-2,1.8168649E-2,3.5510045E-2,5.67231E-3,2.1061465E-2,-4.3966465E-2,3.2264784E-2,3.5732244E-3,-7.391292E-2,7.315108E-2,-6.2802485E-3,-9.5947686E-4,-1.2521966E-1,1.6423304E-2,1.4504606E-3,-2.2838539E-2,-8.601712E-3],"categories":[],"categories_nodes":[],"categories_segments":[],"categories_sizes":[],"default_left":[0,0,0,0,0,0,0,0,0,0,0,0,0,0,0,0,0,0,0,0,0,0,0,0,0,0,0,0,0,0,0,0,0,0,0,0,0,0,0,0,0,0,0,0,0,0,0,0,0,0,0],"id":22,"left_children":[1,3,5,7,9,11,13,15,-1,17,-1,19,-1,21,-1,-1,-1,23,25,27,29,-1,-1,-1,31,-1,33,-1,35,-1,37,-1,-1,-1,39,-1,-1,-1,-1,41,43,-1,45,47,-1,-1,49,-1,-1,-1,-1],"loss_changes":[6.9735546E0,1.9912477E0,1.097857E0,2.0845962E-1,3.6296445E-1,1.6551173E-1,5.984335E-1,7.743287E-2,0E0,2.1813047E-1,0E0,1.484645E-1,0E0,5.435586E-1,0E0,0E0,0E0,6.7549154E-2,1.5279113E-1,1.7545336E-1,1.642568E-1,0E0,0E0,0E0,2.655076E-2,0E0,1.1411999E-1,0E0,4.4543743E-2,0E0,5.238308E-2,0E0,0E0,0E0,9.311001E-2,0E0,0E0,0E0,0E0,9.851503E-2,8.615678E-2,0E0,1.0824478E-1,5.5235945E-2,0E0,0E0,4.252228E-2,0E0,0E0,0E0,0E0],"parents":[2147483647,0,0,1,1,2,2,3,3,4,4,5,5,6,6,7,7,9,9,11,11,13,13,17,17,18,18,19,19,20,20,24,24,26,26,28,28,30,30,34,34,39,39,40,40,42,42,43,43,46,46],"right_children":[2,4,6,8,10,12,14,16,-1,18,-1,20,-1,22,-1,-1,-1,24,26,28,30,-1,-1,-1,32,-1,34,-1,36,-1,38,-1,-1,-1,40,-1,-1,-1,-1,42,44,-1,46,48,-1,-1,50,-1,-1,-1,-1],"split_conditions":[1.93E1,1.6911753E1,2.460915E1,1.4553881E1,1.8936E1,6.831855E1,6.407828E1,4.1331543E1,-2.2577303E-2,4.8226994E-1,-2.5046783E-2,-3.3296788E-1,3.1487163E-2,2.4174E1,7.828479E-2,-5.2226342E-2,-3.216201E-2,4.8534313E1,5.0184405E-1,2.7396742E1,-1.9314983E-1,5.1660407E-2,1.2336968E-2,-1.8068803E-2,1.676E1,1.6854722E-2,-2.770224E-1,5.5779093E-3,8.606533E-1,-7.6365964E-3,2.016E1,-2.2459673E-4,-1.0186396E-2,1.101545E-2,1.844E1,1.8168649E-2,3.5510045E-2,5.67231E-3,2.1061465E-2,1.758E1,2.0204271E-1,3.5732244E-3,5.6156343E-1,5.952507E-1,-6.2802485E-3,-9.5947686E-4,4.5356388E1,1.6423304E-2,1.4504606E-3,-2.2838539E-2,-8.601712E-3],"split_indices":[15,3,3,3,16,2,2,2,0,5,0,6,0,16,0,0,0,10,5,10,6,0,0,0,13,0,6,0,5,0,16,0,0,0,14,0,0,0,0,13,6,0,5,5,0,0,10,0,0,0,0],"split_type":[0,0,0,0,0,0,0,0,0,0,0,0,0,0,0,0,0,0,0,0,0,0,0,0,0,0,0,0,0,0,0,0,0,0,0,0,0,0,0,0,0,0,0,0,0,0,0,0,0,0,0],"sum_hessian":[2.96E2,1.99E2,9.7E1,7E1,1.29E2,6.4E1,3.3E1,3.4E1,3.6E1,1.18E2,1.1E1,5.1E1,1.3E1,2.5E1,8E0,8E0,2.6E1,2.9E1,8.9E1,2.7E1,2.4E1,1.4E1,1.1E1,1.2E1,1.7E1,9E0,8E1,9E0,1.8E1,8E0,1.6E1,9E0,8E0,1.2E1,6.8E1,9E0,9E0,8E0,8E0,4.4E1,2.4E1,1.3E1,3.1E1,1.6E1,8E0,1.4E1,1.7E1,8E0,8E0,8E0,9E0],"tree_param":{"num_deleted":"0","num_feature":"18","num_nodes":"51","size_leaf_vector":"1"}},{"base_weights":[-9.316295E-3,-9.246366E-2,1.6833502E-1,-1.9894248E-1,-3.4561127E-2,1.1183016E-1,2.8320554E-1,-2.5030935E-1,-1.819047E-2,-5.749634E-2,3.19555E-2,1.8020405E-1,4.2178154E-2,3.632386E-1,1.01948865E-2,-4.559235E-2,-2.6503798E-2,-1.0174792E-1,-2.5020696E-2,-1.5476045E-2,1.2447902E-2,9.862222E-3,2.2209077E-1,7.771492E-2,-8.430184E-3,2.3349438E-2,6.850255E-2,-2.0554148E-2,-7.892394E-2,2.9623548E-2,-1.11838795E-1,-1.1157834E-2,9.185349E-3,1.8208096E-2,3.5421237E-2,1.4626886E-2,5.0876425E-3,-4.3735288E-2,-1.838499E-2,1.5579971E-2,-8.473714E-3,-2.6082776E-2,-1.6458215E-3,-7.084612E-4,-1.15253925E-2,3.3317197E-3,-6.1208727E-3],"categories":[],"categories_nodes":[],"categories_segments":[],"categories_sizes":[],"default_left":[0,0,0,0,0,0,0,0,0,0,0,0,0,0,0,0,0,0,0,0,0,0,0,0,0,0,0,0,0,0,0,0,0,0,0,0,0,0,0,0,0,0,0,0,0,0,0],"id":23,"left_children":[1,3,5,7,9,11,13,15,-1,17,19,21,23,25,-1,-1,-1,27,29,31,-1,-1,33,35,-1,-1,-1,-1,37,39,41,-1,-1,-1,-1,-1,-1,43,-1,-1,45,-1,-1,-1,-1,-1,-1],"loss_changes":[4.4469366E0,1.25703E0,5.9143996E-1,1.8049192E-1,2.062641E-1,3.0671632E-1,4.7847724E-1,9.9445105E-2,0E0,1.4116406E-1,1.0819045E-1,1.267724E-1,1.347682E-1,5.730629E-1,0E0,0E0,0E0,4.2241096E-2,2.8321552E-1,1.3467346E-1,0E0,0E0,5.8234572E-2,3.0841142E-2,0E0,0E0,0E0,0E0,6.49523E-2,1.290381E-1,2.0213842E-1,0E0,0E0,0E0,0E0,0E0,0E0,3.769304E-2,0E0,0E0,3.7118588E-2,0E0,0E0,0E0,0E0,0E0,0E0],"parents":[2147483647,0,0,1,1,2,2,3,3,4,4,5,5,6,6,7,7,9,9,10,10,11,11,12,12,13,13,17,17,18,18,19,19,22,22,23,23,28,28,29,29,30,30,37,37,40,40],"right_children":[2,4,6,8,10,12,14,16,-1,18,20,22,24,26,-1,-1,-1,28,30,32,-1,-1,34,36,-1,-1,-1,-1,38,40,42,-1,-1,-1,-1,-1,-1,44,-1,-1,46,-1,-1,-1,-1,-1,-1],"split_conditions":[1.93E1,3.7092757E-1,3.8844585E-1,2.2548093E-1,-3.0181818E1,5.0056152E1,8.251183E1,-7.419355E1,-1.819047E-2,1.76692E1,1.8030739E-1,2.1592262E1,1.9426655E1,-4.1759293E1,1.01948865E-2,-4.559235E-2,-2.6503798E-2,3.5652874E1,3.523017E1,1.6790928E1,1.2447902E-2,9.862222E-3,-7E1,6.964445E1,-8.430184E-3,2.3349438E-2,6.850255E-2,-2.0554148E-2,5.4082497E1,1.6938702E1,4.444496E1,-1.1157834E-2,9.185349E-3,1.8208096E-2,3.5421237E-2,1.4626886E-2,5.0876425E-3,1.748393E1,-1.838499E-2,1.5579971E-2,3.4583168E1,-2.6082776E-2,-1.6458215E-3,-7.084612E-4,-1.15253925E-2,3.3317197E-3,-6.1208727E-3],"split_indices":[15,5,7,5,12,10,10,12,0,0,7,9,4,12,0,0,0,10,8,4,0,0,12,9,0,0,0,0,10,4,9,0,0,0,0,0,0,0,0,0,10,0,0,0,0,0,0],"split_type":[0,0,0,0,0,0,0,0,0,0,0,0,0,0,0,0,0,0,0,0,0,0,0,0,0,0,0,0,0,0,0,0,0,0,0,0,0,0,0,0,0,0,0,0,0,0,0],"sum_hessian":[2.99E2,2.04E2,9.5E1,7.1E1,1.33E2,6.5E1,3E1,3.6E1,3.5E1,9.9E1,3.4E1,3.2E1,3.3E1,2.1E1,9E0,9E0,2.7E1,4.1E1,5.8E1,2E1,1.4E1,1E1,2.2E1,2.5E1,8E0,1.1E1,1E1,1E1,3.1E1,3.6E1,2.2E1,1.1E1,9E0,1E1,1.2E1,1.2E1,1.3E1,2.1E1,1E1,1E1,2.6E1,1.1E1,1.1E1,1.2E1,9E0,1.4E1,1.2E1],"tree_param":{"num_deleted":"0","num_feature":"18","num_nodes":"47","size_leaf_vector":"1"}},{"base_weights":[1.3294341E-2,-5.789979E-2,2.0240442E-1,-1.5341872E-1,-1.414769E-3,1.1818142E-1,4.010191E-1,-3.451184E-2,-1.2360879E-1,-2.6051886E-2,5.0080873E-2,8.8092424E-2,3.3219863E-2,7.1170375E-2,3.5552274E-2,-2.2903895E-2,-1.0145102E-1,7.038379E-3,-3.8490433E-2,-1.6494645E-2,9.109081E-2,1.3826987E-1,-1.7444387E-2,-6.9875764E-3,-1.873422E-2,-9.125561E-2,-1.2362753E-2,3.2892332E-3,-7.922088E-3,2.0992957E-2,3.5476122E-2,7.368625E-2,3.0648358E-2,1.3345833E-2,-1.7608201E-2,-1.5995093E-2,-6.77077E-3,1.3196343E-2,-3.3551056E-2,1.0164876E-2,-1.4966262E-3,2.1392575E-2,-6.8403687E-3,-2.0278744E-2,-1.0971656E-3,1.709212E-2,-8.230608E-3,-5.48067E-3,7.35732E-3],"categories":[],"categories_nodes":[],"categories_segments":[],"categories_sizes":[],"default_left":[0,0,0,0,0,0,0,0,0,0,0,0,0,0,0,0,0,0,0,0,0,0,0,0,0,0,0,0,0,0,0,0,0,0,0,0,0,0,0,0,0,0,0,0,0,0,0,0,0],"id":24,"left_children":[1,3,5,7,9,11,13,-1,15,17,19,21,-1,-1,-1,-1,23,-1,25,27,29,31,33,-1,-1,35,37,-1,-1,-1,39,41,-1,-1,-1,-1,-1,-1,43,-1,-1,-1,-1,-1,45,47,-1,-1,-1],"loss_changes":[4.037314E0,1.1759776E0,1.3242967E0,2.407831E-1,1.7638586E-1,2.2347468E-1,3.0051565E-1,0E0,6.0204744E-2,9.617297E-2,1.2436413E-1,2.6719043E-1,0E0,0E0,0E0,0E0,9.29901E-2,0E0,1.1191964E-1,3.53238E-2,1.0511081E-1,1.9918174E-1,2.5738588E-1,0E0,0E0,2.7564883E-2,1.3913728E-1,0E0,0E0,0E0,3.5382956E-2,2.6405296E-1,0E0,0E0,0E0,0E0,0E0,0E0,1.9177082E-1,0E0,0E0,0E0,0E0,0E0,4.544525E-2,7.5743206E-2,0E0,0E0,0E0],"parents":[2147483647,0,0,1,1,2,2,3,3,4,4,5,5,6,6,8,8,9,9,10,10,11,11,16,16,18,18,19,19,20,20,21,21,22,22,25,25,26,26,30,30,31,31,38,38,44,44,45,45],"right_children":[2,4,6,8,10,12,14,-1,16,18,20,22,-1,-1,-1,-1,24,-1,26,28,30,32,34,-1,-1,36,38,-1,-1,-1,40,42,-1,-1,-1,-1,-1,-1,44,-1,-1,-1,-1,-1,46,48,-1,-1,-1],"split_conditions":[1.8658617E1,1.656E1,5.585134E1,1.9212206E-1,5.9352226E1,2.3738855E1,8.0419004E-1,-3.451184E-2,4.5010555E1,2.0045618E1,4.9481565E-1,5.0056152E1,3.3219863E-2,7.1170375E-2,3.5552274E-2,-2.2903895E-2,5.9700336E1,7.038379E-3,1.786035E1,7.837422E1,1.875E1,3.3863804E1,1.9426655E1,-6.9875764E-3,-1.873422E-2,4.539494E1,1.733E1,3.2892332E-3,-7.922088E-3,2.0992957E-2,8.44204E1,8.173832E-1,3.0648358E-2,1.3345833E-2,-1.7608201E-2,-1.5995093E-2,-6.77077E-3,1.3196343E-2,4.5321236E1,1.0164876E-2,-1.4966262E-3,2.1392575E-2,-6.8403687E-3,-2.0278744E-2,5.5896698E1,1.83E1,-8.230608E-3,-5.48067E-3,7.35732E-3],"split_indices":[4,13,2,5,2,1,5,0,2,10,5,10,0,0,0,0,10,0,1,10,15,10,4,0,0,9,13,0,0,0,10,5,0,0,0,0,0,0,2,0,0,0,0,0,2,13,0,0,0],"split_type":[0,0,0,0,0,0,0,0,0,0,0,0,0,0,0,0,0,0,0,0,0,0,0,0,0,0,0,0,0,0,0,0,0,0,0,0,0,0,0,0,0,0,0,0,0,0,0,0,0],"sum_hessian":[2.98E2,2.17E2,8.1E1,8E1,1.37E2,5.8E1,2.3E1,1.5E1,6.5E1,9.3E1,4.4E1,4.9E1,9E0,9E0,1.4E1,1.7E1,4.8E1,1.2E1,8.1E1,1.7E1,2.7E1,3.3E1,1.6E1,2.4E1,2.4E1,2.6E1,5.5E1,9E0,8E0,1.1E1,1.6E1,2.1E1,1.2E1,8E0,8E0,1.3E1,1.3E1,8E0,4.7E1,8E0,8E0,1.2E1,9E0,9E0,3.8E1,3E1,8E0,1.2E1,1.8E1],"tree_param":{"num_deleted":"0","num_feature":"18","num_nodes":"49","size_leaf_vector":"1"}},{"base_weights":[-4.2775283E-3,-6.951852E-2,1.4397949E-1,-1.6066569E-1,-3.6727473E-2,9.419534E-2,3.5807452E-1,-1.1250344E-2,-1.792089E-1,-7.054962E-2,-7.299832E-3,7.108025E-2,2.2822965E-2,5.820051E-2,2.9291552E-2,-3.190392E-2,-1.451524E-1,-9.4182156E-2,8.934086E-3,-1.455524E-2,1.179968E-2,2.435545E-2,4.983704E-2,-1.048042E-2,-2.2815214E-2,-7.918167E-2,-2.1248966E-2,1.6243218E-2,-4.383534E-3,-1.0158777E-2,9.617246E-2,-1.2150706E-2,4.3554395E-4,-1.5559301E-2,2.1940375E-2,7.359349E-3,-1.6587568E-2,1.4235617E-1,1.9447327E-3,1.6957484E-2,-3.3652133E-3,1.0236235E-2,2.3432141E-2,-9.804488E-3,2.0166678E-2,-4.277395E-3,5.0706085E-2,1.496862E-2,6.845828E-4],"categories":[],"categories_nodes":[],"categories_segments":[],"categories_sizes":[],"default_left":[0,0,0,0,0,0,0,0,0,0,0,0,0,0,0,0,0,0,0,0,0,0,0,0,0,0,0,0,0,0,0,0,0,0,0,0,0,0,0,0,0,0,0,0,0,0,0,0,0],"id":25,"left_children":[1,3,5,7,9,11,13,-1,15,17,19,21,-1,-1,-1,-1,23,25,-1,-1,27,-1,29,-1,-1,31,-1,-1,33,35,37,-1,-1,-1,39,-1,-1,41,-1,-1,43,-1,-1,-1,45,-1,47,-1,-1],"loss_changes":[2.9117398E0,6.187607E-1,9.468566E-1,5.9572935E-2,1.5375744E-1,1.319322E-1,1.0365605E-1,0E0,6.294155E-2,2.4406579E-1,1.7013897E-1,1.4249006E-1,0E0,0E0,0E0,0E0,4.7783315E-2,5.2173674E-2,0E0,0E0,1.3311374E-1,0E0,1.4831337E-1,0E0,0E0,6.484935E-2,0E0,0E0,1.9789697E-1,1.9729954E-1,1.1027825E-1,0E0,0E0,0E0,1.4683345E-1,0E0,0E0,3.2259703E-2,0E0,0E0,7.652174E-2,0E0,0E0,0E0,5.6950998E-2,0E0,6.433923E-2,0E0,0E0],"parents":[2147483647,0,0,1,1,2,2,3,3,4,4,5,5,6,6,8,8,9,9,10,10,11,11,16,16,17,17,20,20,22,22,25,25,28,28,29,29,30,30,34,34,37,37,40,40,44,44,46,46],"right_children":[2,4,6,8,10,12,14,-1,16,18,20,22,-1,-1,-1,-1,24,26,-1,-1,28,-1,30,-1,-1,32,-1,-1,34,36,38,-1,-1,-1,40,-1,-1,42,-1,-1,44,-1,-1,-1,46,-1,48,-1,-1],"split_conditions":[1.93E1,1.5054542E1,2.3799E1,1.3654E1,1.76692E1,3.8844585E-1,2.2910723E1,-1.1250344E-2,-5.5350617E-2,6.811467E1,4.052441E1,1.97E1,2.2822965E-2,5.820051E-2,2.9291552E-2,-3.190392E-2,1.7326161E-2,4.233287E-1,8.934086E-3,-1.455524E-2,4.234339E1,2.435545E-2,2.063E1,-1.048042E-2,-2.2815214E-2,4.2868587E-1,-2.1248966E-2,1.6243218E-2,4.5321236E1,1.927951E1,3.5652874E1,-1.2150706E-2,4.3554395E-4,-1.5559301E-2,1.755E1,7.359349E-3,-1.6587568E-2,3.546004E1,1.9447327E-3,1.6957484E-2,1.8181877E1,1.0236235E-2,2.3432141E-2,-9.804488E-3,1.8284E1,-4.277395E-3,1.9377724E1,1.496862E-2,6.845828E-4],"split_indices":[15,3,14,15,0,7,0,0,6,2,2,14,0,0,0,0,6,6,0,0,2,0,15,0,0,7,0,0,2,4,10,0,0,0,14,0,0,2,0,0,0,0,0,0,15,0,3,0,0],"split_type":[0,0,0,0,0,0,0,0,0,0,0,0,0,0,0,0,0,0,0,0,0,0,0,0,0,0,0,0,0,0,0,0,0,0,0,0,0,0,0,0,0,0,0,0,0,0,0,0,0],"sum_hessian":[2.99E2,2.08E2,9.1E1,5.4E1,1.54E2,7.5E1,1.6E1,1.2E1,4.2E1,7.1E1,8.3E1,6E1,1.5E1,8E0,8E0,1.2E1,3E1,6.1E1,1E1,1.2E1,7.1E1,8E0,5.2E1,1.1E1,1.9E1,5.2E1,9E0,8E0,6.3E1,2.3E1,2.9E1,4.4E1,8E0,1.1E1,5.2E1,1.5E1,8E0,1.8E1,1.1E1,9E0,4.3E1,8E0,1E1,1E1,3.3E1,1.2E1,2.1E1,8E0,1.3E1],"tree_param":{"num_deleted":"0","num_feature":"18","num_nodes":"49","size_leaf_vector":"1"}},{"base_weights":[5.951017E-3,-6.4028874E-2,1.3905886E-1,-1.4885537E-1,-3.316676E-2,8.431949E-2,2.3047307E-1,-1.9131392E-1,-9.90386E-2,-2.130571E-2,-1.0893752E-2,1.24764495E-1,3.4631114E-2,3.5106373E-1,1.1613473E-1,-2.9379029E-2,-1.5340475E-2,-2.1009764E-2,-7.235074E-3,-3.2997962E-2,1.7872605E-2,8.595733E-2,2.5252452E-2,-9.792809E-3,7.63E-2,2.4946831E-2,5.929023E-2,-3.1702113E-3,2.6462365E-2,-1.8635614E-2,-1.2942702E-2,-2.6760804E-3,7.4911104E-3,1.9523779E-2,1.8592114E-3,1.3889452E-2,2.0740253E-3,-7.7197666E-4,-1.1955209E-2,8.975183E-3,-1.6946793E-2,-1.19377E-2,1.32380035E-2,4.2949338E-2,-8.226346E-3,7.805548E-2,-5.1531116E-3,2.4510883E-3,1.7497795E-2],"categories":[],"categories_nodes":[],"categories_segments":[],"categories_sizes":[],"default_left":[0,0,0,0,0,0,0,0,0,0,0,0,0,0,0,0,0,0,0,0,0,0,0,0,0,0,0,0,0,0,0,0,0,0,0,0,0,0,0,0,0,0,0,0,0,0,0,0,0],"id":26,"left_children":[1,3,5,7,9,11,13,15,17,19,-1,21,23,25,27,-1,-1,-1,-1,29,31,33,-1,-1,35,-1,-1,-1,-1,37,-1,-1,-1,-1,-1,-1,-1,39,-1,-1,41,-1,43,45,-1,47,-1,-1,-1],"loss_changes":[2.784736E0,5.081763E-1,4.9597406E-1,9.1040134E-2,8.600092E-2,1.2831599E-1,4.8317838E-1,4.3365538E-2,6.1950177E-2,5.5101603E-2,0E0,8.164418E-2,1.482999E-1,2.1712661E-1,2.66203E-1,0E0,0E0,0E0,0E0,8.673948E-2,4.44264E-2,1.1410645E-1,0E0,0E0,4.1350156E-2,0E0,0E0,0E0,0E0,1.0141979E-1,0E0,0E0,0E0,0E0,0E0,0E0,0E0,7.266491E-2,0E0,0E0,1.1947347E-1,0E0,8.947736E-2,8.448556E-2,0E0,6.507013E-2,0E0,0E0,0E0],"parents":[2147483647,0,0,1,1,2,2,3,3,4,4,5,5,6,6,7,7,8,8,9,9,11,11,12,12,13,13,14,14,19,19,20,20,21,21,24,24,29,29,37,37,40,40,42,42,43,43,45,45],"right_children":[2,4,6,8,10,12,14,16,18,20,-1,22,24,26,28,-1,-1,-1,-1,30,32,34,-1,-1,36,-1,-1,-1,-1,38,-1,-1,-1,-1,-1,-1,-1,40,-1,-1,42,-1,44,46,-1,48,-1,-1,-1],"split_conditions":[1.8936E1,1.4615E1,3.606466E-1,-5.1980198E1,3.4792477E-1,5.0056152E1,6.450226E-1,2.2359484E-1,1.3271454E1,2.1787861E-1,-1.0893752E-2,-6.455982E1,-5.120482E1,1.873037E1,7.994038E1,-2.9379029E-2,-1.5340475E-2,-2.1009764E-2,-7.235074E-3,1.845E1,1.7256E1,8.240209E-1,2.5252452E-2,-9.792809E-3,1.5684003E-1,2.4946831E-2,5.929023E-2,-3.1702113E-3,2.6462365E-2,1.056886E-1,-1.2942702E-2,-2.6760804E-3,7.4911104E-3,1.9523779E-2,1.8592114E-3,1.3889452E-2,2.0740253E-3,1.6015924E1,-1.1955209E-2,8.975183E-3,1.733E1,-1.19377E-2,1.824E1,-4.281435E-2,-8.226346E-3,1.77406E1,-5.1531116E-3,2.4510883E-3,1.7497795E-2],"split_indices":[13,16,7,12,7,10,7,5,4,7,0,12,12,4,10,0,0,0,0,16,14,5,0,0,7,0,0,0,0,7,0,0,0,0,0,0,0,4,0,0,14,0,14,7,0,14,0,0,0],"split_type":[0,0,0,0,0,0,0,0,0,0,0,0,0,0,0,0,0,0,0,0,0,0,0,0,0,0,0,0,0,0,0,0,0,0,0,0,0,0,0,0,0,0,0,0,0,0,0,0,0],"sum_hessian":[2.97E2,1.95E2,1.02E2,5.1E1,1.44E2,6.5E1,3.7E1,2.6E1,2.5E1,1.18E2,2.6E1,3.5E1,3E1,1.7E1,2E1,1.6E1,1E1,9E0,1.6E1,9.1E1,2.7E1,2.4E1,1.1E1,8E0,2.2E1,8E0,9E0,8E0,1.2E1,7.6E1,1.5E1,1.4E1,1.3E1,1.2E1,1.2E1,1.4E1,8E0,6.2E1,1.4E1,1.1E1,5.1E1,1.4E1,3.7E1,2.7E1,1E1,1.9E1,8E0,1E1,9E0],"tree_param":{"num_deleted":"0","num_feature":"18","num_nodes":"49","size_leaf_vector":"1"}},{"base_weights":[-4.041934E-3,-4.5244727E-2,9.975838E-2,-1.4350061E-1,-1.9674381E-2,1.634042E-1,4.9945712E-2,-7.356511E-2,-1.8639825E-1,-7.318619E-3,-8.075053E-2,1.1248994E-1,3.167042E-2,-1.0686569E-2,1.1102327E-1,-1.2949258E-3,-1.5963614E-2,-2.94691E-2,-1.540598E-2,-5.087021E-2,1.669125E-2,-9.614203E-3,-2.4553768E-2,2.2365423E-2,-9.572234E-4,5.750645E-2,-1.7891089E-2,5.8859703E-3,2.108052E-2,-2.7499884E-2,-1.5857132E-2,1.7942969E-2,1.607453E-3,9.505823E-3,-1.3049348E-2,1.6632225E-4,1.3884825E-2,1.1588063E-3,-6.634833E-2,1.717914E-2,-1.1727344E-2,-1.472451E-2,-2.777162E-3,1.0881753E-2,6.104808E-3,-2.0306855E-2,4.8769396E-2,1.105647E-3,-1.1875552E-2,1.0706876E-2,1.7634619E-3,3.2947943E-2,-5.888075E-3,-2.9044852E-3,1.1002353E-2],"categories":[],"categories_nodes":[],"categories_segments":[],"categories_sizes":[],"default_left":[0,0,0,0,0,0,0,0,0,0,0,0,0,0,0,0,0,0,0,0,0,0,0,0,0,0,0,0,0,0,0,0,0,0,0,0,0,0,0,0,0,0,0,0,0,0,0,0,0,0,0,0,0,0,0],"id":27,"left_children":[1,3,5,7,9,11,13,15,17,19,21,23,-1,25,27,-1,-1,-1,-1,29,31,33,-1,-1,-1,35,-1,-1,-1,37,-1,-1,39,-1,-1,-1,-1,-1,41,43,-1,-1,-1,-1,45,47,49,51,-1,-1,-1,53,-1,-1,-1],"loss_changes":[1.2490805E0,5.2227616E-1,2.5497925E-1,1.1529046E-1,1.254343E-1,1.2170583E-1,1.7894349E-1,5.5783756E-2,4.5336723E-2,1.4724259E-1,2.1541055E-1,1.7509297E-1,0E0,2.2552624E-1,7.426283E-2,0E0,0E0,0E0,0E0,8.042836E-2,1.6726206E-1,1.4392604E-1,0E0,0E0,0E0,4.748812E-2,0E0,0E0,0E0,5.583166E-2,0E0,0E0,1.1937045E-1,0E0,0E0,0E0,0E0,0E0,3.804308E-2,5.2122183E-2,0E0,0E0,0E0,0E0,7.0854604E-2,5.9808478E-2,2.7543962E-2,4.7522586E-2,0E0,0E0,0E0,5.675824E-2,0E0,0E0,0E0],"parents":[2147483647,0,0,1,1,2,2,3,3,4,4,5,5,6,6,7,7,8,8,9,9,10,10,11,11,13,13,14,14,19,19,20,20,21,21,25,25,29,29,32,32,38,38,39,39,44,44,45,45,46,46,47,47,51,51],"right_children":[2,4,6,8,10,12,14,16,18,20,22,24,-1,26,28,-1,-1,-1,-1,30,32,34,-1,-1,-1,36,-1,-1,-1,38,-1,-1,40,-1,-1,-1,-1,-1,42,44,-1,-1,-1,-1,46,48,50,52,-1,-1,-1,54,-1,-1,-1],"split_conditions":[1.9723E1,1.442E1,8.240209E-1,1.367E1,3.5661728E1,2.3551516E1,8.712849E-1,-9.1241546E-2,1.39306345E1,1.8142557E1,1.7665E1,2.175E1,3.167042E-2,8.6019367E-1,2.1709597E1,-1.2949258E-3,-1.5963614E-2,-2.94691E-2,-1.540598E-2,1.673E1,1.773669E1,4.7590508E1,-2.4553768E-2,2.2365423E-2,-9.572234E-4,2.265E1,-1.7891089E-2,5.8859703E-3,2.108052E-2,2.0693903E1,-1.5857132E-2,1.7942969E-2,2.9333422E-1,9.505823E-3,-1.3049348E-2,1.6632225E-4,1.3884825E-2,1.1588063E-3,1.60775E1,-2.350883E-1,-1.1727344E-2,-1.472451E-2,-2.777162E-3,1.0881753E-2,9.5960096E-2,2.7770353E-2,1.873E1,1.9274744E1,-1.1875552E-2,1.0706876E-2,1.7634619E-3,4.4215702E1,-5.888075E-3,-2.9044852E-3,1.1002353E-2],"split_indices":[17,17,5,17,8,1,5,7,1,3,17,17,0,5,3,0,0,0,0,17,1,8,0,0,0,17,0,0,0,8,0,0,7,0,0,0,0,0,16,7,0,0,0,0,7,7,13,3,0,0,0,9,0,0,0],"split_type":[0,0,0,0,0,0,0,0,0,0,0,0,0,0,0,0,0,0,0,0,0,0,0,0,0,0,0,0,0,0,0,0,0,0,0,0,0,0,0,0,0,0,0,0,0,0,0,0,0,0,0,0,0,0,0],"sum_hessian":[2.9E2,2.08E2,8.2E1,4.2E1,1.66E2,3.5E1,4.7E1,1.7E1,2.5E1,1.39E2,2.7E1,2.3E1,1.2E1,2.4E1,2.3E1,8E0,9E0,1.4E1,1.1E1,4.9E1,9E1,1.7E1,1E1,1.5E1,8E0,1.6E1,8E0,1.1E1,1.2E1,3.8E1,1.1E1,9E0,8.1E1,9E0,8E0,8E0,8E0,2E1,1.8E1,7E1,1.1E1,8E0,1E1,9E0,6.1E1,3.8E1,2.3E1,3E1,8E0,1.1E1,1.2E1,1.8E1,1.2E1,9E0,9E0],"tree_param":{"num_deleted":"0","num_feature":"18","num_nodes":"55","size_leaf_vector":"1"}},{"base_weights":[-2.268016E-3,-8.054656E-2,5.599897E-2,-2.4814842E-2,-6.948983E-2,-2.2454888E-2,6.974056E-2,-5.7057735E-2,-2.0408208E-2,1.3672669E-2,1.1286174E-1,-6.657112E-2,2.874117E-3,-9.458512E-3,2.2849806E-2,3.55678E-2,8.024221E-2,-9.430218E-2,-5.0023127E-2,1.1935578E-2,-2.7782405E-2,1.178197E-1,3.0709295E-2,-2.1075198E-2,-8.656775E-3,-8.739587E-2,-5.7705846E-3,-5.8617402E-2,-2.0192668E-3,7.08068E-2,2.9038075E-2,-2.4863887E-3,6.911822E-2,-6.1918055E-3,-1.2178466E-1,5.3683138E-3,-4.24731E-3,-1.532187E-2,-1.401548E-3,6.891182E-3,-3.5093497E-2,1.05817534E-1,-7.3107827E-4,9.787915E-4,1.8563615E-2,-2.1008061E-2,-8.748847E-3,1.3429914E-3,-9.47468E-3,6.5982537E-3,1.7268298E-2],"categories":[],"categories_nodes":[],"categories_segments":[],"categories_sizes":[],"default_left":[0,0,0,0,0,0,0,0,0,0,0,0,0,0,0,0,0,0,0,0,0,0,0,0,0,0,0,0,0,0,0,0,0,0,0,0,0,0,0,0,0,0,0,0,0,0,0,0,0,0,0],"id":28,"left_children":[1,3,5,-1,7,-1,9,11,-1,13,15,17,-1,19,-1,-1,21,23,25,-1,27,29,31,-1,-1,33,35,37,39,41,-1,-1,43,-1,45,-1,-1,-1,-1,-1,47,49,-1,-1,-1,-1,-1,-1,-1,-1,-1],"loss_changes":[1.3682659E0,1.4416856E-1,5.5474985E-1,0E0,1.2049961E-1,0E0,3.925441E-1,8.066857E-2,0E0,2.7308702E-1,4.6439064E-1,3.841865E-2,0E0,1.2186199E-1,0E0,0E0,1.4156502E-1,5.2978545E-2,1.00379854E-1,0E0,4.357398E-2,2.0474076E-1,6.845069E-2,0E0,0E0,3.9030135E-2,3.8462635E-2,7.018672E-2,5.856047E-2,8.6257756E-2,0E0,0E0,9.0489395E-2,0E0,2.640912E-2,0E0,0E0,0E0,0E0,0E0,3.5459314E-2,2.656278E-2,0E0,0E0,0E0,0E0,0E0,0E0,0E0,0E0,0E0],"parents":[2147483647,0,0,1,1,2,2,4,4,6,6,7,7,9,9,10,10,11,11,13,13,16,16,17,17,18,18,20,20,21,21,22,22,25,25,26,26,27,27,28,28,29,29,32,32,34,34,40,40,41,41],"right_children":[2,4,6,-1,8,-1,10,12,-1,14,16,18,-1,20,-1,-1,22,24,26,-1,28,30,32,-1,-1,34,36,38,40,42,-1,-1,44,-1,46,-1,-1,-1,-1,-1,48,50,-1,-1,-1,-1,-1,-1,-1,-1,-1],"split_conditions":[1.9125414E1,1.8955849E1,2.6629744E1,-2.4814842E-2,8.784865E1,-2.2454888E-2,2.0744373E1,1.3273218E2,-2.0408208E-2,-1.7989418E1,7.7540547E-1,4.5186985E1,2.874117E-3,4.232376E1,2.2849806E-2,3.55678E-2,5.381109E1,-1.6088207E-1,1.6928087E1,1.1935578E-2,1.7748783E1,-5.5940594E1,8.712849E-1,-2.1075198E-2,-8.656775E-3,6.2861946E1,-1.3957689E1,1.938657E1,1.9424997E1,3.5699623E1,2.9038075E-2,-2.4863887E-3,-1.7816049E-1,-6.1918055E-3,6.964445E1,5.3683138E-3,-4.24731E-3,-1.532187E-2,-1.401548E-3,6.891182E-3,-3.872615E1,-1.19695694E2,-7.3107827E-4,9.787915E-4,1.8563615E-2,-2.1008061E-2,-8.748847E-3,1.3429914E-3,-9.47468E-3,6.5982537E-3,1.7268298E-2],"split_indices":[3,10,2,0,10,0,3,11,0,12,5,9,0,2,0,0,9,6,3,0,11,12,5,0,0,10,11,3,3,10,0,0,6,0,9,0,0,0,0,0,12,11,0,0,0,0,0,0,0,0,0],"split_type":[0,0,0,0,0,0,0,0,0,0,0,0,0,0,0,0,0,0,0,0,0,0,0,0,0,0,0,0,0,0,0,0,0,0,0,0,0,0,0,0,0,0,0,0,0,0,0,0,0,0,0],"sum_hessian":[2.98E2,1.27E2,1.71E2,1E1,1.17E2,9E0,1.62E2,1.04E2,1.3E1,7.1E1,9.1E1,9.3E1,1.1E1,6.3E1,8E0,1.4E1,7.7E1,3.3E1,6E1,9E0,5.4E1,4.3E1,3.4E1,8E0,2.5E1,3.2E1,2.8E1,2.4E1,3E1,3.1E1,1.2E1,1.5E1,1.9E1,1.6E1,1.6E1,1E1,1.8E1,1E1,1.4E1,1.1E1,1.9E1,2.1E1,1E1,1.1E1,8E0,8E0,8E0,9E0,1E1,8E0,1.3E1],"tree_param":{"num_deleted":"0","num_feature":"18","num_nodes":"51","size_leaf_vector":"1"}},{"base_weights":[2.1885259E-3,-3.469047E-2,1.0561287E-1,-1.2421342E-1,-2.1244261E-2,3.3508167E-2,7.330322E-2,-2.5397504E-2,-1.0311807E-2,-3.2715015E-2,6.2967055E-2,3.1431742E-2,1.43524E-1,-6.0712405E-2,-1.4729138E-2,2.0094207E-3,1.7466497E-2,1.2317909E-2,-3.8654464E-3,3.5998043E-2,1.0463366E-3,-1.5856427E-3,-7.628412E-2,1.9714706E-2,-6.1363265E-2,-9.962678E-3,7.219639E-3,-2.0630406E-2,-5.3576875E-2,2.521735E-3,1.5116794E-2,-2.7113901E-2,-2.2598108E-2,-1.2615689E-2,-4.339061E-3,8.842626E-3,-2.8637886E-2,2.4226247E-3,-1.0568901E-2,-1.0544214E-2,4.7919233E-3,7.1913316E-3,-7.202761E-3],"categories":[],"categories_nodes":[],"categories_segments":[],"categories_sizes":[],"default_left":[0,0,0,0,0,0,0,0,0,0,0,0,0,0,0,0,0,0,0,0,0,0,0,0,0,0,0,0,0,0,0,0,0,0,0,0,0,0,0,0,0,0,0],"id":29,"left_children":[1,3,5,7,9,-1,11,-1,-1,13,15,17,19,21,23,-1,-1,-1,25,-1,-1,-1,27,29,31,-1,-1,-1,33,35,-1,-1,37,-1,-1,-1,39,-1,-1,-1,41,-1,-1],"loss_changes":[1.1174059E0,2.5736994E-1,3.627069E-1,7.420939E-2,1.8462777E-1,0E0,1.8660492E-1,0E0,0E0,8.319986E-2,7.651589E-2,9.4939515E-2,4.357829E-1,4.8108682E-2,1.6665438E-1,0E0,0E0,0E0,1.2653238E-1,0E0,0E0,0E0,8.402881E-2,9.991966E-2,2.4811561E-1,0E0,0E0,0E0,3.1947114E-2,1.0863293E-1,0E0,0E0,8.946426E-2,0E0,0E0,0E0,6.402406E-2,0E0,0E0,0E0,7.37541E-2,0E0,0E0],"parents":[2147483647,0,0,1,1,2,2,3,3,4,4,6,6,9,9,10,10,11,11,12,12,13,13,14,14,18,18,22,22,23,23,24,24,28,28,29,29,32,32,36,36,40,40],"right_children":[2,4,6,8,10,-1,12,-1,-1,14,16,18,20,22,24,-1,-1,-1,26,-1,-1,-1,28,30,32,-1,-1,-1,34,36,-1,-1,38,-1,-1,-1,40,-1,-1,-1,42,-1,-1],"split_conditions":[2.0182373E1,1.44360695E1,7.8671235E-1,4.3708614E1,1.3566235E2,3.3508167E-2,2.498624E1,-2.5397504E-2,-1.0311807E-2,1.7568157E1,1.7632017E1,2.053919E1,2.4174E1,1.4926529E1,1.845E1,2.0094207E-3,1.7466497E-2,1.2317909E-2,2.3739664E1,3.5998043E-2,1.0463366E-3,-1.5856427E-3,1.5256917E1,1.855E1,-3.9769903E-2,-9.962678E-3,7.219639E-3,-2.0630406E-2,5.003348E1,4.2350986E1,1.5116794E-2,-2.7113901E-2,6.071466E1,-1.2615689E-2,-4.339061E-3,8.842626E-3,1.7644E1,2.4226247E-3,-1.0568901E-2,-1.0544214E-2,-6.372212E-2,7.1913316E-3,-7.202761E-3],"split_indices":[1,3,5,2,11,0,3,0,0,1,1,1,16,3,16,0,0,0,3,0,0,0,1,14,6,0,0,0,2,2,0,0,2,0,0,0,16,0,0,0,6,0,0],"split_type":[0,0,0,0,0,0,0,0,0,0,0,0,0,0,0,0,0,0,0,0,0,0,0,0,0,0,0,0,0,0,0,0,0,0,0,0,0,0,0,0,0,0,0],"sum_hessian":[2.91E2,2.15E2,7.6E1,2.7E1,1.88E2,1.2E1,6.4E1,9E0,1.8E1,1.66E2,2.2E1,4.1E1,2.3E1,6.4E1,1.02E2,1.4E1,8E0,1.4E1,2.7E1,1.1E1,1.2E1,1.6E1,4.8E1,5.9E1,4.3E1,1.2E1,1.5E1,9E0,3.9E1,5.1E1,8E0,8E0,3.5E1,1.1E1,2.8E1,1.6E1,3.5E1,2.1E1,1.4E1,1.3E1,2.2E1,1.2E1,1E1],"tree_param":{"num_deleted":"0","num_feature":"18","num_nodes":"43","size_leaf_vector":"1"}},{"base_weights":[3.7006012E-3,-1.0503106E-2,2.1955168E-1,-4.8393257E-2,1.9921321E-2,4.3987375E-2,1.3065697E-2,-9.1124564E-2,-3.4523927E-2,2.7317878E-2,-6.971422E-3,-3.631582E-3,-1.5498441E-2,-2.7148625E-2,-1.3616138E-2,1.1494779E-2,1.5743883E-2,-3.8246296E-2,6.3511864E-3,2.1682756E-2,-1.0285646E-2,-1.6021466E-2,-5.8996223E-2,3.3874687E-2,-6.5445104E-3,-3.8466025E-2,5.1166606E-3,-1.0275013E-2,-2.8589638E-3,1.7038323E-2,1.5542E-2,1.241176E-3,-7.295586E-2,1.3954457E-2,6.0570617E-3,-2.8919703E-3,-1.4934092E-2,-9.075249E-3,1.8667597E-2,2.928724E-2,-6.706403E-3,1.1298379E-2,9.805474E-3,8.461491E-3,-2.9393877E-3,-3.5723113E-3,4.6630586E-3],"categories":[],"categories_nodes":[],"categories_segments":[],"categories_sizes":[],"default_left":[0,0,0,0,0,0,0,0,0,0,0,0,0,0,0,0,0,0,0,0,0,0,0,0,0,0,0,0,0,0,0,0,0,0,0,0,0,0,0,0,0,0,0,0,0,0,0],"id":30,"left_children":[1,3,5,7,9,-1,-1,11,13,15,-1,-1,-1,17,-1,19,-1,21,-1,23,-1,25,27,29,-1,31,-1,-1,-1,33,-1,-1,35,-1,37,-1,-1,-1,39,41,-1,43,-1,-1,45,-1,-1],"loss_changes":[9.4353276E-1,3.3411926E-1,2.3705566E-1,7.330647E-2,8.937374E-2,0E0,0E0,5.2707165E-2,4.879093E-2,2.181545E-1,0E0,0E0,0E0,7.887867E-2,0E0,1.1947768E-1,0E0,3.5947874E-2,0E0,1.0304929E-1,0E0,5.1416792E-2,2.9156864E-2,1.4175393E-1,0E0,4.8770897E-2,0E0,0E0,0E0,8.313746E-2,0E0,0E0,3.3971004E-2,0E0,7.435306E-2,0E0,0E0,0E0,5.0939895E-2,4.7674764E-2,0E0,3.3321988E-2,0E0,0E0,3.4668222E-2,0E0,0E0],"parents":[2147483647,0,0,1,1,2,2,3,3,4,4,7,7,8,8,9,9,13,13,15,15,17,17,19,19,21,21,22,22,23,23,25,25,29,29,32,32,34,34,38,38,39,39,41,41,44,44],"right_children":[2,4,6,8,10,-1,-1,12,14,16,-1,-1,-1,18,-1,20,-1,22,-1,24,-1,26,28,30,-1,32,-1,-1,-1,34,-1,-1,36,-1,38,-1,-1,-1,40,42,-1,44,-1,-1,46,-1,-1],"split_conditions":[2.256337E1,1.6600523E1,2.4174E1,1.3576686E1,2.311E1,4.3987375E-2,1.3065697E-2,1.361E1,4.577822E-1,2.175E1,-6.971422E-3,-3.631582E-3,-1.5498441E-2,4.1164577E-1,-1.3616138E-2,3.805895E1,1.5743883E-2,8.4508166E-2,6.3511864E-3,2.05538E1,-1.0285646E-2,-1.0804018E-2,2.2241653E1,1.8699362E1,-6.5445104E-3,-3.7444535E-1,5.1166606E-3,-1.0275013E-2,-2.8589638E-3,1.7354E1,1.5542E-2,1.241176E-3,1.3955E1,1.3954457E-2,1.7644E1,-2.8919703E-3,-1.4934092E-2,-9.075249E-3,8.44204E1,7.2286606E1,-6.706403E-3,1.6946575E1,9.805474E-3,8.461491E-3,1.8854E1,-3.5723113E-3,4.6630586E-3],"split_indices":[4,4,16,8,16,0,0,16,7,15,0,0,0,6,0,8,0,7,0,17,0,7,8,4,0,7,0,0,0,15,0,0,14,0,15,0,0,0,10,10,0,4,0,0,17,0,0],"split_type":[0,0,0,0,0,0,0,0,0,0,0,0,0,0,0,0,0,0,0,0,0,0,0,0,0,0,0,0,0,0,0,0,0,0,0,0,0,0,0,0,0,0,0,0,0,0,0],"sum_hessian":[3.06E2,2.88E2,1.8E1,1.28E2,1.6E2,8E0,1E1,3E1,9.8E1,1.46E2,1.4E1,1E1,2E1,9E1,8E0,1.26E2,2E1,7.9E1,1.1E1,1.14E2,1.2E1,3.9E1,4E1,9.8E1,1.6E1,2.8E1,1.1E1,2.5E1,1.5E1,8.3E1,1.5E1,1.2E1,1.6E1,8E0,7.5E1,8E0,8E0,1E1,6.5E1,5.7E1,8E0,4.2E1,1.5E1,8E0,3.4E1,2.1E1,1.3E1],"tree_param":{"num_deleted":"0","num_feature":"18","num_nodes":"47","size_leaf_vector":"1"}},{"base_weights":[2.630675E-3,-3.0487217E-2,8.05031E-2,-1.679151E-2,-2.0917436E-2,5.410234E-2,3.145946E-2,-2.865865E-2,1.014774E-2,7.865459E-2,-1.2982437E-2,-1.2969727E-2,-2.2843383E-2,4.879145E-2,1.4639339E-1,4.8027083E-2,-3.2949843E-2,-1.4854938E-3,6.9202155E-2,5.301368E-4,3.1164E-2,-2.6362915E-5,1.089406E-2,-7.984329E-2,-2.29888E-2,9.245597E-2,-6.5111584E-5,-1.4899221E-2,-5.6725647E-3,1.763161E-2,-3.9725382E-2,3.9573642E-3,1.2704659E-1,-2.0023676E-2,1.3586608E-2,-5.7205934E-2,-6.8661473E-3,2.4085749E-2,6.95686E-3,2.6676876E-3,-8.053287E-3,-5.632E-3,-1.3413186E-2,-7.0251185E-3,1.9417066E-3],"categories":[],"categories_nodes":[],"categories_segments":[],"categories_sizes":[],"default_left":[0,0,0,0,0,0,0,0,0,0,0,0,0,0,0,0,0,0,0,0,0,0,0,0,0,0,0,0,0,0,0,0,0,0,0,0,0,0,0,0,0,0,0,0,0],"id":31,"left_children":[1,3,5,-1,7,9,-1,11,-1,13,-1,-1,15,17,19,21,23,-1,25,-1,-1,-1,-1,27,29,31,-1,-1,-1,33,35,-1,37,39,-1,41,43,-1,-1,-1,-1,-1,-1,-1,-1],"loss_changes":[7.606717E-1,1.940334E-1,3.6482906E-1,0E0,1.4839761E-1,2.9991144E-1,0E0,7.1412474E-2,0E0,1.2839115E-1,0E0,0E0,1.1976365E-1,5.9847124E-2,2.6801282E-1,3.667231E-2,6.5895095E-2,0E0,5.8399618E-2,0E0,0E0,0E0,0E0,2.6743814E-2,8.296189E-2,5.3890333E-2,0E0,0E0,0E0,1.20582454E-1,4.9005404E-2,0E0,6.36588E-2,4.5915768E-2,0E0,3.1064257E-2,3.298919E-2,0E0,0E0,0E0,0E0,0E0,0E0,0E0,0E0],"parents":[2147483647,0,0,1,1,2,2,4,4,5,5,7,7,9,9,12,12,13,13,14,14,15,15,16,16,18,18,23,23,24,24,25,25,29,29,30,30,32,32,33,33,35,35,36,36],"right_children":[2,4,6,-1,8,10,-1,12,-1,14,-1,-1,16,18,20,22,24,-1,26,-1,-1,-1,-1,28,30,32,-1,-1,-1,34,36,-1,38,40,-1,42,44,-1,-1,-1,-1,-1,-1,-1,-1],"split_conditions":[1.9695E1,1.37E1,1.01054245E2,-1.679151E-2,6.811467E1,6.868964E1,3.145946E-2,-1.6561223E2,1.014774E-2,3.1426271E1,-1.2982437E-2,-1.2969727E-2,4.2350986E1,2.273659E1,2.1759163E1,1.714E1,4.5321236E1,-1.4854938E-3,2.279E1,5.301368E-4,3.1164E-2,-2.6362915E-5,1.089406E-2,1.74649E1,-3.0670285E-2,1.9622223E1,-6.5111584E-5,-1.4899221E-2,-5.6725647E-3,-1.0160513E-1,1.7210072E1,3.9573642E-3,4.58749E1,6.2771717E1,1.3586608E-2,2.3959587E1,1.9363388E1,2.4085749E-2,6.95686E-3,2.6676876E-3,-8.053287E-3,-5.632E-3,-1.3413186E-2,-7.0251185E-3,1.9417066E-3],"split_indices":[17,13,11,0,2,11,0,11,0,8,0,0,2,9,0,13,2,0,17,0,0,0,0,17,7,8,0,0,0,7,0,0,2,9,0,8,3,0,0,0,0,0,0,0,0],"split_type":[0,0,0,0,0,0,0,0,0,0,0,0,0,0,0,0,0,0,0,0,0,0,0,0,0,0,0,0,0,0,0,0,0,0,0,0,0,0,0,0,0,0,0,0,0],"sum_hessian":[2.93E2,2.06E2,8.7E1,1.7E1,1.89E2,7.6E1,1.1E1,1.76E2,1.3E1,6.6E1,1E1,1.2E1,1.64E2,4.7E1,1.9E1,2E1,1.44E2,1.2E1,3.5E1,8E0,1.1E1,9E0,1.1E1,2.4E1,1.2E2,2.6E1,9E0,1.1E1,1.3E1,3.5E1,8.5E1,1E1,1.6E1,2.5E1,1E1,5.5E1,3E1,8E0,8E0,1.3E1,1.2E1,4.4E1,1.1E1,9E0,2.1E1],"tree_param":{"num_deleted":"0","num_feature":"18","num_nodes":"45","size_leaf_vector":"1"}},{"base_weights":[6.4597894E-3,-4.5511954E-2,3.901256E-2,-1.0230446E-1,-2.7968513E-2,2.6531659E-2,1.3521902E-1,-1.8921828E-2,-8.140606E-3,-5.5688135E-2,-1.4551778E-2,-7.8124343E-3,3.5626907E-2,3.6384825E-2,3.0659782E-3,-1.5282126E-2,-1.3484534E-2,-4.4909693E-2,1.5312195E-2,4.701956E-2,-9.622943E-3,-7.7532437E-3,4.0192036E-3,-9.701532E-4,-9.250459E-3,3.9039534E-2,-6.4241188E-3,3.866102E-2,1.8861828E-2,4.78016E-3,-7.191944E-3,1.4264132E-3,1.0930884E-2,8.849153E-2,2.6189238E-2,4.6141534E-3,2.0803908E-2,4.8148897E-3,5.587412E-2,-1.4724928E-3,6.168864E-3,1.6524429E-2,2.9165005E-2,-4.1942596E-3,1.3422401E-2,6.459839E-3,-1.0596842E-2],"categories":[],"categories_nodes":[],"categories_segments":[],"categories_sizes":[],"default_left":[0,0,0,0,0,0,0,0,0,0,0,0,0,0,0,0,0,0,0,0,0,0,0,0,0,0,0,0,0,0,0,0,0,0,0,0,0,0,0,0,0,0,0,0,0,0,0],"id":32,"left_children":[1,3,5,7,9,11,13,-1,-1,15,17,-1,19,-1,-1,21,-1,23,25,27,29,-1,-1,-1,-1,31,-1,33,-1,-1,-1,-1,-1,35,37,-1,-1,39,41,-1,-1,-1,43,45,-1,-1,-1],"loss_changes":[5.093228E-1,1.1271368E-1,2.185499E-1,3.753987E-2,3.266125E-2,1.326032E-1,3.353769E-1,0E0,0E0,5.530236E-2,5.6897357E-2,0E0,7.777983E-2,0E0,0E0,3.7050202E-2,0E0,3.0313678E-2,5.1272094E-2,9.34546E-2,6.843596E-2,0E0,0E0,0E0,0E0,2.9632617E-2,0E0,6.72877E-2,0E0,0E0,0E0,0E0,0E0,7.832123E-2,5.7470024E-2,0E0,0E0,3.8044527E-2,6.921758E-2,0E0,0E0,0E0,7.260245E-2,9.2447616E-2,0E0,0E0,0E0],"parents":[2147483647,0,0,1,1,2,2,3,3,4,4,5,5,6,6,9,9,10,10,12,12,15,15,17,17,18,18,19,19,20,20,25,25,27,27,33,33,34,34,37,37,38,38,42,42,43,43],"right_children":[2,4,6,8,10,12,14,-1,-1,16,18,-1,20,-1,-1,22,-1,24,26,28,30,-1,-1,-1,-1,32,-1,34,-1,-1,-1,-1,-1,36,38,-1,-1,40,42,-1,-1,-1,44,46,-1,-1,-1],"split_conditions":[1.729E1,1.375E1,2.3799E1,-7.419355E1,-5.015873E1,-8.651735E1,2.41E1,-1.8921828E-2,-8.140606E-3,1.617E1,3.7092757E-1,-7.8124343E-3,1.0432495E0,3.6384825E-2,3.0659782E-3,1.46E1,-1.3484534E-2,2.8964213E-1,1.70695E1,1.012522E0,1.8198E1,-7.7532437E-3,4.0192036E-3,-9.701532E-4,-9.250459E-3,1.6558E1,-6.4241188E-3,2.2842327E1,1.8861828E-2,4.78016E-3,-7.191944E-3,1.4264132E-3,1.0930884E-2,2.14105E1,-3.307229E1,4.6141534E-3,2.0803908E-2,8.3396125E-1,-2.8E1,-1.4724928E-3,6.168864E-3,1.6524429E-2,5.5637693E-1,1.8705948E1,1.3422401E-2,6.459839E-3,-1.0596842E-2],"split_indices":[17,13,13,12,12,12,16,0,0,17,5,0,5,0,0,16,0,5,16,5,15,0,0,0,0,17,0,9,0,0,0,0,0,17,12,0,0,5,12,0,0,0,6,8,0,0,0],"split_type":[0,0,0,0,0,0,0,0,0,0,0,0,0,0,0,0,0,0,0,0,0,0,0,0,0,0,0,0,0,0,0,0,0,0,0,0,0,0,0,0,0,0,0,0,0,0,0],"sum_hessian":[2.99E2,1.15E2,1.84E2,2.6E1,8.9E1,1.64E2,2E1,1.1E1,1.5E1,2.8E1,6.1E1,1.5E1,1.49E2,8E0,1.2E1,1.6E1,1.2E1,3E1,3.1E1,1.19E2,3E1,8E0,8E0,1.3E1,1.7E1,2.3E1,8E0,1.11E2,8E0,1.5E1,1.5E1,1.5E1,8E0,2.1E1,9E1,1.3E1,8E0,5.3E1,3.7E1,3.9E1,1.4E1,9E0,2.8E1,2E1,8E0,1.2E1,8E0],"tree_param":{"num_deleted":"0","num_feature":"18","num_nodes":"47","size_leaf_vector":"1"}},{"base_weights":[-4.1228314E-3,-2.1032775E-2,6.358453E-2,-8.1099406E-2,-1.0246726E-2,2.9383583E-2,2.5973495E-2,-1.9648835E-2,-5.633134E-2,-3.6606372E-3,-1.3097314E-2,6.579562E-2,-1.8602023E-2,-3.815594E-3,-1.4576747E-2,-6.598091E-2,5.892232E-3,2.5188938E-2,2.137144E-2,-3.0312212E-3,-1.8594429E-2,1.1908957E-2,-6.482766E-4,6.529881E-2,-6.943135E-3,7.058481E-3,-9.050903E-3,-1.3775935E-3,1.4598608E-2,1.2245391E-3,1.00231785E-2,9.271049E-3,-4.420929E-3,-1.0375251E-2,9.504671E-3,-2.9844882E-2,9.270231E-3,-4.971014E-2,1.1965433E-3,8.565369E-3,-2.3041535E-3,-2.756542E-3,-1.0850299E-2,3.3405079E-3,-5.5259317E-3,2.4337022E-2,-2.4105685E-2,-5.233929E-3,7.96753E-3,2.4743555E-3,-6.882514E-3],"categories":[],"categories_nodes":[],"categories_segments":[],"categories_sizes":[],"default_left":[0,0,0,0,0,0,0,0,0,0,0,0,0,0,0,0,0,0,0,0,0,0,0,0,0,0,0,0,0,0,0,0,0,0,0,0,0,0,0,0,0,0,0,0,0,0,0,0,0,0,0],"id":33,"left_children":[1,3,5,7,9,11,-1,-1,13,15,-1,17,-1,-1,-1,19,21,23,-1,-1,-1,-1,25,27,-1,29,-1,-1,-1,31,-1,-1,33,35,-1,37,39,41,43,-1,45,-1,-1,-1,-1,47,49,-1,-1,-1,-1],"loss_changes":[3.493954E-1,1.572521E-1,2.8034556E-1,5.6323335E-2,1.24294825E-1,3.247676E-1,0E0,0E0,4.053195E-2,1.1647957E-1,0E0,1.6539334E-1,0E0,0E0,0E0,8.2658164E-2,9.587174E-2,1.0156395E-1,0E0,0E0,0E0,0E0,8.54372E-2,7.7050745E-2,0E0,5.906942E-2,0E0,0E0,0E0,5.360866E-2,0E0,0E0,5.8740616E-2,4.502804E-2,0E0,3.6441594E-2,3.90396E-2,3.3147372E-2,2.7059596E-2,0E0,2.962758E-2,0E0,0E0,0E0,0E0,5.80177E-2,3.6244705E-2,0E0,0E0,0E0,0E0],"parents":[2147483647,0,0,1,1,2,2,3,3,4,4,5,5,8,8,9,9,11,11,15,15,16,16,17,17,22,22,23,23,25,25,29,29,32,32,33,33,35,35,36,36,37,37,38,38,40,40,45,45,46,46],"right_children":[2,4,6,8,10,12,-1,-1,14,16,-1,18,-1,-1,-1,20,22,24,-1,-1,-1,-1,26,28,-1,30,-1,-1,-1,32,-1,-1,34,36,-1,38,40,42,44,-1,46,-1,-1,-1,-1,48,50,-1,-1,-1,-1],"split_conditions":[2.1482483E1,1.4006098E1,7.994038E1,4.1331543E1,8.938068E1,5.7101345E-1,2.5973495E-2,-1.9648835E-2,2.3458265E-2,-1.19695694E2,-1.3097314E-2,3.1426271E1,-1.8602023E-2,-3.815594E-3,-1.4576747E-2,1.8714981E1,4.157181E1,-2.6535523E-1,2.137144E-2,-3.0312212E-3,-1.8594429E-2,1.1908957E-2,3.523017E1,1.9622223E1,-6.943135E-3,6.831855E1,-9.050903E-3,-1.3775935E-3,1.4598608E-2,2.3513403E1,1.00231785E-2,9.271049E-3,1.6868378E2,1.810051E1,9.504671E-3,5.69199E1,1.8255964E1,-1.3957689E1,7.441631E1,8.565369E-3,4.066125E1,-2.756542E-3,-1.0850299E-2,3.3405079E-3,-5.5259317E-3,1.857216E1,1.8630356E1,-5.233929E-3,7.96753E-3,2.4743555E-3,-6.882514E-3],"split_indices":[1,1,10,2,10,6,0,0,6,11,0,8,0,0,0,1,2,7,0,0,0,0,8,8,0,2,0,0,0,10,0,0,11,1,0,2,1,11,9,0,11,0,0,0,0,1,1,0,0,0,0],"split_type":[0,0,0,0,0,0,0,0,0,0,0,0,0,0,0,0,0,0,0,0,0,0,0,0,0,0,0,0,0,0,0,0,0,0,0,0,0,0,0,0,0,0,0,0,0,0,0,0,0,0,0],"sum_hessian":[3.03E2,2.43E2,6E1,3.6E1,2.07E2,4.9E1,1.1E1,8E0,2.8E1,1.94E2,1.3E1,4.1E1,8E0,2E1,8E0,2.5E1,1.69E2,3E1,1.1E1,1.7E1,8E0,1.1E1,1.58E2,2E1,1E1,1.43E2,1.5E1,8E0,1.2E1,1.33E2,1E1,9E0,1.24E2,1.16E2,8E0,5.8E1,5.8E1,3.5E1,2.3E1,9E0,4.9E1,2E1,1.5E1,1.5E1,8E0,2.2E1,2.7E1,8E0,1.4E1,1.1E1,1.6E1],"tree_param":{"num_deleted":"0","num_feature":"18","num_nodes":"51","size_leaf_vector":"1"}},{"base_weights":[-2.1033415E-3,-1.1153538E-2,2.0451738E-2,-2.046611E-2,6.806469E-2,-6.644115E-2,-7.1275067E-3,2.657473E-2,-5.9218635E-4,-5.4662976E-2,-1.5934724E-2,-1.626719E-2,-8.132319E-4,8.443268E-3,-1.0292788E-2,-7.5272195E-2,-9.639596E-4,6.7435866E-3,-1.4596382E-2,-1.49667915E-2,-5.3277393E-3,9.009799E-3,-1.660184E-3,-1.1697553E-2,3.983799E-2,-4.5380566E-2,9.6843595E-4,-1.9310435E-3,6.292083E-2,-2.943066E-3,-1.3999663E-2,4.5329094E-2,-1.8538041E-2,2.7452558E-3,1.2405436E-2,8.264314E-3,1.639945E-2,-4.4701477E-3,2.2551198E-3,-4.557553E-3,6.598456E-3],"categories":[],"categories_nodes":[],"categories_segments":[],"categories_sizes":[],"default_left":[0,0,0,0,0,0,0,0,0,0,0,0,0,0,0,0,0,0,0,0,0,0,0,0,0,0,0,0,0,0,0,0,0,0,0,0,0,0,0,0,0],"id":34,"left_children":[1,3,-1,5,7,9,11,-1,13,15,-1,-1,17,-1,-1,19,-1,21,-1,-1,-1,-1,23,25,27,29,31,-1,33,-1,-1,35,37,-1,-1,39,-1,-1,-1,-1,-1],"loss_changes":[4.3383452E-1,2.1016932E-1,0E0,1.5529013E-1,2.8306964E-1,3.1361282E-2,1.4820838E-1,0E0,1.1442897E-1,4.7115207E-2,0E0,0E0,1.6075942E-1,0E0,0E0,4.208912E-2,0E0,9.4216764E-2,0E0,0E0,0E0,0E0,6.6278145E-2,5.4652415E-2,4.012812E-2,4.731168E-2,8.21804E-2,0E0,2.8219648E-2,0E0,0E0,8.6498916E-2,3.8632672E-2,0E0,0E0,4.0842287E-2,0E0,0E0,0E0,0E0,0E0],"parents":[2147483647,0,0,1,1,3,3,4,4,5,5,6,6,8,8,9,9,12,12,15,15,17,17,22,22,23,23,24,24,25,25,26,26,28,28,31,31,32,32,35,35],"right_children":[2,4,-1,6,8,10,12,-1,14,16,-1,-1,18,-1,-1,20,-1,22,-1,-1,-1,-1,24,26,28,30,32,-1,34,-1,-1,36,38,-1,-1,40,-1,-1,-1,-1,-1],"split_conditions":[2.256337E1,6.811467E1,2.0451738E-2,1.4345205E1,8.292764E1,1.4685E1,2.6629744E1,2.657473E-2,1.9234676E1,5.1826233E1,-1.5934724E-2,-1.626719E-2,4.7590508E1,8.443268E-3,-1.0292788E-2,2.0093377E-1,-9.639596E-4,-4.5521015E-1,-1.4596382E-2,-1.49667915E-2,-5.3277393E-3,9.009799E-3,2.957461E1,4.562309E1,4.102802E1,3.896423E1,5.183116E1,-1.9310435E-3,1.0411428E0,-2.943066E-3,-1.3999663E-2,4.5672897E1,1.852176E1,2.7452558E-3,1.2405436E-2,1.762462E1,1.639945E-2,-4.4701477E-3,2.2551198E-3,-4.557553E-3,6.598456E-3],"split_indices":[4,2,0,0,9,14,2,0,0,2,0,0,8,0,0,5,0,6,0,0,0,0,8,2,2,9,9,0,5,0,0,9,0,0,0,0,0,0,0,0,0],"split_type":[0,0,0,0,0,0,0,0,0,0,0,0,0,0,0,0,0,0,0,0,0,0,0,0,0,0,0,0,0,0,0,0,0,0,0,0,0,0,0,0,0],"sum_hessian":[2.97E2,2.82E2,1.5E1,2.53E2,2.9E1,5.6E1,1.97E2,9E0,2E1,4.8E1,8E0,9E0,1.88E2,1.1E1,9E0,3.3E1,1.5E1,1.77E2,1.1E1,1.4E1,1.9E1,2E1,1.57E2,1.27E2,3E1,3.4E1,9.3E1,9E0,2.1E1,2.6E1,8E0,2.8E1,6.5E1,1E1,1.1E1,2E1,8E0,4.5E1,2E1,1E1,1E1],"tree_param":{"num_deleted":"0","num_feature":"18","num_nodes":"41","size_leaf_vector":"1"}},{"base_weights":[-2.7453403E-3,-1.5041244E-2,9.6450284E-2,-3.9815392E-2,1.1089231E-3,1.6596994E-1,-1.261592E-3,-3.3289592E-3,-6.0572657E-3,2.5939673E-2,-2.1689987E-2,7.283508E-3,3.492678E-2,-5.9223417E-3,5.7191337E-3,5.6527834E-3,1.7727878E-2,3.4461875E-2,-3.7289917E-2,9.9344645E-3,-1.45895975E-2,1.1735876E-2,-1.902118E-3,-6.939095E-2,-7.719835E-3,-9.859982E-3,6.8670494E-4,-1.5137207E-2,-3.3433188E-3,-3.472185E-2,9.979117E-3,1.0815087E-3,-1.0141766E-2],"categories":[],"categories_nodes":[],"categories_segments":[],"categories_sizes":[],"default_left":[0,0,0,0,0,0,0,0,0,0,0,0,0,0,0,0,0,0,0,0,0,0,0,0,0,0,0,0,0,0,0,0,0],"id":35,"left_children":[1,3,5,7,9,11,-1,13,-1,15,17,-1,-1,-1,-1,19,-1,21,23,-1,25,-1,-1,27,29,-1,-1,-1,-1,31,-1,-1,-1],"loss_changes":[3.6492127E-1,1.0647252E-1,2.4526435E-1,2.6702583E-2,9.22731E-2,2.1297312E-1,0E0,3.835381E-2,0E0,1.7503822E-1,7.574211E-2,0E0,0E0,0E0,0E0,9.761179E-2,0E0,5.3892773E-2,6.306275E-2,0E0,6.54038E-2,0E0,0E0,6.33429E-2,8.517259E-2,0E0,0E0,0E0,0E0,5.3346798E-2,0E0,0E0,0E0],"parents":[2147483647,0,0,1,1,2,2,3,3,4,4,5,5,7,7,9,9,10,10,15,15,17,17,18,18,20,20,23,23,24,24,29,29],"right_children":[2,4,6,8,10,12,-1,14,-1,16,18,-1,-1,-1,-1,20,-1,22,24,-1,26,-1,-1,28,30,-1,-1,-1,-1,32,-1,-1,-1],"split_conditions":[2.3206688E1,1.7300285E1,2.439E1,1.367E1,8.104493E-1,3.4293216E-1,-1.261592E-3,1.3654E1,-6.0572657E-3,1.9768854E1,1.7665E1,7.283508E-3,3.492678E-2,-5.9223417E-3,5.7191337E-3,1.7811747E1,1.7727878E-2,-2.350883E-1,2.02291E1,9.9344645E-3,1.8097828E1,1.1735876E-2,-1.902118E-3,5.4102566E1,9.4547784E-1,-9.859982E-3,6.8670494E-4,-1.5137207E-2,-3.3433188E-3,4.2670902E1,9.979117E-3,1.0815087E-3,-1.0141766E-2],"split_indices":[1,1,17,15,5,7,0,13,0,1,17,0,0,0,0,1,0,7,17,0,1,0,0,9,5,0,0,0,0,9,0,0,0],"split_type":[0,0,0,0,0,0,0,0,0,0,0,0,0,0,0,0,0,0,0,0,0,0,0,0,0,0,0,0,0,0,0,0,0],"sum_hessian":[2.97E2,2.65E2,3.2E1,1.04E2,1.61E2,1.9E1,1.3E1,1.7E1,8.7E1,7.7E1,8.4E1,1E1,9E0,9E0,8E0,6.6E1,1.1E1,1.8E1,6.6E1,1.4E1,5.2E1,8E0,1E1,3.1E1,3.5E1,1.2E1,4E1,1.4E1,1.7E1,2.7E1,8E0,1.4E1,1.3E1],"tree_param":{"num_deleted":"0","num_feature":"18","num_nodes":"33","size_leaf_vector":"1"}},{"base_weights":[7.014957E-3,-1.3212471E-2,6.1444793E-2,-1.6838575E-2,9.581883E-3,3.8036294E-2,3.1962413E-2,-1.2232983E-2,-1.2974721E-2,-2.7325735E-3,5.472068E-2,-7.924551E-3,-5.317118E-3,9.030391E-2,1.337065E-2,-5.879549E-3,-1.098627E-3,5.4567434E-2,1.8412549E-2,-7.1196356E-3,5.443361E-2,1.9567974E-2,-1.465651E-2,9.4694307E-4,1.3075685E-2,-1.5245833E-3,1.5776683E-2,1.1092537E-2,9.193575E-3,-8.009319E-3,-8.7866676E-4,-1.3518333E-3,7.4860747E-3,6.047635E-3,-1.6012562E-2,-7.933626E-3,3.7766604E-3,5.0900425E-3,-6.2489766E-3],"categories":[],"categories_nodes":[],"categories_segments":[],"categories_sizes":[],"default_left":[0,0,0,0,0,0,0,0,0,0,0,0,0,0,0,0,0,0,0,0,0,0,0,0,0,0,0,0,0,0,0,0,0,0,0,0,0,0,0],"id":36,"left_children":[1,3,5,7,-1,9,-1,11,-1,-1,13,-1,15,17,19,-1,21,23,-1,-1,25,27,29,-1,-1,-1,-1,31,-1,-1,-1,33,-1,-1,35,-1,37,-1,-1],"loss_changes":[3.3330646E-1,7.119545E-2,3.4694225E-1,8.064981E-2,0E0,7.41983E-2,0E0,6.850606E-2,0E0,0E0,8.413191E-2,0E0,3.0256484E-2,4.9879402E-2,8.165061E-2,0E0,4.5958642E-2,4.3213945E-2,0E0,0E0,8.1928745E-2,2.7585113E-2,3.63727E-2,0E0,0E0,0E0,0E0,3.325997E-2,0E0,0E0,0E0,3.3189278E-2,0E0,0E0,3.2517314E-2,0E0,5.0072946E-2,0E0,0E0],"parents":[2147483647,0,0,1,1,2,2,3,3,5,5,7,7,10,10,12,12,13,13,14,14,16,16,17,17,20,20,21,21,22,22,27,27,31,31,34,34,36,36],"right_children":[2,4,6,8,-1,10,-1,12,-1,-1,14,-1,16,18,20,-1,22,24,-1,-1,26,28,30,-1,-1,-1,-1,32,-1,-1,-1,34,-1,-1,36,-1,38,-1,-1],"split_conditions":[1.8699362E1,2.0911278E2,1.08724205E2,1.8313633E1,9.581883E-3,-1.26962906E2,3.1962413E-2,1.4438058E1,-1.2974721E-2,-2.7325735E-3,5.0056152E1,-7.924551E-3,-8.577878E1,2.309E1,6.4241295E1,-5.879549E-3,-1.3957689E1,3.3863804E1,1.8412549E-2,-7.1196356E-3,2.4010174E1,-2.2763172E1,-5.3409092E1,9.4694307E-4,1.3075685E-2,-1.5245833E-3,1.5776683E-2,4.9916332E1,9.193575E-3,-8.009319E-3,-8.7866676E-4,-7.80566E1,7.4860747E-3,6.047635E-3,2.9971697E1,-7.933626E-3,-5.9178745E1,5.0900425E-3,-6.2489766E-3],"split_indices":[4,11,11,4,0,11,0,3,0,0,10,0,12,15,10,0,11,10,0,0,3,11,12,0,0,0,0,10,0,0,0,12,0,0,9,0,12,0,0],"split_type":[0,0,0,0,0,0,0,0,0,0,0,0,0,0,0,0,0,0,0,0,0,0,0,0,0,0,0,0,0,0,0,0,0,0,0,0,0,0,0],"sum_hessian":[3.01E2,2.2E2,8.1E1,2.12E2,8E0,7.3E1,8E0,2.02E2,1E1,1.6E1,5.7E1,2.4E1,1.78E2,3E1,2.7E1,1.6E1,1.62E2,1.9E1,1.1E1,1E1,1.7E1,6.4E1,9.8E1,1E1,9E0,9E0,8E0,5.6E1,8E0,1.3E1,8.5E1,4.5E1,1.1E1,1E1,3.5E1,1E1,2.5E1,1.5E1,1E1],"tree_param":{"num_deleted":"0","num_feature":"18","num_nodes":"39","size_leaf_vector":"1"}},{"base_weights":[-1.30846E-3,-1.0548835E-2,4.6805907E-2,-2.0601885E-2,3.2135457E-2,1.8797562E-2,1.09293135E-2,-1.3804759E-2,-6.9532774E-2,5.6065484E-3,1.3604293E-2,3.2917567E-2,-6.6917147E-3,-4.647908E-2,-8.284757E-4,-1.27990125E-2,-2.988911E-3,4.0337354E-2,-6.211853E-3,-6.434321E-5,8.00852E-3,-1.8069625E-2,-6.838762E-2,-6.727342E-3,5.6841816E-3,-9.0259925E-4,9.995418E-3,-5.702692E-3,3.904982E-3,-1.584064E-2,-5.4276045E-3,4.3197345E-2,-1.9516512E-3,1.0667832E-2,-1.8062976E-3,-4.3696365E-3,8.683738E-3,9.373379E-3,-1.1111317E-3,-1.30393505E-2,5.214898E-3,4.6990407E-3,-3.3190297E-3],"categories":[],"categories_nodes":[],"categories_segments":[],"categories_sizes":[],"default_left":[0,0,0,0,0,0,0,0,0,0,0,0,0,0,0,0,0,0,0,0,0,0,0,0,0,0,0,0,0,0,0,0,0,0,0,0,0,0,0,0,0,0,0],"id":37,"left_children":[1,3,5,7,9,-1,11,13,15,17,-1,19,-1,21,23,-1,-1,25,-1,-1,-1,27,29,-1,31,-1,-1,-1,-1,-1,-1,33,35,-1,-1,-1,37,-1,39,41,-1,-1,-1],"loss_changes":[1.3520597E-1,1.1008441E-1,1.715875E-1,6.788614E-2,9.4347686E-2,0E0,5.268089E-2,7.755189E-2,3.1850055E-2,7.0850745E-2,0E0,2.7157024E-2,0E0,3.1129569E-2,4.429156E-2,0E0,0E0,4.0731125E-2,0E0,0E0,0E0,3.1461243E-2,3.6303222E-2,0E0,3.388473E-2,0E0,0E0,0E0,0E0,0E0,0E0,4.6047E-2,3.380526E-2,0E0,0E0,0E0,4.6932638E-2,0E0,3.31382E-2,3.332419E-2,0E0,0E0,0E0],"parents":[2147483647,0,0,1,1,2,2,3,3,4,4,6,6,7,7,8,8,9,9,11,11,13,13,14,14,17,17,21,21,22,22,24,24,31,31,32,32,36,36,38,38,39,39],"right_children":[2,4,6,8,10,-1,12,14,16,18,-1,20,-1,22,24,-1,-1,26,-1,-1,-1,28,30,-1,32,-1,-1,-1,-1,-1,-1,34,36,-1,-1,-1,38,-1,40,42,-1,-1,-1],